{"learner":{"attributes":{"scikit_learn":"{\"_estimator_type\": \"regressor\"}"},"feature_names":[],"feature_types":[],"gradient_booster":{"model":{"gbtree_model_param":{"num_parallel_tree":"1","num_trees":"100"},"iteration_indptr":[0,1,2,3,4,5,6,7,8,9,10,11,12,13,14,15,16,17,18,19,20,21,22,23,24,25,26,27,28,29,30,31,32,33,34,35,36,37,38,39,40,41,42,43,44,45,46,47,48,49,50,51,52,53,54,55,56,57,58,59,60,61,62,63,64,65,66,67,68,69,70,71,72,73,74,75,76,77,78,79,80,81,82,83,84,85,86,87,88,89,90,91,92,93,94,95,96,97,98,99,100],"tree_info":[0,0,0,0,0,0,0,0,0,0,0,0,0,0,0,0,0,0,0,0,0,0,0,0,0,0,0,0,0,0,0,0,0,0,0,0,0,0,0,0,0,0,0,0,0,0,0,0,0,0,0,0,0,0,0,0,0,0,0,0,0,0,0,0,0,0,0,0,0,0,0,0,0,0,0,0,0,0,0,0,0,0,0,0,0,0,0,0,0,0,0,0,0,0,0,0,0,0,0,0],"trees":[{"base_weights":[-2.0627133E-6,-1.2572577E2,7.818571E2,-2.5776822E2,3.047959E2,6.1610333E2,1.0339178E3,8.091368E1,-3.7358722E2,6.340452E1,7.599747E2,4.3989825E2,9.884275E2,3.1780707E2,5.414975E1,-1.8205525E2,1.8562523E2,-4.075803E2,4.1390494E2,2.7221353E2,-2.7742715E2,8.620529E2,-1.5243498E2,5.346268E2,-4.7550107E2,1.2848715E2,3.0994385E2,1.0851247E2,9.210535E2,-4.4822455E2,8.985472E1,-2.3752995E2,5.18278E2,-3.877017E2,4.4008484E2,3.575248E2,-3.6977695E2,7.240987E2,1.0256006E3,-1.5898045E2,2.3376291E2,1.6154568E1,5.9914734E2,-1.5206566E2,-4.3079144E1,1.0091015E2,-1.00904076E2,5.3331215E1,3.236717E2,5.947004E0,-1.4273953E2,-1.1993679E1,2.2342029E2,-8.68006E0,-8.922527E1,1.12725296E2,2.2489603E2,-1.6836105E2,7.351336E1,4.6216473E1,1.987996E2,1.4849025E2,-9.068611E1,-1.4608977E2,5.1333942E1,1.7680092E2,3.1876758E2,5.4899876E1,3.232202E2,-9.469155E1,1.2805717E2,3.155799E2,1.4701865E2],"categories":[],"categories_nodes":[],"categories_segments":[],"categories_sizes":[],"default_left":[0,0,0,0,0,0,0,0,0,0,0,0,0,0,0,0,0,0,0,0,0,0,0,0,0,0,0,0,0,0,0,0,0,0,0,0,0,0,0,0,0,0,0,0,0,0,0,0,0,0,0,0,0,0,0,0,0,0,0,0,0,0,0,0,0,0,0,0,0,0,0,0,0],"id":0,"left_children":[1,3,5,7,9,11,13,15,17,19,21,23,25,-1,-1,-1,27,29,31,33,35,37,39,41,43,-1,-1,45,47,49,51,53,55,57,59,61,63,65,67,-1,-1,69,71,-1,-1,-1,-1,-1,-1,-1,-1,-1,-1,-1,-1,-1,-1,-1,-1,-1,-1,-1,-1,-1,-1,-1,-1,-1,-1,-1,-1,-1,-1],"loss_changes":[1.1353602E8,5.6641464E7,6.047808E6,2.9920296E7,2.5662852E7,6.060128E6,1.154804E6,1.415594E7,1.5373648E7,1.1035504E7,7.675516E6,6.237511E6,3.34016E5,0E0,0E0,0E0,9.540908E6,1.1059016E7,1.754921E6,1.080558E7,3.5918275E6,9.04396E5,3.5781915E6,2.097802E6,1.29E2,0E0,0E0,1.5824446E7,1.685463E6,6.513992E6,3.6008405E6,4.1364047E4,4.10839E5,2.3331725E6,4.800095E6,8.751128E5,3.3794155E6,1.335098E6,1.155888E6,0E0,0E0,1.224879E6,2.250452E6,0E0,0E0,0E0,0E0,0E0,0E0,0E0,0E0,0E0,0E0,0E0,0E0,0E0,0E0,0E0,0E0,0E0,0E0,0E0,0E0,0E0,0E0,0E0,0E0,0E0,0E0,0E0,0E0,0E0,0E0],"parents":[2147483647,0,0,1,1,2,2,3,3,4,4,5,5,6,6,7,7,8,8,9,9,10,10,11,11,12,12,16,16,17,17,18,18,19,19,20,20,21,21,22,22,23,23,24,24,27,27,28,28,29,29,30,30,31,31,32,32,33,33,34,34,35,35,36,36,37,37,38,38,41,41,42,42],"right_children":[2,4,6,8,10,12,14,16,18,20,22,24,26,-1,-1,-1,28,30,32,34,36,38,40,42,44,-1,-1,46,48,50,52,54,56,58,60,62,64,66,68,-1,-1,70,72,-1,-1,-1,-1,-1,-1,-1,-1,-1,-1,-1,-1,-1,-1,-1,-1,-1,-1,-1,-1,-1,-1,-1,-1,-1,-1,-1,-1,-1,-1],"split_conditions":[3.47E2,3.81E2,5.3E1,9E0,9.1E1,9.55E2,1.7E1,3E0,2.2E1,1.8E1,3.278E3,6.46E2,5E0,3.1780707E2,5.414975E1,-1.8205525E2,3.6E1,1.6E1,1.5E1,7.1E1,6E1,1.9E1,4.77E2,5.1E1,9.6E1,1.2848715E2,3.0994385E2,3E0,3E0,2E0,1.1E1,1.68E2,3.17E2,4E0,1E0,3.47E2,4.9E1,1.37E3,2.24E2,-1.5898045E2,2.3376291E2,4.21E2,1.3E1,-1.5206566E2,-4.3079144E1,1.0091015E2,-1.00904076E2,5.3331215E1,3.236717E2,5.947004E0,-1.4273953E2,-1.1993679E1,2.2342029E2,-8.68006E0,-8.922527E1,1.12725296E2,2.2489603E2,-1.6836105E2,7.351336E1,4.6216473E1,1.987996E2,1.4849025E2,-9.068611E1,-1.4608977E2,5.1333942E1,1.7680092E2,3.1876758E2,5.4899876E1,3.232202E2,-9.469155E1,1.2805717E2,3.155799E2,1.4701865E2],"split_indices":[9,1,5,16,23,28,58,23,61,6,1,28,54,0,0,0,5,67,0,17,16,0,15,15,0,0,0,25,0,15,54,1,1,0,54,28,6,1,17,0,0,9,54,0,0,0,0,0,0,0,0,0,0,0,0,0,0,0,0,0,0,0,0,0,0,0,0,0,0,0,0,0,0],"split_type":[0,0,0,0,0,0,0,0,0,0,0,0,0,0,0,0,0,0,0,0,0,0,0,0,0,0,0,0,0,0,0,0,0,0,0,0,0,0,0,0,0,0,0,0,0,0,0,0,0,0,0,0,0,0,0,0,0,0,0,0,0,0,0,0,0,0,0,0,0,0,0,0,0],"sum_hessian":[1.153E3,9.94E2,1.59E2,7.61E2,2.33E2,9.8E1,6.1E1,1.94E2,5.67E2,1.53E2,8E1,6.8E1,3E1,5.9E1,2E0,2.5E1,1.69E2,5.44E2,2.3E1,9.5E1,5.8E1,7.2E1,8E0,6.2E1,6E0,3E0,2.7E1,1.54E2,1.5E1,5.03E2,4.1E1,3E0,2E1,1.9E1,7.6E1,7E0,5.1E1,4.2E1,3E1,6E0,2E0,7E0,5.5E1,5E0,1E0,1.02E2,5.2E1,3E0,1.2E1,2.8E1,4.75E2,3.5E1,6E0,1E0,2E0,1.4E1,6E0,1.5E1,4E0,3.4E1,4.2E1,6E0,1E0,4.2E1,9E0,3.2E1,1E1,2E0,2.8E1,4E0,3E0,9E0,4.6E1],"tree_param":{"num_deleted":"0","num_feature":"69","num_nodes":"73","size_leaf_vector":"1"}},{"base_weights":[2.3242557E0,-8.642915E1,5.54245E2,-1.9959502E2,1.8148483E2,4.387395E2,7.297417E2,-3.149152E2,3.439099E1,2.3730373E0,4.6337057E2,3.1228845E2,7.060422E2,7.468465E2,4.3319794E1,-3.5096964E2,2.65477E2,-5.319947E1,8.326347E2,8.185472E2,-5.4916218E1,5.5016516E2,2.358794E1,3.8211118E2,-1.0821857E2,5.204648E2,2.4334668E2,2.4875603E2,5.669322E2,-3.7726535E2,6.717773E1,6.51273E2,-2.2977023E2,2.7677914E2,-2.7103415E2,4.133168E1,2.7899265E2,2.8120612E2,-7.3248634E1,-2.5533562E2,6.7347115E1,9.925897E1,6.391057E2,2.1743852E2,-3.2870047E2,1.5478901E1,4.276638E2,2.2085245E2,2.6666043E2,-2.1342189E2,2.4186526E2,-1.1451957E2,1.09461174E2,-4.905818E1,2.7056992E2,-1.3034294E2,2.5122424E2,-1.0419553E2,1.7712122E2,-6.818751E-1,1.4895204E2,-9.735772E1,1.5031079E1,-8.7937706E1,1.8701031E2,-2.6364067E1,7.185479E1,1.6171362E2,-2.325749E1,1.9728954E2,-1.2366799E2,-1.1631216E2,-2.5277067E1,-1.0601524E2,9.2242065E1,1.9794922E2,8.7182915E1,9.957752E1,4.8335E1],"categories":[],"categories_nodes":[],"categories_segments":[],"categories_sizes":[],"default_left":[0,0,0,0,0,0,0,0,0,0,0,0,0,0,0,0,0,0,0,0,0,0,0,0,0,0,0,0,0,0,0,0,0,0,0,0,0,0,0,0,0,0,0,0,0,0,0,0,0,0,0,0,0,0,0,0,0,0,0,0,0,0,0,0,0,0,0,0,0,0,0,0,0,0,0,0,0,0,0],"id":1,"left_children":[1,3,5,7,9,11,13,15,17,19,21,23,25,27,-1,29,31,33,35,37,39,41,43,45,-1,47,-1,-1,49,51,53,55,57,59,61,-1,-1,-1,-1,63,65,67,69,-1,71,73,75,-1,77,-1,-1,-1,-1,-1,-1,-1,-1,-1,-1,-1,-1,-1,-1,-1,-1,-1,-1,-1,-1,-1,-1,-1,-1,-1,-1,-1,-1,-1,-1],"loss_changes":[5.6576412E7,3.0203348E7,2.923168E6,1.8899144E7,1.494366E7,3.12578E6,5.12908E5,9.90734E6,1.6265397E7,8.554909E6,4.376662E6,3.3802785E6,1.82529E5,4.18756E5,0E0,4.885344E6,5.4994465E6,1.5169981E7,1.427558E6,1.7439475E6,4.207371E6,3.78653E6,5.178783E6,1.045547E6,0E0,5.701655E5,0E0,0E0,7.303076E6,1.518224E6,5.346997E6,3.597478E6,1.4583882E6,5.1516265E6,2.197886E6,0E0,0E0,0E0,0E0,2.341131E6,2.880657E6,1.3634914E6,1.829254E6,0E0,1.6926638E5,9.7030444E5,1.590134E6,0E0,1.6275625E3,0E0,0E0,0E0,0E0,0E0,0E0,0E0,0E0,0E0,0E0,0E0,0E0,0E0,0E0,0E0,0E0,0E0,0E0,0E0,0E0,0E0,0E0,0E0,0E0,0E0,0E0,0E0,0E0,0E0,0E0],"parents":[2147483647,0,0,1,1,2,2,3,3,4,4,5,5,6,6,7,7,8,8,9,9,10,10,11,11,12,12,13,13,15,15,16,16,17,17,18,18,19,19,20,20,21,21,22,22,23,23,25,25,28,28,29,29,30,30,31,31,32,32,33,33,34,34,39,39,40,40,41,41,42,42,44,44,45,45,46,46,48,48],"right_children":[2,4,6,8,10,12,14,16,18,20,22,24,26,28,-1,30,32,34,36,38,40,42,44,46,-1,48,-1,-1,50,52,54,56,58,60,62,-1,-1,-1,-1,64,66,68,70,-1,72,74,76,-1,78,-1,-1,-1,-1,-1,-1,-1,-1,-1,-1,-1,-1,-1,-1,-1,-1,-1,-1,-1,-1,-1,-1,-1,-1,-1,-1,-1,-1,-1,-1],"split_conditions":[3.47E2,3.12E2,5.3E1,1E0,2E2,9.55E2,1.7E1,1.3E1,3.6E1,4.6E1,1E0,6.46E2,2.781E3,4.62E2,4.3319794E1,2E1,1.11E2,2E0,3E0,1E1,4E0,1E0,5.32E2,5.1E1,-1.0821857E2,1.59E2,2.4334668E2,2.4875603E2,5.53E2,1.6E1,1.9E1,3.5E1,2.82E2,1E0,8.2E1,4.133168E1,2.7899265E2,2.8120612E2,-7.3248634E1,4.77E2,1E0,2.39E2,7E1,2.1743852E2,1.3E1,4.6E1,8.39E2,2.2085245E2,5.2E1,-2.1342189E2,2.4186526E2,-1.1451957E2,1.09461174E2,-4.905818E1,2.7056992E2,-1.3034294E2,2.5122424E2,-1.0419553E2,1.7712122E2,-6.818751E-1,1.4895204E2,-9.735772E1,1.5031079E1,-8.7937706E1,1.8701031E2,-2.6364067E1,7.185479E1,1.6171362E2,-2.325749E1,1.9728954E2,-1.2366799E2,-1.1631216E2,-2.5277067E1,-1.0601524E2,9.2242065E1,1.9794922E2,8.7182915E1,9.957752E1,4.8335E1],"split_indices":[9,1,5,3,17,28,58,67,5,16,43,28,28,15,0,61,28,9,0,42,0,54,1,15,0,15,0,0,28,52,6,17,1,1,9,0,0,0,0,15,19,17,4,0,67,16,17,0,0,0,0,0,0,0,0,0,0,0,0,0,0,0,0,0,0,0,0,0,0,0,0,0,0,0,0,0,0,0,0],"split_type":[0,0,0,0,0,0,0,0,0,0,0,0,0,0,0,0,0,0,0,0,0,0,0,0,0,0,0,0,0,0,0,0,0,0,0,0,0,0,0,0,0,0,0,0,0,0,0,0,0,0,0,0,0,0,0,0,0,0,0,0,0,0,0,0,0,0,0,0,0,0,0,0,0,0,0,0,0,0,0],"sum_hessian":[1.153E3,9.94E2,1.59E2,6.99E2,2.95E2,9.8E1,6.1E1,4.68E2,2.31E2,1.81E2,1.14E2,6.8E1,3E1,5.9E1,2E0,4.41E2,2.7E1,2.09E2,2.2E1,1.1E1,1.7E2,9.5E1,1.9E1,6.2E1,6E0,1.3E1,1.7E1,3.8E1,2.1E1,4.15E2,2.6E1,1.5E1,1.2E1,8.3E1,1.26E2,3E0,1.9E1,1E1,1E0,6.4E1,1.06E2,1.6E1,7.9E1,6E0,1.3E1,7E0,5.5E1,6E0,7E0,3E0,1.8E1,4.13E2,2E0,2.1E1,5E0,2E0,1.3E1,1.1E1,1E0,3.7E1,4.6E1,1.08E2,1.8E1,6.2E1,2E0,5.6E1,5E1,4E0,1.2E1,7.8E1,1E0,1E1,3E0,3E0,4E0,1.9E1,3.6E1,3E0,4E0],"tree_param":{"num_deleted":"0","num_feature":"69","num_nodes":"79","size_leaf_vector":"1"}},{"base_weights":[3.8217366E0,-5.7327003E1,4.0729782E2,-1.3968617E2,1.3430699E2,4.660919E2,2.3675554E2,-1.6882558E2,3.885984E2,2.5785713E1,3.704977E2,4.8127475E2,-7.379308E1,1.6729887E2,2.1101515E2,-1.8152838E2,4.3572803E2,5.334198E2,-1.9348274E2,2.69794E2,-7.49595E1,4.1372318E2,-8.851471E1,2.4999275E2,5.1516144E2,1.5763851E1,2.6990167E2,-2.0508653E2,1.1304741E2,8.9170525E1,2.648829E2,6.1501855E2,-1.4627216E2,2.2017467E1,4.2991885E2,-1.9604796E2,9.6163956E1,4.5486987E2,-1.2150628E2,-9.825922E1,1.4960826E2,3.937412E2,-1.5124927E2,5.241451E2,-4.939512E1,2.7785916E2,-2.1896129E2,3.615604E2,-1.1405009E2,-6.943783E1,1.0170626E1,1.718005E2,6.842688E0,1.5470392E2,-1.7186577E2,1.9946573E2,-1.3214977E2,-1.2499488E2,7.588735E1,9.534119E1,2.230228E2,-9.835877E1,1.5793479E1,1.205199E2,-4.531164E1,1.7192477E2,8.238084E1,1.1693111E1,-4.64249E1,1.9021772E1,2.1450555E2,1.7200331E2,1.2613794E2,-1.4919987E1,1.8536548E2,-9.911564E0,-1.3293153E2,7.408498E1,2.102879E2,9.570273E1,-9.062015E1],"categories":[],"categories_nodes":[],"categories_segments":[],"categories_sizes":[],"default_left":[0,0,0,0,0,0,0,0,0,0,0,0,0,0,0,0,0,0,0,0,0,0,0,0,0,0,0,0,0,0,0,0,0,0,0,0,0,0,0,0,0,0,0,0,0,0,0,0,0,0,0,0,0,0,0,0,0,0,0,0,0,0,0,0,0,0,0,0,0,0,0,0,0,0,0,0,0,0,0,0,0],"id":2,"left_children":[1,3,5,7,9,11,13,15,17,19,21,23,-1,25,-1,27,29,31,-1,33,35,37,39,41,43,45,47,49,51,53,-1,55,-1,57,59,61,63,65,67,-1,-1,69,-1,71,-1,73,75,77,79,-1,-1,-1,-1,-1,-1,-1,-1,-1,-1,-1,-1,-1,-1,-1,-1,-1,-1,-1,-1,-1,-1,-1,-1,-1,-1,-1,-1,-1,-1,-1,-1],"loss_changes":[2.84949E7,1.5848928E7,1.413736E6,1.0872122E7,7.731226E6,1.329242E6,1.2111528E6,5.193656E6,5.8821425E6,5.133418E6,1.921518E6,7.33324E5,0E0,5.7101825E5,0E0,4.554784E6,2.0910672E6,3.049156E6,0E0,2.4107205E6,3.0855718E6,1.971263E6,1.4265086E6,1.9330525E6,6.66486E5,1.0451661E6,8.154715E5,3.821052E6,2.0192366E6,2.8367838E6,0E0,1.924589E6,0E0,2.638043E6,1.0641785E6,2.8692375E6,4.7440025E6,1.568731E6,4.3376758E4,0E0,0E0,1.440473E6,0E0,2.38446E5,0E0,9.2184844E5,3.6042134E5,5.27075E5,5.0347475E5,0E0,0E0,0E0,0E0,0E0,0E0,0E0,0E0,0E0,0E0,0E0,0E0,0E0,0E0,0E0,0E0,0E0,0E0,0E0,0E0,0E0,0E0,0E0,0E0,0E0,0E0,0E0,0E0,0E0,0E0,0E0,0E0],"parents":[2147483647,0,0,1,1,2,2,3,3,4,4,5,5,6,6,7,7,8,8,9,9,10,10,11,11,13,13,15,15,16,16,17,17,19,19,20,20,21,21,22,22,23,23,24,24,25,25,26,26,27,27,28,28,29,29,31,31,33,33,34,34,35,35,36,36,37,37,38,38,41,41,43,43,45,45,46,46,47,47,48,48],"right_children":[2,4,6,8,10,12,14,16,18,20,22,24,-1,26,-1,28,30,32,-1,34,36,38,40,42,44,46,48,50,52,54,-1,56,-1,58,60,62,64,66,68,-1,-1,70,-1,72,-1,74,76,78,80,-1,-1,-1,-1,-1,-1,-1,-1,-1,-1,-1,-1,-1,-1,-1,-1,-1,-1,-1,-1,-1,-1,-1,-1,-1,-1,-1,-1,-1,-1,-1,-1],"split_conditions":[3.85E2,3.12E2,3.3E1,1E0,8.4E1,2.15E2,4.1E1,2E0,2E0,4.8E1,3.278E3,7.7E1,-7.379308E1,4.28E2,2.1101515E2,1.3E1,1E0,3E0,-1.9348274E2,4.2E1,9.9E1,6E0,4.77E2,4.1E1,2.1E1,4.21E2,2.3E1,3E0,1.9E1,1E0,2.648829E2,3E0,-1.4627216E2,9.5E1,1.36E2,6.4E1,1.7E1,1.1E1,1.115E3,-9.825922E1,1.4960826E2,3.5E1,-1.5124927E2,7.12E2,-4.939512E1,1.545E3,1.18E2,1.573E3,1.5E1,-6.943783E1,1.0170626E1,1.718005E2,6.842688E0,1.5470392E2,-1.7186577E2,1.9946573E2,-1.3214977E2,-1.2499488E2,7.588735E1,9.534119E1,2.230228E2,-9.835877E1,1.5793479E1,1.205199E2,-4.531164E1,1.7192477E2,8.238084E1,1.1693111E1,-4.64249E1,1.9021772E1,2.1450555E2,1.7200331E2,1.2613794E2,-1.4919987E1,1.8536548E2,-9.911564E0,-1.3293153E2,7.408498E1,2.102879E2,9.570273E1,-9.062015E1],"split_indices":[9,1,61,63,23,6,54,22,37,15,1,23,0,9,0,67,19,63,0,15,9,43,15,0,40,9,6,29,28,40,0,1,0,17,17,15,4,54,1,0,0,6,0,16,0,1,61,1,0,0,0,0,0,0,0,0,0,0,0,0,0,0,0,0,0,0,0,0,0,0,0,0,0,0,0,0,0,0,0,0,0],"split_type":[0,0,0,0,0,0,0,0,0,0,0,0,0,0,0,0,0,0,0,0,0,0,0,0,0,0,0,0,0,0,0,0,0,0,0,0,0,0,0,0,0,0,0,0,0,0,0,0,0,0,0,0,0,0,0,0,0,0,0,0,0,0,0,0,0,0,0,0,0,0,0,0,0,0,0,0,0,0,0,0,0],"sum_hessian":[1.153E3,1.002E3,1.51E2,7.01E2,3.01E2,1.11E2,4E1,6.65E2,3.6E1,2.07E2,9.4E1,1.09E2,2E0,3.6E1,4E0,6.52E2,1.3E1,3.2E1,4E0,6E1,1.47E2,8.6E1,8E0,1.5E1,9.4E1,1.5E1,2.1E1,6.04E2,4.8E1,8E0,5E0,3E1,2E0,2.4E1,3.6E1,8.6E1,6.1E1,8E1,6E0,6E0,2E0,1.3E1,2E0,9.3E1,1E0,7E0,8E0,1.7E1,4E0,5.44E2,6E1,7E0,4.1E1,5E0,3E0,2.9E1,1E0,8E0,1.6E1,2.8E1,8E0,5.6E1,3E1,2.7E1,3.4E1,4.7E1,3.3E1,1E0,5E0,7E0,6E0,6E1,3.3E1,4E0,3E0,5E0,3E0,1.4E1,3E0,1E0,3E0],"tree_param":{"num_deleted":"0","num_feature":"69","num_nodes":"81","size_leaf_vector":"1"}},{"base_weights":[3.8994691E0,-6.459253E1,1.8733218E2,4.3687444E0,-1.9358621E2,3.0154407E2,-5.651608E1,-4.5312344E1,1.5123607E2,-2.0466837E2,1.974801E2,5.3312396E2,2.5483939E2,-1.3464986E2,2.6665823E2,2.3627838E2,-8.948023E1,5.9406256E2,8.466138E1,-2.5206444E2,-2.1193395E0,-4.1146694E1,5.568721E2,2.1316458E2,3.7880777E2,-2.6571994E2,-8.216217E1,1.10635216E2,5.8964497E1,-8.894531E1,4.209251E2,-9.809166E1,2.0785448E2,-4.0644424E1,7.2371356E2,2.4342633E2,-6.30229E1,-1.790859E2,-2.977633E2,-9.738449E1,1.8606198E2,2.0229771E2,1.2450191E2,1.5538774E2,4.0571155E2,1.445853E2,3.026563E2,-6.2194416E1,-1.04794624E2,-3.279454E1,1.9753163E0,8.2037636E1,2.4349568E2,-5.212012E1,2.7276068E0,5.4028786E1,-1.0542983E2,2.7056723E2,2.4761536E0,-7.063519E-1,1.2015552E2,2.140391E2,-2.98735E1,-8.060516E1,7.118238E1,-8.079405E1,-1.350656E2,-4.5428715E1,1.3030138E2,-5.3598457E1,6.227875E1,1.300811E2,2.551697E-1,1.5480077E1,1.3177957E2],"categories":[],"categories_nodes":[],"categories_segments":[],"categories_sizes":[],"default_left":[0,0,0,0,0,0,0,0,0,0,0,0,0,0,0,0,0,0,0,0,0,0,0,0,0,0,0,0,0,0,0,0,0,0,0,0,0,0,0,0,0,0,0,0,0,0,0,0,0,0,0,0,0,0,0,0,0,0,0,0,0,0,0,0,0,0,0,0,0,0,0,0,0,0,0],"id":3,"left_children":[1,3,5,7,9,11,13,15,17,19,-1,21,23,25,27,29,31,33,35,37,39,-1,41,43,45,47,49,-1,-1,-1,51,53,-1,55,57,59,61,63,65,-1,67,-1,-1,69,71,-1,73,-1,-1,-1,-1,-1,-1,-1,-1,-1,-1,-1,-1,-1,-1,-1,-1,-1,-1,-1,-1,-1,-1,-1,-1,-1,-1,-1,-1],"loss_changes":[1.4510578E7,7.482018E6,8.762056E6,4.0126472E6,2.900757E6,2.178734E6,2.5862395E6,5.132859E6,4.0475702E6,2.783474E6,0E0,6.33504E5,8.49197E5,5.4229225E5,7.071675E4,5.6336805E6,2.4663215E6,1.5106425E6,2.875886E6,7.30408E5,3.4589072E6,0E0,2.8668E5,1.461048E6,1.997325E5,3.987725E4,1.4530362E5,0E0,0E0,0E0,2.1980485E6,2.8635605E6,0E0,3.3770575E5,1.9047345E6,2.2789458E6,1.8876725E6,3.5331215E6,4.98988E5,0E0,3.0822438E6,0E0,0E0,1.903177E6,3.496965E5,0E0,9.376355E5,0E0,0E0,0E0,0E0,0E0,0E0,0E0,0E0,0E0,0E0,0E0,0E0,0E0,0E0,0E0,0E0,0E0,0E0,0E0,0E0,0E0,0E0,0E0,0E0,0E0,0E0,0E0,0E0],"parents":[2147483647,0,0,1,1,2,2,3,3,4,4,5,5,6,6,7,7,8,8,9,9,11,11,12,12,13,13,14,14,15,15,16,16,17,17,18,18,19,19,20,20,22,22,23,23,24,24,25,25,26,26,30,30,31,31,33,33,34,34,35,35,36,36,37,37,38,38,40,40,43,43,44,44,46,46],"right_children":[2,4,6,8,10,12,14,16,18,20,-1,22,24,26,28,30,32,34,36,38,40,-1,42,44,46,48,50,-1,-1,-1,52,54,-1,56,58,60,62,64,66,-1,68,-1,-1,70,72,-1,74,-1,-1,-1,-1,-1,-1,-1,-1,-1,-1,-1,-1,-1,-1,-1,-1,-1,-1,-1,-1,-1,-1,-1,-1,-1,-1,-1,-1],"split_conditions":[9.5E1,3E0,2.2E1,1.31E2,3E0,9.9E1,1.4E1,1E0,1.45E2,6.5E1,1.974801E2,1E0,1.023E3,3.9E1,2.3E1,3E0,3E0,2.8E1,3E0,9E0,2.1E1,-4.1146694E1,1.73E2,1.415E3,1.68E2,4E0,4E0,1.10635216E2,5.8964497E1,-8.894531E1,1E0,4.4E1,2.0785448E2,1.9E1,1.54E2,1E0,1.83E2,1.9E1,1E0,-9.738449E1,1.62E2,2.0229771E2,1.2450191E2,6.45E2,1.7E1,1.445853E2,2.781E3,-6.2194416E1,-1.04794624E2,-3.279454E1,1.9753163E0,8.2037636E1,2.4349568E2,-5.212012E1,2.7276068E0,5.4028786E1,-1.0542983E2,2.7056723E2,2.4761536E0,-7.063519E-1,1.2015552E2,2.140391E2,-2.98735E1,-8.060516E1,7.118238E1,-8.079405E1,-1.350656E2,-4.5428715E1,1.3030138E2,-5.3598457E1,6.227875E1,1.300811E2,2.551697E-1,1.5480077E1,1.3177957E2],"split_indices":[53,25,3,17,22,15,0,68,17,1,0,0,28,9,0,15,26,9,61,46,5,0,23,42,15,0,0,0,0,0,56,15,0,6,9,54,1,23,3,0,17,0,0,1,58,0,28,0,0,0,0,0,0,0,0,0,0,0,0,0,0,0,0,0,0,0,0,0,0,0,0,0,0,0,0],"split_type":[0,0,0,0,0,0,0,0,0,0,0,0,0,0,0,0,0,0,0,0,0,0,0,0,0,0,0,0,0,0,0,0,0,0,0,0,0,0,0,0,0,0,0,0,0,0,0,0,0,0,0,0,0,0,0,0,0,0,0,0,0,0,0,0,0,0,0,0,0,0,0,0,0,0,0],"sum_hessian":[1.153E3,8.4E2,3.13E2,5.48E2,2.92E2,2.13E2,1E2,4.1E2,1.38E2,2.89E2,3E0,3.4E1,1.79E2,8.1E1,1.9E1,5.5E1,3.55E2,1.7E1,1.21E2,2.34E2,5.5E1,1E0,3.3E1,1.36E2,4.3E1,2.2E1,5.9E1,6E0,1.3E1,1.4E1,4.1E1,3.52E2,3E0,3E0,1.4E1,5.8E1,6.3E1,9.2E1,1.42E2,2E1,3.5E1,1.6E1,1.7E1,1.06E2,3E1,1.6E1,2.7E1,1.5E1,7E0,4.5E1,1.4E1,3.1E1,1E1,2.06E2,1.46E2,2E0,1E0,1.1E1,3E0,2.3E1,3.5E1,2E0,6.1E1,7.6E1,1.6E1,1.22E2,2E1,1.5E1,2E1,1.4E1,9.2E1,2.8E1,2E0,1E1,1.7E1],"tree_param":{"num_deleted":"0","num_feature":"69","num_nodes":"75","size_leaf_vector":"1"}},{"base_weights":[4.088635E0,-2.707987E1,2.0973286E2,-3.4392902E1,1.5974438E2,1.7972394E2,1.0649677E2,-1.27786665E1,-1.8969543E2,1.9988773E2,-2.6358786E2,-2.9175192E1,3.575964E2,-6.476466E1,-1.4387196E2,2.7146637E2,1.250851E2,-1.8172334E2,8.4145065E1,-6.424835E1,9.1044426E1,4.1009848E2,-1.1223798E2,-3.165327E1,-5.4432766E1,2.3631491E2,1.5416911E2,-1.11908966E2,1.658694E2,-1.3299315E0,-4.546989E1,1.3029227E2,5.352382E-1,-2.4418768E1,1.5437813E2,-1.969881E1,2.0634143E0,-4.6255646E1,8.0795555E1,7.1926455E0,7.752869E1],"categories":[],"categories_nodes":[],"categories_segments":[],"categories_sizes":[],"default_left":[0,0,0,0,0,0,0,0,0,0,0,0,0,0,0,0,0,0,0,0,0,0,0,0,0,0,0,0,0,0,0,0,0,0,0,0,0,0,0,0,0],"id":4,"left_children":[1,3,5,7,-1,9,-1,11,13,15,17,19,21,-1,23,25,27,-1,-1,29,31,33,-1,35,-1,37,-1,-1,39,-1,-1,-1,-1,-1,-1,-1,-1,-1,-1,-1,-1],"loss_changes":[7.4023845E6,4.1226778E6,5.98766E5,3.3241108E6,0E0,1.196861E6,0E0,5.2998975E6,1.14137E5,6.246185E5,1.2868471E6,3.5266118E6,1.574857E6,0E0,1.9241456E5,4.0691E5,1.3214212E6,0E0,0E0,3.3785732E6,5.790141E6,1.839445E6,0E0,1.7487193E4,0E0,7.6324825E5,0E0,0E0,7.55555E5,0E0,0E0,0E0,0E0,0E0,0E0,0E0,0E0,0E0,0E0,0E0,0E0],"parents":[2147483647,0,0,1,1,2,2,3,3,5,5,7,7,8,8,9,9,10,10,11,11,12,12,14,14,15,15,16,16,19,19,20,20,21,21,23,23,25,25,28,28],"right_children":[2,4,6,8,-1,10,-1,12,14,16,18,20,22,-1,24,26,28,-1,-1,30,32,34,-1,36,-1,38,-1,-1,40,-1,-1,-1,-1,-1,-1,-1,-1,-1,-1,-1,-1],"split_conditions":[3.85E2,1.01E2,4.65E2,1.1E1,1.5974438E2,4.62E2,1.0649677E2,3.6E1,2.109E3,6.75E2,6.45E2,2E0,5E0,-6.476466E1,1.5E1,3.5E1,3.3E1,-1.8172334E2,8.4145065E1,3E0,1.2E1,3E0,-1.1223798E2,1.782E3,-5.4432766E1,2E0,1.5416911E2,-1.11908966E2,3.1E1,-1.3299315E0,-4.546989E1,1.3029227E2,5.352382E-1,-2.4418768E1,1.5437813E2,-1.969881E1,2.0634143E0,-4.6255646E1,8.0795555E1,7.1926455E0,7.752869E1],"split_indices":[9,61,23,31,0,15,0,5,57,1,1,19,58,0,0,6,4,0,0,5,6,0,0,4,0,5,0,0,0,0,0,0,0,0,0,0,0,0,0,0,0],"split_type":[0,0,0,0,0,0,0,0,0,0,0,0,0,0,0,0,0,0,0,0,0,0,0,0,0,0,0,0,0,0,0,0,0,0,0,0,0,0,0,0,0],"sum_hessian":[1.153E3,1.002E3,1.51E2,9.9E2,1.2E1,1.27E2,2.4E1,8.7E2,1.2E2,1.22E2,5E0,8.34E2,3.6E1,7.4E1,4.6E1,6.1E1,6.1E1,3E0,2E0,6.46E2,1.88E2,3.4E1,2E0,1.2E1,3.4E1,5.5E1,6E0,4E0,5.7E1,3.84E2,2.62E2,3.8E1,1.5E2,6E0,2.8E1,6E0,6E0,4E0,5.1E1,2.3E1,3.4E1],"tree_param":{"num_deleted":"0","num_feature":"69","num_nodes":"41","size_leaf_vector":"1"}},{"base_weights":[3.1177652E0,-5.2062546E1,7.9339806E1,1.8702934E1,-1.3835527E2,-1.13625244E2,1.1435937E2,-3.721622E1,2.6236905E2,-2.7967166E2,-1.0715269E2,1.05622246E2,-1.3120706E2,-2.6886313E2,1.2755222E2,-5.998779E1,4.338858E2,1.1256383E2,5.057945E2,-2.9431854E2,-2.300623E1,-1.24648026E2,1.7408443E2,-9.157816E1,-1.11064064E2,-1.16994385E2,-6.485351E1,-3.225714E1,1.4750665E2,-9.89895E1,1.8429759E2,2.2120398E2,-1.5273083E2,4.6243234E2,-1.0387647E2,7.686447E2,2.934728E2,-2.3815239E2,-3.840591E2,1.4339883E1,-6.2541378E1,-1.3449837E2,3.5536758E2,1.9292284E2,5.2464455E1,-6.250673E1,-1.276258E2,2.148661E2,-1.2274812E2,2.892818E2,1.2323679E2,-3.4958916E1,1.3319266E2,6.239695E0,2.0181406E2,3.8500946E1,2.4667444E2,-5.877543E1,1.4920583E2,2.5490932E2,8.0781265E1,-3.6802957E0,1.1892258E2,-8.007042E1,4.436638E1,-1.2834854E2,-5.540796E1,-2.9944614E1,1.8009934E0,-5.8899292E1,-1.4573797E1,1.2943517E2,4.824864E1,1.843686E2,-3.1681313E1,-3.779776E1,-7.0541577E0,-4.091443E1,-2.8798569E1,-7.251429E1,9.812996E1,6.521574E1,2.1304335E2,-5.429648E1,4.156429E1],"categories":[],"categories_nodes":[],"categories_segments":[],"categories_sizes":[],"default_left":[0,0,0,0,0,0,0,0,0,0,0,0,0,0,0,0,0,0,0,0,0,0,0,0,0,0,0,0,0,0,0,0,0,0,0,0,0,0,0,0,0,0,0,0,0,0,0,0,0,0,0,0,0,0,0,0,0,0,0,0,0,0,0,0,0,0,0,0,0,0,0,0,0,0,0,0,0,0,0,0,0,0,0,0,0],"id":5,"left_children":[1,3,5,7,9,11,13,15,17,19,21,-1,23,25,27,29,31,33,35,37,39,41,43,-1,45,-1,-1,47,49,51,53,-1,-1,55,57,59,61,63,65,-1,67,69,71,-1,73,75,77,-1,79,81,83,-1,-1,-1,-1,-1,-1,-1,-1,-1,-1,-1,-1,-1,-1,-1,-1,-1,-1,-1,-1,-1,-1,-1,-1,-1,-1,-1,-1,-1,-1,-1,-1,-1,-1],"loss_changes":[4.857804E6,4.093973E6,3.2904065E6,5.037612E6,1.301682E6,6.602828E5,2.112227E6,3.255075E6,2.459248E6,1.962335E5,1.2468632E6,0E0,2.2203162E5,5.029625E3,1.273942E6,2.7621778E6,4.381626E6,3.3799642E6,1.225452E6,1.655945E5,1.4186729E4,1.1589515E6,8.218427E5,0E0,4.59035E4,0E0,0E0,3.1357858E6,1.182415E6,2.4231422E6,3.1802215E6,0E0,0E0,1.9380962E6,1.6469075E6,2.164345E5,5.0840912E5,4.16813E5,7.8053E4,0E0,8.264028E3,1.2176725E6,4.61575E3,0E0,1.2199518E6,4.4071797E4,4.78375E2,0E0,2.2732488E6,1.3888005E6,1.441088E6,0E0,0E0,0E0,0E0,0E0,0E0,0E0,0E0,0E0,0E0,0E0,0E0,0E0,0E0,0E0,0E0,0E0,0E0,0E0,0E0,0E0,0E0,0E0,0E0,0E0,0E0,0E0,0E0,0E0,0E0,0E0,0E0,0E0,0E0],"parents":[2147483647,0,0,1,1,2,2,3,3,4,4,5,5,6,6,7,7,8,8,9,9,10,10,12,12,13,13,14,14,15,15,16,16,17,17,18,18,19,19,20,20,21,21,22,22,24,24,27,27,28,28,29,29,30,30,33,33,34,34,35,35,36,36,37,37,38,38,40,40,41,41,42,42,44,44,45,45,46,46,48,48,49,49,50,50],"right_children":[2,4,6,8,10,12,14,16,18,20,22,-1,24,26,28,30,32,34,36,38,40,42,44,-1,46,-1,-1,48,50,52,54,-1,-1,56,58,60,62,64,66,-1,68,70,72,-1,74,76,78,-1,80,82,84,-1,-1,-1,-1,-1,-1,-1,-1,-1,-1,-1,-1,-1,-1,-1,-1,-1,-1,-1,-1,-1,-1,-1,-1,-1,-1,-1,-1,-1,-1,-1,-1,-1,-1],"split_conditions":[9E0,7E0,4.2E1,1.05E2,1E0,3E0,4.2E1,1E0,4E0,8.3E1,1.67E2,1.05622246E2,6.7E1,3E1,1E0,1E0,2E0,3.7E1,8.6E1,4.01E2,1.115E3,5E0,4.6E1,-9.157816E1,1.5E1,-1.16994385E2,-6.485351E1,1.1E1,6.3E1,1E0,2E0,2.2120398E2,-1.5273083E2,1.6E1,3.4E1,1.4E1,1.19E2,3.65E2,7.21E2,1.4339883E1,1.231E3,5.3E1,7E0,1.9292284E2,1.4E1,1.3E1,2.115E3,2.148661E2,2.9E1,1E1,7.2E1,-3.4958916E1,1.3319266E2,6.239695E0,2.0181406E2,3.8500946E1,2.4667444E2,-5.877543E1,1.4920583E2,2.5490932E2,8.0781265E1,-3.6802957E0,1.1892258E2,-8.007042E1,4.436638E1,-1.2834854E2,-5.540796E1,-2.9944614E1,1.8009934E0,-5.8899292E1,-1.4573797E1,1.2943517E2,4.824864E1,1.843686E2,-3.1681313E1,-3.779776E1,-7.0541577E0,-4.091443E1,-2.8798569E1,-7.251429E1,9.812996E1,6.521574E1,2.1304335E2,-5.429648E1,4.156429E1],"split_indices":[0,4,1,17,5,1,17,38,4,15,16,0,4,9,54,66,27,16,16,1,1,19,15,0,0,0,0,4,9,33,54,0,0,15,67,6,17,1,1,0,1,23,0,0,4,0,57,0,61,67,9,0,0,0,0,0,0,0,0,0,0,0,0,0,0,0,0,0,0,0,0,0,0,0,0,0,0,0,0,0,0,0,0,0,0],"split_type":[0,0,0,0,0,0,0,0,0,0,0,0,0,0,0,0,0,0,0,0,0,0,0,0,0,0,0,0,0,0,0,0,0,0,0,0,0,0,0,0,0,0,0,0,0,0,0,0,0,0,0,0,0,0,0,0,0,0,0,0,0,0,0,0,0,0,0,0,0,0,0,0,0,0,0,0,0,0,0,0,0,0,0,0,0],"sum_hessian":[1.153E3,6.69E2,4.84E2,3.68E2,3.01E2,7.4E1,4.1E2,3E2,6.8E1,5.3E1,2.48E2,2E0,7.2E1,1.3E1,3.97E2,2.87E2,1.3E1,4.3E1,2.5E1,5E1,3E0,2.34E2,1.4E1,6E0,6.6E1,2E0,1.1E1,4.4E1,3.53E2,2.48E2,3.9E1,1E1,3E0,1.6E1,2.7E1,1E1,1.5E1,3.3E1,1.7E1,1E0,2E0,2.3E2,4E0,2E0,1.2E1,1.8E1,4.8E1,4E0,4E1,5E1,3.03E2,2.41E2,7E0,3E1,9E0,9E0,7E0,2.4E1,3E0,8E0,2E0,4E0,1.1E1,3.1E1,2E0,1.3E1,4E0,1E0,1E0,1.33E2,9.7E1,2E0,2E0,2E0,1E1,6E0,1.2E1,3.5E1,1.3E1,3.2E1,8E0,4.4E1,6E0,1.4E1,2.89E2],"tree_param":{"num_deleted":"0","num_feature":"69","num_nodes":"85","size_leaf_vector":"1"}},{"base_weights":[3.6048691E0,-2.4906105E1,7.995558E1,-2.8380259E1,1.684945E2,1.2793075E2,-2.2486408E1,-7.161951E1,1.0423185E1,2.607561E2,9.102011E1,-1.3583125E2,1.079736E1,-8.525452E1,2.5754056E2,5.0868918E2,-8.271613E0,3.5851767E2,1.15740204E2,-2.1849341E2,1.0979583E2,-2.7814943E1,-6.1524567E1,-4.527755E0,5.0722187E1,-1.1028499E2,7.1731865E1,4.3837442E2,-1.183664E2,9.9738525E1,7.440857E2,-2.2732882E1,1.8385693E2,1.6967761E2,4.161278E2,4.5379017E1,-6.416832E1,-4.162275E2,1.144886E2,2.9219275E2,8.606898E1,-1.8495117E1,1.8580332E1,-3.8235287E1,5.80156E1,1.7159248E2,-3.154395E1,-1.9990513E1,1.6087561E2,-6.95831E1,1.2194583E2,-8.90742E1,2.6782285E2,-8.797532E0,1.2385399E2,-4.034712E1,7.140185E1,-1.1977375E2,9.239625E1,1.2851321E2,2.7507936E1,-4.590098E1,3.0350483E1,-1.7710223E2,-7.793989E1,9.7902245E1,-4.324859E1,-1.2733162E2,3.0012041E1,-7.229214E0,-3.3864667E0,2.5157998E0,8.4527E0],"categories":[],"categories_nodes":[],"categories_segments":[],"categories_sizes":[],"default_left":[0,0,0,0,0,0,0,0,0,0,0,0,0,0,0,0,0,0,0,0,0,0,0,0,0,0,0,0,0,0,0,0,0,0,0,0,0,0,0,0,0,0,0,0,0,0,0,0,0,0,0,0,0,0,0,0,0,0,0,0,0,0,0,0,0,0,0,0,0,0,0,0,0],"id":6,"left_children":[1,3,5,7,-1,9,11,13,15,17,19,21,23,25,27,29,31,33,35,37,39,-1,-1,41,-1,43,45,47,-1,49,51,53,55,57,59,-1,61,63,-1,65,67,69,71,-1,-1,-1,-1,-1,-1,-1,-1,-1,-1,-1,-1,-1,-1,-1,-1,-1,-1,-1,-1,-1,-1,-1,-1,-1,-1,-1,-1,-1,-1],"loss_changes":[2.514057E6,1.7297126E6,1.5460836E6,1.4050915E6,0E0,1.02543725E6,3.8249353E5,1.7992451E6,4.12143E6,6.1064625E5,1.0061061E6,4.9657156E4,1.9238847E5,1.5050285E6,2.0596969E6,1.4660348E6,1.190566E6,2.2312825E5,1.3752469E5,1.3454902E6,6.67284E5,0E0,0E0,2.3905053E4,0E0,1.7396558E6,4.7496955E6,6.78312E5,0E0,8.064808E5,1.812588E6,1.154939E6,5.491574E5,7.5246456E5,4.02045E4,0E0,7.422975E4,6.4519E4,0E0,3.1525775E5,1.0623915E6,1.5852275E3,2.502621E3,0E0,0E0,0E0,0E0,0E0,0E0,0E0,0E0,0E0,0E0,0E0,0E0,0E0,0E0,0E0,0E0,0E0,0E0,0E0,0E0,0E0,0E0,0E0,0E0,0E0,0E0,0E0,0E0,0E0,0E0],"parents":[2147483647,0,0,1,1,2,2,3,3,5,5,6,6,7,7,8,8,9,9,10,10,11,11,12,12,13,13,14,14,15,15,16,16,17,17,18,18,19,19,20,20,23,23,25,25,26,26,27,27,29,29,30,30,31,31,32,32,33,33,34,34,36,36,37,37,39,39,40,40,41,41,42,42],"right_children":[2,4,6,8,-1,10,12,14,16,18,20,22,24,26,28,30,32,34,36,38,40,-1,-1,42,-1,44,46,48,-1,50,52,54,56,58,60,-1,62,64,-1,66,68,70,72,-1,-1,-1,-1,-1,-1,-1,-1,-1,-1,-1,-1,-1,-1,-1,-1,-1,-1,-1,-1,-1,-1,-1,-1,-1,-1,-1,-1,-1,-1],"split_conditions":[9.5E1,3E0,2.2E1,4E0,1.684945E2,1.13E2,3.9E1,1E0,2E0,7.91E2,1.36E2,4E0,3.01E2,2E0,2E0,1E0,2.5E1,1.7E1,6.64E2,4.77E2,3.9E1,-2.7814943E1,-6.1524567E1,4E0,5.0722187E1,2.2E1,1E0,1E0,-1.183664E2,6.3E1,2E0,6.2E1,1.1E1,1E0,2.58E2,4.5379017E1,1.1E1,9.22E2,1.144886E2,7.5E1,4.6E1,4.03E2,1.4E1,-3.8235287E1,5.80156E1,1.7159248E2,-3.154395E1,-1.9990513E1,1.6087561E2,-6.95831E1,1.2194583E2,-8.90742E1,2.6782285E2,-8.797532E0,1.2385399E2,-4.034712E1,7.140185E1,-1.1977375E2,9.239625E1,1.2851321E2,2.7507936E1,-4.590098E1,3.0350483E1,-1.7710223E2,-7.793989E1,9.7902245E1,-4.324859E1,-1.2733162E2,3.0012041E1,-7.229214E0,-3.3864667E0,2.5157998E0,8.4527E0],"split_indices":[53,26,3,0,0,16,9,38,42,17,17,0,1,19,27,5,61,25,1,15,4,0,0,0,0,67,68,3,0,17,46,67,42,0,9,0,0,1,0,6,4,4,0,0,0,0,0,0,0,0,0,0,0,0,0,0,0,0,0,0,0,0,0,0,0,0,0,0,0,0,0,0,0],"split_type":[0,0,0,0,0,0,0,0,0,0,0,0,0,0,0,0,0,0,0,0,0,0,0,0,0,0,0,0,0,0,0,0,0,0,0,0,0,0,0,0,0,0,0,0,0,0,0,0,0,0,0,0,0,0,0,0,0,0,0,0,0,0,0,0,0,0,0,0,0,0,0,0,0],"sum_hessian":[1.153E3,8.4E2,3.13E2,8.36E2,4E0,2.13E2,1E2,3.95E2,4.41E2,4.5E1,1.68E2,2.2E1,7.8E1,3.8E2,1.5E1,1.5E1,4.26E2,2.6E1,1.9E1,9E0,1.59E2,1.5E1,7E0,7.2E1,6E0,3.28E2,5.2E1,1.2E1,3E0,6E0,9E0,3.97E2,2.9E1,7E0,1.9E1,1.6E1,3E0,7E0,2E0,1.7E1,1.42E2,4.5E1,2.7E1,3.11E2,1.7E1,1.3E1,3.9E1,2E0,1E1,3E0,3E0,1E0,8E0,3.92E2,5E0,4E0,2.5E1,1E0,6E0,1.8E1,1E0,2E0,1E0,2E0,5E0,1.6E1,1E0,3E0,1.39E2,2.4E1,2.1E1,1.4E1,1.3E1],"tree_param":{"num_deleted":"0","num_feature":"69","num_nodes":"73","size_leaf_vector":"1"}},{"base_weights":[3.0997052E0,-3.766005E1,4.0666767E1,-5.4489487E1,1.4504236E2,2.150257E2,1.7648361E1,-7.118164E1,8.151116E1,5.2081976E2,1.5754269E1,8.202493E1,4.3694913E2,-4.291228E0,1.212588E2,-9.744823E1,4.8847023E1,2.7821564E2,-4.4460537E1,2.0908025E2,1.3487277E2,-1.3042213E2,5.4367444E2,6.800711E2,7.091865E0,6.677048E2,2.755076E2,-3.511314E1,8.415663E1,1.4873354E2,8.9731255E1,-1.02021996E2,1.4973979E2,9.92599E1,-2.0310555E2,-8.042614E1,4.5466275E2,-4.6789783E2,5.9281586E1,-8.647171E1,3.1271048E2,9.493448E0,-1.714539E2,6.722456E1,1.8385748E2,-1.5251217E1,2.6265228E2,1.8060823E2,-1.1118294E2,5.302189E1,2.305061E2,-2.630895E1,4.4252652E2,-5.022262E1,1.0011066E2,6.1943954E1,5.9754875E1,-3.3059143E2,1.4861201E2,-3.2773476E1,8.644342E1,4.3323236E0,1.635521E2,-8.79689E1,1.4527623E2,-4.739838E1,1.6406502E2,-5.2283535E1,-1.6514697E2,3.983582E1,-1.2999538E2,1.1170918E2,2.006252E1,-5.3388256E1,1.3901503E2,1.0845602E2,-3.8844883E1,-6.684565E1,6.2313618E1,-1.6503943E2,8.797391E1,1.6613898E2,5.947295E1,6.9332104E0,-2.9009441E1,2.527773E1,-1.0965197E2,-1.458103E2,1.8882652E1,1.1422063E2,2.7295687E1],"categories":[],"categories_nodes":[],"categories_segments":[],"categories_sizes":[],"default_left":[0,0,0,0,0,0,0,0,0,0,0,0,0,0,0,0,0,0,0,0,0,0,0,0,0,0,0,0,0,0,0,0,0,0,0,0,0,0,0,0,0,0,0,0,0,0,0,0,0,0,0,0,0,0,0,0,0,0,0,0,0,0,0,0,0,0,0,0,0,0,0,0,0,0,0,0,0,0,0,0,0,0,0,0,0,0,0,0,0,0,0],"id":7,"left_children":[1,3,5,7,9,11,13,15,17,19,21,23,25,27,29,31,33,35,37,-1,39,41,43,45,47,49,51,53,55,-1,57,59,-1,61,63,-1,65,67,69,-1,71,73,-1,-1,-1,-1,-1,75,77,-1,-1,79,81,83,-1,85,-1,87,89,-1,-1,-1,-1,-1,-1,-1,-1,-1,-1,-1,-1,-1,-1,-1,-1,-1,-1,-1,-1,-1,-1,-1,-1,-1,-1,-1,-1,-1,-1,-1,-1],"loss_changes":[1.7685641E6,1.7113305E6,2.4082978E6,1.1590355E6,2.2752212E6,2.0302782E6,1.209847E6,1.4329525E6,1.4000048E6,7.2165225E5,2.849008E6,2.0117815E6,7.846345E5,1.202453E6,1.0536278E6,1.0659702E6,1.0616959E6,2.2425472E6,1.5652276E6,0E0,4.663615E5,1.7951748E6,3.955475E4,7.587395E5,8.615078E5,3.58352E5,8.685969E5,1.8390018E6,2.789365E5,0E0,2.2022858E6,1.0741918E6,0E0,2.6018368E6,1.0092652E6,0E0,1.04689875E6,7.3815875E4,1.1075782E6,0E0,3.3757906E4,2.0393874E6,0E0,0E0,0E0,0E0,0E0,1.0004963E6,9.362854E5,0E0,0E0,1.3330556E6,1.8920925E5,1.075819E6,0E0,9.5604356E5,0E0,7.03484E5,9.953439E5,0E0,0E0,0E0,0E0,0E0,0E0,0E0,0E0,0E0,0E0,0E0,0E0,0E0,0E0,0E0,0E0,0E0,0E0,0E0,0E0,0E0,0E0,0E0,0E0,0E0,0E0,0E0,0E0,0E0,0E0,0E0,0E0],"parents":[2147483647,0,0,1,1,2,2,3,3,4,4,5,5,6,6,7,7,8,8,9,9,10,10,11,11,12,12,13,13,14,14,15,15,16,16,17,17,18,18,20,20,21,21,22,22,23,23,24,24,25,25,26,26,27,27,28,28,30,30,31,31,33,33,34,34,36,36,37,37,38,38,40,40,41,41,47,47,48,48,51,51,52,52,53,53,55,55,57,57,58,58],"right_children":[2,4,6,8,10,12,14,16,18,20,22,24,26,28,30,32,34,36,38,-1,40,42,44,46,48,50,52,54,56,-1,58,60,-1,62,64,-1,66,68,70,-1,72,74,-1,-1,-1,-1,-1,76,78,-1,-1,80,82,84,-1,86,-1,88,90,-1,-1,-1,-1,-1,-1,-1,-1,-1,-1,-1,-1,-1,-1,-1,-1,-1,-1,-1,-1,-1,-1,-1,-1,-1,-1,-1,-1,-1,-1,-1,-1],"split_conditions":[1.32E2,1E0,9E0,6E1,1E0,4E0,5E0,1.1E1,5.01E2,2E0,2E0,7E0,3.95E2,3.85E2,5.7E1,3E0,2.46E2,2E0,1E0,2.0908025E2,1E0,1E0,1E0,4E0,2.9E1,7E0,1.83E2,1.01E2,7.15E2,1.4873354E2,1.4E1,1E0,1.4973979E2,1.9E1,4.47E2,-8.042614E1,2.64E2,5.7E1,1.7E1,-8.647171E1,1E0,3E0,-1.714539E2,6.722456E1,1.8385748E2,-1.5251217E1,2.6265228E2,1.37E2,6.2E1,5.302189E1,2.305061E2,5.06E2,1.5E1,2E1,1.0011066E2,4.62E2,5.9754875E1,2.62E2,1.63E2,-3.2773476E1,8.644342E1,4.3323236E0,1.635521E2,-8.79689E1,1.4527623E2,-4.739838E1,1.6406502E2,-5.2283535E1,-1.6514697E2,3.983582E1,-1.2999538E2,1.1170918E2,2.006252E1,-5.3388256E1,1.3901503E2,1.0845602E2,-3.8844883E1,-6.684565E1,6.2313618E1,-1.6503943E2,8.797391E1,1.6613898E2,5.947295E1,6.9332104E0,-2.9009441E1,2.527773E1,-1.0965197E2,-1.458103E2,1.8882652E1,1.1422063E2,2.7295687E1],"split_indices":[17,66,4,15,7,4,52,61,1,5,54,28,1,9,16,43,28,0,5,0,19,59,42,1,15,16,17,61,16,0,4,38,0,6,1,0,28,17,4,0,4,6,0,0,0,0,0,9,67,0,0,1,6,16,0,15,0,17,9,0,0,0,0,0,0,0,0,0,0,0,0,0,0,0,0,0,0,0,0,0,0,0,0,0,0,0,0,0,0,0,0],"split_type":[0,0,0,0,0,0,0,0,0,0,0,0,0,0,0,0,0,0,0,0,0,0,0,0,0,0,0,0,0,0,0,0,0,0,0,0,0,0,0,0,0,0,0,0,0,0,0,0,0,0,0,0,0,0,0,0,0,0,0,0,0,0,0,0,0,0,0,0,0,0,0,0,0,0,0,0,0,0,0,0,0,0,0,0,0,0,0,0,0,0,0],"sum_hessian":[1.153E3,5.53E2,6E2,5.07E2,4.6E1,6.9E1,5.31E2,4.52E2,5.5E1,1.1E1,3.5E1,4.4E1,2.5E1,4.39E2,9.2E1,3.71E2,8.1E1,2.1E1,3.4E1,7E0,4E0,2.8E1,7E0,4E0,4E1,9E0,1.6E1,3.26E2,1.13E2,6E0,8.6E1,3.69E2,2E0,6.8E1,1.3E1,5E0,1.6E1,6E0,2.8E1,1E0,3E0,2.2E1,6E0,2E0,5E0,1E0,3E0,1.6E1,2.4E1,2E0,7E0,6E0,1E1,3.14E2,1.2E1,9.6E1,1.7E1,1E1,7.6E1,3.63E2,6E0,5.8E1,1E1,1.2E1,1E0,2E0,1.4E1,2E0,4E0,2.5E1,3E0,2E0,1E0,1.6E1,6E0,1E1,6E0,1.8E1,6E0,2E0,4E0,6E0,4E0,1.22E2,1.92E2,9.2E1,4E0,7E0,3E0,1.4E1,6.2E1],"tree_param":{"num_deleted":"0","num_feature":"69","num_nodes":"91","size_leaf_vector":"1"}},{"base_weights":[3.5027034E0,-2.5320724E1,3.0066225E1,-3.638399E1,1.3024934E2,1.6115448E2,1.2761255E1,-4.004411E1,3.471528E2,2.0604283E2,-1.1881126E2,2.0588808E2,-2.7086044E2,-2.8824625E0,8.663733E1,-3.3374706E1,-2.4554324E2,-4.791238E1,1.5413849E2,4.3053226E1,4.241678E2,4.6083478E2,9.610818E1,-5.0830574E1,-1.26952576E2,1.2171078E2,-1.6684025E1,1.0361902E2,-9.513304E1,8.202781E1,-4.5274364E1,-4.0897382E2,1.0409759E2,2.5801187E2,-1.5045569E2,1.8963736E2,1.8948216E2,6.078143E2,3.6611797E1,-7.886798E1,2.1140956E2,9.897925E0,-4.5345234E1,-1.0800637E2,2.4425435E2,-4.2288017E1,5.310519E1,2.4863162E2,6.1310974E1,6.3959074E-1,1.4137607E2,-1.2104787E1,-1.21640274E2,-1.5909158E2,5.166978E1,-5.6742504E1,1.3134236E2,-6.783025E1,1.0977007E2,2.4410764E2,9.453175E1,-4.940429E1,8.523027E1,8.398984E1,-1.0276577E1,-5.6996925E1,-1.1945211E1,-8.773846E0,1.0495131E2,-1.6604961E1,7.23877E1,-2.7756414E-1,3.3735252E1,1.1789549E2,-4.6107094E1,-2.131904E2,3.1745375E1],"categories":[],"categories_nodes":[],"categories_segments":[],"categories_sizes":[],"default_left":[0,0,0,0,0,0,0,0,0,0,0,0,0,0,0,0,0,0,0,0,0,0,0,0,0,0,0,0,0,0,0,0,0,0,0,0,0,0,0,0,0,0,0,0,0,0,0,0,0,0,0,0,0,0,0,0,0,0,0,0,0,0,0,0,0,0,0,0,0,0,0,0,0,0,0,0,0],"id":8,"left_children":[1,3,5,7,9,11,13,15,17,19,-1,21,23,25,27,29,31,-1,-1,33,35,37,39,41,-1,43,45,47,-1,49,51,53,-1,55,-1,57,-1,59,-1,61,63,-1,-1,65,67,69,71,73,75,-1,-1,-1,-1,-1,-1,-1,-1,-1,-1,-1,-1,-1,-1,-1,-1,-1,-1,-1,-1,-1,-1,-1,-1,-1,-1,-1,-1],"loss_changes":[8.8432344E5,9.582357E5,1.3612989E6,7.410643E5,1.557498E6,1.4085576E6,6.150802E5,6.9627075E5,5.0437894E5,1.1549574E6,0E0,1.7469435E6,2.1308634E5,7.586464E5,6.7049606E5,6.889655E5,1.6913248E6,0E0,0E0,2.470608E6,5.613355E5,8.719465E5,9.44723E5,3.8623754E4,0E0,1.2649968E6,7.116381E5,5.369241E5,0E0,1.4605785E6,7.872519E5,1.0080775E6,0E0,1.2887538E6,0E0,6.68964E5,0E0,5.27009E5,0E0,6.3858725E5,4.811645E5,0E0,0E0,8.188095E4,8.476671E5,1.091244E6,3.4319622E5,1.221928E6,2.51454E6,0E0,0E0,0E0,0E0,0E0,0E0,0E0,0E0,0E0,0E0,0E0,0E0,0E0,0E0,0E0,0E0,0E0,0E0,0E0,0E0,0E0,0E0,0E0,0E0,0E0,0E0,0E0,0E0],"parents":[2147483647,0,0,1,1,2,2,3,3,4,4,5,5,6,6,7,7,8,8,9,9,11,11,12,12,13,13,14,14,15,15,16,16,19,19,20,20,21,21,22,22,23,23,25,25,26,26,27,27,29,29,30,30,31,31,33,33,35,35,37,37,39,39,40,40,43,43,44,44,45,45,46,46,47,47,48,48],"right_children":[2,4,6,8,10,12,14,16,18,20,-1,22,24,26,28,30,32,-1,-1,34,36,38,40,42,-1,44,46,48,-1,50,52,54,-1,56,-1,58,-1,60,-1,62,64,-1,-1,66,68,70,72,74,76,-1,-1,-1,-1,-1,-1,-1,-1,-1,-1,-1,-1,-1,-1,-1,-1,-1,-1,-1,-1,-1,-1,-1,-1,-1,-1,-1,-1],"split_conditions":[1.32E2,1E0,9E0,2E0,1E0,5E0,5E0,2E0,2E0,1E0,-1.1881126E2,3.7E1,1.1E1,4.2E1,2.1E1,1E0,3E0,-4.791238E1,1.5413849E2,5E0,2E0,4.5E1,4E0,3.04E2,-1.26952576E2,5E0,3.85E2,2.04E2,-9.513304E1,2E0,2E0,1E0,1.0409759E2,1E0,-1.5045569E2,1E0,1.8948216E2,4E0,3.6611797E1,9.22E2,6E0,9.897925E0,-4.5345234E1,2.1E1,2E1,1.01E2,4.1E1,8E0,4.2E1,6.3959074E-1,1.4137607E2,-1.2104787E1,-1.21640274E2,-1.5909158E2,5.166978E1,-5.6742504E1,1.3134236E2,-6.783025E1,1.0977007E2,2.4410764E2,9.453175E1,-4.940429E1,8.523027E1,8.398984E1,-1.0276577E1,-5.6996925E1,-1.1945211E1,-8.773846E0,1.0495131E2,-1.6604961E1,7.23877E1,-2.7756414E-1,3.3735252E1,1.1789549E2,-4.6107094E1,-2.131904E2,3.1745375E1],"split_indices":[17,63,4,43,61,19,52,26,16,4,0,16,0,28,40,17,26,0,0,46,68,23,42,1,0,0,9,17,0,68,7,38,0,26,0,22,0,67,0,1,46,0,0,4,28,61,54,54,15,0,0,0,0,0,0,0,0,0,0,0,0,0,0,0,0,0,0,0,0,0,0,0,0,0,0,0,0],"split_type":[0,0,0,0,0,0,0,0,0,0,0,0,0,0,0,0,0,0,0,0,0,0,0,0,0,0,0,0,0,0,0,0,0,0,0,0,0,0,0,0,0,0,0,0,0,0,0,0,0,0,0,0,0,0,0,0,0,0,0,0,0,0,0,0,0,0,0,0,0,0,0,0,0,0,0,0,0],"sum_hessian":[1.153E3,5.53E2,6E2,5.17E2,3.6E1,6.9E1,5.31E2,5.13E2,4E0,3.2E1,4E0,6.3E1,6E0,4.39E2,9.2E1,4.98E2,1.5E1,1E0,3E0,1.9E1,1.3E1,1.8E1,4.5E1,3E0,3E0,4.3E1,3.96E2,8.9E1,3E0,4.6E1,4.52E2,1.2E1,3E0,1.4E1,5E0,7E0,6E0,1.2E1,6E0,1.8E1,2.7E1,2E0,1E0,1.5E1,2.8E1,2.9E2,1.06E2,1.9E1,7E1,3.9E1,7E0,4.47E2,5E0,1E1,2E0,4E0,1E1,2E0,5E0,6E0,6E0,1.5E1,3E0,2.1E1,6E0,6E0,9E0,8E0,2E1,2.78E2,1.2E1,5.6E1,5E1,1.4E1,5E0,3E0,6.7E1],"tree_param":{"num_deleted":"0","num_feature":"69","num_nodes":"77","size_leaf_vector":"1"}},{"base_weights":[2.7829206E0,-1.7457493E1,2.1435843E1,2.439451E1,-4.702212E1,1.7933101E2,1.2240807E1,-6.650464E0,2.0992513E2,-1.6071332E2,-1.2863308E1,2.894594E2,-2.7106873E2,1.6686147E2,5.4218745E0,-3.4683296E1,1.8013147E2,3.1648663E2,-6.681497E1,-1.7417345E2,1.2530051E2,-3.3920102E2,-7.2379076E-1,4.067627E2,-3.9981216E1,-1.0309098E2,-1.7929804E1,3.3766693E2,2.0738485E1,-3.2837033E2,8.491135E0,1.4241878E2,-6.556148E1,2.4495684E1,1.7972163E2,3.5314166E2,-1.7343782E1,-1.8788844E2,8.349577E1,-1.5729607E2,-1.2906111E2,-1.3924677E2,-5.9809284E1,4.559942E2,-1.2234649E1,4.5827393E2,-8.579259E1,-6.798841E1,2.3410372E1,1.641736E2,2.1543226E1,-1.7333347E2,3.0838998E2,-5.3194227E0,-1.20479164E2,-1.7368294E1,4.1347935E1,-6.585338E0,1.2228173E2,-1.012005E2,-8.315425E0,6.2301723E1,-8.286854E1,1.1417181E2,-3.343635E1,-1.3163211E1,-6.857378E1,-5.2756145E1,-1.5419813E1,-1.7412912E1,1.7112308E2,-2.0895546E1,1.1806688E1,1.6606218E2,2.4245766E1,-4.662153E0,-3.1031763E1,-7.838403E1,-2.5744041E1,1.0030352E2,2.6792194E1,-3.157802E0,-1.5837248E2,4.6989548E1,8.07079E-1],"categories":[],"categories_nodes":[],"categories_segments":[],"categories_sizes":[],"default_left":[0,0,0,0,0,0,0,0,0,0,0,0,0,0,0,0,0,0,0,0,0,0,0,0,0,0,0,0,0,0,0,0,0,0,0,0,0,0,0,0,0,0,0,0,0,0,0,0,0,0,0,0,0,0,0,0,0,0,0,0,0,0,0,0,0,0,0,0,0,0,0,0,0,0,0,0,0,0,0,0,0,0,0,0,0],"id":9,"left_children":[1,3,5,7,9,11,13,15,17,19,21,23,25,27,29,31,33,35,37,39,-1,41,43,45,47,-1,-1,49,51,53,55,57,59,61,-1,63,-1,65,-1,67,-1,-1,-1,69,71,73,-1,75,-1,-1,-1,77,79,-1,-1,81,83,-1,-1,-1,-1,-1,-1,-1,-1,-1,-1,-1,-1,-1,-1,-1,-1,-1,-1,-1,-1,-1,-1,-1,-1,-1,-1,-1,-1],"loss_changes":[4.3605872E5,6.866328E5,8.7036775E5,1.3261485E6,1.2600885E6,1.715323E6,5.990191E5,1.04298075E6,9.9431075E5,6.56629E5,9.941117E5,1.0596635E6,8.679878E4,5.920038E5,5.621626E5,9.554032E5,1.6805812E6,3.4969525E5,4.7015894E5,2.520935E5,0E0,6.47235E4,1.2830822E6,8.4473075E5,3.1747773E4,0E0,0E0,5.7359675E5,8.350055E5,1.0661469E5,4.6123275E5,1.142255E6,1.5128048E6,1.1590784E6,0E0,3.2279175E5,0E0,3.6849906E4,0E0,1.30490625E5,0E0,0E0,0E0,3.8599312E5,7.0773706E5,6.3848075E5,0E0,1.1407742E4,0E0,0E0,0E0,4.685247E4,4.258375E3,0E0,0E0,1.0563946E6,1.0647075E6,0E0,0E0,0E0,0E0,0E0,0E0,0E0,0E0,0E0,0E0,0E0,0E0,0E0,0E0,0E0,0E0,0E0,0E0,0E0,0E0,0E0,0E0,0E0,0E0,0E0,0E0,0E0,0E0],"parents":[2147483647,0,0,1,1,2,2,3,3,4,4,5,5,6,6,7,7,8,8,9,9,10,10,11,11,12,12,13,13,14,14,15,15,16,16,17,17,18,18,19,19,21,21,22,22,23,23,24,24,27,27,28,28,29,29,30,30,31,31,32,32,33,33,35,35,37,37,39,39,43,43,44,44,45,45,47,47,51,51,52,52,55,55,56,56],"right_children":[2,4,6,8,10,12,14,16,18,20,22,24,26,28,30,32,34,36,38,40,-1,42,44,46,48,-1,-1,50,52,54,56,58,60,62,-1,64,-1,66,-1,68,-1,-1,-1,70,72,74,-1,76,-1,-1,-1,78,80,-1,-1,82,84,-1,-1,-1,-1,-1,-1,-1,-1,-1,-1,-1,-1,-1,-1,-1,-1,-1,-1,-1,-1,-1,-1,-1,-1,-1,-1,-1,-1],"split_conditions":[1.32E2,1.5E1,1.48E2,1.9E1,8E0,4.74E2,2E0,2E0,5E1,1E1,6.3E1,1.6E1,1.75E2,3.7E1,1.52E2,1E0,1E0,3E0,4.77E2,8.3E1,1.2530051E2,1E0,4E0,8E0,3.3E1,-1.0309098E2,-1.7929804E1,2E0,1.51E2,1E0,3.88E2,1E0,1E0,1E0,1.7972163E2,5E0,-1.7343782E1,3.278E3,8.349577E1,1.4E1,-1.2906111E2,-1.3924677E2,-5.9809284E1,2.7E1,4.4E1,1.9E1,-8.579259E1,3E0,2.3410372E1,1.641736E2,2.1543226E1,1E0,7.4E1,-5.3194227E0,-1.20479164E2,3.8E2,6.43E2,-6.585338E0,1.2228173E2,-1.012005E2,-8.315425E0,6.2301723E1,-8.286854E1,1.1417181E2,-3.343635E1,-1.3163211E1,-6.857378E1,-5.2756145E1,-1.5419813E1,-1.7412912E1,1.7112308E2,-2.0895546E1,1.1806688E1,1.6606218E2,2.4245766E1,-4.662153E0,-3.1031763E1,-7.838403E1,-2.5744041E1,1.0030352E2,2.6792194E1,-3.157802E0,-1.5837248E2,4.6989548E1,8.07079E-1],"split_indices":[17,28,17,23,6,1,4,68,16,54,28,5,16,16,17,5,58,42,15,15,0,5,9,54,46,0,0,0,28,0,1,66,1,67,0,54,0,1,0,5,0,0,0,15,15,6,0,1,0,0,0,5,9,0,0,1,1,0,0,0,0,0,0,0,0,0,0,0,0,0,0,0,0,0,0,0,0,0,0,0,0,0,0,0,0],"split_type":[0,0,0,0,0,0,0,0,0,0,0,0,0,0,0,0,0,0,0,0,0,0,0,0,0,0,0,0,0,0,0,0,0,0,0,0,0,0,0,0,0,0,0,0,0,0,0,0,0,0,0,0,0,0,0,0,0,0,0,0,0,0,0,0,0,0,0,0,0,0,0,0,0,0,0,0,0,0,0,0,0,0,0,0,0],"sum_hessian":[1.153E3,5.53E2,6E2,2.29E2,3.24E2,3.2E1,5.68E2,1.97E2,3.2E1,7.4E1,2.5E2,2.6E1,6E0,2.3E1,5.45E2,1.72E2,2.5E1,2.3E1,9E0,7.3E1,1E0,8E0,2.42E2,1.9E1,7E0,4E0,2E0,1E1,1.3E1,4E0,5.41E2,2.5E1,1.47E2,1.9E1,6E0,2.1E1,2E0,7E0,2E0,7E1,3E0,3E0,5E0,5E0,2.37E2,1.8E1,1E0,6E0,1E0,5E0,5E0,8E0,5E0,1E0,3E0,3.03E2,2.38E2,1.6E1,9E0,1.7E1,1.3E2,1.2E1,7E0,2E1,1E0,2E0,5E0,5.9E1,1.1E1,1E0,4E0,1.12E2,1.25E2,1.4E1,4E0,3E0,3E0,3E0,5E0,4E0,1E0,3E2,3E0,5.9E1,1.79E2],"tree_param":{"num_deleted":"0","num_feature":"69","num_nodes":"85","size_leaf_vector":"1"}},{"base_weights":[1.9865857E0,7.0245254E-1,8.908198E1,-1.0951654E2,4.7729716E0,-1.9456094E2,6.8394875E1,1.16223076E2,-2.3840492E0,-1.2837213E2,-1.8401268E1,-9.9827354E1,3.0932907E2,6.0753307E1,3.2187625E2,-3.0339367E1,1.3660168E1,1.3599371E2,-3.2412436E2,-1.9771019E2,1.618417E2,1.2009071E2,-2.1830616E1,5.110115E0,2.7780304E2,3.6729446E2,-4.0284096E1,-6.1320217E1,8.0658865E0,3.5843414E2,5.1393E0,9.8198204E1,-5.9201653E1,-1.0567899E2,-2.7514437E1,-2.148813E1,-8.230972E1,9.581259E1,-2.2983828E1,-1.1271365E1,1.0366163E2,1.0561696E2,-6.970973E1,1.2114499E2,3.3284523E1,-1.1819677E1,-7.4355965E1,3.7852417E1,-7.3093286E0,2.3130816E1,1.5585681E2,-1.4644579E1,5.5854173E0],"categories":[],"categories_nodes":[],"categories_segments":[],"categories_sizes":[],"default_left":[0,0,0,0,0,0,0,0,0,0,0,0,0,0,0,0,0,0,0,0,0,0,0,0,0,0,0,0,0,0,0,0,0,0,0,0,0,0,0,0,0,0,0,0,0,0,0,0,0,0,0,0,0],"id":10,"left_children":[1,3,-1,5,7,9,11,13,15,-1,17,19,21,23,25,27,29,31,33,35,37,-1,-1,39,41,43,-1,45,47,49,51,-1,-1,-1,-1,-1,-1,-1,-1,-1,-1,-1,-1,-1,-1,-1,-1,-1,-1,-1,-1,-1,-1],"loss_changes":[4.3687975E5,5.164685E5,0E0,6.336521E5,8.856694E5,1.1430989E6,5.983063E5,7.447497E5,4.6867056E5,0E0,8.4651475E5,2.6251394E5,2.3769369E5,6.507569E5,3.3937E5,4.538188E5,1.9488396E6,8.299271E5,6.9308125E3,4.800272E4,1.37162E5,0E0,0E0,6.523E5,4.9850556E5,7.6907125E4,0E0,8.530234E5,6.580566E5,6.8505175E5,4.728879E5,0E0,0E0,0E0,0E0,0E0,0E0,0E0,0E0,0E0,0E0,0E0,0E0,0E0,0E0,0E0,0E0,0E0,0E0,0E0,0E0,0E0,0E0],"parents":[2147483647,0,0,1,1,3,3,4,4,5,5,6,6,7,7,8,8,10,10,11,11,12,12,13,13,14,14,15,15,16,16,17,17,18,18,19,19,20,20,23,23,24,24,25,25,27,27,28,28,29,29,30,30],"right_children":[2,4,-1,6,8,10,12,14,16,-1,18,20,22,24,26,28,30,32,34,36,38,-1,-1,40,42,44,-1,46,48,50,52,-1,-1,-1,-1,-1,-1,-1,-1,-1,-1,-1,-1,-1,-1,-1,-1,-1,-1,-1,-1,-1,-1],"split_conditions":[3E0,1E0,8.908198E1,1E0,1E0,1E0,1E0,1E0,4E0,-1.2837213E2,2E0,1E0,2E0,2E0,1E0,1.36E2,2E0,2E0,2E0,1E0,2E0,1.2009071E2,-2.1830616E1,1E0,2E0,2E0,-4.0284096E1,8.9E1,7E0,1E0,4.2E1,9.8198204E1,-5.9201653E1,-1.0567899E2,-2.7514437E1,-2.148813E1,-8.230972E1,9.581259E1,-2.2983828E1,-1.1271365E1,1.0366163E2,1.0561696E2,-6.970973E1,1.2114499E2,3.3284523E1,-1.1819677E1,-7.4355965E1,3.7852417E1,-7.3093286E0,2.3130816E1,1.5585681E2,-1.4644579E1,5.5854173E0],"split_indices":[26,1,0,9,9,56,51,50,0,0,50,4,9,68,59,17,42,37,27,3,0,0,0,61,37,17,0,16,4,5,9,0,0,0,0,0,0,0,0,0,0,0,0,0,0,0,0,0,0,0,0,0,0],"split_type":[0,0,0,0,0,0,0,0,0,0,0,0,0,0,0,0,0,0,0,0,0,0,0,0,0,0,0,0,0,0,0,0,0,0,0,0,0,0,0,0,0,0,0,0,0,0,0,0,0,0,0,0,0],"sum_hessian":[1.153E3,1.149E3,4E0,4E1,1.109E3,2.7E1,1.3E1,6.6E1,1.043E3,1.1E1,1.6E1,8E0,5E0,5.3E1,1.3E1,3.8E2,6.63E2,1.1E1,5E0,6E0,2E0,4E0,1E0,4.3E1,1E1,1.2E1,1E0,2.1E2,1.7E2,1.5E1,6.48E2,7E0,4E0,4E0,1E0,3E0,3E0,1E0,1E0,3.9E1,4E0,9E0,1E0,1E1,2E0,1.89E2,2.1E1,3.6E1,1.34E2,6E0,9E0,1.29E2,5.19E2],"tree_param":{"num_deleted":"0","num_feature":"69","num_nodes":"53","size_leaf_vector":"1"}},{"base_weights":[1.642374E0,2.5699956E0,-7.970741E1,-2.7371642E-1,9.600236E1,2.7247593E0,-1.0550171E2,1.3215692E2,-6.245885E1,3.7437325E1,-6.166722E0,-1.5068147E2,2.3713208E2,2.0264809E2,3.6585948E0,1.7995893E1,2.4420651E2,-5.1605347E1,6.8344946E0,-1.8792361E2,2.2231087E2,8.0595856E1,2.1385475E1,2.365218E2,-6.614291E1,1.9107935E2,-1.5751042E2,-6.9184995E0,3.3075806E1,9.299554E1,-6.298231E1,-2.1869106E1,6.1774696E1,1.6772118E1,-4.1395764E0,-1.1093854E1,-8.398574E1,1.6720789E1,8.331911E1,4.5588432E1,9.407794E1,1.2290003E1,9.826095E1,-7.076919E1,4.692162E1],"categories":[],"categories_nodes":[],"categories_segments":[],"categories_sizes":[],"default_left":[0,0,0,0,0,0,0,0,0,0,0,0,0,0,0,0,0,0,0,0,0,0,0,0,0,0,0,0,0,0,0,0,0,0,0,0,0,0,0,0,0,0,0,0,0],"id":11,"left_children":[1,3,-1,5,7,9,11,13,-1,15,17,19,21,23,25,27,29,31,33,35,37,-1,-1,39,-1,41,43,-1,-1,-1,-1,-1,-1,-1,-1,-1,-1,-1,-1,-1,-1,-1,-1,-1,-1],"loss_changes":[2.8685706E5,3.058409E5,0E0,3.5304284E5,4.0145225E5,3.3603784E5,5.15615E5,2.8005644E5,0E0,8.880206E5,5.125393E5,4.307263E5,1.759625E3,3.388035E5,3.92574E5,7.752616E5,6.326691E5,1.07324E6,6.8422125E5,3.5081912E5,1.2214922E4,0E0,0E0,7.6172375E4,0E0,1.0948558E5,2.0914377E5,0E0,0E0,0E0,0E0,0E0,0E0,0E0,0E0,0E0,0E0,0E0,0E0,0E0,0E0,0E0,0E0,0E0,0E0],"parents":[2147483647,0,0,1,1,3,3,4,4,5,5,6,6,7,7,9,9,10,10,11,11,12,12,13,13,14,14,15,15,16,16,17,17,18,18,19,19,20,20,23,23,25,25,26,26],"right_children":[2,4,-1,6,8,10,12,14,-1,16,18,20,22,24,26,28,30,32,34,36,38,-1,-1,40,-1,42,44,-1,-1,-1,-1,-1,-1,-1,-1,-1,-1,-1,-1,-1,-1,-1,-1,-1,-1],"split_conditions":[3E0,1E0,-7.970741E1,1E0,2E0,2.9E1,3E0,1E0,-6.245885E1,1E0,1E0,3E0,1E0,3E0,1E0,1.9E1,1E0,2.05E2,1E0,1E0,1E0,8.0595856E1,2.1385475E1,3E0,-6.614291E1,1E0,2E0,-6.9184995E0,3.3075806E1,9.299554E1,-6.298231E1,-2.1869106E1,6.1774696E1,1.6772118E1,-4.1395764E0,-1.1093854E1,-8.398574E1,1.6720789E1,8.331911E1,4.5588432E1,9.407794E1,1.2290003E1,9.826095E1,-7.076919E1,4.692162E1],"split_indices":[63,63,0,27,37,28,26,50,0,19,54,57,1,22,42,23,39,16,5,5,4,0,0,16,0,37,19,0,0,0,0,0,0,0,0,0,0,0,0,0,0,0,0,0,0],"split_type":[0,0,0,0,0,0,0,0,0,0,0,0,0,0,0,0,0,0,0,0,0,0,0,0,0,0,0,0,0,0,0,0,0,0,0,0,0,0,0,0,0,0,0,0,0],"sum_hessian":[1.153E3,1.15E3,3E0,1.117E3,3.3E1,1.087E3,3E1,3E1,3E0,2.21E2,8.66E2,2.7E1,3E0,1.9E1,1.1E1,2.03E2,1.8E1,1.92E2,6.74E2,2.5E1,2E0,2E0,1E0,1.8E1,1E0,5E0,6E0,1.41E2,6.2E1,1.6E1,2E0,1.78E2,1.4E1,1.99E2,4.75E2,1E1,1.5E1,1E0,1E0,1E1,8E0,3E0,2E0,5E0,1E0],"tree_param":{"num_deleted":"0","num_feature":"69","num_nodes":"45","size_leaf_vector":"1"}},{"base_weights":[1.3521807E0,5.983211E0,-5.154574E1,3.2260466E0,1.4947018E2,-1.0807972E2,8.355385E1,1.2921841E1,-1.833012E1,6.2594196E1,4.813256E2,-1.6216139E2,7.4545956E0,-9.947183E1,1.2823946E2,1.00304365E1,2.6900302E2,-4.5032707E1,4.2812454E1,1.9963683E2,-1.2981107E2,1.7146983E2,3.159062E1,-1.1702886E2,-9.252671E1,2.9342682E2,-5.314243E1,2.4909573E2,7.0603165E1,-4.586458E0,4.915804E1,-4.6246765E1,5.5372955E2,-2.9003859E1,-2.1813628E2,2.3823805E2,1.817769E1,2.7596817E2,-1.1890062E2,-1.4491632E2,7.141159E1,1.4460356E2,-4.0849262E1,-1.5382574E2,1.03603745E2,3.274216E1,9.337223E1,9.008784E1,-4.201814E1,1.4950125E0,-2.1854816E1,6.5581055E1,7.5266232E0,4.3157314E1,2.3370746E2,-1.2280064E1,4.5927048E1,-9.685335E1,-2.7484331E1,9.3271805E1,-7.3266235E1,-1.8982113E1,1.8199827E1,-1.7027637E1,1.1443865E2,4.3177242E1,-4.740912E1,1.7925142E2,-5.5028744E0,4.078394E0,2.9639948E1],"categories":[],"categories_nodes":[],"categories_segments":[],"categories_sizes":[],"default_left":[0,0,0,0,0,0,0,0,0,0,0,0,0,0,0,0,0,0,0,0,0,0,0,0,0,0,0,0,0,0,0,0,0,0,0,0,0,0,0,0,0,0,0,0,0,0,0,0,0,0,0,0,0,0,0,0,0,0,0,0,0,0,0,0,0,0,0,0,0,0,0],"id":12,"left_children":[1,3,5,7,9,11,13,15,17,19,21,23,25,-1,27,29,31,33,35,37,-1,-1,-1,39,-1,41,43,45,47,49,51,-1,53,55,57,59,61,63,-1,65,-1,-1,-1,-1,67,-1,-1,69,-1,-1,-1,-1,-1,-1,-1,-1,-1,-1,-1,-1,-1,-1,-1,-1,-1,-1,-1,-1,-1,-1,-1],"loss_changes":[2.8300594E5,4.1966325E5,7.1933825E5,2.182282E5,5.464772E5,4.135958E5,5.6192594E5,5.3041444E5,5.3091144E5,1.240291E6,7.554306E4,2.6095638E5,3.9683288E5,0E0,1.6352147E5,4.0800728E5,1.0492371E6,6.2074425E5,4.7228147E5,7.4625506E5,0E0,0E0,0E0,3.909651E5,0E0,3.8969056E5,1.4219231E6,3.5611156E4,9.060724E4,3.4006075E5,7.857315E5,0E0,3.4964225E5,4.5810994E5,2.2213238E5,4.6158206E5,3.118444E5,4.779603E5,0E0,1.5153219E5,0E0,0E0,0E0,0E0,9.144035E5,0E0,0E0,1.06521875E4,0E0,0E0,0E0,0E0,0E0,0E0,0E0,0E0,0E0,0E0,0E0,0E0,0E0,0E0,0E0,0E0,0E0,0E0,0E0,0E0,0E0,0E0,0E0],"parents":[2147483647,0,0,1,1,2,2,3,3,4,4,5,5,6,6,7,7,8,8,9,9,10,10,11,11,12,12,14,14,15,15,16,16,17,17,18,18,19,19,23,23,25,25,26,26,27,27,28,28,29,29,30,30,32,32,33,33,34,34,35,35,36,36,37,37,39,39,44,44,47,47],"right_children":[2,4,6,8,10,12,14,16,18,20,22,24,26,-1,28,30,32,34,36,38,-1,-1,-1,40,-1,42,44,46,48,50,52,-1,54,56,58,60,62,64,-1,66,-1,-1,-1,-1,68,-1,-1,70,-1,-1,-1,-1,-1,-1,-1,-1,-1,-1,-1,-1,-1,-1,-1,-1,-1,-1,-1,-1,-1,-1,-1],"split_conditions":[2.7E1,1.1E1,1.6E1,9.4E1,3.09E2,4.9E1,3.8E1,2.5E1,2.76E2,5.51E2,3E1,8.91E2,1.4E1,-9.947183E1,4.4E1,2.72E2,1.1E1,4.1E1,5E0,2.4E1,-1.2981107E2,1.7146983E2,3.159062E1,7.28E2,-9.252671E1,8E0,1.19E2,3.3E1,2.15E2,1.2E1,2.95E2,-4.6246765E1,4E0,1.01E2,2.41E2,4.7E1,3.1E1,3.12E2,-1.1890062E2,1.2E1,7.141159E1,1.4460356E2,-4.0849262E1,-1.5382574E2,1.7E1,3.274216E1,9.337223E1,1.1E1,-4.201814E1,1.4950125E0,-2.1854816E1,6.5581055E1,7.5266232E0,4.3157314E1,2.3370746E2,-1.2280064E1,4.5927048E1,-9.685335E1,-2.7484331E1,9.3271805E1,-7.3266235E1,-1.8982113E1,1.8199827E1,-1.7027637E1,1.1443865E2,4.3177242E1,-4.740912E1,1.7925142E2,-5.5028744E0,4.078394E0,2.9639948E1],"split_indices":[6,40,67,16,17,6,15,6,9,28,0,17,4,0,6,1,9,0,54,54,0,0,0,9,0,0,9,6,6,6,1,0,19,61,9,5,0,1,0,28,0,0,0,0,4,0,0,0,0,0,0,0,0,0,0,0,0,0,0,0,0,0,0,0,0,0,0,0,0,0,0],"split_type":[0,0,0,0,0,0,0,0,0,0,0,0,0,0,0,0,0,0,0,0,0,0,0,0,0,0,0,0,0,0,0,0,0,0,0,0,0,0,0,0,0,0,0,0,0,0,0,0,0,0,0,0,0,0,0,0,0,0,0,0,0,0,0,0,0,0,0,0,0,0,0],"sum_hessian":[1.153E3,1.061E3,9.2E1,1.042E3,1.9E1,6.5E1,2.7E1,7.19E2,3.23E2,1.6E1,3E0,4.4E1,2.1E1,2E0,2.5E1,7.12E2,7E0,2.25E2,9.8E1,1.3E1,3E0,2E0,1E0,3.5E1,9E0,3E0,1.8E1,7E0,1.8E1,5.19E2,1.93E2,3E0,4E0,2.07E2,1.8E1,1E1,8.8E1,1.2E1,1E0,3.3E1,2E0,2E0,1E0,4E0,1.4E1,3E0,4E0,1.7E1,1E0,4.56E2,6.3E1,2.3E1,1.7E2,2E0,2E0,1.95E2,1.2E1,9E0,9E0,9E0,1E0,3E1,5.8E1,3E0,9E0,1E0,3.2E1,2E0,1.2E1,2E0,1.5E1],"tree_param":{"num_deleted":"0","num_feature":"69","num_nodes":"71","size_leaf_vector":"1"}},{"base_weights":[1.2761054E0,-6.145926E-1,8.332695E1,7.738237E-1,-2.6060883E2,6.323263E1,6.4891754E1,-1.1075506E0,9.0882545E1,-3.4294278E2,2.2659138E1,-4.3016438E1,8.853398E1,-3.5704497E-1,-6.2109623E1,1.14852684E2,-1.07202614E2,-4.306449E1,-1.284069E2,1.1155658E2,1.6610962E1,4.7491634E1,-4.1601715E0,1.51872635E1,1.9486574E2,-9.631135E1,4.8070168E1,1.5229715E1,3.785387E1,5.5387425E0,9.302247E1,-7.955381E-1,-5.8334988E1,2.292839E1,7.240399E1],"categories":[],"categories_nodes":[],"categories_segments":[],"categories_sizes":[],"default_left":[0,0,0,0,0,0,0,0,0,0,0,0,0,0,0,0,0,0,0,0,0,0,0,0,0,0,0,0,0,0,0,0,0,0,0],"id":13,"left_children":[1,3,5,7,9,11,-1,13,15,17,-1,-1,19,21,-1,23,25,-1,-1,27,-1,29,31,-1,33,-1,-1,-1,-1,-1,-1,-1,-1,-1,-1],"loss_changes":[1.7907512E5,4.0774838E5,5.579753E4,1.9065038E5,1.9195662E5,1.3816153E5,0E0,1.7023745E5,1.2151947E5,2.3380688E4,0E0,0E0,1.0620656E4,2.0018762E5,0E0,9.80565E4,2.2300314E5,0E0,0E0,4.2617188E3,0E0,6.1170356E5,2.919668E5,0E0,3.110025E4,0E0,0E0,0E0,0E0,0E0,0E0,0E0,0E0,0E0,0E0],"parents":[2147483647,0,0,1,1,2,2,3,3,4,4,5,5,7,7,8,8,9,9,12,12,13,13,15,15,16,16,19,19,21,21,22,22,24,24],"right_children":[2,4,6,8,10,12,-1,14,16,18,-1,-1,20,22,-1,24,26,-1,-1,28,-1,30,32,-1,34,-1,-1,-1,-1,-1,-1,-1,-1,-1,-1],"split_conditions":[4.65E2,5.055E3,1.3322E4,4.3E1,1.535E3,1E0,6.4891754E1,3E0,4.62E2,1E0,2.2659138E1,-4.3016438E1,1.415E3,1E0,-6.2109623E1,1E0,6.45E2,-4.306449E1,-1.284069E2,2.51E2,1.6610962E1,2E0,2E0,1.51872635E1,3E0,-9.631135E1,4.8070168E1,1.5229715E1,3.785387E1,5.5387425E0,9.302247E1,-7.955381E-1,-5.8334988E1,2.292839E1,7.240399E1],"split_indices":[15,57,25,46,9,0,0,63,15,0,0,0,42,28,0,29,1,0,0,4,0,56,56,0,0,0,0,0,0,0,0,0,0,0,0],"split_type":[0,0,0,0,0,0,0,0,0,0,0,0,0,0,0,0,0,0,0,0,0,0,0,0,0,0,0,0,0,0,0,0,0,0,0],"sum_hessian":[1.153E3,1.128E3,2.5E1,1.123E3,5E0,2.3E1,2E0,1.101E3,2.2E1,4E0,1E0,2E0,2.1E1,1.098E3,3E0,2E1,2E0,2E0,2E0,1.1E1,1E1,8E1,1.018E3,1.2E1,8E0,1E0,1E0,3E0,8E0,7.3E1,7E0,1.011E3,7E0,3E0,5E0],"tree_param":{"num_deleted":"0","num_feature":"69","num_nodes":"35","size_leaf_vector":"1"}},{"base_weights":[8.7798285E-1,1.1720592E-1,1.7568108E2,2.107329E0,-1.0201762E2,2.9373049E1,7.301472E1,1.6388153E1,-8.908772E0,-2.0250662E2,1.6881084E1,1.13441925E1,2.8582022E2,-7.193618E1,-1.014662E0,-2.944588E2,-1.488183E1,1.131002E2,-1.7977742E2,6.247175E0,1.0088985E2,2.2863303E2,4.0864548E1,4.366377E1,-1.06359146E2,4.569181E1,-1.2714713E1,-4.689441E1,-1.038247E2,-4.16114E1,3.4170486E1,9.9931135E0,8.448429E1,-6.442931E1,-1.1222487E1,-7.7235274E0,8.441523E0,8.973939E1,-1.1507579E0,-2.5280659E1,7.073962E1,5.5884766E1,-9.385282E0,-5.513322E1,-5.7800946E0,-4.8510156E0,5.751742E1,-1.673936E1,8.6538553E-1,-1.602099E1,1.6512644E1],"categories":[],"categories_nodes":[],"categories_segments":[],"categories_sizes":[],"default_left":[0,0,0,0,0,0,0,0,0,0,0,0,0,0,0,0,0,0,0,0,0,0,0,0,0,0,0,0,0,0,0,0,0,0,0,0,0,0,0,0,0,0,0,0,0,0,0,0,0,0,0],"id":14,"left_children":[1,3,5,7,9,-1,-1,11,13,15,17,19,21,23,25,27,29,31,33,35,37,-1,39,41,43,45,47,-1,-1,-1,-1,49,-1,-1,-1,-1,-1,-1,-1,-1,-1,-1,-1,-1,-1,-1,-1,-1,-1,-1,-1],"loss_changes":[1.5344545E5,2.3396497E5,2.4963438E3,1.7775917E5,2.6627484E5,0E0,0E0,6.653879E5,3.1736094E5,2.0264797E5,2.2847822E5,2.2027494E5,1.0188856E6,2.871738E5,3.1097484E5,2.9541875E3,9.5530336E4,1.3618577E5,1.1890281E4,3.2218516E5,5.409329E5,0E0,1.9061992E5,1.8754067E5,3.67298E5,1.0329612E6,3.0595206E5,0E0,0E0,0E0,0E0,2.0075115E4,0E0,0E0,0E0,0E0,0E0,0E0,0E0,0E0,0E0,0E0,0E0,0E0,0E0,0E0,0E0,0E0,0E0,0E0,0E0],"parents":[2147483647,0,0,1,1,2,2,3,3,4,4,7,7,8,8,9,9,10,10,11,11,12,12,13,13,14,14,15,15,16,16,17,17,18,18,19,19,20,20,22,22,23,23,24,24,25,25,26,26,31,31],"right_children":[2,4,6,8,10,-1,-1,12,14,16,18,20,22,24,26,28,30,32,34,36,38,-1,40,42,44,46,48,-1,-1,-1,-1,50,-1,-1,-1,-1,-1,-1,-1,-1,-1,-1,-1,-1,-1,-1,-1,-1,-1,-1,-1],"split_conditions":[3E0,2E0,2E0,3.7E1,1E0,2.9373049E1,7.301472E1,3.6E1,2E0,2E0,2E0,1E0,3E0,2E0,9E0,1E0,2E0,1E0,3E0,1.9E1,1E0,2.2863303E2,1.1E1,5.2E1,2E2,5.9E1,2.5E1,-4.689441E1,-1.038247E2,-4.16114E1,3.4170486E1,1E0,8.448429E1,-6.442931E1,-1.1222487E1,-7.7235274E0,8.441523E0,8.973939E1,-1.1507579E0,-2.5280659E1,7.073962E1,5.5884766E1,-9.385282E0,-5.513322E1,-5.7800946E0,-4.8510156E0,5.751742E1,-1.673936E1,8.6538553E-1,-1.602099E1,1.6512644E1],"split_indices":[26,26,5,16,0,0,0,16,0,68,37,33,4,9,4,37,56,39,0,23,0,0,0,16,17,15,4,0,0,0,0,1,0,0,0,0,0,0,0,0,0,0,0,0,0,0,0,0,0,0,0],"split_type":[0,0,0,0,0,0,0,0,0,0,0,0,0,0,0,0,0,0,0,0,0,0,0,0,0,0,0,0,0,0,0,0,0,0,0,0,0,0,0,0,0,0,0,0,0,0,0,0,0,0,0],"sum_hessian":[1.153E3,1.149E3,4E0,1.128E3,2.1E1,3E0,1E0,4.91E2,6.37E2,1.1E1,1E1,4.83E2,8E0,7E1,5.67E2,7E0,4E0,7E0,3E0,4.58E2,2.5E1,2E0,6E0,1.6E1,5.4E1,1.13E2,4.54E2,3E0,4E0,2E0,2E0,5E0,2E0,2E0,1E0,1.86E2,2.72E2,8E0,1.7E1,4E0,2E0,5E0,1.1E1,2.8E1,2.6E1,8E1,3.3E1,1.2E2,3.34E2,2E0,3E0],"tree_param":{"num_deleted":"0","num_feature":"69","num_nodes":"51","size_leaf_vector":"1"}},{"base_weights":[9.086377E-1,1.3428269E1,-1.2769345E1,2.9356182E0,1.7860599E2,-1.02281136E2,-5.0065E0,1.4223666E-1,3.9676685E2,2.5601677E1,2.8667563E2,3.855658E2,-1.3469208E2,-1.3099092E1,5.1466972E1,3.8617191E0,-3.4703314E2,1.3630951E2,3.3595844E1,2.4231923E2,-1.6988078E2,-3.2083427E1,3.8558307E2,-2.1796673E1,1.9530128E2,-1.6921507E2,1.1115352E2,-2.4623942E0,-9.0268036E1,1.3018079E2,9.997888E0,-1.8238394E0,1.2560562E2,-2.4736454E1,-1.376126E2,3.4516418E2,-7.163933E1,-7.903141E1,3.877588E0,4.547214E2,4.7203106E1,6.665375E1,-1.9014102E2,-9.443214E0,8.887484E1,-1.5030199E2,1.1063154E2,1.1310053E1,2.116059E2,-3.634465E1,7.638167E1,-4.3849983E0,1.3085092E1,8.2624855E1,-1.7892149E1,1.3414188E2,-4.0003212E1,2.0225606E2,6.1754696E1,-2.395614E1,3.4852005E1,-3.5986618E1,5.0652576E1,-4.371386E1,-8.457192E1,-1.7661759E0,-7.950186E1,5.7729965E1,-8.528626E0,2.9990864E1,-6.096377E1,4.553579E1,1.6101784E1,-2.489778E1,2.6403175E1,7.996163E1,2.1121668E1,2.2149131E0,-4.682665E1,-5.3619814E0,2.6784185E1],"categories":[],"categories_nodes":[],"categories_segments":[],"categories_sizes":[],"default_left":[0,0,0,0,0,0,0,0,0,0,0,0,0,0,0,0,0,0,0,0,0,0,0,0,0,0,0,0,0,0,0,0,0,0,0,0,0,0,0,0,0,0,0,0,0,0,0,0,0,0,0,0,0,0,0,0,0,0,0,0,0,0,0,0,0,0,0,0,0,0,0,0,0,0,0,0,0,0,0,0,0],"id":15,"left_children":[1,3,5,7,9,11,13,15,17,19,21,23,25,27,29,31,33,-1,-1,35,37,-1,39,-1,-1,41,-1,43,45,47,49,51,53,-1,-1,55,-1,-1,-1,57,59,61,63,65,67,69,71,73,75,77,79,-1,-1,-1,-1,-1,-1,-1,-1,-1,-1,-1,-1,-1,-1,-1,-1,-1,-1,-1,-1,-1,-1,-1,-1,-1,-1,-1,-1,-1,-1],"loss_changes":[1.9778625E5,1.0445665E6,3.830541E5,6.2481225E5,5.87925E5,7.476421E5,2.332957E5,7.309318E5,1.47288125E4,7.1899706E5,8.588079E5,4.1218784E5,7.952242E5,3.6586462E5,2.0760661E5,3.8785103E5,1.3945862E5,0E0,0E0,4.7826806E5,1.5733053E5,0E0,3.7625125E5,0E0,0E0,2.1010475E5,0E0,2.5141953E5,6.679111E5,2.1054616E5,1.3506095E5,3.12223E5,7.1022156E5,0E0,0E0,4.011958E5,0E0,0E0,0E0,6.25884E5,4.432946E4,9.653048E4,1.09770375E5,3.3105044E5,3.456082E5,5.7647956E5,2.2326703E4,7.963485E4,8.206919E4,1.3729197E5,2.3479945E4,0E0,0E0,0E0,0E0,0E0,0E0,0E0,0E0,0E0,0E0,0E0,0E0,0E0,0E0,0E0,0E0,0E0,0E0,0E0,0E0,0E0,0E0,0E0,0E0,0E0,0E0,0E0,0E0,0E0,0E0],"parents":[2147483647,0,0,1,1,2,2,3,3,4,4,5,5,6,6,7,7,8,8,9,9,10,10,11,11,12,12,13,13,14,14,15,15,16,16,19,19,20,20,22,22,25,25,27,27,28,28,29,29,30,30,31,31,32,32,35,35,39,39,40,40,41,41,42,42,43,43,44,44,45,45,46,46,47,47,48,48,49,49,50,50],"right_children":[2,4,6,8,10,12,14,16,18,20,22,24,26,28,30,32,34,-1,-1,36,38,-1,40,-1,-1,42,-1,44,46,48,50,52,54,-1,-1,56,-1,-1,-1,58,60,62,64,66,68,70,72,74,76,78,80,-1,-1,-1,-1,-1,-1,-1,-1,-1,-1,-1,-1,-1,-1,-1,-1,-1,-1,-1,-1,-1,-1,-1,-1,-1,-1,-1,-1,-1,-1],"split_conditions":[4.8E1,4.5E1,5.3E1,3.45E2,1.94E2,2.2E1,8.83E2,3.02E2,4.2E2,1.7E1,2E0,1E0,1.3E1,6.46E2,4E0,3.65E2,7E0,1.3630951E2,3.3595844E1,1.3E1,1.9E1,-3.2083427E1,1.1E2,-2.1796673E1,1.9530128E2,3.1E1,1.1115352E2,7E0,1.01E2,2.04E2,7E0,2E1,1.88E2,-2.4736454E1,-1.376126E2,4.7E1,-7.163933E1,-7.903141E1,3.877588E0,1.7E1,4E0,3.7E1,1.4E1,8E0,5.51E2,1.5E1,1.9E1,4E0,1.413E3,7.6E1,1.414E3,-4.3849983E0,1.3085092E1,8.2624855E1,-1.7892149E1,1.3414188E2,-4.0003212E1,2.0225606E2,6.1754696E1,-2.395614E1,3.4852005E1,-3.5986618E1,5.0652576E1,-4.371386E1,-8.457192E1,-1.7661759E0,-7.950186E1,5.7729965E1,-8.528626E0,2.9990864E1,-6.096377E1,4.553579E1,1.6101784E1,-2.489778E1,2.6403175E1,7.996163E1,2.1121668E1,2.2149131E0,-4.682665E1,-5.3619814E0,2.6784185E1],"split_indices":[15,15,15,28,28,17,28,28,28,6,0,0,52,28,40,1,0,0,0,52,6,0,9,0,0,16,0,40,61,16,40,5,9,0,0,5,0,0,0,61,0,9,42,52,28,6,0,0,28,0,1,0,0,0,0,0,0,0,0,0,0,0,0,0,0,0,0,0,0,0,0,0,0,0,0,0,0,0,0,0,0],"split_type":[0,0,0,0,0,0,0,0,0,0,0,0,0,0,0,0,0,0,0,0,0,0,0,0,0,0,0,0,0,0,0,0,0,0,0,0,0,0,0,0,0,0,0,0,0,0,0,0,0,0,0,0,0,0,0,0,0,0,0,0,0,0,0,0,0,0,0,0,0,0,0,0,0,0,0,0,0,0,0,0,0],"sum_hessian":[1.153E3,6.02E2,5.51E2,5.67E2,3.5E1,4.3E1,5.08E2,5.64E2,3E0,1.5E1,2E1,2E0,4.1E1,4.45E2,6.3E1,5.59E2,5E0,2E0,1E0,7E0,8E0,4E0,1.6E1,1E0,1E0,3.9E1,2E0,3.92E2,5.3E1,2.1E1,4.2E1,5.35E2,2.4E1,2E0,3E0,6E0,1E0,5E0,3E0,1.3E1,3E0,3E0,3.6E1,3.65E2,2.7E1,4.1E1,1.2E1,9E0,1.2E1,2.5E1,1.7E1,4.18E2,1.17E2,1.3E1,1.1E1,5E0,1E0,6E0,7E0,1E0,2E0,1E0,2E0,2.6E1,1E1,3.61E2,4E0,1.4E1,1.3E1,7E0,3.4E1,6E0,6E0,4E0,5E0,8E0,4E0,1.9E1,6E0,2E0,1.5E1],"tree_param":{"num_deleted":"0","num_feature":"69","num_nodes":"81","size_leaf_vector":"1"}},{"base_weights":[1.0868269E0,-1.1067387E0,4.667593E1,2.4942386E0,-5.766896E1,1.4582457E1,2.9564438E2,-6.338294E0,2.7861984E1,-4.1083786E1,-2.1667339E2,4.509603E1,-1.4362244E2,1.0282405E2,9.019831E0,-8.280117E0,1.7965535E2,2.9069196E2,1.7606533E1,-5.8497025E1,1.016036E2,-2.848283E2,1.8615181E1,-1.5183487E2,6.463886E1,-8.688202E1,1.8894867E0,-5.3855042E0,-1.1554569E2,-1.9750519E1,9.097469E1,4.627064E2,-8.300629E1,-2.1734197E0,9.832033E1,-3.0594698E1,-1.559308E2,3.5684875E1,1.164773E1,-2.2947071E1,-9.533709E1,-6.2835308E1,3.1520326E0,3.6893814E1,2.4037744E2,4.8558105E1,-2.7717749E1,2.6249363E0,-8.8573265E0,-4.4039852E1,1.38508215E1,-2.1759687E1,6.6062503E0,5.571078E1,1.6091023E2,-8.679504E1,2.4660841E1,-3.453157E1,7.3234673E0,9.5525955E1,-3.4182904E0,-1.628281E1,6.59363E1,-5.0004944E1,-5.64825E0,5.767692E1,6.352692E0,9.029352E1,2.9895203E1,2.0867677E0,2.6004713E1],"categories":[],"categories_nodes":[],"categories_segments":[],"categories_sizes":[],"default_left":[0,0,0,0,0,0,0,0,0,0,0,0,0,0,0,0,0,0,0,0,0,0,0,0,0,0,0,0,0,0,0,0,0,0,0,0,0,0,0,0,0,0,0,0,0,0,0,0,0,0,0,0,0,0,0,0,0,0,0,0,0,0,0,0,0,0,0,0,0,0,0],"id":16,"left_children":[1,3,5,7,9,11,13,15,17,19,21,23,25,-1,-1,27,29,31,33,35,37,39,-1,41,43,-1,45,47,49,51,-1,53,55,57,59,61,63,-1,-1,-1,-1,-1,-1,65,67,69,-1,-1,-1,-1,-1,-1,-1,-1,-1,-1,-1,-1,-1,-1,-1,-1,-1,-1,-1,-1,-1,-1,-1,-1,-1],"loss_changes":[1.1545476E5,2.2459838E5,4.191727E5,2.3252831E5,1.651479E5,2.3819184E5,6.475125E4,2.7958594E5,7.172599E5,1.5750711E5,1.3165222E5,1.6760655E5,1.7048681E5,0E0,0E0,2.3628331E5,2.0315167E5,6.8122256E5,4.1371106E5,1.4475394E5,3.004289E3,1.00283125E4,0E0,3.961465E4,1.7641483E5,0E0,2.6486453E4,2.5411903E5,1.0786191E5,1.0416284E4,0E0,4.322575E4,1.6012012E5,6.302885E5,1.235183E6,2.7282228E5,1.45519375E4,0E0,0E0,0E0,0E0,0E0,0E0,7.895738E4,1.26481875E4,5.7412627E3,0E0,0E0,0E0,0E0,0E0,0E0,0E0,0E0,0E0,0E0,0E0,0E0,0E0,0E0,0E0,0E0,0E0,0E0,0E0,0E0,0E0,0E0,0E0,0E0,0E0],"parents":[2147483647,0,0,1,1,2,2,3,3,4,4,5,5,6,6,7,7,8,8,9,9,10,10,11,11,12,12,15,15,16,16,17,17,18,18,19,19,20,20,21,21,23,23,24,24,26,26,27,27,28,28,29,29,31,31,32,32,33,33,34,34,35,35,36,36,43,43,44,44,45,45],"right_children":[2,4,6,8,10,12,14,16,18,20,22,24,26,-1,-1,28,30,32,34,36,38,40,-1,42,44,-1,46,48,50,52,-1,54,56,58,60,62,64,-1,-1,-1,-1,-1,-1,66,68,70,-1,-1,-1,-1,-1,-1,-1,-1,-1,-1,-1,-1,-1,-1,-1,-1,-1,-1,-1,-1,-1,-1,-1,-1,-1],"split_conditions":[2.2E1,2.7E1,1.1E1,2E0,7E0,4E0,4.1E1,4.1E1,1E0,6.4E1,5.5E1,2E1,3.8E1,1.0282405E2,9.019831E0,5E0,1E0,1E0,1.9E1,8.91E2,2E2,1.9E1,1.8615181E1,1E0,5E1,-8.688202E1,7.56E2,5E1,8.2E1,4.63E2,9.097469E1,2E0,2E0,5E1,3E0,5E0,1.52E2,3.5684875E1,1.164773E1,-2.2947071E1,-9.533709E1,-6.2835308E1,3.1520326E0,1E0,3.42E2,1.1E1,-2.7717749E1,2.6249363E0,-8.8573265E0,-4.4039852E1,1.38508215E1,-2.1759687E1,6.6062503E0,5.571078E1,1.6091023E2,-8.679504E1,2.4660841E1,-3.453157E1,7.3234673E0,9.5525955E1,-3.4182904E0,-1.628281E1,6.59363E1,-5.0004944E1,-5.64825E0,5.767692E1,6.352692E0,9.029352E1,2.9895203E1,2.0867677E0,2.6004713E1],"split_indices":[67,6,54,19,19,19,0,54,0,6,0,15,15,0,0,21,0,54,6,17,0,0,0,0,67,0,1,16,9,1,0,16,5,16,19,54,4,0,0,0,0,0,0,4,1,0,0,0,0,0,0,0,0,0,0,0,0,0,0,0,0,0,0,0,0,0,0,0,0,0,0],"split_type":[0,0,0,0,0,0,0,0,0,0,0,0,0,0,0,0,0,0,0,0,0,0,0,0,0,0,0,0,0,0,0,0,0,0,0,0,0,0,0,0,0,0,0,0,0,0,0,0,0,0,0,0,0,0,0,0,0,0,0,0,0,0,0,0,0,0,0,0,0,0,0],"sum_hessian":[1.153E3,1.101E3,5.2E1,1.036E3,6.5E1,4.7E1,5E0,7.69E2,2.67E2,6E1,5E0,4E1,7E0,4E0,1E0,7.62E2,7E0,9E0,2.58E2,5.4E1,6E0,4E0,1E0,3E0,3.7E1,3E0,4E0,7.43E2,1.9E1,3E0,4E0,6E0,3E0,2.08E2,5E1,4.3E1,1.1E1,4E0,2E0,1E0,3E0,2E0,1E0,3.3E1,4E0,3E0,1E0,4.69E2,2.74E2,1.6E1,3E0,1E0,2E0,2E0,4E0,1E0,2E0,3.9E1,1.69E2,1.6E1,3.4E1,4E1,3E0,1E1,1E0,2E0,3.1E1,2E0,2E0,2E0,1E0],"tree_param":{"num_deleted":"0","num_feature":"69","num_nodes":"71","size_leaf_vector":"1"}},{"base_weights":[1.0643522E0,-4.006487E1,3.47609E0,-8.536575E1,5.675912E1,9.718848E1,-1.8298152E-1,-1.6765164E2,-2.945962E0,1.1247944E2,-1.0128826E2,4.4771374E1,3.95493E2,8.9893836E-1,-1.6167203E2,-1.2234585E2,-9.162437E1,1.4943855E1,-5.9478294E1,1.8919601E2,-4.6914177E1,-2.2728288E2,3.0140198E1,8.706821E1,-1.4289667E2,1.386961E2,9.203467E0,9.199189E1,-1.3324257E0,4.813845E0,-6.8768745E1,-3.1384293E1,-8.8385574E1,3.7810036E1,-9.229946E0,6.0212753E1,1.1109669E1,2.2822365E1,-1.2742718E2,-8.0712326E1,-1.5301246E1,4.1840343E1,1.1117677E2,2.3938587E1,-1.9331122E2,1.9466179E1,6.1735834E2,-7.446205E1,1.8809618E0,-1.2333489E1,1.449972E1,-2.9229797E1,1.740555E1,4.021507E0,-1.0760808E1,-4.4787468E1,-9.275105E0,2.4558384E1,-7.1441555E0,-6.3237125E1,-1.5887293E1,2.612708E1,-5.5995132E1,2.5342819E2,2.4383076E1,-6.501144E0,-7.3952156E1,6.480645E1,-2.3268479E-1],"categories":[],"categories_nodes":[],"categories_segments":[],"categories_sizes":[],"default_left":[0,0,0,0,0,0,0,0,0,0,0,0,0,0,0,0,0,0,0,0,0,0,0,0,0,0,0,0,0,0,0,0,0,0,0,0,0,0,0,0,0,0,0,0,0,0,0,0,0,0,0,0,0,0,0,0,0,0,0,0,0,0,0,0,0,0,0,0,0],"id":17,"left_children":[1,3,5,7,9,11,13,15,17,19,21,23,25,27,29,-1,31,33,-1,35,37,39,-1,41,43,-1,-1,45,47,49,-1,51,-1,-1,53,-1,-1,-1,55,-1,-1,57,-1,-1,59,61,63,65,67,-1,-1,-1,-1,-1,-1,-1,-1,-1,-1,-1,-1,-1,-1,-1,-1,-1,-1,-1,-1],"loss_changes":[1.14607875E5,2.8556284E5,3.7412203E5,2.9791347E5,1.9632833E5,6.2337994E5,1.8377416E5,3.6433862E5,8.3328234E4,2.0452612E5,1.753552E5,2.9820125E5,1.3209431E5,2.1253088E5,7.983464E4,0E0,2.108645E5,6.024335E4,0E0,1.1838E4,6.910711E4,1.5722125E4,0E0,3.6918588E5,9.401372E4,0E0,0E0,9.405468E5,2.4006875E5,7.9828545E3,0E0,9.422651E4,0E0,0E0,1.1937491E4,0E0,0E0,0E0,3.8248945E3,0E0,0E0,7.289306E4,0E0,0E0,3.5566406E3,3.3683975E5,2.9705888E5,3.85207E5,5.57102E5,0E0,0E0,0E0,0E0,0E0,0E0,0E0,0E0,0E0,0E0,0E0,0E0,0E0,0E0,0E0,0E0,0E0,0E0,0E0,0E0],"parents":[2147483647,0,0,1,1,2,2,3,3,4,4,5,5,6,6,7,7,8,8,9,9,10,10,11,11,12,12,13,13,14,14,16,16,17,17,19,19,20,20,21,21,23,23,24,24,27,27,28,28,29,29,31,31,34,34,38,38,41,41,44,44,45,45,46,46,47,47,48,48],"right_children":[2,4,6,8,10,12,14,16,18,20,22,24,26,28,30,-1,32,34,-1,36,38,40,-1,42,44,-1,-1,46,48,50,-1,52,-1,-1,54,-1,-1,-1,56,-1,-1,58,-1,-1,60,62,64,66,68,-1,-1,-1,-1,-1,-1,-1,-1,-1,-1,-1,-1,-1,-1,-1,-1,-1,-1,-1,-1],"split_conditions":[3E0,1E0,1E0,1E0,1E0,2E0,2E0,1E0,8E0,2E0,1E0,1E0,2E0,3E0,5E0,-1.2234585E2,2E0,2E0,-5.9478294E1,2E0,1E0,1E0,3.0140198E1,3E0,1E0,1.386961E2,9.203467E0,3E0,1.3E1,1E0,-6.8768745E1,2E0,-8.8385574E1,3.7810036E1,3E0,6.0212753E1,1.1109669E1,2.2822365E1,1E0,-8.0712326E1,-1.5301246E1,2.14E2,1.1117677E2,2.3938587E1,1E0,2E0,4E0,2E0,2E0,-1.2333489E1,1.449972E1,-2.9229797E1,1.740555E1,4.021507E0,-1.0760808E1,-4.4787468E1,-9.275105E0,2.4558384E1,-7.1441555E0,-6.3237125E1,-1.5887293E1,2.612708E1,-5.5995132E1,2.5342819E2,2.4383076E1,-6.501144E0,-7.3952156E1,6.480645E1,-2.3268479E-1],"split_indices":[16,66,17,57,59,68,63,26,21,26,9,52,5,17,46,0,5,5,0,51,7,4,0,6,5,0,0,0,17,0,0,16,0,0,15,0,0,0,0,0,0,15,0,0,31,42,0,67,9,0,0,0,0,0,0,0,0,0,0,0,0,0,0,0,0,0,0,0,0],"split_type":[0,0,0,0,0,0,0,0,0,0,0,0,0,0,0,0,0,0,0,0,0,0,0,0,0,0,0,0,0,0,0,0,0,0,0,0,0,0,0,0,0,0,0,0,0,0,0,0,0,0,0,0,0,0,0,0,0,0,0,0,0,0,0,0,0,0,0,0,0],"sum_hessian":[1.153E3,6.3E1,1.09E3,4.3E1,2E1,4E1,1.05E3,2.1E1,2.2E1,1.5E1,5E0,3.5E1,5E0,1.044E3,6E0,4E0,1.7E1,2.1E1,1E0,1E1,5E0,3E0,2E0,2.9E1,6E0,4E0,1E0,2.4E1,1.02E3,2E0,4E0,1.4E1,3E0,3E0,1.8E1,9E0,1E0,2E0,3E0,2E0,1E0,2.6E1,3E0,1E0,5E0,2.2E1,2E0,4.2E1,9.78E2,1E0,1E0,8E0,6E0,1E1,8E0,2E0,1E0,1.6E1,1E1,4E0,1E0,1.7E1,5E0,1E0,1E0,3.3E1,9E0,1.1E1,9.67E2],"tree_param":{"num_deleted":"0","num_feature":"69","num_nodes":"69","size_leaf_vector":"1"}},{"base_weights":[8.403711E-1,3.440523E-1,5.7343998E1,9.287048E0,-9.461349E0,-1.9675058E-1,9.355615E1,-4.266992E1,-1.9338971E-1,-2.6202927E0,3.270306E2,4.141308E1,2.828988E2,9.366572E1,-7.7729515E1,1.3895067E2,-4.510047E0,-1.2465651E-1,-3.3700436E2,1.1086561E2,2.9919966E1,-2.0782361E2,1.4704556E2,-1.8435865E1,3.923496E2,-4.464372E1,1.7806999E2,-9.048989E1,1.7260721E2,1.531751E2,2.4964336E1,-2.5206465E1,1.3969236E1,-9.8984015E-1,6.306664E1,-1.846083E1,-1.2249453E2,-2.3044058E1,-7.02525E1,8.962E0,8.080591E1,1.3347098E2,3.642703E1,-1.5257775E1,1.4976154E2,-4.5353867E1,-1.4632642E1,1.1415502E2,-9.885463E1,-2.904262E1,5.713613E1,-5.446681E1,-3.971507E0,-5.563167E1,6.687085E0],"categories":[],"categories_nodes":[],"categories_segments":[],"categories_sizes":[],"default_left":[0,0,0,0,0,0,0,0,0,0,0,0,0,0,0,0,0,0,0,0,0,0,0,0,0,0,0,0,0,0,0,0,0,0,0,0,0,0,0,0,0,0,0,0,0,0,0,0,0,0,0,0,0,0,0],"id":18,"left_children":[1,3,-1,5,7,9,11,13,15,17,19,21,23,25,27,29,31,33,35,-1,-1,37,39,-1,41,-1,43,45,47,-1,49,51,53,-1,-1,-1,-1,-1,-1,-1,-1,-1,-1,-1,-1,-1,-1,-1,-1,-1,-1,-1,-1,-1,-1],"loss_changes":[1.0893251E5,1.0110635E5,0E0,4.819307E5,1.6926838E5,4.3148262E5,5.9053175E5,5.808653E5,2.595013E5,4.505885E5,1.8034062E3,1.3206066E6,5.140755E5,5.381537E5,3.2228056E5,5.379476E5,1.6060077E5,3.5930822E5,5.344925E4,0E0,0E0,3.3796625E4,4.9353994E5,0E0,8.8359875E4,0E0,1.4222164E6,2.255365E5,6.473665E5,0E0,2.4011128E5,3.6809575E5,3.7249466E5,0E0,0E0,0E0,0E0,0E0,0E0,0E0,0E0,0E0,0E0,0E0,0E0,0E0,0E0,0E0,0E0,0E0,0E0,0E0,0E0,0E0,0E0],"parents":[2147483647,0,0,1,1,3,3,4,4,5,5,6,6,7,7,8,8,9,9,10,10,11,11,12,12,13,13,14,14,15,15,16,16,17,17,18,18,21,21,22,22,24,24,26,26,27,27,28,28,30,30,31,31,32,32],"right_children":[2,4,-1,6,8,10,12,14,16,18,20,22,24,26,28,30,32,34,36,-1,-1,38,40,-1,42,-1,44,46,48,-1,50,52,54,-1,-1,-1,-1,-1,-1,-1,-1,-1,-1,-1,-1,-1,-1,-1,-1,-1,-1,-1,-1,-1,-1],"split_conditions":[1.3322E4,4.8E1,5.7343998E1,4.4E1,6.4E1,3.45E2,1.9E1,5.1E1,6.7E1,2.4E1,4.2E2,2E1,1.94E2,1.1E1,1.3E1,8.7E1,3.47E2,1.7E1,1E0,1.1086561E2,2.9919966E1,2.55E2,1.97E2,-1.8435865E1,1.6E1,-4.464372E1,2.56E2,4.01E2,5.7E1,1.531751E2,6.6E1,2E0,8E1,-9.8984015E-1,6.306664E1,-1.846083E1,-1.2249453E2,-2.3044058E1,-7.02525E1,8.962E0,8.080591E1,1.3347098E2,3.642703E1,-1.5257775E1,1.4976154E2,-4.5353867E1,-1.4632642E1,1.1415502E2,-9.885463E1,-2.904262E1,5.713613E1,-5.446681E1,-3.971507E0,-5.563167E1,6.687085E0],"split_indices":[25,15,0,15,15,28,6,16,23,54,28,9,28,9,52,17,28,54,0,0,0,1,28,0,0,0,28,1,15,0,15,5,17,0,0,0,0,0,0,0,0,0,0,0,0,0,0,0,0,0,0,0,0,0,0],"split_type":[0,0,0,0,0,0,0,0,0,0,0,0,0,0,0,0,0,0,0,0,0,0,0,0,0,0,0,0,0,0,0,0,0,0,0,0,0,0,0,0,0,0,0,0,0,0,0,0,0,0,0,0,0,0,0],"sum_hessian":[1.153E3,1.151E3,2E0,6.02E2,5.49E2,5.42E2,6E1,1.19E2,4.3E2,5.39E2,3E0,4.8E1,1.2E1,2.4E1,9.5E1,1.2E1,4.18E2,5.36E2,3E0,2E0,1E0,1.4E1,3.4E1,3E0,9E0,6E0,1.8E1,9.1E1,4E0,2E0,1E1,1.97E2,2.21E2,5.29E2,7E0,1E0,2E0,3E0,1.1E1,1.8E1,1.6E1,7E0,2E0,1.1E1,7E0,3.6E1,5.5E1,3E0,1E0,6E0,4E0,1.3E1,1.84E2,8E0,2.13E2],"tree_param":{"num_deleted":"0","num_feature":"69","num_nodes":"55","size_leaf_vector":"1"}},{"base_weights":[9.229589E-1,8.970221E0,-1.1825104E1,-6.263419E-1,4.106073E1,-1.2082384E2,-2.2722414E0,1.0275992E1,-3.8203278E1,2.9134802E2,2.9639889E1,-1.7161736E2,1.6174669E2,-1.1278289E2,8.286528E0,7.788816E0,8.084468E1,-5.432725E1,7.3021225E1,2.4753087E2,6.4871735E1,4.0107323E1,-1.7032945E2,-1.0011244E2,-2.7649078E2,6.679325E1,7.033072E1,-6.845829E1,-2.0729715E2,7.830335E1,-2.1666975E0,3.2681053E1,-1.0579493E1,-6.545601E1,9.2964264E1,1.929346E2,-4.168191E1,-4.0310482E1,9.267035E1,-8.221695E0,1.01741554E2,-8.418906E1,1.0128799E1,-3.1628815E2,-5.852136E1,-9.169328E1,-2.6144667E1,-2.4836435E1,7.7330605E1,-2.8960262E1,6.7792835E0,-2.4327414E2,-3.02671E1,2.959746E1,3.2422137E2,-1.7274107E2,1.5366688E0,6.110826E0,5.6497276E1,-2.8079678E1,3.1008162E0,-2.1977856E1,4.2628174E1,-2.461903E1,8.6552345E1,-3.210882E1,7.532296E1,3.0818007E1,-2.9285027E1,-3.2788116E1,1.3821254E1,1.1254365E2,1.7268791E1,2.5425917E1,-1.2899091E1,-2.9989384E1,-1.1234028E2,1.19864235E1,-2.6853392E1,-5.463809E0,2.7258472E1,-7.846353E1,-1.4565965E1,-1.39264765E1,3.0628052E-1,5.4348087E1,-2.0857252E-1,1.3574199E2,2.4855337E1,-1.4191868E1,-9.726564E1,-1.7234557E0,2.5480501E1],"categories":[],"categories_nodes":[],"categories_segments":[],"categories_sizes":[],"default_left":[0,0,0,0,0,0,0,0,0,0,0,0,0,0,0,0,0,0,0,0,0,0,0,0,0,0,0,0,0,0,0,0,0,0,0,0,0,0,0,0,0,0,0,0,0,0,0,0,0,0,0,0,0,0,0,0,0,0,0,0,0,0,0,0,0,0,0,0,0,0,0,0,0,0,0,0,0,0,0,0,0,0,0,0,0,0,0,0,0,0,0,0,0],"id":19,"left_children":[1,3,5,7,9,11,13,15,17,19,21,23,25,27,29,31,-1,33,35,-1,37,39,41,43,45,47,-1,49,51,53,55,57,59,61,63,65,67,-1,-1,69,71,-1,73,75,77,-1,-1,-1,-1,-1,79,81,83,85,87,89,91,-1,-1,-1,-1,-1,-1,-1,-1,-1,-1,-1,-1,-1,-1,-1,-1,-1,-1,-1,-1,-1,-1,-1,-1,-1,-1,-1,-1,-1,-1,-1,-1,-1,-1,-1,-1],"loss_changes":[1.1849146E5,2.1806034E5,4.651642E5,2.2407583E5,4.5729853E5,5.444576E5,4.816794E5,2.712503E5,2.2455286E5,7.926537E5,3.3545844E5,2.0478781E5,2.5753703E4,1.3662388E5,2.7609656E5,1.9283884E5,0E0,1.8311566E5,2.2811294E5,0E0,3.3322903E5,4.476448E5,1.6207984E5,1.6131E5,3.9603188E4,1.3560564E5,0E0,5.557589E4,6.2695875E4,5.7730906E5,2.0809455E5,3.3916766E5,4.2291184E5,1.73991E5,2.9748025E5,1.6639644E5,8.2725086E4,0E0,0E0,4.7146906E5,7.7559906E5,0E0,1.9502006E4,3.2325E2,5.8508227E4,0E0,0E0,0E0,0E0,0E0,1.8465896E4,1.9320812E4,1.5637197E3,1.9295834E5,2.1016169E5,1.1766653E5,1.9663508E5,0E0,0E0,0E0,0E0,0E0,0E0,0E0,0E0,0E0,0E0,0E0,0E0,0E0,0E0,0E0,0E0,0E0,0E0,0E0,0E0,0E0,0E0,0E0,0E0,0E0,0E0,0E0,0E0,0E0,0E0,0E0,0E0,0E0,0E0,0E0,0E0],"parents":[2147483647,0,0,1,1,2,2,3,3,4,4,5,5,6,6,7,7,8,8,9,9,10,10,11,11,12,12,13,13,14,14,15,15,17,17,18,18,20,20,21,21,22,22,23,23,24,24,25,25,27,27,28,28,29,29,30,30,31,31,32,32,33,33,34,34,35,35,36,36,39,39,40,40,42,42,43,43,44,44,50,50,51,51,52,52,53,53,54,54,55,55,56,56],"right_children":[2,4,6,8,10,12,14,16,18,20,22,24,26,28,30,32,-1,34,36,-1,38,40,42,44,46,48,-1,50,52,54,56,58,60,62,64,66,68,-1,-1,70,72,-1,74,76,78,-1,-1,-1,-1,-1,80,82,84,86,88,90,92,-1,-1,-1,-1,-1,-1,-1,-1,-1,-1,-1,-1,-1,-1,-1,-1,-1,-1,-1,-1,-1,-1,-1,-1,-1,-1,-1,-1,-1,-1,-1,-1,-1,-1,-1,-1],"split_conditions":[4E0,8E0,5E0,1E0,1.22E2,4E0,3.4E1,2E0,2E0,2E0,6.9E1,1.4E1,1E1,6E0,2.26E2,9E0,8.084468E1,2E0,1E0,2.4753087E2,1.4E1,7E1,1.5E1,7.2E1,8.91E2,9.6E1,7.033072E1,4.9E1,4.19E2,2.06E2,3.8E1,2E0,2.8E1,3.4E1,1E0,2E0,1E0,-4.0310482E1,9.267035E1,1E0,1E1,-8.418906E1,6.07E2,5.6E1,3.7E1,-9.169328E1,-2.6144667E1,-2.4836435E1,7.7330605E1,-2.8960262E1,4E0,1.7E1,1.2E1,5.7E1,2.17E2,3.07E2,1.6E1,6.110826E0,5.6497276E1,-2.8079678E1,3.1008162E0,-2.1977856E1,4.2628174E1,-2.461903E1,8.6552345E1,-3.210882E1,7.532296E1,3.0818007E1,-2.9285027E1,-3.2788116E1,1.3821254E1,1.1254365E2,1.7268791E1,2.5425917E1,-1.2899091E1,-2.9989384E1,-1.1234028E2,1.19864235E1,-2.6853392E1,-5.463809E0,2.7258472E1,-7.846353E1,-1.4565965E1,-1.39264765E1,3.0628052E-1,5.4348087E1,-2.0857252E-1,1.3574199E2,2.4855337E1,-1.4191868E1,-9.726564E1,-1.7234557E0,2.5480501E1],"split_indices":[61,6,61,68,1,19,15,40,52,54,4,42,0,54,1,46,0,57,54,0,0,9,6,1,1,1,0,16,17,1,15,19,5,67,1,16,17,0,0,54,6,0,1,1,16,0,0,0,0,0,0,61,0,17,1,1,67,0,0,0,0,0,0,0,0,0,0,0,0,0,0,0,0,0,0,0,0,0,0,0,0,0,0,0,0,0,0,0,0,0,0,0,0],"split_type":[0,0,0,0,0,0,0,0,0,0,0,0,0,0,0,0,0,0,0,0,0,0,0,0,0,0,0,0,0,0,0,0,0,0,0,0,0,0,0,0,0,0,0,0,0,0,0,0,0,0,0,0,0,0,0,0,0,0,0,0,0,0,0,0,0,0,0,0,0,0,0,0,0,0,0,0,0,0,0,0,0,0,0,0,0,0,0,0,0,0,0,0,0],"sum_hessian":[1.153E3,7.07E2,4.46E2,5.45E2,1.62E2,3.5E1,4.11E2,4.23E2,1.22E2,6E0,1.56E2,3E1,5E0,3.5E1,3.76E2,4.2E2,3E0,1.07E2,1.5E1,1E0,5E0,1.49E2,7E0,1.9E1,1.1E1,3E0,2E0,2.5E1,1E1,4.8E1,3.28E2,1.78E2,2.42E2,1E2,7E0,7E0,8E0,3E0,2E0,8.4E1,6.5E1,4E0,3E0,2E0,1.7E1,9E0,2E0,2E0,1E0,1.8E1,7E0,8E0,2E0,4.1E1,7E0,6E0,3.22E2,1.66E2,1.2E1,4.8E1,1.94E2,9.7E1,3E0,4E0,3E0,1E0,6E0,2E0,6E0,2.9E1,5.5E1,8E0,5.7E1,1E0,2E0,1E0,1E0,4E0,1.3E1,6E0,1E0,7E0,1E0,1E0,1E0,6E0,3.5E1,4E0,3E0,4E0,2E0,2.97E2,2.5E1],"tree_param":{"num_deleted":"0","num_feature":"69","num_nodes":"93","size_leaf_vector":"1"}},{"base_weights":[1.0324614E0,5.503979E0,-1.8083399E1,3.5463936E0,3.6929712E2,-1.1892479E1,-1.7988232E2,4.815497E0,-2.3270842E2,1.3905408E2,4.5594486E1,-1.02435394E2,-2.4481745E0,-3.5275598E2,6.7747734E1,9.8492235E-1,9.970126E1,-2.153512E2,9.899697E1,-3.2403073E2,7.2297386E1,-1.0512542E1,3.0287454E2,7.4247734E1,-1.5669125E2,3.128209E0,-1.5662874E2,5.3568295E1,6.428705E1,-2.5205078E2,7.406675E1,1.5290277E2,-1.301261E2,-1.8564482E1,4.068095E1,-3.421703E1,1.3068648E2,4.2181355E-1,4.180934E1,-9.822357E1,3.639708E0,-3.4587616E1,4.790394E1,3.0526695E1,3.737793E0,-2.473232E1,-5.0736645E1,-3.427523E0,-6.139941E1,7.6396804E0,4.465303E1],"categories":[],"categories_nodes":[],"categories_segments":[],"categories_sizes":[],"default_left":[0,0,0,0,0,0,0,0,0,0,0,0,0,0,0,0,0,0,0,0,0,0,0,0,0,0,0,0,0,0,0,0,0,0,0,0,0,0,0,0,0,0,0,0,0,0,0,0,0,0,0],"id":20,"left_children":[1,3,5,7,9,11,13,15,17,-1,-1,19,21,23,-1,25,27,-1,-1,29,31,33,35,-1,-1,37,39,41,-1,-1,43,-1,45,47,49,-1,-1,-1,-1,-1,-1,-1,-1,-1,-1,-1,-1,-1,-1,-1,-1],"loss_changes":[9.8739875E4,6.652685E5,2.1722956E5,2.8056378E5,3.1928E4,1.8103356E5,6.407514E5,3.371992E5,1.601785E6,0E0,0E0,7.97826E5,4.7839522E5,7.398925E5,0E0,3.021554E5,1.7882856E5,0E0,0E0,1.9114895E6,1.1287504E6,7.866233E4,3.2641753E5,0E0,0E0,2.0673992E5,3.498309E5,5.0219644E5,0E0,0E0,8.96725E3,0E0,2.7931406E3,2.1555948E5,3.8998582E4,0E0,0E0,0E0,0E0,0E0,0E0,0E0,0E0,0E0,0E0,0E0,0E0,0E0,0E0,0E0,0E0],"parents":[2147483647,0,0,1,1,2,2,3,3,4,4,5,5,6,6,7,7,8,8,11,11,12,12,13,13,15,15,16,16,19,19,20,20,21,21,22,22,25,25,26,26,27,27,30,30,32,32,33,33,34,34],"right_children":[2,4,6,8,10,12,14,16,18,-1,-1,20,22,24,-1,26,28,-1,-1,30,32,34,36,-1,-1,38,40,42,-1,-1,44,-1,46,48,50,-1,-1,-1,-1,-1,-1,-1,-1,-1,-1,-1,-1,-1,-1,-1,-1],"split_conditions":[1.75E2,1.18E2,1.18E2,1.17E2,3.1E1,1.78E2,3.1E1,1.37E2,1.545E3,1.3905408E2,4.5594486E1,1.319E3,1.17E2,4.21E2,6.7747734E1,1.16E2,1.7E1,-2.153512E2,9.899697E1,1.01E2,1.328E3,4.65E2,1.573E3,7.4247734E1,-1.5669125E2,3.2E1,1.115E3,1.309E3,6.428705E1,-2.5205078E2,1.9E1,1.5290277E2,1.558E3,4.62E2,1.3322E4,-3.421703E1,1.3068648E2,4.2181355E-1,4.180934E1,-9.822357E1,3.639708E0,-3.4587616E1,4.790394E1,3.0526695E1,3.737793E0,-2.473232E1,-5.0736645E1,-3.427523E0,-6.139941E1,7.6396804E0,4.465303E1],"split_indices":[53,61,61,61,0,53,0,23,1,0,0,1,61,9,0,15,25,0,0,61,1,15,1,0,0,61,1,1,0,0,0,0,1,15,25,0,0,0,0,0,0,0,0,0,0,0,0,0,0,0,0],"split_type":[0,0,0,0,0,0,0,0,0,0,0,0,0,0,0,0,0,0,0,0,0,0,0,0,0,0,0,0,0,0,0,0,0,0,0,0,0,0,0,0,0,0,0,0,0,0,0,0,0,0,0],"sum_hessian":[1.153E3,9.35E2,2.18E2,9.31E2,4E0,2.11E2,7E0,9.27E2,4E0,2E0,2E0,1.9E1,1.92E2,5E0,2E0,8.92E2,3.5E1,2E0,2E0,8E0,1.1E1,1.88E2,4E0,1E0,4E0,8.81E2,1.1E1,2.6E1,9E0,3E0,5E0,3E0,8E0,1.63E2,2.5E1,1E0,3E0,8.71E2,1E1,5E0,6E0,1E1,1.6E1,3E0,2E0,5E0,3E0,1.58E2,5E0,2.3E1,2E0],"tree_param":{"num_deleted":"0","num_feature":"69","num_nodes":"51","size_leaf_vector":"1"}},{"base_weights":[7.421703E-1,1.9688828E-1,1.2600859E2,-3.7194847E1,2.2892725E0,1.6592873E1,4.641143E1,-1.6867785E1,-1.6975316E2,4.9558098E1,-1.0032527E0,-4.6396763E1,6.3000675E1,5.773222E1,-2.5520366E2,2.9342882E1,4.9798868E2,-6.590771E1,1.9207999E0,-1.17835205E2,1.179713E0,1.11982735E2,-5.735999E1,2.687721E1,-8.9771026E-1,-8.802365E1,-9.624176E0,5.1335945E1,-1.4477121E2,2.1458253E2,9.512384E0,-9.226286E1,-1.4019769E1,1.4343887E2,-2.8552613E-1,-4.6837624E1,3.0039248E1,3.65987E1,-6.2521343E0,1.81519E1,4.3438606E1,-3.6938534E1,8.258539E0,7.677906E0,8.6201324E1,-5.7438236E1,2.7308369E1,-2.1161688E1,-6.3120766E1,7.165652E0,-6.3422747E0,6.516282E1,-6.721389E1,-1.1281139E1,8.452987E-1],"categories":[],"categories_nodes":[],"categories_segments":[],"categories_sizes":[],"default_left":[0,0,0,0,0,0,0,0,0,0,0,0,0,0,0,0,0,0,0,0,0,0,0,0,0,0,0,0,0,0,0,0,0,0,0,0,0,0,0,0,0,0,0,0,0,0,0,0,0,0,0,0,0,0,0],"id":21,"left_children":[1,3,5,7,9,-1,-1,11,13,15,17,19,21,23,25,27,29,31,33,35,37,39,41,-1,-1,-1,-1,43,45,-1,-1,47,49,51,53,-1,-1,-1,-1,-1,-1,-1,-1,-1,-1,-1,-1,-1,-1,-1,-1,-1,-1,-1,-1],"loss_changes":[7.8799766E4,9.005871E4,1.5872969E3,1.6150244E5,1.6969056E5,0E0,0E0,1.3027846E5,1.702434E5,6.290111E5,1.9370633E5,1.360906E5,9.485602E4,6.071866E3,4.173828E4,2.716538E5,2.812695E5,5.887714E4,3.0509453E5,1.4916836E5,6.905211E4,9.818797E3,3.1304447E4,0E0,0E0,0E0,0E0,3.693195E5,1.0550314E5,0E0,0E0,5.958561E4,4.823826E3,4.5530847E5,1.1162677E5,0E0,0E0,0E0,0E0,0E0,0E0,0E0,0E0,0E0,0E0,0E0,0E0,0E0,0E0,0E0,0E0,0E0,0E0,0E0,0E0],"parents":[2147483647,0,0,1,1,2,2,3,3,4,4,7,7,8,8,9,9,10,10,11,11,12,12,13,13,14,14,15,15,16,16,17,17,18,18,19,19,20,20,21,21,22,22,27,27,28,28,31,31,32,32,33,33,34,34],"right_children":[2,4,6,8,10,-1,-1,12,14,16,18,20,22,24,26,28,30,32,34,36,38,40,42,-1,-1,-1,-1,44,46,-1,-1,48,50,52,54,-1,-1,-1,-1,-1,-1,-1,-1,-1,-1,-1,-1,-1,-1,-1,-1,-1,-1,-1,-1],"split_conditions":[3E0,3E0,1E0,1E0,3E0,1.6592873E1,4.641143E1,1E0,1E0,3E0,8E0,1E0,2E0,1E0,1E0,2E0,4E0,7E0,2E0,1E0,2E0,1E0,1E0,2.687721E1,-8.9771026E-1,-8.802365E1,-9.624176E0,3E0,3E0,2.1458253E2,9.512384E0,1.8E1,7E0,5E0,3.7E1,-4.6837624E1,3.0039248E1,3.65987E1,-6.2521343E0,1.81519E1,4.3438606E1,-3.6938534E1,8.258539E0,7.677906E0,8.6201324E1,-5.7438236E1,2.7308369E1,-2.1161688E1,-6.3120766E1,7.165652E0,-6.3422747E0,6.516282E1,-6.721389E1,-1.1281139E1,8.452987E-1],"split_indices":[26,16,5,59,17,0,0,66,68,0,23,17,26,1,4,0,0,9,28,38,17,68,19,0,0,0,0,6,42,0,0,42,57,54,17,0,0,0,0,0,0,0,0,0,0,0,0,0,0,0,0,0,0,0,0],"split_type":[0,0,0,0,0,0,0,0,0,0,0,0,0,0,0,0,0,0,0,0,0,0,0,0,0,0,0,0,0,0,0,0,0,0,0,0,0,0,0,0,0,0,0,0,0,0,0,0,0,0,0,0,0,0,0],"sum_hessian":[1.153E3,1.149E3,4E0,6E1,1.089E3,2E0,2E0,5.3E1,7E0,7E1,1.019E3,3.9E1,1.4E1,2E0,5E0,6.8E1,2E0,4.3E1,9.76E2,1.5E1,2.4E1,1E1,4E0,1E0,1E0,4E0,1E0,6.1E1,7E0,1E0,1E0,2.8E1,1.5E1,1.4E1,9.62E2,1.3E1,2E0,3E0,2.1E1,5E0,5E0,2E0,2E0,5.6E1,5E0,6E0,1E0,2.5E1,3E0,2E0,1.3E1,1.2E1,2E0,7.3E1,8.89E2],"tree_param":{"num_deleted":"0","num_feature":"69","num_nodes":"55","size_leaf_vector":"1"}},{"base_weights":[7.185538E-1,4.703544E0,-1.854586E1,3.9024045E0,1.1558892E2,-7.981293E1,5.205735E-1,1.4080731E0,7.1501396E1,-1.6275145E1,-1.6477518E2,3.6439888E1,-2.9779097E1,5.940681E0,-1.7078756E1,2.2802911E2,6.0302486E0,-8.0266075E1,3.8773697E2,2.9912524E0,-2.3688873E2,1.6317955E1,2.947614E2,-1.309045E2,-1.7482452E0,1.6208426E0,5.8829754E1,-2.4740896E0,-1.3525285E2,2.2946314E1,1.08277985E2,-8.405007E1,4.3098125E1,-1.557767E2,4.857754E1,1.4687234E2,1.23336735E1,2.3103184E1,-2.1532778E1,2.2042585E1,-2.6641483E2,6.965843E1,-5.001256E1,1.11074196E2,3.630652E1,-2.3593864E2,2.9880524E1,1.1830944E2,-2.687053E1,1.5490216E0,-1.7705482E1,-3.9626026E1,2.5314442E1,-3.034692E0,1.2253415E2,-1.0173449E2,-1.8927795E1,-6.603406E0,3.0416548E1,5.1430397E1,-3.6844509E0,2.2777166E0,-5.821839E1,3.1686609E0,5.8607338E1,-4.06764E1,-9.936994E1,-5.2048492E0,5.5482204E1,-6.0654423E1,4.353488E0,-1.4682216E2,1.7055902E1,2.3192139E1,3.6184256E0,-6.1552864E1,-4.3606925E0],"categories":[],"categories_nodes":[],"categories_segments":[],"categories_sizes":[],"default_left":[0,0,0,0,0,0,0,0,0,0,0,0,0,0,0,0,0,0,0,0,0,0,0,0,0,0,0,0,0,0,0,0,0,0,0,0,0,0,0,0,0,0,0,0,0,0,0,0,0,0,0,0,0,0,0,0,0,0,0,0,0,0,0,0,0,0,0,0,0,0,0,0,0,0,0,0,0],"id":22,"left_children":[1,3,5,7,-1,9,11,13,15,17,19,21,23,25,27,29,31,33,35,37,39,41,43,45,47,49,51,53,55,57,-1,-1,59,61,63,-1,-1,-1,-1,-1,65,67,69,-1,-1,71,73,-1,75,-1,-1,-1,-1,-1,-1,-1,-1,-1,-1,-1,-1,-1,-1,-1,-1,-1,-1,-1,-1,-1,-1,-1,-1,-1,-1,-1,-1],"loss_changes":[8.867808E4,2.9029328E5,2.3133417E5,1.6109456E5,0E0,2.5103894E5,1.6651334E5,7.74429E4,3.4705856E5,7.5500925E5,2.4267331E5,3.590451E5,2.3504552E5,1.6943105E5,3.1377797E5,2.64268E5,2.7729272E5,2.5079383E5,1.21070125E5,4.4267035E4,1.4786862E5,2.3699847E5,2.07665E4,3.1103244E5,6.673801E5,1.478846E5,2.843273E5,5.1596397E5,2.72819E5,1.9864584E4,0E0,0E0,1.6557175E5,1.0154566E5,5.3735594E4,0E0,0E0,0E0,0E0,0E0,6.5328375E4,3.7433603E5,2.974911E5,0E0,0E0,8.4417256E5,5.8283633E3,0E0,1.3557861E5,0E0,0E0,0E0,0E0,0E0,0E0,0E0,0E0,0E0,0E0,0E0,0E0,0E0,0E0,0E0,0E0,0E0,0E0,0E0,0E0,0E0,0E0,0E0,0E0,0E0,0E0,0E0,0E0],"parents":[2147483647,0,0,1,1,2,2,3,3,5,5,6,6,7,7,8,8,9,9,10,10,11,11,12,12,13,13,14,14,15,15,16,16,17,17,18,18,19,19,20,20,21,21,22,22,23,23,24,24,25,25,26,26,27,27,28,28,29,29,32,32,33,33,34,34,40,40,41,41,42,42,45,45,46,46,48,48],"right_children":[2,4,6,8,-1,10,12,14,16,18,20,22,24,26,28,30,32,34,36,38,40,42,44,46,48,50,52,54,56,58,-1,-1,60,62,64,-1,-1,-1,-1,-1,66,68,70,-1,-1,72,74,-1,76,-1,-1,-1,-1,-1,-1,-1,-1,-1,-1,-1,-1,-1,-1,-1,-1,-1,-1,-1,-1,-1,-1,-1,-1,-1,-1,-1,-1],"split_conditions":[6.64E2,2.4E1,8.2E1,5.96E2,1.1558892E2,1.7E1,1.75E2,9.7E1,1.4E1,1.19E2,4.55E2,1.18E2,1.319E3,3.88E2,1E0,5E0,1.31E2,8.63E2,1E1,7.34E2,1E0,2.8E1,3.1E1,2E0,1.328E3,2.98E2,8E1,4.55E2,1E0,1E0,1.08277985E2,-8.405007E1,4.62E2,8E0,4E0,1.4687234E2,1.23336735E1,2.3103184E1,-2.1532778E1,2.2042585E1,6.4E1,1.309E3,3.1E1,1.11074196E2,3.630652E1,1.01E2,1E0,1.1830944E2,1.76E2,1.5490216E0,-1.7705482E1,-3.9626026E1,2.5314442E1,-3.034692E0,1.2253415E2,-1.0173449E2,-1.8927795E1,-6.603406E0,3.0416548E1,5.1430397E1,-3.6844509E0,2.2777166E0,-5.821839E1,3.1686609E0,5.8607338E1,-4.06764E1,-9.936994E1,-5.2048492E0,5.5482204E1,-6.0654423E1,4.353488E0,-1.4682216E2,1.7055902E1,2.3192139E1,3.6184256E0,-6.1552864E1,-4.3606925E0],"split_indices":[1,52,15,1,0,4,15,16,4,9,28,61,1,1,52,0,17,1,0,1,5,0,0,5,1,28,17,28,40,5,0,0,23,6,0,0,0,0,0,0,15,1,0,0,0,61,0,0,15,0,0,0,0,0,0,0,0,0,0,0,0,0,0,0,0,0,0,0,0,0,0,0,0,0,0,0,0],"split_type":[0,0,0,0,0,0,0,0,0,0,0,0,0,0,0,0,0,0,0,0,0,0,0,0,0,0,0,0,0,0,0,0,0,0,0,0,0,0,0,0,0,0,0,0,0,0,0,0,0,0,0,0,0,0,0,0,0,0,0,0,0,0,0,0,0,0,0,0,0,0,0,0,0,0,0,0,0],"sum_hessian":[1.153E3,9.56E2,1.97E2,9.55E2,1E0,4.6E1,1.51E2,9.22E2,3.3E1,2.7E1,1.9E1,6.9E1,8.2E1,7.41E2,1.81E2,9E0,2.4E1,2.4E1,3E0,6E0,1.3E1,6.5E1,4E0,1.7E1,6.5E1,6.86E2,5.5E1,1.62E2,1.9E1,4E0,5E0,2E0,2.2E1,1.5E1,9E0,2E0,1E0,3E0,3E0,1E0,1.2E1,3.6E1,2.9E1,2E0,2E0,1E1,7E0,3E0,6.2E1,6.49E2,3.7E1,6E0,4.9E1,1.6E2,2E0,4E0,1.5E1,3E0,1E0,6E0,1.6E1,3E0,1.2E1,8E0,1E0,5E0,7E0,2.1E1,1.5E1,8E0,2.1E1,5E0,5E0,1E0,6E0,3E0,5.9E1],"tree_param":{"num_deleted":"0","num_feature":"69","num_nodes":"77","size_leaf_vector":"1"}},{"base_weights":[7.7954173E-1,-6.4861454E-2,1.9470665E1,1.0710642E0,-8.5330696E1,6.9327E0,-7.914794E0,-5.4632183E1,-5.7884383E-1,-1.5243272E0,3.3869644E1,-6.229829E1,1.7200586E0,3.6673725E1,-2.6192568E1,1.2200522E1,-1.8221275E1,1.461104E2,1.3438789E1,-7.315772E1,5.8126637E1,6.0102093E1,-1.0556803E1,-2.143628E0,1.6689142E1,-7.8589123E-1,1.45436945E1,-1.57644005E1,-1.6027805E0,1.06194275E2,-4.8205986E0,-2.877365E1,1.011371E1,-6.3535275E1,-1.2299117E1,2.6214235E0,8.71536E1,-2.5496334E1,-7.185369E-1],"categories":[],"categories_nodes":[],"categories_segments":[],"categories_sizes":[],"default_left":[0,0,0,0,0,0,0,0,0,0,0,0,0,0,0,0,0,0,0,0,0,0,0,0,0,0,0,0,0,0,0,0,0,0,0,0,0,0,0],"id":23,"left_children":[1,3,-1,5,7,9,11,-1,13,15,17,19,21,23,-1,25,27,29,31,33,-1,35,37,-1,-1,-1,-1,-1,-1,-1,-1,-1,-1,-1,-1,-1,-1,-1,-1],"loss_changes":[6.2487984E4,1.1050684E5,0E0,5.9363355E4,1.2292449E5,1.5541564E5,2.332769E5,0E0,3.228007E4,1.1938712E5,3.7182394E5,2.0047475E5,2.7228203E5,6.2121816E3,0E0,1.5389562E5,1.03608695E5,8.48494E5,3.1138738E5,2.8110838E5,0E0,7.785568E5,1.9054572E5,0E0,0E0,0E0,0E0,0E0,0E0,0E0,0E0,0E0,0E0,0E0,0E0,0E0,0E0,0E0,0E0],"parents":[2147483647,0,0,1,1,3,3,4,4,5,5,6,6,8,8,9,9,10,10,11,11,12,12,13,13,15,15,16,16,17,17,18,18,19,19,21,21,22,22],"right_children":[2,4,-1,6,8,10,12,-1,14,16,18,20,22,24,-1,26,28,30,32,34,-1,36,38,-1,-1,-1,-1,-1,-1,-1,-1,-1,-1,-1,-1,-1,-1,-1,-1],"split_conditions":[4.48E2,2.315E3,1.9470665E1,4E0,1.9E2,8E0,3.8E1,-5.4632183E1,1.7E1,2E1,3.7E1,1E0,4.8E1,8.8E1,-2.6192568E1,2E1,2.5E1,2E0,5.4E1,1.1E1,5.8126637E1,4E0,5.6E1,-2.143628E0,1.6689142E1,-7.8589123E-1,1.45436945E1,-1.57644005E1,-1.6027805E0,1.06194275E2,-4.8205986E0,-2.877365E1,1.011371E1,-6.3535275E1,-1.2299117E1,2.6214235E0,8.71536E1,-2.5496334E1,-7.185369E-1],"split_indices":[31,4,0,61,5,6,15,0,58,16,16,22,15,0,0,5,15,54,16,16,0,54,15,0,0,0,0,0,0,0,0,0,0,0,0,0,0,0,0],"split_type":[0,0,0,0,0,0,0,0,0,0,0,0,0,0,0,0,0,0,0,0,0,0,0,0,0,0,0,0,0,0,0,0,0,0,0,0,0,0,0],"sum_hessian":[1.153E3,1.139E3,1.4E1,1.125E3,1.4E1,6.81E2,4.44E2,6E0,8E0,5.19E2,1.62E2,6.6E1,3.78E2,6E0,2E0,2.85E2,2.34E2,2.4E1,1.38E2,6.4E1,2E0,6.5E1,3.13E2,2E0,4E0,2.03E2,8.2E1,6.3E1,1.71E2,1E1,1.4E1,2.1E1,1.17E2,1.1E1,5.3E1,5.4E1,1.1E1,3E1,2.83E2],"tree_param":{"num_deleted":"0","num_feature":"69","num_nodes":"39","size_leaf_vector":"1"}},{"base_weights":[6.133929E-1,1.1698327E1,-5.0604587E0,8.302382E-1,5.20181E1,-2.211479E1,2.0997255E0,-5.570927E0,9.882545E1,9.9392105E1,-2.277258E1,-2.6866198E1,9.543204E1,1.204797E2,-3.1707563E0,1.1170881E1,-3.57814E1,1.6675983E2,-1.5429318E1,5.2738655E1,2.4662093E2,-7.043802E1,1.1216171E2,-1.631642E1,-1.0414469E2,6.888169E1,2.4295918E1,2.1218028E2,6.1658997E1,1.2651417E2,-6.5029016E0,-1.1942076E-1,2.121502E2,-9.490822E1,-1.7127367E0,-1.1966777E1,2.1207858E2,-9.983995E0,-3.932434E0,8.890183E1,-8.170139E1,3.5172974E2,2.9122644E1,-4.162822E0,-1.6652057E2,-1.364519E1,6.466089E1,-2.4487185E1,1.21098724E2,-8.572137E1,-6.803524E1,-2.0397606E1,6.2915462E1,-3.1495052E1,1.1540453E2,2.529562E2,4.2211456E1,-2.7326088E1,5.5182586E0,7.569356E0,-1.5245593E1,-1.0039269E2,9.302622E1,-1.5626795E1,-4.937742E1,1.02975716E2,-3.6420827E0,7.216292E1,3.2773838E1,-1.972879E0,2.7104494E-1,1.5011558E1,1.9404967E2,-4.181321E1,7.571375E0,1.3539215E2,1.0599524E1,-9.869791E1,6.0269947E1,-1.8406055E1,5.043092E1,1.1900354E1,-3.4034603E1,-1.0478935E1,7.291787E1,-4.3945812E1,1.1055012E2,-2.9937849E1,1.1573018E1,5.6747E-1,-1.3089768E1,3.4739447E-1,2.493459E1,-1.6723793E1,5.7115597E1,9.980341E1,2.6674696E1,-2.7317867E1,2.1075834E1,3.4541836E-1,-2.3249294E1,6.135083E1,3.2365873E-1],"categories":[],"categories_nodes":[],"categories_segments":[],"categories_sizes":[],"default_left":[0,0,0,0,0,0,0,0,0,0,0,0,0,0,0,0,0,0,0,0,0,0,0,0,0,0,0,0,0,0,0,0,0,0,0,0,0,0,0,0,0,0,0,0,0,0,0,0,0,0,0,0,0,0,0,0,0,0,0,0,0,0,0,0,0,0,0,0,0,0,0,0,0,0,0,0,0,0,0,0,0,0,0,0,0,0,0,0,0,0,0,0,0,0,0,0,0,0,0,0,0,0,0],"id":24,"left_children":[1,3,5,7,9,11,13,15,17,19,21,23,25,27,29,31,33,35,37,39,41,43,45,47,49,-1,51,-1,53,55,57,59,61,63,65,-1,67,-1,69,71,73,75,77,79,-1,81,-1,83,85,-1,87,89,91,93,-1,95,97,99,101,-1,-1,-1,-1,-1,-1,-1,-1,-1,-1,-1,-1,-1,-1,-1,-1,-1,-1,-1,-1,-1,-1,-1,-1,-1,-1,-1,-1,-1,-1,-1,-1,-1,-1,-1,-1,-1,-1,-1,-1,-1,-1,-1,-1],"loss_changes":[7.263919E4,1.7129258E5,9.3340125E4,1.9438116E5,2.963435E5,1.2878778E5,3.3667462E5,1.475811E5,1.5004769E5,3.3729888E5,2.2014664E5,1.760298E5,8.032283E4,7.502419E5,2.2423338E5,4.266194E5,2.0933206E5,1.20840625E5,1.5109448E3,2.0173456E5,2.6408856E5,8.0066394E5,1.1998815E5,2.1966325E5,1.5104778E5,0E0,1.3365631E4,0E0,6.7411494E5,1.27894625E5,1.2656181E5,2.3134305E5,6.392816E5,1.0480931E5,2.4517534E5,0E0,2.9923125E3,0E0,8.265357E1,6.614901E5,5.9028047E4,2.3610312E5,3.736751E5,2.3690984E5,0E0,3.1104396E4,0E0,5.1977062E5,7.8219006E5,0E0,8.172167E4,2.1540857E3,4.893717E3,1.0746767E5,0E0,3.580778E4,4.0031047E4,2.6440975E5,2.833415E5,0E0,0E0,0E0,0E0,0E0,0E0,0E0,0E0,0E0,0E0,0E0,0E0,0E0,0E0,0E0,0E0,0E0,0E0,0E0,0E0,0E0,0E0,0E0,0E0,0E0,0E0,0E0,0E0,0E0,0E0,0E0,0E0,0E0,0E0,0E0,0E0,0E0,0E0,0E0,0E0,0E0,0E0,0E0,0E0],"parents":[2147483647,0,0,1,1,2,2,3,3,4,4,5,5,6,6,7,7,8,8,9,9,10,10,11,11,12,12,13,13,14,14,15,15,16,16,17,17,18,18,19,19,20,20,21,21,22,22,23,23,24,24,26,26,28,28,29,29,30,30,31,31,32,32,33,33,34,34,36,36,38,38,39,39,40,40,41,41,42,42,43,43,45,45,47,47,48,48,50,50,51,51,52,52,53,53,55,55,56,56,57,57,58,58],"right_children":[2,4,6,8,10,12,14,16,18,20,22,24,26,28,30,32,34,36,38,40,42,44,46,48,50,-1,52,-1,54,56,58,60,62,64,66,-1,68,-1,70,72,74,76,78,80,-1,82,-1,84,86,-1,88,90,92,94,-1,96,98,100,102,-1,-1,-1,-1,-1,-1,-1,-1,-1,-1,-1,-1,-1,-1,-1,-1,-1,-1,-1,-1,-1,-1,-1,-1,-1,-1,-1,-1,-1,-1,-1,-1,-1,-1,-1,-1,-1,-1,-1,-1,-1,-1,-1,-1],"split_conditions":[7E0,4E0,4.9E1,1.9E1,6.2E1,4.03E2,6.2E1,2E0,3.7E1,5.9E1,1.83E2,5.7E1,2.2E1,3.3E1,9E0,4E0,1.6E1,1.3E1,2E0,2.7E1,5.01E2,1.48E2,4E0,1.9E1,6E1,6.888169E1,6.09E2,2.1218028E2,1.4E1,2.76E2,5.2E1,3E0,2E0,4E0,7E0,-1.1966777E1,2.6E1,-9.983995E0,7.6E1,6E0,3.7E1,1.26E2,5.21E2,1.19E2,-1.6652057E2,1.231E3,6.466089E1,3.01E2,1.1E1,-8.572137E1,7.21E2,4E0,4E0,6E1,1.1540453E2,7E0,8E0,7E0,5.5E1,7.569356E0,-1.5245593E1,-1.0039269E2,9.302622E1,-1.5626795E1,-4.937742E1,1.02975716E2,-3.6420827E0,7.216292E1,3.2773838E1,-1.972879E0,2.7104494E-1,1.5011558E1,1.9404967E2,-4.181321E1,7.571375E0,1.3539215E2,1.0599524E1,-9.869791E1,6.0269947E1,-1.8406055E1,5.043092E1,1.1900354E1,-3.4034603E1,-1.0478935E1,7.291787E1,-4.3945812E1,1.1055012E2,-2.9937849E1,1.1573018E1,5.6747E-1,-1.3089768E1,3.4739447E-1,2.493459E1,-1.6723793E1,5.7115597E1,9.980341E1,2.6674696E1,-2.7317867E1,2.1075834E1,3.4541836E-1,-2.3249294E1,6.135083E1,3.2365873E-1],"split_indices":[4,4,9,5,9,17,9,42,5,15,17,16,6,1,4,0,15,1,0,9,1,17,0,6,16,0,17,0,0,1,4,9,46,28,1,0,5,0,1,0,9,17,1,9,0,1,0,1,0,0,1,0,0,16,0,0,6,54,4,0,0,0,0,0,0,0,0,0,0,0,0,0,0,0,0,0,0,0,0,0,0,0,0,0,0,0,0,0,0,0,0,0,0,0,0,0,0,0,0,0,0,0,0],"split_type":[0,0,0,0,0,0,0,0,0,0,0,0,0,0,0,0,0,0,0,0,0,0,0,0,0,0,0,0,0,0,0,0,0,0,0,0,0,0,0,0,0,0,0,0,0,0,0,0,0,0,0,0,0,0,0,0,0,0,0,0,0,0,0,0,0,0,0,0,0,0,0,0,0,0,0,0,0,0,0,0,0,0,0,0,0,0,0,0,0,0,0,0,0,0,0,0,0,0,0,0,0,0,0],"sum_hessian":[1.153E3,3.9E2,7.63E2,3.08E2,8.2E1,2.25E2,5.38E2,2.9E2,1.8E1,5E1,3.2E1,2.17E2,8E0,2.2E1,5.16E2,1.87E2,1.03E2,1.1E1,7E0,3.9E1,1.1E1,2.4E1,8E0,1.92E2,2.5E1,2E0,6E0,1E0,2.1E1,1.2E1,5.04E2,1.78E2,9E0,3.7E1,6.6E1,2E0,9E0,2E0,5E0,3.1E1,8E0,7E0,4E0,2.2E1,2E0,4E0,4E0,1.82E2,1E1,3E0,2.2E1,3E0,3E0,1.7E1,4E0,4E0,8E0,1.84E2,3.2E2,1.19E2,5.9E1,1E0,8E0,2.4E1,1.3E1,1E0,6.5E1,6E0,3E0,3E0,2E0,3E1,1E0,5E0,3E0,5E0,2E0,1E0,3E0,1.7E1,5E0,3E0,1E0,1.76E2,6E0,5E0,5E0,1.7E1,5E0,2E0,1E0,1E0,2E0,1.6E1,1E0,2E0,2E0,1E0,7E0,1.18E2,6.6E1,6E0,3.14E2],"tree_param":{"num_deleted":"0","num_feature":"69","num_nodes":"103","size_leaf_vector":"1"}},{"base_weights":[1.2305642E0,-4.420698E1,2.3583555E0,-1.6354017E1,-2.0723627E2,1.7018257E1,-2.057553E0,2.5720684E1,-5.717072E1,-2.2627275E1,-9.040085E1,2.327943E1,-8.031092E1,-3.8069042E1,1.2023525E0,-2.7345576E0,5.9374226E1,1.8604156E1,-7.2270584E1,-7.119062E0,4.7517056E1,-1.1597368E2,3.3865677E1,-1.1625958E2,-7.844896E0,9.741591E1,-3.945589E-1,5.682722E0,-1.9529217E1,1.9519058E1,4.63916E0,-1.2989314E2,-1.255546E1,1.02367735E1,-1.0972439E2,1.2812383E2,2.4686312E1,-1.4551973E2,4.021877E1,-1.0860513E1,-1.6065486E2,-4.240214E1,1.1138891E1,-5.751045E0,1.4390689E2,-8.584933E1,1.9548451E0,-9.430423E0,-2.6082451E0,-4.347978E1,-8.20439E0,2.3651E0,-1.2730656E1,-5.861161E-1,3.8082237E1,-4.510781E1,1.4931105E1,1.10681915E2,1.9560923E1,-4.235348E1,9.726961E0,-1.1647144E1,-4.841687E1,1.1368794E1,-1.1382692E1,-5.8050766E1,-2.5382261E1,-3.256292E1,-8.470791E0,2.6506493E1,-1.4026866E0,8.7278595E0,-1.1603382E1,6.442454E1,1.3285184E1,-1.4535515E1,-3.9098785E1,5.8254738E1,1.2980512E-1],"categories":[],"categories_nodes":[],"categories_segments":[],"categories_sizes":[],"default_left":[0,0,0,0,0,0,0,0,0,0,0,0,0,0,0,0,0,0,0,0,0,0,0,0,0,0,0,0,0,0,0,0,0,0,0,0,0,0,0,0,0,0,0,0,0,0,0,0,0,0,0,0,0,0,0,0,0,0,0,0,0,0,0,0,0,0,0,0,0,0,0,0,0,0,0,0,0,0,0],"id":25,"left_children":[1,3,5,7,9,11,13,15,17,-1,-1,19,21,23,25,27,29,-1,31,33,35,37,-1,39,41,43,45,-1,47,-1,-1,49,51,53,55,57,59,61,-1,63,65,67,69,71,73,75,77,-1,-1,-1,-1,-1,-1,-1,-1,-1,-1,-1,-1,-1,-1,-1,-1,-1,-1,-1,-1,-1,-1,-1,-1,-1,-1,-1,-1,-1,-1,-1,-1],"loss_changes":[5.9239906E4,1.2375461E5,7.2993375E4,4.440423E4,2.6885938E4,1.6092166E5,1.0182643E5,1.2611418E4,2.7877508E4,0E0,0E0,1.815879E5,1.2333047E5,1.692414E5,1.2233947E5,3.2823877E3,4.927793E2,0E0,3.966039E4,1.9701138E5,2.4895994E5,1.2293497E5,0E0,9.1839625E4,3.524176E4,6.3179945E4,1.5756975E5,0E0,3.7168726E2,0E0,0E0,5.2897188E3,4.609603E3,1.3540256E5,1.1118045E5,4.305135E5,1.4317128E5,1.5746406E4,0E0,1.0680754E4,1.8599969E4,1.4737492E4,4.3152832E4,6.861761E3,5.400711E4,2.8617672E4,2.2346347E5,0E0,0E0,0E0,0E0,0E0,0E0,0E0,0E0,0E0,0E0,0E0,0E0,0E0,0E0,0E0,0E0,0E0,0E0,0E0,0E0,0E0,0E0,0E0,0E0,0E0,0E0,0E0,0E0,0E0,0E0,0E0,0E0],"parents":[2147483647,0,0,1,1,2,2,3,3,4,4,5,5,6,6,7,7,8,8,11,11,12,12,13,13,14,14,15,15,16,16,18,18,19,19,20,20,21,21,23,23,24,24,25,25,26,26,28,28,31,31,32,32,33,33,34,34,35,35,36,36,37,37,39,39,40,40,41,41,42,42,43,43,44,44,45,45,46,46],"right_children":[2,4,6,8,10,12,14,16,18,-1,-1,20,22,24,26,28,30,-1,32,34,36,38,-1,40,42,44,46,-1,48,-1,-1,50,52,54,56,58,60,62,-1,64,66,68,70,72,74,76,78,-1,-1,-1,-1,-1,-1,-1,-1,-1,-1,-1,-1,-1,-1,-1,-1,-1,-1,-1,-1,-1,-1,-1,-1,-1,-1,-1,-1,-1,-1,-1,-1],"split_conditions":[2E0,1E0,2.9E1,2E0,1E0,7.2E1,1.1E1,1E0,1E0,-2.2627275E1,-9.040085E1,2E0,4.77E2,3.8E1,4E0,1E0,2E0,1.8604156E1,3E0,2E0,4E0,1.1E1,3.3865677E1,3E0,2.43E2,2.7E1,1.1E1,5.682722E0,1E0,1.9519058E1,4.63916E0,1E0,5E0,2E0,2E0,3E0,5E0,4E0,4.021877E1,1E0,7.6E1,3.3E1,3.9E1,1E0,4.47E2,4E0,1.3E1,-9.430423E0,-2.6082451E0,-4.347978E1,-8.20439E0,2.3651E0,-1.2730656E1,-5.861161E-1,3.8082237E1,-4.510781E1,1.4931105E1,1.10681915E2,1.9560923E1,-4.235348E1,9.726961E0,-1.1647144E1,-4.841687E1,1.1368794E1,-1.1382692E1,-5.8050766E1,-2.5382261E1,-3.256292E1,-8.470791E0,2.6506493E1,-1.4026866E0,8.7278595E0,-1.1603382E1,6.442454E1,1.3285184E1,-1.4535515E1,-3.9098785E1,5.8254738E1,1.2980512E-1],"split_indices":[16,39,28,25,0,16,16,22,16,0,0,1,15,23,9,16,7,0,5,0,25,0,0,15,17,15,9,0,1,0,0,0,5,52,66,46,25,1,0,0,1,46,15,0,1,67,9,0,0,0,0,0,0,0,0,0,0,0,0,0,0,0,0,0,0,0,0,0,0,0,0,0,0,0,0,0,0,0,0],"split_type":[0,0,0,0,0,0,0,0,0,0,0,0,0,0,0,0,0,0,0,0,0,0,0,0,0,0,0,0,0,0,0,0,0,0,0,0,0,0,0,0,0,0,0,0,0,0,0,0,0,0,0,0,0,0,0,0,0,0,0,0,0,0,0,0,0,0,0,0,0,0,0,0,0,0,0,0,0,0,0],"sum_hessian":[1.153E3,2.7E1,1.126E3,2.4E1,3E0,2.6E2,8.66E2,1.2E1,1.2E1,2E0,1E0,2.45E2,1.5E1,7.1E1,7.95E2,7E0,5E0,1E0,1.1E1,1.09E2,1.36E2,1.3E1,2E0,1.9E1,5.2E1,1.2E1,7.83E2,3E0,4E0,4E0,1E0,5E0,6E0,9.4E1,1.5E1,2.9E1,1.07E2,1.2E1,1E0,6E0,1.3E1,1.8E1,3.4E1,4E0,8E0,2E1,7.63E2,1E0,3E0,4E0,1E0,4E0,2E0,8.6E1,8E0,1.2E1,3E0,5E0,2.4E1,4E0,1.03E2,2E0,1E1,2E0,4E0,8E0,5E0,2E0,1.6E1,5E0,2.9E1,2E0,2E0,4E0,4E0,1.2E1,8E0,5E0,7.58E2],"tree_param":{"num_deleted":"0","num_feature":"69","num_nodes":"79","size_leaf_vector":"1"}},{"base_weights":[8.271681E-1,-6.677654E-1,3.1894896E1,-1.7884732E0,4.9745213E1,1.6984571E1,1.4586168E2,-2.062185E-1,-8.1494156E1,3.1387678E1,3.353786E1,2.915291E1,-3.89841E1,6.401864E1,1.7623774E1,-1.502438E0,3.563807E1,-1.1117322E2,1.3363799E2,2.08459E1,2.310658E1,4.3122074E1,-3.211401E1,-3.7233624E-1,-3.4825058E1,-8.5686415E-2,-9.066388E1,9.277485E1,-4.515238E1,-4.8528584E1,-2.7687247E2,4.8862156E1,1.127494E1,-4.4294543E0,2.6396347E1,2.6170765E1,1.15041176E2,-1.0880678E2,3.5663002E1,-2.9795504E1,3.2671722E1,1.1431162E0,-4.0750957E0,-1.9232306E2,1.0127325E1,1.112218E1,1.0024815E2,1.9213818E1,-5.8409946E1,2.0090446E1,-3.9890198E1,-1.0597271E2,4.2910404E0,9.437084E0,-1.8055664E0,1.5898354E1,8.222403E-1,5.5775295E1,9.937058E0,-8.899191E0,-5.1935284E1,1.4987678E1,-3.2281017E0,2.4804548E1,-3.9011354E0],"categories":[],"categories_nodes":[],"categories_segments":[],"categories_sizes":[],"default_left":[0,0,0,0,0,0,0,0,0,0,0,0,0,0,0,0,0,0,0,0,0,0,0,0,0,0,0,0,0,0,0,0,0,0,0,0,0,0,0,0,0,0,0,0,0,0,0,0,0,0,0,0,0,0,0,0,0,0,0,0,0,0,0,0,0],"id":26,"left_children":[1,3,5,7,9,11,13,15,17,-1,19,21,23,-1,-1,25,27,29,31,-1,33,35,37,39,-1,41,43,45,47,49,51,-1,-1,-1,53,55,57,59,61,-1,63,-1,-1,-1,-1,-1,-1,-1,-1,-1,-1,-1,-1,-1,-1,-1,-1,-1,-1,-1,-1,-1,-1,-1,-1],"loss_changes":[5.3617895E4,6.235E4,8.758453E4,1.3606094E5,1.7838262E4,3.382669E4,2.276343E4,4.9256867E4,1.489403E5,0E0,5.8941777E3,3.561873E4,2.674928E4,0E0,0E0,1.292172E5,1.7498494E5,1.8378698E5,2.3034336E3,0E0,2.5077363E3,3.7220344E4,4.546443E4,2.6131945E4,0E0,5.306154E4,1.1173739E6,2.834102E5,2.7375528E5,1.5519056E5,1.1623794E5,0E0,0E0,0E0,2.8139463E3,1.7452174E4,2.867796E4,1.5223602E4,3.8558965E3,0E0,1.4780598E4,0E0,0E0,0E0,0E0,0E0,0E0,0E0,0E0,0E0,0E0,0E0,0E0,0E0,0E0,0E0,0E0,0E0,0E0,0E0,0E0,0E0,0E0,0E0,0E0],"parents":[2147483647,0,0,1,1,2,2,3,3,4,4,5,5,6,6,7,7,8,8,10,10,11,11,12,12,15,15,16,16,17,17,18,18,20,20,21,21,22,22,23,23,25,25,26,26,27,27,28,28,29,29,30,30,34,34,35,35,36,36,37,37,38,38,40,40],"right_children":[2,4,6,8,10,12,14,16,18,-1,20,22,24,-1,-1,26,28,30,32,-1,34,36,38,40,-1,42,44,46,48,50,52,-1,-1,-1,54,56,58,60,62,-1,64,-1,-1,-1,-1,-1,-1,-1,-1,-1,-1,-1,-1,-1,-1,-1,-1,-1,-1,-1,-1,-1,-1,-1,-1],"split_conditions":[2.2E1,1.535E3,1.1E1,1.025E3,1.549E3,9E0,2.3E1,1.01E2,3E1,3.1387678E1,8E0,4E0,4E1,6.401864E1,1.7623774E1,1E2,4.21E2,4.62E2,6.47E2,2.08459E1,1.511E3,5E1,3.8E1,4E0,-3.4825058E1,8E0,1.309E3,1.545E3,1.18E2,6.64E2,6.45E2,4.8862156E1,1.127494E1,-4.4294543E0,2.315E3,1.32E2,6.8E1,2.76E2,7.56E2,