{"learner":{"attributes":{"scikit_learn":"{\"_estimator_type\": \"regressor\"}"},"feature_names":[],"feature_types":[],"gradient_booster":{"model":{"gbtree_model_param":{"num_parallel_tree":"1","num_trees":"100"},"iteration_indptr":[0,1,2,3,4,5,6,7,8,9,10,11,12,13,14,15,16,17,18,19,20,21,22,23,24,25,26,27,28,29,30,31,32,33,34,35,36,37,38,39,40,41,42,43,44,45,46,47,48,49,50,51,52,53,54,55,56,57,58,59,60,61,62,63,64,65,66,67,68,69,70,71,72,73,74,75,76,77,78,79,80,81,82,83,84,85,86,87,88,89,90,91,92,93,94,95,96,97,98,99,100],"tree_info":[0,0,0,0,0,0,0,0,0,0,0,0,0,0,0,0,0,0,0,0,0,0,0,0,0,0,0,0,0,0,0,0,0,0,0,0,0,0,0,0,0,0,0,0,0,0,0,0,0,0,0,0,0,0,0,0,0,0,0,0,0,0,0,0,0,0,0,0,0,0,0,0,0,0,0,0,0,0,0,0,0,0,0,0,0,0,0,0,0,0,0,0,0,0,0,0,0,0,0,0],"trees":[{"base_weights":[5.056292E-5,-3.707237E2,2.7608286E2,-6.3858E2,2.4428582E0,-1.3661098E2,3.850301E2,-7.334538E2,-5.144808E1,2.826283E2,-3.1820688E2,-3.246096E2,1.5864697E2,4.133379E2,-7.594794E2,-7.738103E2,-6.533639E0,2.1142065E2,-4.7539426E2,3.7786566E2,-4.6438153E2,-8.1506757E2,4.4161325E2,-6.025252E2,-8.760309E1,-4.954923E2,4.4176434E2,-2.5369905E2,-5.7093422E1,-9.3853107E2,-5.921874E2,1.3114818E2,-2.2772737E2,-3.1957065E2,4.2386853E2,-3.0712814E2,-4.3998497E1,4.4528317E2,-7.413198E2,-3.2213614E2,2.1136433E2,-4.8091774E1,-9.521613E2,1.5950453E2,-2.4493077E2,-7.4329144E2,-9.482441E1,6.604187E1,-3.2836517E2,-8.4280664E2,1.3114818E2,3.046798E2,5.292703E2,-3.310417E2,-1.5553032E2,-1.1396328E2,-2.6602777E2,1.0929014E2,-1.2638157E2,-1.329864E2,8.1967606E1,1.530062E2,2.4191553E1,1.3661269E2,-1.9033432E2,1.4466222E2,-2.5064606E2,8.1967606E1,-2.9966217E2,-1.8790547E2,1.3661269E2,7.5955E1,-2.5063844E2,-9.226845E1,-3.3782562E2,1.0929014E2,-2.4390219E2,1.3114818E2,-1.24638596E2,-1.3830913E2,6.946548E1,-3.207434E2,-1.3148334E2,1.6037141E2,6.978867E1,1.6162695E2,-9.364146E1],"categories":[],"categories_nodes":[],"categories_segments":[],"categories_sizes":[],"default_left":[0,0,0,0,0,0,0,0,0,0,0,0,0,0,0,0,0,0,0,0,0,0,0,0,0,0,0,0,0,0,0,0,0,0,0,0,0,0,0,0,0,0,0,0,0,0,0,0,0,0,0,0,0,0,0,0,0,0,0,0,0,0,0,0,0,0,0,0,0,0,0,0,0,0,0,0,0,0,0,0,0,0,0,0,0,0,0],"id":0,"left_children":[1,3,5,7,9,11,13,15,17,19,21,23,-1,25,27,29,31,33,35,37,39,41,43,45,47,49,51,-1,-1,53,55,-1,57,59,61,-1,63,65,67,-1,69,71,73,-1,-1,75,77,79,-1,81,-1,83,85,-1,-1,-1,-1,-1,-1,-1,-1,-1,-1,-1,-1,-1,-1,-1,-1,-1,-1,-1,-1,-1,-1,-1,-1,-1,-1,-1,-1,-1,-1,-1,-1,-1,-1],"loss_changes":[1.1821477E8,4.9279376E7,2.9817344E7,1.5949152E7,1.86871E7,1.756066E7,1.7290768E7,7.240928E6,4.669638E6,8.072375E6,3.697984E7,7.126809E6,0E0,1.3446312E7,4.76752E5,6.4448E6,1.4735466E6,3.068463E6,3.7399618E6,7.799915E6,5.5804035E6,6.15792E6,4.8531975E6,3.502874E6,9.355031E6,5.551221E6,5.800608E6,0E0,0E0,7.812168E6,6.792756E6,0E0,1.299307E6,7.0783056E5,5.207025E5,0E0,3.2374618E6,4.84827E6,1.8407188E6,0E0,1.7161099E6,2.5836735E6,5.259228E6,0E0,0E0,3.307628E6,2.2285158E6,4.730238E6,0E0,6.30141E5,0E0,3.122168E6,2.578656E6,0E0,0E0,0E0,0E0,0E0,0E0,0E0,0E0,0E0,0E0,0E0,0E0,0E0,0E0,0E0,0E0,0E0,0E0,0E0,0E0,0E0,0E0,0E0,0E0,0E0,0E0,0E0,0E0,0E0,0E0,0E0,0E0,0E0,0E0],"parents":[2147483647,0,0,1,1,2,2,3,3,4,4,5,5,6,6,7,7,8,8,9,9,10,10,11,11,13,13,14,14,15,15,16,16,17,17,18,18,19,19,20,20,21,21,22,22,23,23,24,24,25,25,26,26,29,29,30,30,32,32,33,33,34,34,36,36,37,37,38,38,40,40,41,41,42,42,45,45,46,46,47,47,49,49,51,51,52,52],"right_children":[2,4,6,8,10,12,14,16,18,20,22,24,-1,26,28,30,32,34,36,38,40,42,44,46,48,50,52,-1,-1,54,56,-1,58,60,62,-1,64,66,68,-1,70,72,74,-1,-1,76,78,80,-1,82,-1,84,86,-1,-1,-1,-1,-1,-1,-1,-1,-1,-1,-1,-1,-1,-1,-1,-1,-1,-1,-1,-1,-1,-1,-1,-1,-1,-1,-1,-1,-1,-1,-1,-1,-1,-1],"split_conditions":[1.43E2,1.2E1,1E0,8.88E2,6.9E1,4.41E2,1E0,1E0,1.36E2,3.4E1,1.97E2,1E0,1.5864697E2,6.49E2,1.2737E4,2.14E2,4E0,9.19E2,1.04E2,9.4E1,6.4E1,6.4E1,7.9E2,2.9E2,2.49E2,1E0,4.75E2,-2.5369905E2,-5.7093422E1,1E0,1.15E2,1.3114818E2,5E0,9.92E2,1.96E2,-3.0712814E2,5.76E2,1E0,3.6E1,-3.2213614E2,4.6E1,3.6E1,1E0,1.5950453E2,-2.4493077E2,3E0,4.48E2,2.63E2,-3.2836517E2,6.4E2,1.3114818E2,1.83E2,6.72E2,-3.310417E2,-1.5553032E2,-1.1396328E2,-2.6602777E2,1.0929014E2,-1.2638157E2,-1.329864E2,8.1967606E1,1.530062E2,2.4191553E1,1.3661269E2,-1.9033432E2,1.4466222E2,-2.5064606E2,8.1967606E1,-2.9966217E2,-1.8790547E2,1.3661269E2,7.5955E1,-2.5063844E2,-9.226845E1,-3.3782562E2,1.0929014E2,-2.4390219E2,1.3114818E2,-1.24638596E2,-1.3830913E2,6.946548E1,-3.207434E2,-1.3148334E2,1.6037141E2,6.978867E1,1.6162695E2,-9.364146E1],"split_indices":[15,57,54,17,23,57,44,29,15,0,5,61,0,17,4,17,0,17,4,42,4,57,16,23,15,52,23,0,0,63,15,0,46,0,16,0,0,51,5,0,0,54,42,0,0,9,4,1,0,17,0,1,40,0,0,0,0,0,0,0,0,0,0,0,0,0,0,0,0,0,0,0,0,0,0,0,0,0,0,0,0,0,0,0,0,0,0],"split_type":[0,0,0,0,0,0,0,0,0,0,0,0,0,0,0,0,0,0,0,0,0,0,0,0,0,0,0,0,0,0,0,0,0,0,0,0,0,0,0,0,0,0,0,0,0,0,0,0,0,0,0,0,0,0,0,0,0,0,0,0,0,0,0,0,0,0,0,0,0,0,0,0,0,0,0,0,0,0,0,0,0,0,0,0,0,0,0],"sum_hessian":[1.153E3,4.92E2,6.61E2,2.86E2,2.06E2,1.38E2,5.23E2,2.46E2,4E1,1.1E2,9.6E1,1.08E2,3E1,5.11E2,1.2E1,2.33E2,1.3E1,2.5E1,1.5E1,9.8E1,1.2E1,5.8E1,3.8E1,4.9E1,5.9E1,1.5E1,4.96E2,1E1,2E0,1.2E2,1.13E2,4E0,9E0,7E0,1.8E1,6E0,9E0,9.3E1,5E0,6E0,6E0,9E0,4.9E1,3.6E1,2E0,3.8E1,1.1E1,5.2E1,7E0,1.1E1,4E0,1.95E2,3.01E2,8.5E1,3.5E1,6.7E1,4.6E1,2E0,7E0,6E0,1E0,1.4E1,4E0,5E0,4E0,9.1E1,2E0,1E0,4E0,1E0,5E0,7E0,2E0,1.1E1,3.8E1,2E0,3.6E1,4E0,7E0,1.2E1,4E1,6E0,5E0,4.5E1,1.5E2,2.98E2,3E0],"tree_param":{"num_deleted":"0","num_feature":"69","num_nodes":"87","size_leaf_vector":"1"}},{"base_weights":[-2.6645136E0,-2.64323E2,1.9219998E2,-4.528334E2,-5.9986577E0,-9.826554E1,2.6888416E2,-5.1978076E2,-4.1737328E1,1.2506993E2,-3.4938535E2,-2.3204607E2,1.1258818E2,2.8929172E2,-5.5554266E2,-4.508784E2,-8.616335E2,1.5284749E2,-3.5532907E2,2.538815E2,-1.2752695E2,-7.8652216E2,2.1888005E2,-4.479718E2,-4.8240524E1,-3.6691202E2,3.098349E2,-1.8450839E2,-4.5674744E1,-4.8973254E2,3.596361E2,-9.062265E2,1.3162386E2,-2.3007677E2,3.0603415E2,-6.936123E2,6.965573E1,3.0180487E2,-5.552063E2,-6.319155E2,3.6290378E2,-2.5863806E2,-2.2856476E1,3.1876364E2,-1.9594461E2,-5.995913E2,2.1846536E2,2.7580975E2,-2.4310672E2,-6.2765015E2,9.967261E1,-2.2642926E2,3.2018903E2,-5.694474E1,-1.6600731E2,-2.6404676E1,2.0182198E2,-2.8456433E2,1.0529715E2,-9.878988E1,6.9672455E1,1.1016445E2,1.8385584E1,-6.486713E1,-2.39736E2,-1.8188913E2,1.1880686E2,9.8867355E1,-2.0051685E2,6.9672455E1,-2.2774326E2,-2.2516496E2,4.9376807E0,-1.9715212E1,1.1994665E2,8.1967606E1,-1.366653E2,-1.3967459E2,1.11932495E2,2.482123E1,-2.3822456E2,-6.9418216E0,1.3940941E2,-8.83176E1,1.1281789E2,-8.754495E1,1.2673382E2,-4.1516655E1,-2.1349908E2,-2.6135757E2,1.3098109E1,1.0459006E2,4.1812622E1],"categories":[],"categories_nodes":[],"categories_segments":[],"categories_sizes":[],"default_left":[0,0,0,0,0,0,0,0,0,0,0,0,0,0,0,0,0,0,0,0,0,0,0,0,0,0,0,0,0,0,0,0,0,0,0,0,0,0,0,0,0,0,0,0,0,0,0,0,0,0,0,0,0,0,0,0,0,0,0,0,0,0,0,0,0,0,0,0,0,0,0,0,0,0,0,0,0,0,0,0,0,0,0,0,0,0,0,0,0,0,0,0,0],"id":1,"left_children":[1,3,5,7,9,11,13,15,17,19,21,23,-1,25,27,29,31,33,35,37,39,41,43,45,47,49,51,-1,-1,53,55,57,-1,59,61,63,65,67,69,71,73,-1,75,77,-1,79,81,83,85,87,-1,89,91,-1,-1,-1,-1,-1,-1,-1,-1,-1,-1,-1,-1,-1,-1,-1,-1,-1,-1,-1,-1,-1,-1,-1,-1,-1,-1,-1,-1,-1,-1,-1,-1,-1,-1,-1,-1,-1,-1,-1,-1],"loss_changes":[5.88909E7,2.4004816E7,1.4771884E7,7.822024E6,9.450203E6,8.893158E6,8.976768E6,5.382356E6,2.5561388E6,4.978062E6,1.4579918E7,4.3044195E6,0E0,7.015712E6,2.1823275E5,6.66344E6,2.717114E6,1.5955422E6,2.348558E6,4.0837605E6,1.3092442E7,1.885606E6,2.4728355E6,5.183233E6,3.855838E6,3.1252698E6,2.832112E6,0E0,0E0,3.654168E6,1.4608258E6,2.408002E6,0E0,4.4345725E5,2.6199925E5,2.805245E5,2.0049776E6,2.805146E6,1.1398474E6,2.01226E6,4.5352325E5,0E0,6.3691994E5,1.1967128E6,0E0,5.506665E6,6.056626E5,1.4254496E6,1.3551955E6,3.947675E5,0E0,1.7794732E6,2.461268E6,0E0,0E0,0E0,0E0,0E0,0E0,0E0,0E0,0E0,0E0,0E0,0E0,0E0,0E0,0E0,0E0,0E0,0E0,0E0,0E0,0E0,0E0,0E0,0E0,0E0,0E0,0E0,0E0,0E0,0E0,0E0,0E0,0E0,0E0,0E0,0E0,0E0,0E0,0E0,0E0],"parents":[2147483647,0,0,1,1,2,2,3,3,4,4,5,5,6,6,7,7,8,8,9,9,10,10,11,11,13,13,14,14,15,15,16,16,17,17,18,18,19,19,20,20,21,21,22,22,23,23,24,24,25,25,26,26,29,29,30,30,31,31,33,33,34,34,35,35,36,36,37,37,38,38,39,39,40,40,42,42,43,43,45,45,46,46,47,47,48,48,49,49,51,51,52,52],"right_children":[2,4,6,8,10,12,14,16,18,20,22,24,-1,26,28,30,32,34,36,38,40,42,44,46,48,50,52,-1,-1,54,56,58,-1,60,62,64,66,68,70,72,74,-1,76,78,-1,80,82,84,86,88,-1,90,92,-1,-1,-1,-1,-1,-1,-1,-1,-1,-1,-1,-1,-1,-1,-1,-1,-1,-1,-1,-1,-1,-1,-1,-1,-1,-1,-1,-1,-1,-1,-1,-1,-1,-1,-1,-1,-1,-1,-1,-1],"split_conditions":[1.43E2,1.1E1,1E0,8.88E2,3.7E1,4.41E2,1E0,4E0,1.36E2,6.9E1,1.97E2,3.69E2,1.1258818E2,6.49E2,1.2737E4,1E0,3E0,9.19E2,3.37E2,9.4E1,1.01E2,1E0,1.11E2,1.7E1,8.1E1,1E0,2.6E1,-1.8450839E2,-4.5674744E1,1.3E1,1E0,1.6E1,1.3162386E2,9.92E2,1.96E2,1.37E2,1.04E2,1E0,3.6E1,2.6E1,1.34E2,-2.5863806E2,1.69E2,2E0,-1.9594461E2,5.13E2,2.27E2,4.4E2,2.445E3,1.5E2,9.967261E1,8E2,6.4E1,-5.694474E1,-1.6600731E2,-2.6404676E1,2.0182198E2,-2.8456433E2,1.0529715E2,-9.878988E1,6.9672455E1,1.1016445E2,1.8385584E1,-6.486713E1,-2.39736E2,-1.8188913E2,1.1880686E2,9.8867355E1,-2.0051685E2,6.9672455E1,-2.2774326E2,-2.2516496E2,4.9376807E0,-1.9715212E1,1.1994665E2,8.1967606E1,-1.366653E2,-1.3967459E2,1.11932495E2,2.482123E1,-2.3822456E2,-6.9418216E0,1.3940941E2,-8.83176E1,1.1281789E2,-8.754495E1,1.2673382E2,-4.1516655E1,-2.1349908E2,-2.6135757E2,1.3098109E1,1.0459006E2,4.1812622E1],"split_indices":[15,57,54,17,0,57,44,26,15,23,5,1,0,17,4,39,21,17,28,42,5,19,15,61,42,52,42,0,0,46,66,16,0,0,16,15,4,51,5,0,5,0,0,4,0,17,1,17,17,15,0,17,50,0,0,0,0,0,0,0,0,0,0,0,0,0,0,0,0,0,0,0,0,0,0,0,0,0,0,0,0,0,0,0,0,0,0,0,0,0,0,0,0],"split_type":[0,0,0,0,0,0,0,0,0,0,0,0,0,0,0,0,0,0,0,0,0,0,0,0,0,0,0,0,0,0,0,0,0,0,0,0,0,0,0,0,0,0,0,0,0,0,0,0,0,0,0,0,0,0,0,0,0,0,0,0,0,0,0,0,0,0,0,0,0,0,0,0,0,0,0,0,0,0,0,0,0,0,0,0,0,0,0,0,0,0,0,0,0],"sum_hessian":[1.153E3,4.92E2,6.61E2,2.84E2,2.08E2,1.38E2,5.23E2,2.44E2,4E1,1.51E2,5.7E1,1.08E2,3E1,5.11E2,1.2E1,2.05E2,3.9E1,2.5E1,1.5E1,1E2,5.1E1,3.2E1,2.5E1,4.9E1,5.9E1,1.5E1,4.96E2,1E1,2E0,1.96E2,9E0,3.8E1,1E0,7E0,1.8E1,8E0,7E0,9.5E1,5E0,2.5E1,2.6E1,2.9E1,3E0,2.3E1,2E0,4E1,9E0,2.2E1,3.7E1,1.1E1,4E0,9E0,4.87E2,3.5E1,1.61E2,4E0,5E0,3.7E1,1E0,6E0,1E0,1.4E1,4E0,2E0,6E0,2E0,5E0,9.3E1,2E0,1E0,4E0,2.1E1,4E0,2E0,2.4E1,2E0,1E0,1E0,2.2E1,9E0,3.1E1,5E0,4E0,3E0,1.9E1,3.5E1,2E0,2E0,9E0,2E0,7E0,4.2E2,6.7E1],"tree_param":{"num_deleted":"0","num_feature":"69","num_nodes":"93","size_leaf_vector":"1"}},{"base_weights":[-3.3142197E0,-1.8762277E2,1.3394777E2,-3.174976E2,-6.64843E0,2.9442139E1,2.3899754E2,-2.6962814E2,-7.0410876E2,2.3221169E2,-1.12762314E2,-1.00687454E2,1.4609573E2,2.6463776E2,-4.065863E2,-3.116861E2,2.5301111E1,-2.2180641E2,-2.8136017E2,2.6557553E2,-1.6041347E2,-3.057896E2,1.0148172E2,-1.6810701E2,7.941265E1,-1.713603E2,1.6609799E2,2.7122607E2,-3.2034967E2,-1.3418793E2,-3.6539806E1,-5.35117E2,-2.0304463E2,1.604541E2,-2.2909395E2,7.502384E1,-1.6255997E2,2.8180234E2,-1.0863916E2,-6.3326483E2,4.769702E0,1.6466814E2,-2.2207144E2,-3.8594772E2,-3.3845295E1,2.4039471E2,1.9726389E1,2.765985E2,1.6721416E2,-1.8169006E2,8.032532E1,-7.980994E1,-2.1821774E2,1.7073325E2,-7.152981E1,8.679593E1,-1.1452526E2,8.9311584E1,-1.0085592E2,-1.9778102E2,4.543817E1,-9.454387E1,6.935342E1,9.3553734E1,1.9465792E1,-1.5246472E2,4.985174E1,-7.099367E1,3.69555E1,4.6498646E1,1.1036877E2,-2.2794046E2,3.179259E1,4.6975773E1,8.393823E1,-6.8506226E1,7.846542E1],"categories":[],"categories_nodes":[],"categories_segments":[],"categories_sizes":[],"default_left":[0,0,0,0,0,0,0,0,0,0,0,0,0,0,0,0,0,0,0,0,0,0,0,0,0,0,0,0,0,0,0,0,0,0,0,0,0,0,0,0,0,0,0,0,0,0,0,0,0,0,0,0,0,0,0,0,0,0,0,0,0,0,0,0,0,0,0,0,0,0,0,0,0,0,0,0,0],"id":2,"left_children":[1,3,5,7,9,11,13,15,17,19,21,23,25,27,29,31,33,-1,35,37,-1,39,41,43,-1,-1,45,47,49,-1,-1,51,53,55,-1,-1,-1,57,-1,59,61,63,-1,65,67,69,71,73,75,-1,-1,-1,-1,-1,-1,-1,-1,-1,-1,-1,-1,-1,-1,-1,-1,-1,-1,-1,-1,-1,-1,-1,-1,-1,-1,-1,-1],"loss_changes":[2.9219668E7,1.1585364E7,7.260594E6,5.12162E6,5.2728845E6,5.0696785E6,5.570062E6,3.195746E6,2.53881E5,1.7796065E6,5.986144E6,3.9368062E6,2.6200442E6,1.31248E6,9.622575E4,5.352966E6,3.641275E6,0E0,6.892834E5,7.335615E5,0E0,7.732258E6,3.7916768E6,3.9061258E6,0E0,0E0,1.865746E6,1.2977E5,8.3326175E5,0E0,0E0,3.58338E6,4.316432E6,2.1367245E6,0E0,0E0,0E0,6.995815E5,0E0,8.54909E5,2.9701202E6,9.3433625E5,0E0,3.5272885E6,2.704197E6,1.184267E6,4.0472925E6,7.0476E4,7.314289E5,0E0,0E0,0E0,0E0,0E0,0E0,0E0,0E0,0E0,0E0,0E0,0E0,0E0,0E0,0E0,0E0,0E0,0E0,0E0,0E0,0E0,0E0,0E0,0E0,0E0,0E0,0E0,0E0],"parents":[2147483647,0,0,1,1,2,2,3,3,4,4,5,5,6,6,7,7,8,8,9,9,10,10,11,11,12,12,13,13,14,14,15,15,16,16,18,18,19,19,21,21,22,22,23,23,26,26,27,27,28,28,31,31,32,32,33,33,37,37,39,39,40,40,41,41,43,43,44,44,45,45,46,46,47,47,48,48],"right_children":[2,4,6,8,10,12,14,16,18,20,22,24,26,28,30,32,34,-1,36,38,-1,40,42,44,-1,-1,46,48,50,-1,-1,52,54,56,-1,-1,-1,58,-1,60,62,64,-1,66,68,70,72,74,76,-1,-1,-1,-1,-1,-1,-1,-1,-1,-1,-1,-1,-1,-1,-1,-1,-1,-1,-1,-1,-1,-1,-1,-1,-1,-1,-1,-1],"split_conditions":[1.43E2,1.2E1,4.54E2,3E0,2.7E1,3.6E1,1E0,2E0,1E0,1E0,1.2E2,4.41E2,4.47E2,6.72E2,1.2737E4,2.14E2,4E0,-2.2180641E2,1E0,9.4E1,-1.6041347E2,3.6E1,7.9E2,3.07E2,7.941265E1,-1.713603E2,5.01E2,3.2E2,3.04E3,-1.3418793E2,-3.6539806E1,1.2E1,5.9E1,3E0,-2.2909395E2,7.502384E1,-1.6255997E2,1E0,-1.0863916E2,1.08E2,9E0,2E1,-2.2207144E2,1.7E1,1E0,3.04E2,5.06E2,4.75E2,1.635E3,-1.8169006E2,8.032532E1,-7.980994E1,-2.1821774E2,1.7073325E2,-7.152981E1,8.679593E1,-1.1452526E2,8.9311584E1,-1.0085592E2,-1.9778102E2,4.543817E1,-9.454387E1,6.935342E1,9.3553734E1,1.9465792E1,-1.5246472E2,4.985174E1,-7.099367E1,3.69555E1,4.6498646E1,1.1036877E2,-2.2794046E2,3.179259E1,4.6975773E1,8.393823E1,-6.8506226E1,7.846542E1],"split_indices":[15,57,23,66,23,54,44,25,39,51,5,57,17,40,4,17,57,0,0,42,0,15,16,1,0,0,1,52,0,0,0,15,23,27,0,0,0,61,0,5,25,0,0,61,61,6,1,23,0,0,0,0,0,0,0,0,0,0,0,0,0,0,0,0,0,0,0,0,0,0,0,0,0,0,0,0,0],"split_type":[0,0,0,0,0,0,0,0,0,0,0,0,0,0,0,0,0,0,0,0,0,0,0,0,0,0,0,0,0,0,0,0,0,0,0,0,0,0,0,0,0,0,0,0,0,0,0,0,0,0,0,0,0,0,0,0,0,0,0,0,0,0,0,0,0,0,0,0,0,0,0,0,0,0,0,0,0],"sum_hessian":[1.153E3,4.92E2,6.61E2,2.86E2,2.06E2,3.32E2,3.29E2,2.56E2,3E1,6.3E1,1.43E2,1.57E2,1.75E2,3.17E2,1.2E1,2.24E2,3.2E1,2.7E1,3E0,6.1E1,2E0,7.5E1,6.8E1,1.33E2,2.4E1,4E0,1.71E2,3.14E2,3E0,1E1,2E0,7.2E1,1.52E2,2.8E1,4E0,1E0,2E0,6E1,1E0,3.6E1,3.9E1,6.4E1,4E0,5E1,8.3E1,1.13E2,5.8E1,2.97E2,1.7E1,2E0,1E0,3.1E1,4.1E1,6E0,1.46E2,2.3E1,5E0,5.9E1,1E0,3.5E1,1E0,1.6E1,2.3E1,2.5E1,3.9E1,4.1E1,9E0,3.6E1,4.7E1,6.9E1,4.4E1,5E0,5.3E1,9E0,2.88E2,3E0,1.4E1],"tree_param":{"num_deleted":"0","num_feature":"69","num_nodes":"77","size_leaf_vector":"1"}},{"base_weights":[-3.820187E0,-7.960351E1,1.6490363E2,-1.3969537E2,5.797096E1,1.962956E2,-1.8485847E2,-2.1679561E2,-9.030272E0,1.0926047E2,-1.4219177E2,2.0568777E2,-1.238839E2,-2.9668216E2,9.3565E1,-2.3188272E2,3.789263E2,6.143174E1,-2.0487859E2,3.5681882E2,7.71475E1,-4.2230084E2,-4.262309E1,2.104571E2,-1.1052711E2,-4.0630524E2,7.193955E1,1.4691045E2,-4.444962E2,-2.665665E2,1.4683237E1,1.7959021E2,2.3063351E2,-6.1040635E0,1.9662303E2,-3.9986984E2,1.563496E2,3.6448624E2,2.9370447E1,2.6670757E1,2.0078687E2,1.4233372E2,-5.365669E2,1.475569E2,-1.0248865E2,2.807324E2,6.0400486E1,4.035364E1,-2.131026E2,8.750716E1,-1.0826551E2,-2.7340393E2,-3.35964E2,-6.999591E1,-1.6707072E2,3.778014E1,-7.552081E1,-1.3495331E2,1.2570617E2,2.914876E1,-1.2418869E2,-1.0644528E2,6.79116E1,-1.3410257E2,8.029764E1,7.0840096E1,-1.1234141E2,1.4703775E2,9.182792E1,1.6815403E1,-2.051392E2,7.50079E1,1.6893635E1,-1.899706E2,-5.5476368E1,-1.6033342E2,-3.8043454E0,-3.7502483E1,8.9044716E1,6.0458515E1,-1.1464584E2],"categories":[],"categories_nodes":[],"categories_segments":[],"categories_sizes":[],"default_left":[0,0,0,0,0,0,0,0,0,0,0,0,0,0,0,0,0,0,0,0,0,0,0,0,0,0,0,0,0,0,0,0,0,0,0,0,0,0,0,0,0,0,0,0,0,0,0,0,0,0,0,0,0,0,0,0,0,0,0,0,0,0,0,0,0,0,0,0,0,0,0,0,0,0,0,0,0,0,0,0,0],"id":3,"left_children":[1,3,5,7,9,11,13,15,17,19,21,23,25,27,-1,29,31,33,35,37,39,41,43,45,-1,47,-1,49,51,53,55,-1,57,59,61,63,65,67,-1,69,71,-1,73,-1,75,77,-1,-1,-1,-1,-1,-1,79,-1,-1,-1,-1,-1,-1,-1,-1,-1,-1,-1,-1,-1,-1,-1,-1,-1,-1,-1,-1,-1,-1,-1,-1,-1,-1,-1,-1],"loss_changes":[1.476869E7,6.596983E6,3.967028E6,5.589286E6,2.5102345E6,1.014846E6,1.7589552E6,3.224579E6,2.8691585E6,1.51474E6,1.3765048E6,9.53738E5,1.124548E6,1.704531E6,0E0,2.920092E6,1.5516462E5,1.3981289E6,3.936518E6,7.99125E3,1.0743229E6,1.5866515E6,1.2662921E6,1.47336E5,0E0,1.0821196E6,0E0,6.1989744E5,6.56518E5,2.756234E6,1.3061915E6,0E0,1.0858464E6,4.378389E6,9.169645E5,1.252437E6,9.354464E5,4.0425E3,0E0,2.6266992E6,3.4161312E5,0E0,2.90818E5,0E0,1.3509738E6,2.589765E5,0E0,0E0,0E0,0E0,0E0,0E0,4.9905862E5,0E0,0E0,0E0,0E0,0E0,0E0,0E0,0E0,0E0,0E0,0E0,0E0,0E0,0E0,0E0,0E0,0E0,0E0,0E0,0E0,0E0,0E0,0E0,0E0,0E0,0E0,0E0,0E0],"parents":[2147483647,0,0,1,1,2,2,3,3,4,4,5,5,6,6,7,7,8,8,9,9,10,10,11,11,12,12,13,13,15,15,16,16,17,17,18,18,19,19,20,20,21,21,22,22,23,23,25,25,27,27,28,28,29,29,30,30,32,32,33,33,34,34,35,35,36,36,37,37,39,39,40,40,42,42,44,44,45,45,52,52],"right_children":[2,4,6,8,10,12,14,16,18,20,22,24,26,28,-1,30,32,34,36,38,40,42,44,46,-1,48,-1,50,52,54,56,-1,58,60,62,64,66,68,-1,70,72,-1,74,-1,76,78,-1,-1,-1,-1,-1,-1,80,-1,-1,-1,-1,-1,-1,-1,-1,-1,-1,-1,-1,-1,-1,-1,-1,-1,-1,-1,-1,-1,-1,-1,-1,-1,-1,-1,-1],"split_conditions":[3.76E2,1.83E2,6.4E1,1.1E1,2.24E2,3.2E2,4.56E2,2.56E2,3.7E1,2.08E2,1.76E2,4.48E3,3.04E3,2.46E2,9.3565E1,1.08E3,6.6E1,3.6E1,3.44E2,1.301E3,4.48E2,2.5E1,2.08E2,7.8E1,-1.1052711E2,2.176E3,7.193955E1,9.38E2,2.4E2,3.76E2,1.856E3,1.7959021E2,4.1E1,1.6E1,5E0,6E1,1.11E2,2.6E1,2.9370447E1,4.24E2,1.312E3,1.4233372E2,9.44E2,1.475569E2,2.19E2,4.47E2,6.0400486E1,4.035364E1,-2.131026E2,8.750716E1,-1.0826551E2,-2.7340393E2,6.05E2,-6.999591E1,-1.6707072E2,3.778014E1,-7.552081E1,-1.3495331E2,1.2570617E2,2.914876E1,-1.2418869E2,-1.0644528E2,6.79116E1,-1.3410257E2,8.029764E1,7.0840096E1,-1.1234141E2,1.4703775E2,9.182792E1,1.6815403E1,-2.051392E2,7.50079E1,1.6893635E1,-1.899706E2,-5.5476368E1,-1.6033342E2,-3.8043454E0,-3.7502483E1,8.9044716E1,6.0458515E1,-1.1464584E2],"split_indices":[42,15,50,57,52,40,6,50,0,15,42,54,0,28,0,17,0,1,5,1,6,9,15,46,0,0,0,0,15,6,17,0,9,1,25,25,15,42,0,6,0,0,6,0,15,1,0,0,0,0,0,0,1,0,0,0,0,0,0,0,0,0,0,0,0,0,0,0,0,0,0,0,0,0,0,0,0,0,0,0,0],"split_type":[0,0,0,0,0,0,0,0,0,0,0,0,0,0,0,0,0,0,0,0,0,0,0,0,0,0,0,0,0,0,0,0,0,0,0,0,0,0,0,0,0,0,0,0,0,0,0,0,0,0,0,0,0,0,0,0,0,0,0,0,0,0,0,0,0,0,0,0,0,0,0,0,0,0,0,0,0,0,0,0,0],"sum_hessian":[1.153E3,7.96E2,3.57E2,5.54E2,2.42E2,3.28E2,2.9E1,3.48E2,2.06E2,1.93E2,4.9E1,3.19E2,9E0,2.4E1,5E0,3.4E2,8E0,1.52E2,5.4E1,2.1E1,1.72E2,1.2E1,3.7E1,3.17E2,2E0,5E0,4E0,6E0,1.8E1,2.98E2,4.2E1,2E0,6E0,1.02E2,5E1,3.5E1,1.9E1,2E1,1E0,1.23E2,4.9E1,1E0,1.1E1,3E0,3.4E1,3.3E1,2.84E2,2E0,3E0,5E0,1E0,2E0,1.6E1,2.69E2,2.9E1,3E1,1.2E1,1E0,5E0,8.2E1,2E1,2E0,4.8E1,3.3E1,2E0,1.7E1,2E0,4E0,1.6E1,1.19E2,4E0,3.6E1,1.3E1,8E0,3E0,5E0,2.9E1,1E0,3.2E1,1E0,1.5E1],"tree_param":{"num_deleted":"0","num_feature":"69","num_nodes":"81","size_leaf_vector":"1"}},{"base_weights":[-3.224754E0,-9.750839E1,6.699437E1,-6.984356E1,-3.929131E2,9.329008E1,-5.889297E1,-1.73436E1,-2.0553914E2,-4.2027847E2,1.093603E2,3.8359E1,1.4728607E2,-1.5088489E2,-1.1811868E1,7.2580833E0,-4.6638947E2,1.1260761E0,-2.9146878E2,-4.4528253E2,8.6982574E1,-1.6285712E2,9.221167E1,9.922276E1,1.4473988E2,1.4173189E2,-1.4869357E2,1.04105576E2,-6.959371E1,-1.5794536E2,7.426967E1,4.1770538E2,-1.84062E2,-3.7729633E2,-5.6658493E1,-1.3836871E2,-1.8645712E2,-6.0218384E1,-7.1497705E2,-1.6594652E2,1.26870834E2,3.7094013E1,1.4701146E2,2.0338008E2,-1.8542023E2,-3.44794E2,4.5772144E1,-3.3664238E1,5.2771343E1,-3.9585213E1,6.337167E1,3.5299164E1,2.0944087E2,-1.2915166E2,6.406146E1,-1.4820084E2,-8.086816E1,2.1241531E1,-1.1836112E2,2.7669123E1,-9.302893E1,5.250825E0,-1.6204459E2,-1.23852165E2,-2.6223544E2,1.2300017E2,-8.679018E1,8.654546E1,2.5051846E1,-9.5291954E1,4.474689E1,5.189848E1,4.1193634E1,7.1770615E1,-7.256194E1,-3.9377094E1,-2.343031E2,-3.6784527E1,7.873497E1],"categories":[],"categories_nodes":[],"categories_segments":[],"categories_sizes":[],"default_left":[0,0,0,0,0,0,0,0,0,0,0,0,0,0,0,0,0,0,0,0,0,0,0,0,0,0,0,0,0,0,0,0,0,0,0,0,0,0,0,0,0,0,0,0,0,0,0,0,0,0,0,0,0,0,0,0,0,0,0,0,0,0,0,0,0,0,0,0,0,0,0,0,0,0,0,0,0,0,0],"id":4,"left_children":[1,3,5,7,9,11,13,15,17,19,-1,21,23,-1,25,27,29,31,33,35,-1,37,39,-1,41,43,45,47,49,-1,-1,51,53,55,57,-1,59,61,63,65,67,69,71,73,-1,75,77,-1,-1,-1,-1,-1,-1,-1,-1,-1,-1,-1,-1,-1,-1,-1,-1,-1,-1,-1,-1,-1,-1,-1,-1,-1,-1,-1,-1,-1,-1,-1,-1],"loss_changes":[7.6466055E6,4.001512E6,2.1969112E6,3.2164885E6,1.023776E6,1.6197495E6,2.398327E6,3.615847E6,2.2379205E6,8.572E5,0E0,2.973252E6,8.1052E4,0E0,2.2278945E6,2.321988E6,8.5972725E5,3.0084132E6,1.772257E6,7.90945E4,0E0,3.243741E6,1.9537242E6,0E0,6.1547E4,2.4677152E6,2.1513315E6,2.163088E6,3.0749395E6,0E0,0E0,9.2754525E5,2.7375512E6,6.84111E5,1.1046156E6,0E0,1.6642728E5,1.8744901E6,7.1869E4,1.9657939E6,1.314503E6,3.2564397E5,4.3788E4,8.082049E5,0E0,2.5056405E6,1.0902675E6,0E0,0E0,0E0,0E0,0E0,0E0,0E0,0E0,0E0,0E0,0E0,0E0,0E0,0E0,0E0,0E0,0E0,0E0,0E0,0E0,0E0,0E0,0E0,0E0,0E0,0E0,0E0,0E0,0E0,0E0,0E0,0E0],"parents":[2147483647,0,0,1,1,2,2,3,3,4,4,5,5,6,6,7,7,8,8,9,9,11,11,12,12,14,14,15,15,16,16,17,17,18,18,19,19,21,21,22,22,24,24,25,25,26,26,27,27,28,28,31,31,32,32,33,33,34,34,36,36,37,37,38,38,39,39,40,40,41,41,42,42,43,43,45,45,46,46],"right_children":[2,4,6,8,10,12,14,16,18,20,-1,22,24,-1,26,28,30,32,34,36,-1,38,40,-1,42,44,46,48,50,-1,-1,52,54,56,58,-1,60,62,64,66,68,70,72,74,-1,76,78,-1,-1,-1,-1,-1,-1,-1,-1,-1,-1,-1,-1,-1,-1,-1,-1,-1,-1,-1,-1,-1,-1,-1,-1,-1,-1,-1,-1,-1,-1,-1,-1],"split_conditions":[1.43E2,4E0,6.4E1,1.01E2,3E0,6E0,9E1,3E0,1.6E1,1.6E1,1.093603E2,2.99E2,3.31E2,-1.5088489E2,4.76E2,5.2E1,3E0,1.16E2,8.88E2,1.1E1,8.6982574E1,1.96E2,1E0,9.922276E1,5E0,2.208E3,4.56E2,1E0,8.4E1,-1.5794536E2,7.426967E1,1.44E2,3.37E2,1.22E2,1.36E2,-1.3836871E2,5E0,1.92E2,4.47E2,1.87E2,6E0,4E0,6.56E2,7.04E2,-1.8542023E2,1E0,7.78E2,-3.3664238E1,5.2771343E1,-3.9585213E1,6.337167E1,3.5299164E1,2.0944087E2,-1.2915166E2,6.406146E1,-1.4820084E2,-8.086816E1,2.1241531E1,-1.1836112E2,2.7669123E1,-9.302893E1,5.250825E0,-1.6204459E2,-1.23852165E2,-2.6223544E2,1.2300017E2,-8.679018E1,8.654546E1,2.5051846E1,-9.5291954E1,4.474689E1,5.189848E1,4.1193634E1,7.1770615E1,-7.256194E1,-3.9377094E1,-2.343031E2,-3.6784527E1,7.873497E1],"split_indices":[15,26,50,15,21,57,42,66,54,16,0,1,57,0,1,23,26,15,17,37,0,42,61,0,25,4,6,28,15,0,0,1,28,15,15,0,0,52,17,15,61,1,42,50,0,61,1,0,0,0,0,0,0,0,0,0,0,0,0,0,0,0,0,0,0,0,0,0,0,0,0,0,0,0,0,0,0,0,0],"split_type":[0,0,0,0,0,0,0,0,0,0,0,0,0,0,0,0,0,0,0,0,0,0,0,0,0,0,0,0,0,0,0,0,0,0,0,0,0,0,0,0,0,0,0,0,0,0,0,0,0,0,0,0,0,0,0,0,0,0,0,0,0,0,0,0,0,0,0,0,0,0,0,0,0,0,0,0,0,0,0],"sum_hessian":[1.153E3,4.92E2,6.61E2,4.51E2,4.1E1,5.47E2,1.14E2,3.26E2,1.25E2,4E1,1E0,2.72E2,2.75E2,1E1,1.04E2,3.1E2,1.6E1,3.7E1,8.8E1,3.9E1,1E0,5.7E1,2.15E2,2E0,2.73E2,4.9E1,5.5E1,1.37E2,1.73E2,1.5E1,1E0,1.1E1,2.6E1,6.4E1,2.4E1,3.6E1,3E0,4.9E1,8E0,2.5E1,1.9E2,6E0,2.67E2,4.6E1,3E0,2.7E1,2.8E1,3.4E1,1.03E2,1.42E2,3.1E1,6E0,5E0,1.6E1,1E1,2.9E1,3.5E1,1.8E1,6E0,1E0,2E0,4.3E1,6E0,4E0,4E0,4E0,2.1E1,3.9E1,1.51E2,1E0,5E0,6.8E1,1.99E2,4.3E1,3E0,1.9E1,8E0,1.6E1,1.2E1],"tree_param":{"num_deleted":"0","num_feature":"69","num_nodes":"79","size_leaf_vector":"1"}},{"base_weights":[-3.1384687E0,-4.5816273E1,8.7057045E1,-3.278725E1,-2.75215E2,9.5600426E1,-1.5556833E2,-4.8792305E1,1.4074019E2,-2.970424E2,9.295624E1,-2.2861821E2,1.01758865E2,-1.8528325E2,1.5727417E0,-6.0425133E1,1.8902428E2,1.6880276E2,-1.4303369E2,-3.16791E2,7.393519E1,2.1726479E1,-1.0905554E2,2.3501157E2,9.044516E1,-2.8512493E1,-6.217309E1,-7.759218E1,9.5272E1,2.894889E2,3.4281315E1,1.9640977E2,3.696565E1,-3.6244415E2,-2.2565846E2,-2.4191294E1,3.102215E2,-2.2746302E1,9.8684364E1,2.0271023E1,-2.865579E1,3.4925274E1,-1.8870674E2,2.7092346E1,1.1039389E2,-1.1430421E2,-5.090969E1,-7.534654E1,2.3518763E1,3.5213863E1,-7.562368E1,1.4776428E2,6.1336365E1,-8.119527E1,5.663065E1,3.0613874E1,-5.394253E1],"categories":[],"categories_nodes":[],"categories_segments":[],"categories_sizes":[],"default_left":[0,0,0,0,0,0,0,0,0,0,0,0,0,0,0,0,0,0,0,0,0,0,0,0,0,0,0,0,0,0,0,0,0,0,0,0,0,0,0,0,0,0,0,0,0,0,0,0,0,0,0,0,0,0,0,0,0],"id":5,"left_children":[1,3,5,7,9,11,13,15,17,19,-1,21,23,25,-1,27,29,31,-1,33,-1,-1,-1,35,37,-1,-1,39,41,43,-1,-1,-1,45,47,49,51,53,55,-1,-1,-1,-1,-1,-1,-1,-1,-1,-1,-1,-1,-1,-1,-1,-1,-1,-1],"loss_changes":[4.446134E6,2.3342275E6,7.83896E5,2.0704128E6,6.284025E5,7.4007275E5,6.3091562E4,1.8953944E6,1.17222E6,5.181355E5,0E0,3.10599E5,5.1092075E5,2.102375E3,0E0,1.7447512E6,2.0724162E5,1.2704226E6,0E0,8.463075E4,0E0,0E0,0E0,5.3385975E5,3.072075E5,0E0,0E0,1.5314255E6,1.0687448E6,1.7000875E5,0E0,0E0,0E0,2.482375E4,1.4372756E5,2.5542458E5,3.0426175E5,1.2571086E6,3.039075E5,0E0,0E0,0E0,0E0,0E0,0E0,0E0,0E0,0E0,0E0,0E0,0E0,0E0,0E0,0E0,0E0,0E0,0E0],"parents":[2147483647,0,0,1,1,2,2,3,3,4,4,5,5,6,6,7,7,8,8,9,9,11,11,12,12,13,13,15,15,16,16,17,17,19,19,23,23,24,24,27,27,28,28,29,29,33,33,34,34,35,35,36,36,37,37,38,38],"right_children":[2,4,6,8,10,12,14,16,18,20,-1,22,24,26,-1,28,30,32,-1,34,-1,-1,-1,36,38,-1,-1,40,42,44,-1,-1,-1,46,48,50,52,54,56,-1,-1,-1,-1,-1,-1,-1,-1,-1,-1,-1,-1,-1,-1,-1,-1,-1,-1],"split_conditions":[4.75E2,4E0,2E0,1E0,3E0,3.3E1,1.2737E4,6.9E1,3E0,1.6E1,9.295624E1,1E0,5.3E1,1.74E2,1.5727417E0,1.8E1,1.001E3,3E0,-1.4303369E2,2E0,7.393519E1,2.1726479E1,-1.0905554E2,1.69E3,3E0,-2.8512493E1,-6.217309E1,1.2E1,5.28E2,1E0,3.4281315E1,1.9640977E2,3.696565E1,1.6E1,9E0,3.7E1,1.86E2,1.89E2,6.72E2,2.0271023E1,-2.865579E1,3.4925274E1,-1.8870674E2,2.7092346E1,1.1039389E2,-1.1430421E2,-5.090969E1,-7.534654E1,2.3518763E1,3.5213863E1,-7.562368E1,1.4776428E2,6.1336365E1,-8.119527E1,5.663065E1,3.0613874E1,-5.394253E1],"split_indices":[23,26,44,33,21,1,4,25,52,16,0,3,28,25,0,61,57,0,0,66,0,0,0,17,15,0,0,23,6,29,0,0,0,15,57,46,5,5,40,0,0,0,0,0,0,0,0,0,0,0,0,0,0,0,0,0,0],"split_type":[0,0,0,0,0,0,0,0,0,0,0,0,0,0,0,0,0,0,0,0,0,0,0,0,0,0,0,0,0,0,0,0,0,0,0,0,0,0,0,0,0,0,0,0,0,0,0,0,0,0,0,0,0,0,0,0,0],"sum_hessian":[1.153E3,7.83E2,3.7E2,7.42E2,4.1E1,3.58E2,1.2E1,6.8E2,6.2E1,4E1,1E0,6E0,3.52E2,1E1,2E0,6.49E2,3.1E1,6E1,2E0,3.9E1,1E0,2E0,4E0,2.6E1,3.26E2,3E0,7E0,5.85E2,6.4E1,1.2E1,1.9E1,4E0,5.6E1,2.4E1,1.5E1,6E0,2E1,2.2E1,3.04E2,6.4E1,5.21E2,6.3E1,1E0,4E0,8E0,2.1E1,3E0,1.4E1,1E0,4E0,2E0,6E0,1.4E1,1E1,1.2E1,3.01E2,3E0],"tree_param":{"num_deleted":"0","num_feature":"69","num_nodes":"57","size_leaf_vector":"1"}},{"base_weights":[-2.2020152E0,-7.529215E1,2.703671E1,-6.040899E1,-3.4576404E2,2.9193512E1,-1.720975E2,-9.115757E1,1.3034726E2,-5.7371466E2,-1.2882715E2,-3.086686E0,7.622582E1,6.2644093E1,-1.1574435E2,2.3569058E2,3.2740734E1,-7.00297E2,4.6854256E1,-1.1393173E2,3.4253387E2,-3.6444653E1,6.0291977E1,2.3658463E2,5.672868E1,-8.818984E1,5.5846344E2,-1.670147E2,4.313124E0,-8.116235E1,2.7452924E2,-2.834222E2,1.7959738E2,4.2185635E1,-2.5916583E2,1.4508412E1,1.9899155E2,1.3404587E2,-6.914488E1,6.8499405E1,-1.9778337E2,-1.1001762E2,2.828595E2,-1.434228E2,6.1922253E1,-1.3850917E2,2.0585178E1,2.1478836E2,-1.05227776E2,-3.8965725E1,-1.2022839E2,7.608006E1,-2.952572E1,1.8494434E2,5.3376358E1,-1.0329234E2,2.1416512E1,8.2115814E1,3.1012362E1,-4.175695E1,4.828574E1,4.4936893E1,-1.0033294E2,-6.0961426E1,-1.2856534E1,3.1878149E1,1.562286E-1,1.8547467E2,6.913769E1,2.0934563E1,-3.47258E1],"categories":[],"categories_nodes":[],"categories_segments":[],"categories_sizes":[],"default_left":[0,0,0,0,0,0,0,0,0,0,0,0,0,0,0,0,0,0,0,0,0,0,0,0,0,0,0,0,0,0,0,0,0,0,0,0,0,0,0,0,0,0,0,0,0,0,0,0,0,0,0,0,0,0,0,0,0,0,0,0,0,0,0,0,0,0,0,0,0,0,0],"id":6,"left_children":[1,3,5,7,9,11,-1,13,15,17,19,21,23,25,27,29,31,33,-1,-1,35,37,39,41,43,45,47,49,51,-1,53,55,57,-1,-1,59,-1,61,63,65,-1,-1,67,-1,69,-1,-1,-1,-1,-1,-1,-1,-1,-1,-1,-1,-1,-1,-1,-1,-1,-1,-1,-1,-1,-1,-1,-1,-1,-1,-1],"loss_changes":[2.4682058E6,1.3075208E6,1.0856011E6,1.8536442E6,7.667551E5,1.249724E6,0E0,1.03203375E6,4.446998E5,8.4850825E5,1.3129431E6,1.03603294E6,1.033969E6,2.8911332E6,1.4410815E6,4.8715988E5,1.1652371E6,1.0844312E6,0E0,0E0,4.1126106E5,1.7988692E6,1.0432433E6,1.108783E6,8.628681E5,1.7887384E6,1.5399345E6,1.3712645E6,1.8432554E6,0E0,5.510209E5,1.9740238E5,9.366656E4,0E0,0E0,8.9927516E4,0E0,4.3363675E5,9.428806E5,4.3119175E5,0E0,0E0,4.5505525E5,0E0,4.2422188E5,0E0,0E0,0E0,0E0,0E0,0E0,0E0,0E0,0E0,0E0,0E0,0E0,0E0,0E0,0E0,0E0,0E0,0E0,0E0,0E0,0E0,0E0,0E0,0E0,0E0,0E0],"parents":[2147483647,0,0,1,1,2,2,3,3,4,4,5,5,7,7,8,8,9,9,10,10,11,11,12,12,13,13,14,14,15,15,16,16,17,17,20,20,21,21,22,22,23,23,24,24,25,25,26,26,27,27,28,28,30,30,31,31,32,32,35,35,37,37,38,38,39,39,42,42,44,44],"right_children":[2,4,6,8,10,12,-1,14,16,18,20,22,24,26,28,30,32,34,-1,-1,36,38,40,42,44,46,48,50,52,-1,54,56,58,-1,-1,60,-1,62,64,66,-1,-1,68,-1,70,-1,-1,-1,-1,-1,-1,-1,-1,-1,-1,-1,-1,-1,-1,-1,-1,-1,-1,-1,-1,-1,-1,-1,-1,-1,-1],"split_conditions":[5.2E1,5E1,4.16E2,3.03E2,3.36E2,2E0,-1.720975E2,9E0,3.56E2,4.09E2,1.1E1,2.096E3,8.6E1,1E0,1.46E2,2.41E2,3.84E2,4.9E2,4.6854256E1,-1.1393173E2,4.8E2,5.2E1,1.099E3,1.92E2,1.26E2,2E0,6E0,3.2E1,1.68E2,-8.116235E1,6.81E2,4.24E2,1.057E3,4.2185635E1,-2.5916583E2,3.69E2,1.9899155E2,2.52E2,7.1E1,3.76E2,-1.9778337E2,-1.1001762E2,5.7E1,-1.434228E2,2E0,-1.3850917E2,2.0585178E1,2.1478836E2,-1.05227776E2,-3.8965725E1,-1.2022839E2,7.608006E1,-2.952572E1,1.8494434E2,5.3376358E1,-1.0329234E2,2.1416512E1,8.2115814E1,3.1012362E1,-4.175695E1,4.828574E1,4.4936893E1,-1.0033294E2,-6.0961426E1,-1.2856534E1,3.1878149E1,1.562286E-1,1.8547467E2,6.913769E1,2.0934563E1,-3.47258E1],"split_indices":[16,16,67,1,6,67,0,46,1,1,9,17,42,51,28,17,1,17,0,0,6,23,5,17,23,5,7,67,1,0,17,6,1,0,0,1,0,5,15,6,0,0,16,0,44,0,0,0,0,0,0,0,0,0,0,0,0,0,0,0,0,0,0,0,0,0,0,0,0,0,0],"split_type":[0,0,0,0,0,0,0,0,0,0,0,0,0,0,0,0,0,0,0,0,0,0,0,0,0,0,0,0,0,0,0,0,0,0,0,0,0,0,0,0,0,0,0,0,0,0,0,0,0,0,0,0,0,0,0,0,0,0,0,0,0,0,0,0,0,0,0,0,0,0,0],"sum_hessian":[1.153E3,3.29E2,8.24E2,3.13E2,1.6E1,8.22E2,2E0,2.7E2,4.3E1,7E0,9E0,4.88E2,3.34E2,3.7E1,2.33E2,2E1,2.3E1,6E0,1E0,6E0,3E0,3.2E2,1.68E2,3.5E1,2.99E2,2.9E1,8E0,1.63E2,7E1,1E0,1.9E1,7E0,1.6E1,1E0,5E0,2E0,1E0,5.1E1,2.69E2,1.67E2,1E0,2E0,3.3E1,2E0,2.97E2,8E0,2.1E1,7E0,1E0,1.42E2,2.1E1,2E1,5E1,3E0,1.6E1,6E0,1E0,6E0,1E1,1E0,1E0,5E1,1E0,4.3E1,2.26E2,1.07E2,6E1,3E0,3E1,2.85E2,1.2E1],"tree_param":{"num_deleted":"0","num_feature":"69","num_nodes":"71","size_leaf_vector":"1"}},{"base_weights":[-1.9667276E0,-3.980602E1,3.0801975E1,-4.5635185E1,3.065946E2,1.7356096E2,2.2723867E1,-1.5058841E1,-1.2864511E2,1.3930031E2,1.9519264E2,-1.2791162E1,2.3370529E2,-1.999796E2,3.0120428E1,-1.426239E2,1.505222E1,-9.959957E1,-3.6792407E2,-1.1798921E2,3.5882385E2,1.3217242E2,-1.0403275E2,2.5891837E2,4.432882E1,-2.701599E2,7.931062E1,3.833667E1,-8.251921E1,-1.1829725E1,-2.4760873E2,1.6559508E2,-1.0747125E1,-1.9283768E2,-2.8955036E1,-6.3384985E2,-5.6007782E1,1.500771E2,1.6304305E2,2.676737E2,-3.6371956E1,6.513817E1,1.1864949E2,-3.293358E2,1.15772705E2,3.0644953E1,1.0053559E2,-1.2599441E2,4.4250565E0,1.0801576E2,-2.650889E1,-1.0062058E2,-3.1180773E1,2.1478325E1,1.3745386E2,-3.802164E1,1.1970648E1,-6.982775E1,5.1594284E1,2.150818E2,-2.1170832E1,-2.2813445E2,-5.081102E1,9.875422E1,-1.5704744E2,-1.05306786E2,1.3542174E2,9.639768E1,1.6007704E1,1.1379286E1,-3.88921E1,-1.26934135E2,1.0299642E1,9.682874E0,4.2414845E1,1.020708E1,-7.1567955E1,4.0198433E1,1.2991768E0,5.2982845E1,-2.825303E1],"categories":[],"categories_nodes":[],"categories_segments":[],"categories_sizes":[],"default_left":[0,0,0,0,0,0,0,0,0,0,0,0,0,0,0,0,0,0,0,0,0,0,0,0,0,0,0,0,0,0,0,0,0,0,0,0,0,0,0,0,0,0,0,0,0,0,0,0,0,0,0,0,0,0,0,0,0,0,0,0,0,0,0,0,0,0,0,0,0,0,0,0,0,0,0,0,0,0,0,0,0],"id":7,"left_children":[1,3,5,7,9,11,13,15,17,-1,19,21,23,25,27,29,31,33,35,-1,37,39,-1,41,-1,43,-1,45,47,49,51,53,55,57,59,61,63,-1,65,67,69,-1,-1,71,73,75,77,-1,79,-1,-1,-1,-1,-1,-1,-1,-1,-1,-1,-1,-1,-1,-1,-1,-1,-1,-1,-1,-1,-1,-1,-1,-1,-1,-1,-1,-1,-1,-1,-1,-1],"loss_changes":[1.432122E6,1.096297E6,7.099006E5,1.3382008E6,6.7518E4,3.7285412E5,9.72953E5,1.4886599E6,9.5025325E5,0E0,8.151919E5,4.8157472E5,1.5913375E4,6.905961E5,5.297586E5,1.0131946E6,1.2213265E6,8.37522E5,1.2086982E6,0E0,8.4575875E4,1.6960167E5,0E0,1.6867625E4,0E0,4.2637225E5,0E0,2.5095825E5,1.146134E6,9.9950125E5,4.8229325E5,1.2323406E6,1.585404E6,8.410556E5,2.34755E6,3.416215E5,1.612878E6,0E0,7.514032E5,2.8847969E4,3.2637828E4,0E0,0E0,5.260871E5,1.8517539E3,4.3924197E5,1.8611825E5,0E0,5.599188E5,0E0,0E0,0E0,0E0,0E0,0E0,0E0,0E0,0E0,0E0,0E0,0E0,0E0,0E0,0E0,0E0,0E0,0E0,0E0,0E0,0E0,0E0,0E0,0E0,0E0,0E0,0E0,0E0,0E0,0E0,0E0,0E0],"parents":[2147483647,0,0,1,1,2,2,3,3,4,4,5,5,6,6,7,7,8,8,10,10,11,11,12,12,13,13,14,14,15,15,16,16,17,17,18,18,20,20,21,21,23,23,25,25,27,27,28,28,29,29,30,30,31,31,32,32,33,33,34,34,35,35,36,36,38,38,39,39,40,40,43,43,44,44,45,45,46,46,48,48],"right_children":[2,4,6,8,10,12,14,16,18,-1,20,22,24,26,28,30,32,34,36,-1,38,40,-1,42,-1,44,-1,46,48,50,52,54,56,58,60,62,64,-1,66,68,70,-1,-1,72,74,76,78,-1,80,-1,-1,-1,-1,-1,-1,-1,-1,-1,-1,-1,-1,-1,-1,-1,-1,-1,-1,-1,-1,-1,-1,-1,-1,-1,-1,-1,-1,-1,-1,-1,-1],"split_conditions":[1.83E2,3.52E2,2.08E2,2E0,6.6E1,9.9E1,2.24E2,9E0,1.59E2,1.3930031E2,4.1E1,1E0,1.792E3,2.72E2,3.84E2,1E0,1.2E1,1.52E2,8.01E2,-1.1798921E2,9.9E1,1E0,-1.0403275E2,1.6E2,4.432882E1,3.48E2,7.931062E1,8.6E2,3.65E2,5E0,1E0,1E0,2.96E2,2.27E2,1.65E2,3.76E2,5.01E2,1.500771E2,2.27E2,3.88E2,1.6E1,6.513817E1,1.1864949E2,3.12E2,1.6E1,2.304E3,7.9E2,-1.2599441E2,4.76E2,1.0801576E2,-2.650889E1,-1.0062058E2,-3.1180773E1,2.1478325E1,1.3745386E2,-3.802164E1,1.1970648E1,-6.982775E1,5.1594284E1,2.150818E2,-2.1170832E1,-2.2813445E2,-5.081102E1,9.875422E1,-1.5704744E2,-1.05306786E2,1.3542174E2,9.639768E1,1.6007704E1,1.1379286E1,-3.88921E1,-1.26934135E2,1.0299642E1,9.682874E0,4.2414845E1,1.020708E1,-7.1567955E1,4.0198433E1,1.2991768E0,5.2982845E1,-2.825303E1],"split_indices":[23,50,23,61,0,0,23,16,15,0,9,40,17,67,50,68,23,28,17,0,0,5,0,40,0,16,0,28,1,46,51,68,17,57,1,0,1,0,1,1,0,0,0,6,0,0,16,0,1,0,0,0,0,0,0,0,0,0,0,0,0,0,0,0,0,0,0,0,0,0,0,0,0,0,0,0,0,0,0,0,0],"split_type":[0,0,0,0,0,0,0,0,0,0,0,0,0,0,0,0,0,0,0,0,0,0,0,0,0,0,0,0,0,0,0,0,0,0,0,0,0,0,0,0,0,0,0,0,0,0,0,0,0,0,0,0,0,0,0,0,0,0,0,0,0,0,0,0,0,0,0,0,0,0,0,0,0,0,0,0,0,0,0,0,0],"sum_hessian":[1.153E3,5.35E2,6.18E2,5.27E2,8E0,3.2E1,5.86E2,3.86E2,1.41E2,2E0,6E0,8E0,2.4E1,1.8E1,5.68E2,7.3E1,3.13E2,1.27E2,1.4E1,1E0,5E0,6E0,2E0,1.7E1,7E0,1.6E1,2E0,5.3E2,3.8E1,3.3E1,4E1,4.5E1,2.68E2,5.4E1,7.3E1,7E0,7E0,2E0,3E0,3E0,3E0,1.5E1,2E0,1.4E1,2E0,4.73E2,5.7E1,7E0,3.1E1,5E0,2.8E1,2.4E1,1.6E1,3.5E1,1E1,8.1E1,1.87E2,4.9E1,5E0,3E0,7E1,5E0,2E0,4E0,3E0,1E0,2E0,2E0,1E0,2E0,1E0,1.1E1,3E0,1E0,1E0,4.68E2,5E0,4.2E1,1.5E1,1.1E1,2E1],"tree_param":{"num_deleted":"0","num_feature":"69","num_nodes":"81","size_leaf_vector":"1"}},{"base_weights":[-1.1815943E0,4.407157E0,-1.3004756E2,-1.3231849E1,3.0975418E1,2.8462494E2,-2.0778737E2,-8.736682E0,-2.801044E2,4.2931515E1,-6.1529785E1,-8.546727E1,4.0668304E2,-2.3693161E2,1.2102975E2,-2.0179033E1,8.292181E1,-3.725172E2,2.7150648E1,1.9432028E2,3.340483E1,-1.6774762E2,5.5646667E1,4.8834845E2,-1.2496419E1,-3.4727066E2,-1.2026293E2,8.478564E1,-8.111857E0,-1.1285393E1,-1.8403873E2,4.078441E1,3.5776478E1,-6.6889046E1,-1.5111555E2,2.3866417E2,8.134246E1,-2.0855865E2,3.8645332E1,-2.893618E1,-4.0083347E2,8.998241E1,8.700059E0,4.2945175E1,1.5862738E2,-3.9314316E2,7.176515E1,-2.383714E2,1.3313441E2,-5.2152977E0,5.8577667E1,9.346202E1,-6.91691E1,-6.87204E-1,1.1677475E1,4.65458E1,9.716143E1,-2.396398E1,7.876046E1,-1.1064227E2,1.3167642E1,5.880406E1,1.0089611E1,-3.4713245E1,9.111083E1,-8.3114365E1,-1.7919514E2,-5.9278194E1,3.544306E1,-1.3757677E2,-6.7436E1,-7.5579216E1,-9.315062E0,1.3422171E2,-2.4616564E1],"categories":[],"categories_nodes":[],"categories_segments":[],"categories_sizes":[],"default_left":[0,0,0,0,0,0,0,0,0,0,0,0,0,0,0,0,0,0,0,0,0,0,0,0,0,0,0,0,0,0,0,0,0,0,0,0,0,0,0,0,0,0,0,0,0,0,0,0,0,0,0,0,0,0,0,0,0,0,0,0,0,0,0,0,0,0,0,0,0,0,0,0,0,0,0],"id":8,"left_children":[1,3,5,7,9,11,13,15,17,19,21,-1,23,25,27,29,31,33,-1,35,37,39,41,43,-1,45,47,-1,-1,49,51,-1,53,-1,-1,55,57,59,61,63,65,-1,67,-1,-1,69,-1,71,73,-1,-1,-1,-1,-1,-1,-1,-1,-1,-1,-1,-1,-1,-1,-1,-1,-1,-1,-1,-1,-1,-1,-1,-1,-1,-1],"loss_changes":[8.316837E5,5.191918E5,1.6064965E6,7.96511E5,4.9149406E5,6.7197256E5,4.2158375E5,6.896786E5,4.1045025E5,5.5886406E5,6.440923E5,0E0,2.7663788E5,4.474145E5,1.0334736E5,8.489915E5,1.7763178E5,6.4284E4,0E0,9.5813625E4,4.7722372E5,8.61986E5,2.8411066E5,8.0035E3,0E0,6.0521625E5,6.30303E5,0E0,0E0,7.025276E5,7.635327E5,0E0,4.883246E3,0E0,0E0,6.3603125E4,2.5466942E5,3.3982738E5,2.797908E5,5.5470494E5,7.7733E4,0E0,5.200503E5,0E0,0E0,9.5244E4,0E0,3.1533312E4,5.101073E5,0E0,0E0,0E0,0E0,0E0,0E0,0E0,0E0,0E0,0E0,0E0,0E0,0E0,0E0,0E0,0E0,0E0,0E0,0E0,0E0,0E0,0E0,0E0,0E0,0E0,0E0],"parents":[2147483647,0,0,1,1,2,2,3,3,4,4,5,5,6,6,7,7,8,8,9,9,10,10,12,12,13,13,14,14,15,15,16,16,17,17,19,19,20,20,21,21,22,22,23,23,25,25,26,26,29,29,30,30,32,32,35,35,36,36,37,37,38,38,39,39,40,40,42,42,45,45,47,47,48,48],"right_children":[2,4,6,8,10,12,14,16,18,20,22,-1,24,26,28,30,32,34,-1,36,38,40,42,44,-1,46,48,-1,-1,50,52,-1,54,-1,-1,56,58,60,62,64,66,-1,68,-1,-1,70,-1,72,74,-1,-1,-1,-1,-1,-1,-1,-1,-1,-1,-1,-1,-1,-1,-1,-1,-1,-1,-1,-1,-1,-1,-1,-1,-1,-1],"split_conditions":[1E0,2.47E2,1E1,7.9E2,6.4E1,2E0,1.1E1,3.44E2,2.56E2,2.67E2,4.48E2,-8.546727E1,7E0,3E0,1E0,2E0,5.755E3,1.97E2,2.7150648E1,7.29E2,2.79E2,4E2,2.5E1,1E0,-1.2496419E1,1E0,7E0,8.478564E1,-8.111857E0,7.9E2,5E0,4.078441E1,9.831E3,-6.6889046E1,-1.5111555E2,2.08E3,2.445E3,2.24E2,2.89E2,3.2E2,8.42E2,8.998241E1,9.1E1,4.2945175E1,1.5862738E2,6E0,7.176515E1,1.1E1,6E0,-5.2152977E0,5.8577667E1,9.346202E1,-6.91691E1,-6.87204E-1,1.1677475E1,4.65458E1,9.716143E1,-2.396398E1,7.876046E1,-1.1064227E2,1.3167642E1,5.880406E1,1.0089611E1,-3.4713245E1,9.111083E1,-8.3114365E1,-1.7919514E2,-5.9278194E1,3.544306E1,-1.3757677E2,-6.7436E1,-7.5579216E1,-9.315062E0,1.3422171E2,-2.4616564E1],"split_indices":[56,15,46,16,50,16,27,5,4,15,6,0,0,26,0,58,4,5,0,1,15,6,9,0,0,60,54,0,0,28,46,0,4,0,0,17,17,6,23,6,1,0,9,0,0,50,0,67,26,0,0,0,0,0,0,0,0,0,0,0,0,0,0,0,0,0,0,0,0,0,0,0,0,0,0],"split_type":[0,0,0,0,0,0,0,0,0,0,0,0,0,0,0,0,0,0,0,0,0,0,0,0,0,0,0,0,0,0,0,0,0,0,0,0,0,0,0,0,0,0,0,0,0,0,0,0,0,0,0,0,0,0,0,0,0,0,0,0,0,0,0,0,0,0,0,0,0,0,0,0,0,0,0],"sum_hessian":[1.153E3,1.106E3,4.7E1,6.65E2,4.41E2,7E0,4E1,6.55E2,1E1,3.91E2,5E1,1E0,6E0,3.7E1,3E0,5.83E2,7.2E1,8E0,2E0,2.2E1,3.69E2,2.6E1,2.4E1,5E0,1E0,1.8E1,1.9E1,1E0,2E0,5.54E2,2.9E1,3.3E1,3.9E1,5E0,3E0,1.5E1,7E0,7E0,3.62E2,1.7E1,9E0,3E0,2.1E1,1E0,4E0,1.7E1,1E0,1.3E1,6E0,5.39E2,1.5E1,2E0,2.7E1,3E0,3.6E1,9E0,6E0,4E0,3E0,4E0,3E0,1E1,3.52E2,1.4E1,3E0,7E0,2E0,7E0,1.4E1,1.1E1,6E0,1.2E1,1E0,2E0,4E0],"tree_param":{"num_deleted":"0","num_feature":"69","num_nodes":"75","size_leaf_vector":"1"}},{"base_weights":[-7.920291E-1,-3.591105E1,1.209281E1,3.6283615E0,-2.0776553E2,-2.9245514E2,1.5721263E1,-8.658324E1,4.2852455E1,-2.4111105E2,3.642425E1,3.549067E1,-5.8601044E2,-2.0144164E2,2.0474878E1,7.736775E1,-9.9207825E1,8.95204E1,-7.4200134E1,-1.6330325E2,-4.933458E2,-1.9003705E2,-5.2316814E1,-2.5622372E2,4.7363E1,1.4335767E2,1.3648064E1,-1.1932752E2,1.5205663E2,1.1902191E2,-1.5710046E2,-3.9984952E2,-4.3153734E0,-2.1403714E2,5.303188E1,2.8687885E1,-1.6667462E2,-2.079563E1,-7.921884E1,7.167815E1,2.0213593E2,1.7804646E2,8.397122E0,-4.0232048E1,7.663383E1,9.067872E1,-8.984584E1,2.507101E1,1.042299E2,-5.7847485E1,4.6097645E1,-6.510518E1,-1.7224069E2,1.5728578E1,-3.4119804E1,4.26721E1,-7.845978E1,-1.3413757E2,3.354181E1,2.6776102E1,1.7990912E2,5.1034138E1,1.2632889E0],"categories":[],"categories_nodes":[],"categories_segments":[],"categories_sizes":[],"default_left":[0,0,0,0,0,0,0,0,0,0,0,0,0,0,0,0,0,0,0,0,0,0,0,0,0,0,0,0,0,0,0,0,0,0,0,0,0,0,0,0,0,0,0,0,0,0,0,0,0,0,0,0,0,0,0,0,0,0,0,0,0,0,0],"id":9,"left_children":[1,3,5,7,9,11,13,15,17,19,-1,-1,21,23,25,-1,27,29,31,33,35,-1,-1,37,-1,39,41,43,45,47,49,51,53,55,-1,-1,-1,-1,-1,57,-1,59,61,-1,-1,-1,-1,-1,-1,-1,-1,-1,-1,-1,-1,-1,-1,-1,-1,-1,-1,-1,-1],"loss_changes":[5.226227E5,2.1072115E6,9.383548E5,8.9894275E5,6.6592125E5,1.2751264E6,8.671348E5,3.6044744E5,9.735235E5,9.5960425E5,0E0,0E0,6.71125E3,3.9476738E5,6.851009E5,0E0,3.9729688E5,9.4271056E5,1.1589289E6,7.624781E5,4.9299275E5,0E0,0E0,5.138125E3,0E0,1.586602E6,6.692473E5,4.219798E5,4.9746938E5,8.9409175E5,1.8505322E5,1.6218888E5,2.7294E5,6.632984E5,0E0,0E0,0E0,0E0,0E0,8.619121E5,0E0,8.4502375E5,5.097203E5,0E0,0E0,0E0,0E0,0E0,0E0,0E0,0E0,0E0,0E0,0E0,0E0,0E0,0E0,0E0,0E0,0E0,0E0,0E0,0E0],"parents":[2147483647,0,0,1,1,2,2,3,3,4,4,5,5,6,6,7,7,8,8,9,9,12,12,13,13,14,14,16,16,17,17,18,18,19,19,20,20,23,23,25,25,26,26,27,27,28,28,29,29,30,30,31,31,32,32,33,33,39,39,41,41,42,42],"right_children":[2,4,6,8,10,12,14,16,18,20,-1,-1,22,24,26,-1,28,30,32,34,36,-1,-1,38,-1,40,42,44,46,48,50,52,54,56,-1,-1,-1,-1,-1,58,-1,60,62,-1,-1,-1,-1,-1,-1,-1,-1,-1,-1,-1,-1,-1,-1,-1,-1,-1,-1,-1,-1],"split_conditions":[2.1E1,1.5E1,8E0,9E0,4.481E3,1.1E1,1.92E2,3E0,1.28E2,2.97E2,3.642425E1,3.549067E1,6.6E1,2E0,3.77E2,7.736775E1,1.02E2,3E0,6.5E1,1.94E2,3.4E1,-1.9003705E2,-5.2316814E1,2.5E1,4.7363E1,2.18E2,2.5E1,3E0,1.69E2,5E0,9E0,1.35E2,3.56E2,3E1,5.303188E1,2.8687885E1,-1.6667462E2,-2.079563E1,-7.921884E1,1E0,2.0213593E2,1.92E2,6.2E1,-4.0232048E1,7.663383E1,9.067872E1,-8.984584E1,2.507101E1,1.042299E2,-5.7847485E1,4.6097645E1,-6.510518E1,-1.7224069E2,1.5728578E1,-3.4119804E1,4.26721E1,-7.845978E1,-1.3413757E2,3.354181E1,2.6776102E1,1.7990912E2,5.1034138E1,1.2632889E0],"split_indices":[9,9,28,16,17,15,17,46,4,28,0,0,0,5,17,0,5,66,23,0,0,0,0,9,0,28,9,21,0,67,25,4,1,23,0,0,0,0,0,42,0,52,23,0,0,0,0,0,0,0,0,0,0,0,0,0,0,0,0,0,0,0,0],"split_type":[0,0,0,0,0,0,0,0,0,0,0,0,0,0,0,0,0,0,0,0,0,0,0,0,0,0,0,0,0,0,0,0,0,0,0,0,0,0,0,0,0,0,0,0,0,0,0,0,0,0,0,0,0,0,0,0,0,0,0,0,0,0,0],"sum_hessian":[1.153E3,3.09E2,8.44E2,2.52E2,5.7E1,9E0,8.35E2,7.6E1,1.76E2,5.2E1,5E0,4E0,5E0,1.7E1,8.18E2,2E0,7.4E1,1.26E2,5E1,4.1E1,1.1E1,4E0,1E0,1.5E1,2E0,4.2E1,7.76E2,6.9E1,5E0,1.13E2,1.3E1,8E0,4.2E1,3.6E1,5E0,1E0,1E1,1E0,1.4E1,3.8E1,4E0,2.3E1,7.53E2,6.7E1,2E0,4E0,1E0,9.9E1,1.4E1,1.2E1,1E0,5E0,3E0,2.8E1,1.4E1,4E0,3.2E1,2E0,3.6E1,2E1,3E0,1.8E1,7.35E2],"tree_param":{"num_deleted":"0","num_feature":"69","num_nodes":"63","size_leaf_vector":"1"}},{"base_weights":[-5.604063E-1,-8.2325735E0,3.966966E1,2.2579852E-1,-8.70598E1,2.29994E2,2.3947506E1,5.2981205E0,-9.152197E1,7.260901E1,-1.2583148E2,5.194662E1,1.1420514E2,-2.280676E2,3.130541E1,1.180709E1,-8.0180534E1,-2.054511E2,1.3493584E2,2.624141E2,-1.3922379E1,1.24535736E2,-1.3857907E2,-2.7596277E1,-8.643753E1,1.1589402E1,7.6309006E1,6.193877E0,2.7734592E2,-2.156097E2,1.2332818E1,-1.195866E2,-1.6298663E2,1.810564E2,4.977277E1,1.2486016E2,4.452501E1,-1.0295479E2,6.955288E1,-1.4487593E2,-1.1752433E2,-2.005303E2,2.67729E1,1.4159712E2,1.7622446E1,-1.0894316E1,6.918232E0,1.381306E2,5.3383957E1,-8.276536E0,-9.236882E1,-2.5346346E1,5.1154316E1,-8.647799E1,-3.9997404E0,8.639364E1,2.8227808E1,-2.501452E1,2.5758644E1,9.4546265E1,-3.32484E0,-2.4794924E1,-8.5502945E1,3.610654E1,-1.6545135E2,6.817106E0,7.0828E1,5.9512123E1,1.2681746E1,-1.5941049E2,1.7290724E1],"categories":[],"categories_nodes":[],"categories_segments":[],"categories_sizes":[],"default_left":[0,0,0,0,0,0,0,0,0,0,0,0,0,0,0,0,0,0,0,0,0,0,0,0,0,0,0,0,0,0,0,0,0,0,0,0,0,0,0,0,0,0,0,0,0,0,0,0,0,0,0,0,0,0,0,0,0,0,0,0,0,0,0,0,0,0,0,0,0,0,0],"id":10,"left_children":[1,3,5,7,9,11,13,15,17,19,21,-1,-1,23,25,27,29,31,33,35,37,-1,39,-1,-1,41,43,45,47,49,51,53,-1,55,57,-1,-1,-1,59,-1,61,63,65,67,69,-1,-1,-1,-1,-1,-1,-1,-1,-1,-1,-1,-1,-1,-1,-1,-1,-1,-1,-1,-1,-1,-1,-1,-1,-1,-1],"loss_changes":[3.5651072E5,6.467671E5,5.480694E5,4.0861806E5,5.9105544E5,5.3992438E4,3.2607994E5,4.6385312E5,1.2145292E6,3.1571125E5,5.816091E5,0E0,0E0,1.43591875E4,1.4818055E5,1.1519492E6,7.418704E5,8.342861E5,5.3832625E4,4.3416406E4,4.0866056E5,0E0,4.869955E5,0E0,0E0,3.854136E5,1.92913E5,5.45027E5,2.0925062E5,4.0794875E5,5.65755E5,4.6213506E5,0E0,6.588697E4,4.0797566E4,0E0,0E0,0E0,2.4114355E5,0E0,3.9699506E5,9.673564E5,8.8716875E4,1.26957875E5,6.456998E5,0E0,0E0,0E0,0E0,0E0,0E0,0E0,0E0,0E0,0E0,0E0,0E0,0E0,0E0,0E0,0E0,0E0,0E0,0E0,0E0,0E0,0E0,0E0,0E0,0E0,0E0],"parents":[2147483647,0,0,1,1,2,2,3,3,4,4,5,5,6,6,7,7,8,8,9,9,10,10,13,13,14,14,15,15,16,16,17,17,18,18,19,19,20,20,22,22,25,25,26,26,27,27,28,28,29,29,30,30,31,31,33,33,34,34,38,38,40,40,41,41,42,42,43,43,44,44],"right_children":[2,4,6,8,10,12,14,16,18,20,22,-1,-1,24,26,28,30,32,34,36,38,-1,40,-1,-1,42,44,46,48,50,52,54,-1,56,58,-1,-1,-1,60,-1,62,64,66,68,70,-1,-1,-1,-1,-1,-1,-1,-1,-1,-1,-1,-1,-1,-1,-1,-1,-1,-1,-1,-1,-1,-1,-1,-1,-1,-1],"split_conditions":[1.8E1,9E0,9.9E1,1.14E2,3.7E1,3.76E2,1.52E2,3.76E2,4.56E2,1E0,5.3E1,5.194662E1,1.1420514E2,6.4E2,4.24E2,3.2E2,4.72E2,2.129E3,1.08E2,9.9E1,1.12E2,1.24535736E2,1.76E2,-2.7596277E1,-8.643753E1,1.94E2,5.28E2,4.3E1,1.72E2,2E0,1.19E2,2.67E2,-1.6298663E2,2.06E2,1.98E2,1.2486016E2,4.452501E1,-1.0295479E2,1.68E2,-1.4487593E2,2.88E2,4.72E2,2.273E3,7.29E2,5.02E2,-1.0894316E1,6.918232E0,1.381306E2,5.3383957E1,-8.276536E0,-9.236882E1,-2.5346346E1,5.1154316E1,-8.647799E1,-3.9997404E0,8.639364E1,2.8227808E1,-2.501452E1,2.5758644E1,9.4546265E1,-3.32484E0,-2.4794924E1,-8.5502945E1,3.610654E1,-1.6545135E2,6.817106E0,7.0828E1,5.9512123E1,1.2681746E1,-1.5941049E2,1.7290724E1],"split_indices":[61,61,42,67,16,0,28,6,6,54,15,0,0,0,6,6,6,17,19,0,15,0,6,0,0,28,6,16,1,61,9,1,0,1,1,0,0,0,6,0,52,1,1,1,1,0,0,0,0,0,0,0,0,0,0,0,0,0,0,0,0,0,0,0,0,0,0,0,0,0,0],"split_type":[0,0,0,0,0,0,0,0,0,0,0,0,0,0,0,0,0,0,0,0,0,0,0,0,0,0,0,0,0,0,0,0,0,0,0,0,0,0,0,0,0,0,0,0,0,0,0,0,0,0,0,0,0,0,0,0,0,0,0,0,0,0,0,0,0,0,0,0,0,0,0],"sum_hessian":[1.153E3,9.69E2,1.84E2,8.76E2,9.3E1,1.3E1,1.71E2,8.31E2,4.5E1,1.8E1,7.5E1,1.1E1,2E0,4E0,1.67E2,7.73E2,5.8E1,3E1,1.5E1,5E0,1.3E1,1E0,7.4E1,2E0,2E0,1.17E2,5E1,7.58E2,1.5E1,2.3E1,3.5E1,2.5E1,5E0,9E0,6E0,1E0,4E0,2E0,1.1E1,3E0,7.1E1,7E0,1.1E2,2.3E1,2.7E1,2.15E2,5.43E2,4E0,1.1E1,8E0,1.5E1,2.2E1,1.3E1,9E0,1.6E1,3E0,6E0,1E0,5E0,2E0,9E0,6E1,1.1E1,4E0,3E0,1.09E2,1E0,1.4E1,9E0,1E0,2.6E1],"tree_param":{"num_deleted":"0","num_feature":"69","num_nodes":"71","size_leaf_vector":"1"}},{"base_weights":[-4.5111528E-1,2.9192936E0,-7.989711E1,-6.363437E-1,2.808124E2,-1.5553513E2,2.1156393E1,2.1985505E0,-1.2205776E2,4.9897986E2,-8.637871E0,9.767917E1,-2.0381932E2,1.20843216E2,-4.0218307E1,3.482689E0,-2.2631644E2,-2.3378882E2,-3.1984465E1,1.7075523E2,5.7673412E1,8.6985214E1,-1.8606345E2,9.954855E1,-1.6902988E2,-2.6618845E2,-1.2446526E2,-1.4773098E1,-7.473482E1,1.8488839E0,1.3103871E2,-5.578792E1,-1.134747E2,-3.713088E1,-9.086826E1,-8.3261E1,8.722081E1,-6.328931E1,-1.296898E1,-7.030246E1,-5.7609897E0,-9.1394745E1,-3.393143E1,-1.3924167E2,5.711295E0,6.3532566E1,-4.0556835E1,8.8735175E-1,-8.774595E1,-2.2149271E1,-2.4884742E-1,-1.2955798E1,-2.84483E0,-3.8966667E1,-3.9893273E-1,8.0177355E0,4.9380142E1,-1.6668238E1,-4.9103077E1,-7.884446E-1,-1.3631635E1],"categories":[],"categories_nodes":[],"categories_segments":[],"categories_sizes":[],"default_left":[0,0,0,0,0,0,0,0,0,0,0,0,0,0,0,0,0,0,0,0,0,0,0,0,0,0,0,0,0,0,0,0,0,0,0,0,0,0,0,0,0,0,0,0,0,0,0,0,0,0,0,0,0,0,0,0,0,0,0,0,0],"id":11,"left_children":[1,3,5,7,9,11,13,15,17,19,21,23,25,-1,27,29,31,33,35,-1,-1,-1,37,-1,39,41,43,45,-1,47,-1,49,-1,51,-1,53,55,-1,-1,-1,-1,-1,-1,57,-1,-1,59,-1,-1,-1,-1,-1,-1,-1,-1,-1,-1,-1,-1,-1,-1],"loss_changes":[3.0923462E5,1.0949792E6,3.625344E5,3.7718584E5,8.883909E5,3.5001756E5,5.0810272E5,3.1506762E5,2.44122E5,6.2850375E4,4.2479003E5,3.6833766E5,8.070144E4,0E0,9.731328E4,7.53866E5,1.3435125E5,1.3824456E5,9.89486E4,0E0,0E0,0E0,8.6634375E3,0E0,2.4856125E4,3.6195125E4,2.8096344E4,1.1373164E5,0E0,3.4783338E5,0E0,3.9052139E3,0E0,2.6012744E2,0E0,4.185035E4,1.9006344E4,0E0,0E0,0E0,0E0,0E0,0E0,1.3398359E4,0E0,0E0,3.0284004E3,0E0,0E0,0E0,0E0,0E0,0E0,0E0,0E0,0E0,0E0,0E0,0E0,0E0,0E0],"parents":[2147483647,0,0,1,1,2,2,3,3,4,4,5,5,6,6,7,7,8,8,9,9,10,10,11,11,12,12,14,14,15,15,16,16,17,17,18,18,22,22,24,24,25,25,26,26,27,27,29,29,31,31,33,33,35,35,36,36,43,43,46,46],"right_children":[2,4,6,8,10,12,14,16,18,20,22,24,26,-1,28,30,32,34,36,-1,-1,-1,38,-1,40,42,44,46,-1,48,-1,50,-1,52,-1,54,56,-1,-1,-1,-1,-1,-1,58,-1,-1,60,-1,-1,-1,-1,-1,-1,-1,-1,-1,-1,-1,-1,-1,-1],"split_conditions":[3E0,3E0,1E0,2E0,1E0,8E0,3E0,4E0,4E0,6E0,1E0,2E0,2E0,1.20843216E2,9.6E1,1E0,1E0,2E0,4E0,1.7075523E2,5.7673412E1,8.6985214E1,7E0,9.954855E1,1E0,5E0,2E1,4E0,-7.473482E1,1E0,1.3103871E2,7E0,-1.134747E2,1E0,-9.086826E1,1E0,1E0,-6.328931E1,-1.296898E1,-7.030246E1,-5.7609897E0,-9.1394745E1,-3.393143E1,4E0,5.711295E0,6.3532566E1,2E0,8.8735175E-1,-8.774595E1,-2.2149271E1,-2.4884742E-1,-1.2955798E1,-2.84483E0,-3.8966667E1,-3.9893273E-1,8.0177355E0,4.9380142E1,-1.6668238E1,-4.9103077E1,-7.884446E-1,-1.3631635E1],"split_indices":[22,63,60,27,66,15,0,56,26,5,52,7,26,0,19,63,0,0,0,0,0,0,7,0,0,40,15,16,0,22,0,5,0,1,0,66,3,0,0,0,0,0,0,5,0,0,1,0,0,0,0,0,0,0,0,0,0,0,0,0,0],"split_type":[0,0,0,0,0,0,0,0,0,0,0,0,0,0,0,0,0,0,0,0,0,0,0,0,0,0,0,0,0,0,0,0,0,0,0,0,0,0,0,0,0,0,0,0,0,0,0,0,0,0,0,0,0,0,0,0,0,0,0,0,0],"sum_hessian":[1.153E3,1.107E3,4.6E1,1.094E3,1.3E1,2.6E1,2E1,1.07E3,2.4E1,7E0,6E0,4E0,2.2E1,2E0,1.8E1,1.065E3,5E0,1E1,1.4E1,5E0,2E0,2E0,4E0,2E0,2E0,1.1E1,1.1E1,1.7E1,1E0,1.062E3,3E0,3E0,2E0,3E0,7E0,1E1,4E0,3E0,1E0,1E0,1E0,8E0,3E0,1E1,1E0,1E0,1.6E1,1.059E3,3E0,2E0,1E0,2E0,1E0,6E0,4E0,3E0,1E0,3E0,7E0,2E0,1.4E1],"tree_param":{"num_deleted":"0","num_feature":"69","num_nodes":"61","size_leaf_vector":"1"}},{"base_weights":[-3.2257032E-1,-2.352201E0,1.0421807E2,2.0810928E0,-6.0731445E1,2.2403001E2,4.5286713E1,-5.2281356E-1,3.426072E2,-1.5521204E2,-2.3390333E1,8.20778E1,2.0024683E1,1.9531527E1,8.065555E0,4.4523854E0,-6.600012E1,1.6571268E2,1.0627107E2,7.0491905E1,-1.3867456E2,2.4627976E0,2.7894788E2,-1.1468317E2,7.117825E1,5.0629433E1,8.353679E0,2.890858E2,1.851354E1,-2.667532E2,4.134193E1,-1.138122E0,2.217004E1,-2.909964E1,1.346179E2,-2.2209852E1,-1.5191397E2,2.8528315E1,-2.881336E1,4.509888E-1,3.3081667E0,-9.493059E1,1.2623815E2,-1.0063489E2,1.5039297E1,-1.2563821E2,-2.1849901E1,5.513632E1,-4.4312595E1],"categories":[],"categories_nodes":[],"categories_segments":[],"categories_sizes":[],"default_left":[0,0,0,0,0,0,0,0,0,0,0,0,0,0,0,0,0,0,0,0,0,0,0,0,0,0,0,0,0,0,0,0,0,0,0,0,0,0,0,0,0,0,0,0,0,0,0,0,0],"id":12,"left_children":[1,3,5,7,9,11,13,15,17,-1,19,-1,-1,-1,-1,21,23,-1,25,27,29,31,33,35,37,-1,39,41,43,45,47,-1,-1,-1,-1,-1,-1,-1,-1,-1,-1,-1,-1,-1,-1,-1,-1,-1,-1],"loss_changes":[2.4509958E5,2.9336075E5,1.4518934E5,9.3475894E5,1.35202E6,3.6304844E4,4.0846562E3,3.413673E5,3.379052E5,0E0,8.2151106E5,0E0,0E0,0E0,0E0,5.312464E5,5.0235425E5,0E0,2.91863E4,4.7185847E5,7.949412E5,4.3292828E5,4.9031938E5,8.382542E5,8.9119695E4,0E0,3.8367203E1,7.7117E5,4.0851588E5,5.591736E5,4.310889E5,0E0,0E0,0E0,0E0,0E0,0E0,0E0,0E0,0E0,0E0,0E0,0E0,0E0,0E0,0E0,0E0,0E0,0E0],"parents":[2147483647,0,0,1,1,2,2,3,3,4,4,5,5,6,6,7,7,8,8,10,10,15,15,16,16,18,18,19,19,20,20,21,21,22,22,23,23,24,24,26,26,27,27,28,28,29,29,30,30],"right_children":[2,4,6,8,10,12,14,16,18,-1,20,-1,-1,-1,-1,22,24,-1,26,28,30,32,34,36,38,-1,40,42,44,46,48,-1,-1,-1,-1,-1,-1,-1,-1,-1,-1,-1,-1,-1,-1,-1,-1,-1,-1],"split_conditions":[3.072E3,2.88E2,3.278E3,2.56E2,1.27E2,3.616E3,1E0,3E0,3.76E2,-1.5521204E2,1.54E2,8.20778E1,2.0024683E1,1.9531527E1,8.065555E0,2E0,4.481E3,1.6571268E2,7.4E2,1.41E2,4.16E2,1.2E1,1E0,4.4E1,7.521E3,5.0629433E1,1.088E3,2.27E2,2.24E2,2.445E3,2.208E3,-1.138122E0,2.217004E1,-2.909964E1,1.346179E2,-2.2209852E1,-1.5191397E2,2.8528315E1,-2.881336E1,4.509888E-1,3.3081667E0,-9.493059E1,1.2623815E2,-1.0063489E2,1.5039297E1,-1.2563821E2,-2.1849901E1,5.513632E1,-4.4312595E1],"split_indices":[0,52,1,52,15,0,5,40,0,0,9,0,0,0,0,40,17,0,1,15,54,52,6,43,17,0,0,1,6,17,4,0,0,0,0,0,0,0,0,0,0,0,0,0,0,0,0,0,0],"split_type":[0,0,0,0,0,0,0,0,0,0,0,0,0,0,0,0,0,0,0,0,0,0,0,0,0,0,0,0,0,0,0,0,0,0,0,0,0,0,0,0,0,0,0,0,0,0,0,0,0],"sum_hessian":[1.153E3,1.132E3,2.1E1,1.053E3,7.9E1,6E0,1.5E1,1.046E3,7E0,5E0,7.4E1,4E0,2E0,6E0,9E0,9.73E2,7.3E1,3E0,4E0,4.1E1,3.3E1,9.67E2,6E0,5.4E1,1.9E1,2E0,2E0,7E0,3.4E1,1.9E1,1.4E1,8.9E2,7.7E1,2E0,4E0,5E1,4E0,1.7E1,2E0,1E0,1E0,1E0,6E0,2E0,3.2E1,1E1,9E0,8E0,6E0],"tree_param":{"num_deleted":"0","num_feature":"69","num_nodes":"49","size_leaf_vector":"1"}},{"base_weights":[-2.6415163E-1,3.2746765E1,-6.2781525E0,-2.907525E1,1.1610098E2,-6.9869545E1,1.4591941E0,3.0555122E1,-1.2771369E2,2.378977E2,-1.870901E1,9.085992E0,-1.5848148E2,2.1534842E2,-1.775712E0,5.7543552E1,-2.444217E2,-1.5930566E2,9.134759E1,1.4060542E2,4.2915048E2,-2.5309024E2,1.5260048E2,6.3470913E1,-2.8801923E2,-1.7974014E2,-2.215304E0,3.2918448E2,-8.214998E1,-3.351263E2,1.7350382E-1,9.721228E1,-1.09232376E2,-3.5109886E1,-9.983985E1,-2.0623598E2,1.822955E2,1.8070204E2,-7.997937E1,1.4643303E2,7.1157936E1,2.6974533E1,-1.4217467E2,-1.9390956E2,2.6592163E2,9.219785E1,-9.52794E1,-1.1948092E1,-3.5324176E2,-1.6355463E2,-1.03927246E2,8.741236E0,-1.0193182E1,2.3924605E2,1.8428534E2,-1.897959E1,-1.1618258E2,-7.6942566E1,3.9488642E0,1.5232725E1,1.2646345E2,-4.7505226E1,6.466048E1,-4.072984E1,-1.7211417E2,1.5327713E2,-1.6983264E2,3.7215088E1,1.1135059E2,2.4126382E0,-3.1198584E1,4.7520266E0,1.5737348E1,6.0268013E1,-9.391465E1,1.712091E2,5.6171535E1,1.1575815E1,5.0630695E1,-6.1948597E1,2.0268099E1,-1.4362431E2,-4.1827614E1,-5.00778E1,-3.7992265E0,-4.0802006E-2,3.163166E0,9.850975E1,-8.44248E1,-3.1150952E-1,-5.3872623E1,1.9523367E1,-8.048817E-1],"categories":[],"categories_nodes":[],"categories_segments":[],"categories_sizes":[],"default_left":[0,0,0,0,0,0,0,0,0,0,0,0,0,0,0,0,0,0,0,0,0,0,0,0,0,0,0,0,0,0,0,0,0,0,0,0,0,0,0,0,0,0,0,0,0,0,0,0,0,0,0,0,0,0,0,0,0,0,0,0,0,0,0,0,0,0,0,0,0,0,0,0,0,0,0,0,0,0,0,0,0,0,0,0,0,0,0,0,0,0,0,0,0],"id":13,"left_children":[1,3,5,7,9,11,13,15,17,19,21,23,25,27,29,31,33,35,-1,37,39,41,43,45,47,49,51,53,-1,55,57,59,61,-1,-1,63,65,67,69,-1,-1,71,-1,73,75,77,79,-1,81,83,-1,85,-1,87,-1,-1,-1,89,91,-1,-1,-1,-1,-1,-1,-1,-1,-1,-1,-1,-1,-1,-1,-1,-1,-1,-1,-1,-1,-1,-1,-1,-1,-1,-1,-1,-1,-1,-1,-1,-1,-1,-1],"loss_changes":[2.2930655E5,9.206321E5,4.8081394E5,6.0973256E5,1.2523264E6,7.430586E5,6.0372925E5,4.964425E5,5.810223E5,6.8395575E5,1.5242356E6,9.392894E5,1.6570238E5,8.140664E5,5.588623E5,4.0756606E5,2.86015E4,6.307594E5,0E0,2.6210412E5,3.135425E4,1.0023098E6,9.15437E5,2.3224472E5,1.3162094E5,6.2047E4,2.7330122E3,1.3509075E5,0E0,4.6385188E4,2.4952048E5,7.1657875E5,2.2555464E5,0E0,0E0,7.766809E5,1.5189724E6,2.1292281E5,1.1405926E4,0E0,0E0,1.4390024E3,0E0,3.4510862E5,3.0081538E5,1.6590278E5,1.5883384E5,0E0,1.2109706E5,1.925175E4,0E0,9.744943E1,0E0,5.564202E5,0E0,0E0,0E0,3.114241E5,3.3138284E5,0E0,0E0,0E0,0E0,0E0,0E0,0E0,0E0,0E0,0E0,0E0,0E0,0E0,0E0,0E0,0E0,0E0,0E0,0E0,0E0,0E0,0E0,0E0,0E0,0E0,0E0,0E0,0E0,0E0,0E0,0E0,0E0,0E0,0E0],"parents":[2147483647,0,0,1,1,2,2,3,3,4,4,5,5,6,6,7,7,8,8,9,9,10,10,11,11,12,12,13,13,14,14,15,15,16,16,17,17,19,19,20,20,21,21,22,22,23,23,24,24,25,25,26,26,27,27,29,29,30,30,31,31,32,32,35,35,36,36,37,37,38,38,41,41,43,43,44,44,45,45,46,46,48,48,49,49,51,51,53,53,57,57,58,58],"right_children":[2,4,6,8,10,12,14,16,18,20,22,24,26,28,30,32,34,36,-1,38,40,42,44,46,48,50,52,54,-1,56,58,60,62,-1,-1,64,66,68,70,-1,-1,72,-1,74,76,78,80,-1,82,84,-1,86,-1,88,-1,-1,-1,90,92,-1,-1,-1,-1,-1,-1,-1,-1,-1,-1,-1,-1,-1,-1,-1,-1,-1,-1,-1,-1,-1,-1,-1,-1,-1,-1,-1,-1,-1,-1,-1,-1,-1,-1],"split_conditions":[2E0,1.8E1,2.4E2,2E0,5.4E1,4E0,2.76E2,1.6E1,2.7E2,6.6E1,1.49E2,1E0,1.1E1,3.52E2,2.97E2,4E0,1E0,2.6E1,9.134759E1,1E0,9.9E1,1E0,2.4E1,3.4E1,1E0,1.74E2,2E0,4.52E2,-8.214998E1,1.8E1,5.7E1,2E0,1.3E1,-3.5109886E1,-9.983985E1,7E0,3E0,1E0,1E0,1.4643303E2,7.1157936E1,3.6E1,-1.4217467E2,1E0,5.34E2,4E0,4.16E2,-1.1948092E1,4E0,7E0,-1.03927246E2,7E0,-1.0193182E1,1.94E2,1.8428534E2,-1.897959E1,-1.1618258E2,1E0,1.02E2,1.5232725E1,1.2646345E2,-4.7505226E1,6.466048E1,-4.072984E1,-1.7211417E2,1.5327713E2,-1.6983264E2,3.7215088E1,1.1135059E2,2.4126382E0,-3.1198584E1,4.7520266E0,1.5737348E1,6.0268013E1,-9.391465E1,1.712091E2,5.6171535E1,1.1575815E1,5.0630695E1,-6.1948597E1,2.0268099E1,-1.4362431E2,-4.1827614E1,-5.00778E1,-3.7992265E0,-4.0802006E-2,3.163166E0,9.850975E1,-8.44248E1,-3.1150952E-1,-5.3872623E1,1.9523367E1,-8.048817E-1],"split_indices":[42,46,17,9,46,6,17,46,15,15,23,21,5,0,17,43,31,0,0,12,0,0,1,0,1,17,0,1,0,1,46,63,16,0,0,0,25,67,5,0,0,5,0,0,17,9,4,0,1,22,0,6,0,0,0,0,0,21,23,0,0,0,0,0,0,0,0,0,0,0,0,0,0,0,0,0,0,0,0,0,0,0,0,0,0,0,0,0,0,0,0,0,0],"split_type":[0,0,0,0,0,0,0,0,0,0,0,0,0,0,0,0,0,0,0,0,0,0,0,0,0,0,0,0,0,0,0,0,0,0,0,0,0,0,0,0,0,0,0,0,0,0,0,0,0,0,0,0,0,0,0,0,0,0,0,0,0,0,0,0,0,0,0,0,0,0,0,0,0,0,0,0,0,0,0,0,0,0,0,0,0,0,0,0,0,0,0,0,0],"sum_hessian":[1.153E3,1.77E2,9.76E2,1.02E2,7.5E1,1.05E2,8.71E2,6.4E1,3.8E1,3.9E1,3.6E1,5.6E1,4.9E1,1.2E1,8.59E2,5.9E1,5E0,3.6E1,2E0,2.7E1,1.2E1,1.5E1,2.1E1,4.8E1,8E0,4.3E1,6E0,1E1,2E0,4E0,8.55E2,4.8E1,1.1E1,3E0,2E0,3.2E1,4E0,2.3E1,4E0,8E0,4E0,7E0,8E0,5E0,1.6E1,4.1E1,7E0,2E0,6E0,4.1E1,2E0,5E0,1E0,9E0,1E0,1E0,3E0,3.9E1,8.16E2,4.3E1,5E0,1E1,1E0,2.8E1,4E0,3E0,1E0,1.9E1,4E0,1E0,3E0,6E0,1E0,1E0,4E0,2E0,1.4E1,2.5E1,1.6E1,4E0,3E0,3E0,3E0,4E1,1E0,1E0,4E0,8E0,1E0,2.3E1,1.6E1,7.9E1,7.37E2],"tree_param":{"num_deleted":"0","num_feature":"69","num_nodes":"93","size_leaf_vector":"1"}},{"base_weights":[-2.7230376E-1,3.972984E-1,-7.719263E1,-1.2101576E1,1.4195513E1,2.1632118E0,-8.084025E1,2.1247269E2,9.360067E0,-3.2636993E0,3.3768292E2,2.8245862E2,-1.1405743E2,2.4253714E2,3.141211E1,1.4312406E1,-5.077944E1,1.8883501E0,-1.2704113E2,1.786139E1,4.204749E2,8.230224E1,3.688198E2,-2.4169035E2,-5.7948425E1,3.5356378E2,1.2858424E2,2.087659E0,1.20477915E1,-2.8097065E1,2.1815718E1,-3.0072433E2,-7.7114177E0,1.5214688E0,-7.672082E1,4.068512E1,1.5869987E2,7.716478E1,-6.6365814E1,1.5931085E2,6.905079E1,-8.6701294E1,7.940956E1,1.2710751E1,-4.0088985E1,4.7624905E1,1.29157E2,1.9415342E1,4.809139E1,1.6837822E1,-5.397175E1,4.1339436E1,4.0616856E0,-1.0587287E2,-5.9697475E0,5.6578983E1,-1.363733E1],"categories":[],"categories_nodes":[],"categories_segments":[],"categories_sizes":[],"default_left":[0,0,0,0,0,0,0,0,0,0,0,0,0,0,0,0,0,0,0,0,0,0,0,0,0,0,0,0,0,0,0,0,0,0,0,0,0,0,0,0,0,0,0,0,0,0,0,0,0,0,0,0,0,0,0,0,0],"id":14,"left_children":[1,3,-1,5,7,9,11,13,15,17,19,21,23,25,27,29,31,33,-1,-1,35,37,39,41,43,45,47,-1,-1,49,51,53,55,-1,-1,-1,-1,-1,-1,-1,-1,-1,-1,-1,-1,-1,-1,-1,-1,-1,-1,-1,-1,-1,-1,-1,-1],"loss_changes":[1.9871967E5,1.9884816E5,0E0,5.9340306E5,5.2341094E5,9.1516156E5,1.2872642E6,6.314675E4,1.6036428E5,1.0724379E6,1.5919106E5,1.25217E5,6.734845E5,9.3707125E4,3.6222876E2,1.5844584E5,4.3903088E5,4.031328E5,0E0,0E0,1.13743375E5,2.6926147E5,1.272E4,7.713175E5,5.2193056E5,6.6185625E3,3.8065156E3,0E0,0E0,9.690331E5,4.0323706E5,8.0906875E4,2.7532994E5,0E0,0E0,0E0,0E0,0E0,0E0,0E0,0E0,0E0,0E0,0E0,0E0,0E0,0E0,0E0,0E0,0E0,0E0,0E0,0E0,0E0,0E0,0E0,0E0],"parents":[2147483647,0,0,1,1,3,3,4,4,5,5,6,6,7,7,8,8,9,9,10,10,11,11,12,12,13,13,14,14,15,15,16,16,17,17,20,20,21,21,22,22,23,23,24,24,25,25,26,26,29,29,30,30,31,31,32,32],"right_children":[2,4,-1,6,8,10,12,14,16,18,20,22,24,26,28,30,32,34,-1,-1,36,38,40,42,44,46,48,-1,-1,50,52,54,56,-1,-1,-1,-1,-1,-1,-1,-1,-1,-1,-1,-1,-1,-1,-1,-1,-1,-1,-1,-1,-1,-1,-1,-1],"split_conditions":[4.48E3,1.83E2,-7.719263E1,2.24E2,1.87E2,2.08E2,2.76E2,9.55E2,3.84E2,2.24E2,1.44E2,3.7E1,1.26E2,1E0,1E0,2.4E2,1.65E2,1.413E3,-1.2704113E2,1.786139E1,9.9E1,6.6E1,2.39E2,4.72E2,2.27E2,3.47E2,3.5E1,2.087659E0,1.20477915E1,3.05E2,2.62E2,3.52E2,4.48E2,1.5214688E0,-7.672082E1,4.068512E1,1.5869987E2,7.716478E1,-6.6365814E1,1.5931085E2,6.905079E1,-8.6701294E1,7.940956E1,1.2710751E1,-4.0088985E1,4.7624905E1,1.29157E2,1.9415342E1,4.809139E1,1.6837822E1,-5.397175E1,4.1339436E1,4.0616856E0,-1.0587287E2,-5.9697475E0,5.6578983E1,-1.363733E1],"split_indices":[54,15,0,6,15,6,17,1,50,52,1,16,15,54,0,15,42,16,0,0,0,0,4,6,28,1,9,0,0,28,23,0,4,0,0,0,0,0,0,0,0,0,0,0,0,0,0,0,0,0,0,0,0,0,0,0,0],"split_type":[0,0,0,0,0,0,0,0,0,0,0,0,0,0,0,0,0,0,0,0,0,0,0,0,0,0,0,0,0,0,0,0,0,0,0,0,0,0,0,0,0,0,0,0,0,0,0,0,0,0,0,0,0,0,0,0,0],"sum_hessian":[1.153E3,1.151E3,2E0,6.04E2,5.47E2,5.01E2,1.03E2,1.2E1,5.35E2,4.94E2,7E0,8E0,9.5E1,1E1,2E0,4.95E2,4E1,4.89E2,5E0,2E0,5E0,3E0,5E0,2.8E1,6.7E1,4E0,6E0,1E0,1E0,7.4E1,4.21E2,5E0,3.5E1,4.84E2,5E0,2E0,3E0,2E0,1E0,1E0,4E0,2.6E1,2E0,2.9E1,3.8E1,2E0,2E0,3E0,3E0,4.8E1,2.6E1,2.7E1,3.94E2,4E0,1E0,5E0,3E1],"tree_param":{"num_deleted":"0","num_feature":"69","num_nodes":"57","size_leaf_vector":"1"}},{"base_weights":[1.0410849E-1,1.4670067E0,-9.692371E1,3.3376797E1,-4.126943E0,-2.7062126E1,-1.8287973E2,-1.3431879E1,9.428307E1,-5.1857292E1,1.296717E0,-6.7611946E1,5.0665592E1,-7.628641E1,-1.9725452E1,-9.513275E1,5.0687565E1,1.8622867E2,-2.6957269E0,-2.8119154E0,-1.3051404E2,-8.291277E1,5.022141E0,-2.6908833E1,-8.267699E0,2.375595E0,1.8682508E1,-1.145966E2,1.0835237E2,1.290995E2,-1.0467715E2,2.487179E2,-1.3612954E1,-7.747775E1,2.3856812E2,2.1980862E1,-2.3787465E2,-1.4962239E2,6.931266E1,-1.4344554E2,3.9874287E1,6.705104E1,-3.4010777E0,-3.457563E0,-2.6290202E-1,1.5098795E1,-5.2422672E1,5.7804127E1,6.900645E0,1.3385836E1,-6.519385E1,8.8017494E1,1.9920496E1,-1.2611729E1,3.6333344E1,-5.3851215E1,5.0757664E1,9.326396E1,-5.0988865E1,1.6364222E1,-2.1852583E1,-9.862768E0,-9.964652E1,-3.7170334E1,-7.044223E1,8.3087006E1,-2.766627E1,-6.4455315E1,-9.91017E0,2.7529766E1,-4.9105904E1,9.554534E0,1.25834915E2,-4.4990585E1,2.0589612E-1],"categories":[],"categories_nodes":[],"categories_segments":[],"categories_sizes":[],"default_left":[0,0,0,0,0,0,0,0,0,0,0,0,0,0,0,0,0,0,0,0,0,0,0,0,0,0,0,0,0,0,0,0,0,0,0,0,0,0,0,0,0,0,0,0,0,0,0,0,0,0,0,0,0,0,0,0,0,0,0,0,0,0,0,0,0,0,0,0,0,0,0,0,0,0,0],"id":15,"left_children":[1,3,5,7,9,11,13,15,17,19,21,23,25,-1,-1,27,29,31,33,35,37,39,41,-1,43,-1,-1,45,-1,47,49,51,53,55,57,59,61,63,65,67,69,71,73,-1,-1,-1,-1,-1,-1,-1,-1,-1,-1,-1,-1,-1,-1,-1,-1,-1,-1,-1,-1,-1,-1,-1,-1,-1,-1,-1,-1,-1,-1,-1,-1],"loss_changes":[1.5274605E5,2.0345123E5,9.113128E4,4.8592666E5,2.5117427E5,3.494405E4,4.182767E4,5.129676E5,6.6034325E5,3.8155022E5,2.739768E5,8.432396E3,1.4919365E3,0E0,0E0,4.2329388E5,6.835485E5,4.7792788E5,6.860451E5,3.665559E5,1.554685E5,2.8072744E5,4.3702388E5,0E0,6.2132294E1,0E0,0E0,4.254167E5,0E0,2.4516131E5,3.2920262E5,2.1671588E5,4.338826E4,7.602085E5,3.1871228E5,1.7999223E5,1.0504428E5,4.75945E4,1.5970708E5,1.9000262E5,1.5234094E5,1.227176E6,4.4162484E5,0E0,0E0,0E0,0E0,0E0,0E0,0E0,0E0,0E0,0E0,0E0,0E0,0E0,0E0,0E0,0E0,0E0,0E0,0E0,0E0,0E0,0E0,0E0,0E0,0E0,0E0,0E0,0E0,0E0,0E0,0E0,0E0],"parents":[2147483647,0,0,1,1,2,2,3,3,4,4,5,5,6,6,7,7,8,8,9,9,10,10,11,11,12,12,15,15,16,16,17,17,18,18,19,19,20,20,21,21,22,22,24,24,27,27,29,29,30,30,31,31,32,32,33,33,34,34,35,35,36,36,37,37,38,38,39,39,40,40,41,41,42,42],"right_children":[2,4,6,8,10,12,14,16,18,20,22,24,26,-1,-1,28,30,32,34,36,38,40,42,-1,44,-1,-1,46,-1,48,50,52,54,56,58,60,62,64,66,68,70,72,74,-1,-1,-1,-1,-1,-1,-1,-1,-1,-1,-1,-1,-1,-1,-1,-1,-1,-1,-1,-1,-1,-1,-1,-1,-1,-1,-1,-1,-1,-1,-1,-1],"split_conditions":[7E0,2E0,1E0,1.8E1,2.4E2,1E0,2E0,2E0,5.4E1,4.5E1,5.4E1,1E0,8E0,-7.628641E1,-1.9725452E1,2.14E2,5E0,4E0,1.49E2,1E0,6E0,7.3E1,5.44E2,-2.6908833E1,1E0,2.375595E0,1.8682508E1,1E0,1.0835237E2,1.43E2,3E0,6.7E1,1E0,9.2E1,9.8E1,4E0,1E0,1.74E2,1E0,9.2E1,1.64E2,4.9E2,7.1E1,-3.457563E0,-2.6290202E-1,1.5098795E1,-5.2422672E1,5.7804127E1,6.900645E0,1.3385836E1,-6.519385E1,8.8017494E1,1.9920496E1,-1.2611729E1,3.6333344E1,-5.3851215E1,5.0757664E1,9.326396E1,-5.0988865E1,1.6364222E1,-2.1852583E1,-9.862768E0,-9.964652E1,-3.7170334E1,-7.044223E1,8.3087006E1,-2.766627E1,-6.4455315E1,-9.91017E0,2.7529766E1,-4.9105904E1,9.554534E0,1.25834915E2,-4.4990585E1,2.0589612E-1],"split_indices":[56,42,0,46,17,25,26,5,46,15,46,17,5,0,0,9,0,26,15,21,25,9,17,0,1,0,0,1,0,15,25,57,57,5,5,6,1,17,0,1,0,17,23,0,0,0,0,0,0,0,0,0,0,0,0,0,0,0,0,0,0,0,0,0,0,0,0,0,0,0,0,0,0,0,0],"split_type":[0,0,0,0,0,0,0,0,0,0,0,0,0,0,0,0,0,0,0,0,0,0,0,0,0,0,0,0,0,0,0,0,0,0,0,0,0,0,0,0,0,0,0,0,0,0,0,0,0,0,0,0,0,0,0,0,0,0,0,0,0,0,0,0,0,0,0,0,0,0,0,0,0,0,0],"sum_hessian":[1.153E3,1.138E3,1.5E1,1.69E2,9.69E2,9E0,6E0,9.6E1,7.3E1,9.8E1,8.71E2,6E0,3E0,3E0,3E0,4.2E1,5.4E1,3.7E1,3.6E1,6.1E1,3.7E1,3.6E1,8.35E2,4E0,2E0,1E0,2E0,4.1E1,1E0,3.6E1,1.8E1,2.8E1,9E0,2.8E1,8E0,5.6E1,5E0,3.4E1,3E0,2.4E1,1.2E1,9.9E1,7.36E2,1E0,1E0,1.1E1,3E1,2.2E1,1.4E1,8E0,1E1,2.2E1,6E0,8E0,1E0,2E1,8E0,7E0,1E0,4.2E1,1.4E1,2E0,3E0,2.8E1,6E0,1E0,2E0,1.4E1,1E1,1E1,2E0,9.1E1,8E0,1.9E1,7.17E2],"tree_param":{"num_deleted":"0","num_feature":"69","num_nodes":"75","size_leaf_vector":"1"}},{"base_weights":[5.263103E-2,-3.1668084E0,4.273936E1,-1.8933772E0,-2.7504773E2,-1.0918741E2,5.6349335E1,6.7847885E1,-4.108761E0,-1.2894969E2,5.161357E1,-1.3224055E1,-1.0274513E2,1.283104E2,1.7802603E1,1.0104827E2,-5.9435093E1,-3.235769E0,-1.5372406E2,-4.0012177E1,1.8107483E1,6.868295E1,1.0523032E2,-7.001465E1,4.4366817E1,8.410963E1,5.3970226E1,-2.3590806E0,-1.5290245E2,-1.8905123E1,-5.499699E1,-2.5843489E1,-6.9427414E0,2.2238894E0,1.0933961E2,-1.54873E2,7.976164E1,1.5450709E1,6.8416306E1,3.00227E1,4.9684668E0,-1.1065985E0,4.0008347E1,-1.1003506E2,1.3720185E1,-3.5546482E0,1.166327E0,3.5878063E1,2.1084633E1,7.158106E0,-6.552825E1,5.8647704E0,3.4016052E1,1.4078412E1,3.3284566E0,7.163302E0,2.8196386E1],"categories":[],"categories_nodes":[],"categories_segments":[],"categories_sizes":[],"default_left":[0,0,0,0,0,0,0,0,0,0,0,0,0,0,0,0,0,0,0,0,0,0,0,0,0,0,0,0,0,0,0,0,0,0,0,0,0,0,0,0,0,0,0,0,0,0,0,0,0,0,0,0,0,0,0,0,0],"id":16,"left_children":[1,3,5,7,9,11,13,15,17,-1,-1,19,-1,21,23,25,-1,27,29,31,-1,-1,33,35,37,-1,39,41,43,-1,-1,-1,45,-1,47,49,51,53,55,-1,-1,-1,-1,-1,-1,-1,-1,-1,-1,-1,-1,-1,-1,-1,-1,-1,-1],"loss_changes":[1.587265E5,3.7132125E5,1.736379E5,1.6559769E5,4.1996597E5,1.5218628E5,2.0575552E5,3.1141388E5,1.3507881E5,0E0,0E0,1.424186E4,0E0,3.6296094E4,1.1974615E5,2.3812566E5,0E0,1.3518034E5,4.5566406E3,7.0298438E3,0E0,0E0,8.434547E3,1.6487016E5,2.606421E4,0E0,4.1461164E4,1.859956E5,2.716818E5,0E0,0E0,0E0,2.5860675E2,0E0,4.055625E2,9.6086234E4,7.9066465E3,2.0844424E3,2.1673234E4,0E0,0E0,0E0,0E0,0E0,0E0,0E0,0E0,0E0,0E0,0E0,0E0,0E0,0E0,0E0,0E0,0E0,0E0],"parents":[2147483647,0,0,1,1,2,2,3,3,4,4,5,5,6,6,7,7,8,8,11,11,13,13,14,14,15,15,17,17,18,18,19,19,22,22,23,23,24,24,26,26,27,27,28,28,32,32,34,34,35,35,36,36,37,37,38,38],"right_children":[2,4,6,8,10,12,14,16,18,-1,-1,20,-1,22,24,26,-1,28,30,32,-1,-1,34,36,38,-1,40,42,44,-1,-1,-1,46,-1,48,50,52,54,56,-1,-1,-1,-1,-1,-1,-1,-1,-1,-1,-1,-1,-1,-1,-1,-1,-1,-1],"split_conditions":[7.9E2,2.304E3,1.08E3,5E0,3.04E3,6.2E1,5E0,2E0,7.04E2,-1.2894969E2,5.161357E1,1E0,-1.0274513E2,7.1E2,1.3E1,4E0,-5.9435093E1,5.76E2,5.44E2,5.3E1,1.8107483E1,6.868295E1,1E1,4.481E3,2.88E2,8.410963E1,1.43E2,2.72E2,1E0,-1.8905123E1,-5.499699E1,-2.5843489E1,8.382E3,2.2238894E0,9.6E1,3.113E3,1.3E2,9.38E2,3.2E2,3.00227E1,4.9684668E0,-1.1065985E0,4.0008347E1,-1.1003506E2,1.3720185E1,-3.5546482E0,1.166327E0,3.5878063E1,2.1084633E1,7.158106E0,-6.552825E1,5.8647704E0,3.4016052E1,1.4078412E1,3.3284566E0,7.163302E0,2.8196386E1],"split_indices":[28,0,17,46,0,15,61,26,50,0,0,0,0,1,61,25,0,67,0,15,0,0,16,17,54,0,15,67,0,0,0,0,1,0,52,17,0,0,52,0,0,0,0,0,0,0,0,0,0,0,0,0,0,0,0,0,0],"split_type":[0,0,0,0,0,0,0,0,0,0,0,0,0,0,0,0,0,0,0,0,0,0,0,0,0,0,0,0,0,0,0,0,0,0,0,0,0,0,0,0,0,0,0,0,0,0,0,0,0,0,0,0,0,0,0,0,0],"sum_hessian":[1.153E3,1.073E3,8E1,1.069E3,4E0,6E0,7.4E1,3.2E1,1.037E3,3E0,1E0,5E0,1E0,2.5E1,4.9E1,2.9E1,3E0,1.032E3,5E0,4E0,1E0,3E0,2.2E1,1.1E1,3.8E1,5E0,2.4E1,1.027E3,5E0,2E0,3E0,1E0,3E0,1E0,2.1E1,7E0,4E0,1.8E1,2E1,1E1,1.4E1,1.018E3,9E0,2E0,3E0,2E0,1E0,1.5E1,6E0,2E0,5E0,2E0,2E0,1E0,1.7E1,8E0,1.2E1],"tree_param":{"num_deleted":"0","num_feature":"69","num_nodes":"57","size_leaf_vector":"1"}},{"base_weights":[-4.9576703E-2,4.8483354E-1,-6.157398E1,-8.401431E0,1.3258988E1,-7.390294E0,-1.04244514E2,1.1455613E2,7.35054E0,-2.1438316E1,1.6199657E1,6.1617695E1,8.422439E1,-3.9737814E2,1.1891741E1,-8.877549E0,-2.9003592E2,5.3874176E1,1.0842382E1,2.722981E1,-2.638082E1,-1.4127052E2,-1.5492573E1,3.6937613E2,6.9787607E0,-4.626297E0,6.2502327E1,-5.0148132E1,-2.127087E2,4.0606537E0,-3.6663654E1,-1.238506E1,6.8492055E-1,1.2797716E2,1.249563E1,-9.688693E1,2.5408144E0],"categories":[],"categories_nodes":[],"categories_segments":[],"categories_sizes":[],"default_left":[0,0,0,0,0,0,0,0,0,0,0,0,0,0,0,0,0,0,0,0,0,0,0,0,0,0,0,0,0,0,0,0,0,0,0,0,0],"id":17,"left_children":[1,3,-1,5,7,9,-1,11,13,15,17,19,-1,21,23,25,27,-1,29,-1,31,-1,-1,33,35,-1,-1,-1,-1,-1,-1,-1,-1,-1,-1,-1,-1],"loss_changes":[1.2664644E5,1.3088011E5,0E0,2.3057447E5,2.8225262E5,2.253626E5,0E0,2.1144728E5,8.281288E5,1.4346606E6,2.2037319E5,5.6259695E4,0E0,1.0278056E5,7.7722544E5,5.8312656E5,8.59674E5,0E0,9.0162484E4,0E0,2.657271E3,0E0,0E0,9.473481E4,2.1863897E5,0E0,0E0,0E0,0E0,0E0,0E0,0E0,0E0,0E0,0E0,0E0,0E0],"parents":[2147483647,0,0,1,1,3,3,4,4,5,5,7,7,8,8,9,9,10,10,11,11,13,13,14,14,15,15,16,16,18,18,20,20,23,23,24,24],"right_children":[2,4,-1,6,8,10,-1,12,14,16,18,20,-1,22,24,26,28,-1,30,-1,32,-1,-1,34,36,-1,-1,-1,-1,-1,-1,-1,-1,-1,-1,-1,-1],"split_conditions":[4.48E3,3.29E2,-6.157398E1,2.257E3,6.6E1,1.34E2,-1.04244514E2,1E0,7.1E1,1.96E2,1.6E2,2.47E2,8.422439E1,4.8E2,9.3E1,1.76E2,6.7E1,5.3874176E1,1.254E3,2.722981E1,5.2E1,-1.4127052E2,-1.5492573E1,1.312E3,1.1E2,-4.626297E0,6.2502327E1,-5.0148132E1,-2.127087E2,4.0606537E0,-3.6663654E1,-1.238506E1,6.8492055E-1,1.2797716E2,1.249563E1,-9.688693E1,2.5408144E0],"split_indices":[54,1,0,16,15,5,0,6,15,42,5,16,0,0,15,42,5,0,46,0,9,0,0,0,15,0,0,0,0,0,0,0,0,0,0,0,0],"split_type":[0,0,0,0,0,0,0,0,0,0,0,0,0,0,0,0,0,0,0,0,0,0,0,0,0,0,0,0,0,0,0,0,0,0,0,0,0],"sum_hessian":[1.153E3,1.151E3,2E0,6.79E2,4.72E2,6.78E2,1E0,2.5E1,4.47E2,4.25E2,2.53E2,2E1,5E0,4E0,4.43E2,4.07E2,1.8E1,7E0,2.46E2,1.5E1,5E0,3E0,1E0,5E0,4.38E2,3.96E2,1.1E1,1.5E1,3E0,2.42E2,4E0,3E0,2E0,4E0,1E0,1E0,4.37E2],"tree_param":{"num_deleted":"0","num_feature":"69","num_nodes":"37","size_leaf_vector":"1"}},{"base_weights":[-3.4700352E-1,1.400278E0,-5.169875E1,3.3466553E1,-3.0420985E0,-9.5613174E1,2.4068954E0,6.289655E1,-1.2388193E1,-1.3007402E2,8.226474E-1,-1.4117815E2,-3.137389E1,7.516168E1,-2.6926693E1,8.465259E1,-4.137434E1,-3.330143E1,1.9922183E2,-1.853017E2,1.1251574E2,1.0043897E2,-2.5203493E0,-5.3121616E1,-5.5512264E1,-6.543411E1,2.2386093E0,-2.5700977E0,-9.00087E0,5.537549E1,1.8635846E2,1.1746354E1,-1.49965E2,-5.7476772E1,1.234152E2,8.91233E0,7.025202E1,-2.0656891E2,4.5576637E1,9.745462E1,-7.486293E1,1.4930605E2,1.0623939E1,-5.8319077E1,4.019502E0,3.629534E1,-6.3411404E1,-2.5049543E1,1.0235001E0,8.830919E0,-1.8719383E1,-2.0789943E0,9.224501E-1,5.9218246E1,1.1167722E1,7.4583E1,-1.4095737E1,1.7627544E1,-7.0535364E0,-5.8523983E1,4.574216E0,-2.5683775E1,3.104143E1,7.091313E1,-6.1201506E0,-3.3174923E1,-1.03077965E2,-7.5607914E-1,-4.378364E1,1.1462313E2,2.017004E1,-7.837893E1,2.7338297E1,-1.482393E1,-9.627062E1,-5.751758E1,1.8489056E0,-1.2505315E1,4.0535175E1,-7.128676E0,-5.3861636E-1],"categories":[],"categories_nodes":[],"categories_segments":[],"categories_sizes":[],"default_left":[0,0,0,0,0,0,0,0,0,0,0,0,0,0,0,0,0,0,0,0,0,0,0,0,0,0,0,0,0,0,0,0,0,0,0,0,0,0,0,0,0,0,0,0,0,0,0,0,0,0,0,0,0,0,0,0,0,0,0,0,0,0,0,0,0,0,0,0,0,0,0,0,0,0,0,0,0,0,0,0,0],"id":18,"left_children":[1,3,5,7,9,11,13,15,17,19,21,23,25,-1,27,29,31,33,35,37,39,41,43,-1,45,47,49,51,-1,53,55,57,59,61,63,-1,-1,65,-1,-1,67,69,71,73,75,77,-1,-1,-1,-1,79,-1,-1,-1,-1,-1,-1,-1,-1,-1,-1,-1,-1,-1,-1,-1,-1,-1,-1,-1,-1,-1,-1,-1,-1,-1,-1,-1,-1,-1,-1],"loss_changes":[1.0361614E5,1.5921897E5,9.051883E4,1.8431188E5,4.8221606E5,5.7038984E4,1.3776103E5,1.9178972E5,2.456087E5,4.0938178E5,3.179514E5,2.7068922E4,1.1594973E4,0E0,1.1966299E3,1.9513838E5,8.82877E4,1.965274E5,2.2667172E4,2.0350594E5,2.6303916E5,1.3447269E5,3.3741622E5,0E0,7.921704E4,6.5031445E3,3.971098E3,9.514225E1,0E0,1.3442002E5,2.2957181E5,1.9614678E4,4.0242203E4,2.0810836E5,1.1854208E5,0E0,0E0,2.6450938E5,0E0,0E0,2.0201377E4,3.563941E5,2.8646328E5,2.109835E5,3.4859553E5,3.6456695E4,0E0,0E0,0E0,0E0,2.9871948E2,0E0,0E0,0E0,0E0,0E0,0E0,0E0,0E0,0E0,0E0,0E0,0E0,0E0,0E0,0E0,0E0,0E0,0E0,0E0,0E0,0E0,0E0,0E0,0E0,0E0,0E0,0E0,0E0,0E0,0E0],"parents":[2147483647,0,0,1,1,2,2,3,3,4,4,5,5,6,6,7,7,8,8,9,9,10,10,11,11,12,12,14,14,15,15,16,16,17,17,18,18,19,19,20,20,21,21,22,22,24,24,25,25,26,26,27,27,29,29,30,30,31,31,32,32,33,33,34,34,37,37,40,40,41,41,42,42,43,43,44,44,45,45,50,50],"right_children":[2,4,6,8,10,12,14,16,18,20,22,24,26,-1,28,30,32,34,36,38,40,42,44,-1,46,48,50,52,-1,54,56,58,60,62,64,-1,-1,66,-1,-1,68,70,72,74,76,78,-1,-1,-1,-1,80,-1,-1,-1,-1,-1,-1,-1,-1,-1,-1,-1,-1,-1,-1,-1,-1,-1,-1,-1,-1,-1,-1,-1,-1,-1,-1,-1,-1,-1,-1],"split_conditions":[5E0,5.6E1,1E0,1E0,4E0,5E0,1E0,1E0,2.1E1,1.21E2,1E1,1E0,1.5E1,7.516168E1,8E0,1E0,1E0,6E0,4E0,9.19E2,9.8E1,3.6E1,2.1E1,-5.3121616E1,1.69E2,1E1,6E0,1E0,-9.00087E0,3E0,8E0,7E0,2E0,2E0,3E0,8.91233E0,7.025202E1,6.1E1,4.5576637E1,9.745462E1,1E0,5E1,1.2E1,1.45E2,8E0,1E0,-6.3411404E1,-2.5049543E1,1.0235001E0,8.830919E0,1.2E1,-2.0789943E0,9.224501E-1,5.9218246E1,1.1167722E1,7.4583E1,-1.4095737E1,1.7627544E1,-7.0535364E0,-5.8523983E1,4.574216E0,-2.5683775E1,3.104143E1,7.091313E1,-6.1201506E0,-3.3174923E1,-1.03077965E2,-7.5607914E-1,-4.378364E1,1.1462313E2,2.017004E1,-7.837893E1,2.7338297E1,-1.482393E1,-9.627062E1,-5.751758E1,1.8489056E0,-1.2505315E1,4.0535175E1,-7.128676E0,-5.3861636E-1],"split_indices":[22,17,58,0,9,26,42,56,23,15,9,61,46,0,0,7,61,67,0,17,5,54,9,0,0,0,0,0,0,16,19,7,4,4,25,0,0,1,0,0,0,16,1,19,28,0,0,0,0,0,0,0,0,0,0,0,0,0,0,0,0,0,0,0,0,0,0,0,0,0,0,0,0,0,0,0,0,0,0,0,0],"split_type":[0,0,0,0,0,0,0,0,0,0,0,0,0,0,0,0,0,0,0,0,0,0,0,0,0,0,0,0,0,0,0,0,0,0,0,0,0,0,0,0,0,0,0,0,0,0,0,0,0,0,0,0,0,0,0,0,0,0,0,0,0,0,0,0,0,0,0,0,0,0,0,0,0,0,0,0,0,0,0,0,0],"sum_hessian":[1.153E3,1.116E3,3.7E1,1.35E2,9.81E2,2E1,1.7E1,8.2E1,5.3E1,2.8E1,9.53E2,1.1E1,9E0,1E0,1.6E1,6.8E1,1.4E1,4.9E1,4E0,2.3E1,5E0,3E1,9.23E2,7E0,4E0,4E0,5E0,2E0,1.4E1,5.4E1,1.4E1,1E1,4E0,4.3E1,6E0,1E0,3E0,2.2E1,1E0,2E0,3E0,1.9E1,1.1E1,9.6E1,8.27E2,3E0,1E0,3E0,1E0,2E0,3E0,1E0,1E0,5E0,4.9E1,1.1E1,3E0,4E0,6E0,3E0,1E0,3.7E1,6E0,3E0,3E0,1.4E1,8E0,2E0,1E0,4E0,1.5E1,2E0,9E0,9.4E1,2E0,8E0,8.19E2,2E0,1E0,2E0,1E0],"tree_param":{"num_deleted":"0","num_feature":"69","num_nodes":"81","size_leaf_vector":"1"}},{"base_weights":[-1.8250404E-1,1.0515059E1,-1.0497701E1,-1.4072883E0,5.3119957E1,-1.0013527E2,-4.4703684E0,-3.113315E0,7.512493E1,2.70717E1,2.154783E2,7.779486E1,-1.6010548E2,4.3238167E1,-1.0485559E1,1.4940238E1,-2.804154E1,9.9143105E1,5.2995934E0,4.2087354E2,1.6003403E2,8.097165E1,-9.5263145E1,-1.1299458E2,-5.4655807E1,1.24916405E2,-5.4013493E1,-9.584935E1,1.6204191E0,-5.3445153E0,1.10622734E2,-1.9556703E2,-1.2202654E1,5.268531E1,2.3747858E2,-1.4626932E2,2.0978186E1,1.6675684E2,2.2636269E1,-9.565588E1,2.1701546E2,-1.602773E2,3.4471146E1,7.6907516E-1,-1.1069596E2,2.0484451E2,1.0017842E1,-1.1748078E2,3.3137077E1,-1.6913783E2,2.7042208E0,-9.740882E1,4.9333115E0,1.6281682E0,-4.149324E1,1.1658537E2,1.7366905E1,-7.295908E1,7.7832245E1,-4.122827E1,-1.3192189E0,2.733567E1,-2.4251768E1,1.3472937E2,5.818332E0,-2.0297434E1,-7.642059E1,8.380011E0,-7.614233E1,6.992084E1,2.4138283E1,-6.136889E1,2.5297985E0,2.5221312E1,-6.978907E1,2.7517214E1,1.3605148E2,-1.2815441E1,3.721003E1,-6.561788E0,-8.673509E1,1.913152E1,-2.7070705E1,-2.258216E1,-9.665829E1,-1.562338E1,2.1405603E2,-6.945128E1,8.433961E-1,6.252845E1,5.8950746E-1],"categories":[],"categories_nodes":[],"categories_segments":[],"categories_sizes":[],"default_left":[0,0,0,0,0,0,0,0,0,0,0,0,0,0,0,0,0,0,0,0,0,0,0,0,0,0,0,0,0,0,0,0,0,0,0,0,0,0,0,0,0,0,0,0,0,0,0,0,0,0,0,0,0,0,0,0,0,0,0,0,0,0,0,0,0,0,0,0,0,0,0,0,0,0,0,0,0,0,0,0,0,0,0,0,0,0,0,0,0,0,0],"id":19,"left_children":[1,3,5,7,9,11,13,15,-1,17,19,21,23,25,27,29,31,33,35,37,39,-1,41,-1,43,45,47,49,51,53,55,57,59,61,63,65,67,-1,-1,-1,69,71,-1,73,-1,75,77,79,81,83,85,87,89,-1,-1,-1,-1,-1,-1,-1,-1,-1,-1,-1,-1,-1,-1,-1,-1,-1,-1,-1,-1,-1,-1,-1,-1,-1,-1,-1,-1,-1,-1,-1,-1,-1,-1,-1,-1,-1,-1],"loss_changes":[1.2745136E5,2.880826E5,3.1723434E5,1.9153E5,5.1858147E5,4.0726412E5,1.5886412E5,1.9933797E5,0E0,1.689424E5,1.2624169E5,3.5817488E5,6.187772E5,4.992345E5,5.0756072E5,4.9940147E5,4.9114912E5,1.4815738E5,2.0268498E5,9.793506E4,4.7851088E5,0E0,1.0039942E5,0E0,3.4871862E5,3.1019106E5,1.6429808E5,4.4105075E5,1.418801E5,3.0582597E5,6.37182E5,4.0984694E5,1.6653327E5,1.10002516E5,2.6819494E5,5.0978203E4,1.54251E5,0E0,0E0,0E0,1.19384375E4,3.908217E4,0E0,3.695246E5,0E0,5.2097425E5,9.548932E4,2.726432E5,5.4887746E4,4.7857406E5,1.0885392E6,1.887977E5,2.5207544E5,0E0,0E0,0E0,0E0,0E0,0E0,0E0,0E0,0E0,0E0,0E0,0E0,0E0,0E0,0E0,0E0,0E0,0E0,0E0,0E0,0E0,0E0,0E0,0E0,0E0,0E0,0E0,0E0,0E0,0E0,0E0,0E0,0E0,0E0,0E0,0E0,0E0,0E0],"parents":[2147483647,0,0,1,1,2,2,3,3,4,4,5,5,6,6,7,7,9,9,10,10,11,11,12,12,13,13,14,14,15,15,16,16,17,17,18,18,19,19,20,20,22,22,24,24,25,25,26,26,27,27,28,28,29,29,30,30,31,31,32,32,33,33,34,34,35,35,36,36,40,40,41,41,43,43,45,45,46,46,47,47,48,48,49,49,50,50,51,51,52,52],"right_children":[2,4,6,8,10,12,14,16,-1,18,20,22,24,26,28,30,32,34,36,38,40,-1,42,-1,44,46,48,50,52,54,56,58,60,62,64,66,68,-1,-1,-1,70,72,-1,74,-1,76,78,80,82,84,86,88,90,-1,-1,-1,-1,-1,-1,-1,-1,-1,-1,-1,-1,-1,-1,-1,-1,-1,-1,-1,-1,-1,-1,-1,-1,-1,-1,-1,-1,-1,-1,-1,-1,-1,-1,-1,-1,-1,-1],"split_conditions":[9.6E1,6.8E1,1.2E2,2.24E2,1.26E2,2.5E1,1.15E2,1.6E2,7.512493E1,3.4E1,3.72E2,1.01E2,1.03E2,1.74E2,1.4E2,1.52E2,1.92E2,1.792E3,5.4E1,1.64E2,3.81E2,8.097165E1,1.12E2,-1.1299458E2,1.42E2,5.77E2,7.7E1,9.1E1,4.47E2,3.7E1,8.8E1,1E0,2.41E2,2.62E2,4.9E1,1E0,2.96E2,1.6675684E2,2.2636269E1,-9.565588E1,6.64E2,1.6E1,3.4471146E1,5.52E2,-1.1069596E2,1.81E2,9.19E2,4.4E1,1.162E3,2.04E2,5.2E2,2E0,5.34E2,1.6281682E0,-4.149324E1,1.1658537E2,1.7366905E1,-7.295908E1,7.7832245E1,-4.122827E1,-1.3192189E0,2.733567E1,-2.4251768E1,1.3472937E2,5.818332E0,-2.0297434E1,-7.642059E1,8.380011E0,-7.614233E1,6.992084E1,2.4138283E1,-6.136889E1,2.5297985E0,2.5221312E1,-6.978907E1,2.7517214E1,1.3605148E2,-1.2815441E1,3.721003E1,-6.561788E0,-8.673509E1,1.913152E1,-2.7070705E1,-2.258216E1,-9.665829E1,-1.562338E1,2.1405603E2,-6.945128E1,8.433961E-1,6.252845E1,5.8950746E-1],"split_indices":[16,16,16,40,28,9,23,4,0,0,1,16,16,16,15,28,4,17,42,0,1,0,6,0,54,17,9,9,17,54,15,52,17,23,1,19,0,0,0,0,1,9,0,1,0,28,17,46,57,28,6,5,17,0,0,0,0,0,0,0,0,0,0,0,0,0,0,0,0,0,0,0,0,0,0,0,0,0,0,0,0,0,0,0,0,0,0,0,0,0,0],"split_type":[0,0,0,0,0,0,0,0,0,0,0,0,0,0,0,0,0,0,0,0,0,0,0,0,0,0,0,0,0,0,0,0,0,0,0,0,0,0,0,0,0,0,0,0,0,0,0,0,0,0,0,0,0,0,0,0,0,0,0,0,0,0,0,0,0,0,0,0,0,0,0,0,0,0,0,0,0,0,0,0,0,0,0,0,0,0,0,0,0,0,0],"sum_hessian":[1.153E3,5.66E2,5.87E2,4.43E2,1.23E2,3.6E1,5.51E2,4.41E2,2E0,1.07E2,1.6E1,9E0,2.7E1,6.1E1,4.9E2,2.56E2,1.85E2,2.4E1,8.3E1,2E0,1.4E1,4E0,5E0,8E0,1.9E1,3.3E1,2.8E1,6E1,4.3E2,2.12E2,4.4E1,1.5E1,1.7E2,1.9E1,5E0,7E0,7.6E1,1E0,1E0,1E0,1.3E1,4E0,1E0,1.7E1,2E0,1.9E1,1.4E1,1.6E1,1.2E1,3.4E1,2.6E1,1.3E1,4.17E2,1.97E2,1.5E1,6E0,3.8E1,1.4E1,1E0,9E0,1.61E2,1.5E1,4E0,2E0,3E0,5E0,2E0,7.5E1,1E0,1.1E1,2E0,3E0,1E0,1.3E1,4E0,1.4E1,5E0,1E1,4E0,1.1E1,5E0,1E1,2E0,2.2E1,1.2E1,2.5E1,1E0,5E0,8E0,5E0,4.12E2],"tree_param":{"num_deleted":"0","num_feature":"69","num_nodes":"91","size_leaf_vector":"1"}},{"base_weights":[8.652041E-2,3.248415E0,-2.5062243E1,6.530292E0,-2.8612793E1,5.9187855E1,-3.0117384E1,4.805116E0,2.0497185E2,-1.084613E2,-1.0208042E1,-6.745917E1,5.417587E0,1.0077155E1,-3.923033E1,8.187893E1,7.320964E-1,5.682297E1,-2.6337315E1,-3.5994328E1,-4.189595E2,5.4327072E1,-2.7731754E1,1.1044156E1,-7.766548E1,-1.1105513E2,-1.76883E1,-1.3822083E0,1.7116517E0,1.1025877E2,-3.5294914E1,-6.939098E1,9.956654E1,-1.6539786E2,1.657608E1,3.8230995E1,3.607164E1,-9.868947E1,1.0088237E1,4.183831E0,-1.703809E1,-1.6152943E0,-5.0952023E1,-2.833229E1,6.5894504E0,-7.102051E0,-5.025036E1,6.794016E0,1.3947177E1,-1.1637293E1,-4.591392E1,1.0433136E1,2.0166125E0],"categories":[],"categories_nodes":[],"categories_segments":[],"categories_sizes":[],"default_left":[0,0,0,0,0,0,0,0,0,0,0,0,0,0,0,0,0,0,0,0,0,0,0,0,0,0,0,0,0,0,0,0,0,0,0,0,0,0,0,0,0,0,0,0,0,0,0,0,0,0,0,0,0],"id":20,"left_children":[1,3,5,7,9,-1,11,13,15,-1,17,19,21,23,25,-1,27,-1,29,31,33,35,37,39,-1,-1,41,-1,-1,-1,43,45,-1,-1,-1,-1,47,49,51,-1,-1,-1,-1,-1,-1,-1,-1,-1,-1,-1,-1,-1,-1],"loss_changes":[9.1844875E4,1.074701E5,1.5094266E5,3.177398E5,5.845397E5,0E0,1.6888678E5,2.1490802E5,1.1083781E5,0E0,3.0120022E5,6.706338E5,1.0851352E5,2.1769077E5,6.992635E5,0E0,1.0595323E2,0E0,3.1638834E5,7.3562125E5,3.4431275E5,3.143861E4,1.08340414E5,1.6300612E5,0E0,0E0,1.7506039E5,0E0,0E0,0E0,2.8994284E5,2.3824364E5,0E0,0E0,0E0,0E0,2.1642344E3,3.9645766E4,2.0101318E3,0E0,0E0,0E0,0E0,0E0,0E0,0E0,0E0,0E0,0E0,0E0,0E0,0E0,0E0],"parents":[2147483647,0,0,1,1,2,2,3,3,4,4,6,6,7,7,8,8,10,10,11,11,12,12,13,13,14,14,16,16,18,18,19,19,20,20,21,21,22,22,23,23,26,26,30,30,31,31,36,36,37,37,38,38],"right_children":[2,4,6,8,10,-1,12,14,16,-1,18,20,22,24,26,-1,28,-1,30,32,34,36,38,40,-1,-1,42,-1,-1,-1,44,46,-1,-1,-1,-1,48,50,52,-1,-1,-1,-1,-1,-1,-1,-1,-1,-1,-1,-1,-1,-1],"split_conditions":[2E0,2.88E2,8E0,2.56E2,2.27E2,5.9187855E1,1.89E2,1.28E2,7.4E2,-1.084613E2,8.5E1,1.96E2,1.72E2,5.44E2,9.4E1,8.187893E1,1.088E3,5.682297E1,2.33E2,1.43E2,1.85E2,8.6E1,1.2737E4,9.6E1,-7.766548E1,-1.1105513E2,1.6E2,-1.3822083E0,1.7116517E0,1.1025877E2,2.08E3,8.79E2,9.956654E1,-1.6539786E2,1.657608E1,3.8230995E1,2.02E2,1.39E2,7.36E2,4.183831E0,-1.703809E1,-1.6152943E0,-5.0952023E1,-2.833229E1,6.5894504E0,-7.102051E0,-5.025036E1,6.794016E0,1.3947177E1,-1.1637293E1,-4.591392E1,1.0433136E1,2.0166125E0],"split_indices":[21,52,23,52,1,0,5,19,1,0,16,42,0,67,15,0,0,0,1,15,1,46,4,40,0,0,50,0,0,0,17,17,0,0,0,0,1,9,0,0,0,0,0,0,0,0,0,0,0,0,0,0,0],"split_type":[0,0,0,0,0,0,0,0,0,0,0,0,0,0,0,0,0,0,0,0,0,0,0,0,0,0,0,0,0,0,0,0,0,0,0,0,0,0,0,0,0,0,0,0,0,0,0,0,0,0,0,0,0],"sum_hessian":[1.153E3,1.025E3,1.28E2,9.3E2,9.5E1,2E0,1.26E2,9.23E2,7E0,4E0,9.1E1,6.1E1,6.5E1,8.25E2,9.8E1,5E0,2E0,6E0,8.5E1,5.7E1,4E0,2.6E1,3.9E1,8.23E2,2E0,5E0,9.3E1,1E0,1E0,1E0,8.4E1,5.3E1,4E0,3E0,1E0,4E0,2.2E1,1.3E1,2.6E1,7.9E2,3.3E1,8.7E1,6E0,4.1E1,4.3E1,3.7E1,1.6E1,1.1E1,1.1E1,7E0,6E0,2E0,2.4E1],"tree_param":{"num_deleted":"0","num_feature":"69","num_nodes":"53","size_leaf_vector":"1"}},{"base_weights":[-8.554901E-2,3.533964E-1,-5.0583622E1,-6.057615E0,1.1499493E1,-2.77769E0,-5.854809E1,4.2277454E1,-2.3953953E0,-1.4062401E0,-1.9038506E2,6.531569E1,-8.444704E1,-5.183222E1,5.58108E1,-1.2914462E2,8.450805E0,-2.6109881E0,2.0465607E2,-8.384352E1,2.4898243E1,5.6623783E1,-4.6491653E1,-1.131438E2,7.789404E1,3.9204126E2,4.708537E1,-7.773015E1,-1.3379933E2,1.2061086E2,1.8200134E0,-3.8434094E-1,-6.840992E1,7.279821E1,1.3596333E1,-2.3738708E0,-1.6247435E1,-4.759642E1,-5.116116E-1,-7.374022E1,5.7537945E1,-1.410883E1,1.905274E2,6.9526186E0,3.3260273E1,-5.2810047E1,8.161417E1,-2.9978481E1,1.4042229E2,-4.713953E1,2.281323E0],"categories":[],"categories_nodes":[],"categories_segments":[],"categories_sizes":[],"default_left":[0,0,0,0,0,0,0,0,0,0,0,0,0,0,0,0,0,0,0,0,0,0,0,0,0,0,0,0,0,0,0,0,0,0,0,0,0,0,0,0,0,0,0,0,0,0,0,0,0,0,0],"id":21,"left_children":[1,3,-1,5,7,9,11,13,15,17,19,21,23,-1,25,27,29,31,33,-1,-1,-1,35,37,39,41,43,45,-1,47,49,-1,-1,-1,-1,-1,-1,-1,-1,-1,-1,-1,-1,-1,-1,-1,-1,-1,-1,-1,-1],"loss_changes":[8.5425516E4,8.2388984E4,0E0,1.25862016E5,1.8014458E5,1.7726519E5,1.434572E5,3.9090062E5,4.0114288E5,1.7083603E5,1.449764E5,1.1917839E5,1.7652505E5,0E0,3.4532612E5,3.4002188E5,1.9983847E5,2.0445619E5,1.3224203E4,0E0,0E0,0E0,1.0502656E3,1.5695106E5,2.6835412E5,3.5001647E5,1.834844E5,7.6995925E5,0E0,1.196213E6,2.3565211E5,0E0,0E0,0E0,0E0,0E0,0E0,0E0,0E0,0E0,0E0,0E0,0E0,0E0,0E0,0E0,0E0,0E0,0E0,0E0,0E0],"parents":[2147483647,0,0,1,1,3,3,4,4,5,5,6,6,7,7,8,8,9,9,10,10,11,11,12,12,14,14,15,15,16,16,17,17,18,18,22,22,23,23,24,24,25,25,26,26,27,27,29,29,30,30],"right_children":[2,4,-1,6,8,10,12,14,16,18,20,22,24,-1,26,28,30,32,34,-1,-1,-1,36,38,40,42,44,46,-1,48,50,-1,-1,-1,-1,-1,-1,-1,-1,-1,-1,-1,-1,-1,-1,-1,-1,-1,-1,-1,-1],"split_conditions":[4.48E3,3.47E2,-5.0583622E1,3E0,4.76E2,4.8E2,1E0,1.1E1,5.21E2,3.52E2,1.93E2,7E0,1.94E2,-5.183222E1,1.3E1,5.04E2,5.52E2,2.88E2,3.29E2,-8.384352E1,2.4898243E1,5.6623783E1,4E0,3E0,2.27E2,4.8E2,4.5E2,4.24E2,-1.3379933E2,1.94E2,5.88E2,-3.8434094E-1,-6.840992E1,7.279821E1,1.3596333E1,-2.3738708E0,-1.6247435E1,-4.759642E1,-5.116116E-1,-7.374022E1,5.7537945E1,-1.410883E1,1.905274E2,6.9526186E0,3.3260273E1,-5.2810047E1,8.161417E1,-2.9978481E1,1.4042229E2,-4.713953E1,2.281323E0],"split_indices":[54,1,0,40,1,52,1,9,1,52,28,7,0,0,9,6,1,52,1,0,0,0,6,27,1,6,1,6,0,0,1,0,0,0,0,0,0,0,0,0,0,0,0,0,0,0,0,0,0,0,0],"split_type":[0,0,0,0,0,0,0,0,0,0,0,0,0,0,0,0,0,0,0,0,0,0,0,0,0,0,0,0,0,0,0,0,0,0,0,0,0,0,0,0,0,0,0,0,0,0,0,0,0,0,0],"sum_hessian":[1.153E3,1.151E3,2E0,7.31E2,4.2E2,6.89E2,4.2E1,1.3E2,2.9E2,6.85E2,4E0,7E0,3.5E1,7E0,1.23E2,2.2E1,2.68E2,6.82E2,3E0,3E0,1E0,3E0,4E0,3E1,5E0,2E0,1.21E2,2E1,2E0,1.4E1,2.54E2,6.79E2,3E0,2E0,1E0,1E0,3E0,2.1E1,9E0,1E0,4E0,1E0,1E0,8.9E1,3.2E1,1.6E1,4E0,9E0,5E0,8E0,2.46E2],"tree_param":{"num_deleted":"0","num_feature":"69","num_nodes":"51","size_leaf_vector":"1"}},{"base_weights":[-5.3671878E-2,3.5491946E0,-1.6079376E1,-2.4624836E0,2.416416E1,-1.8945618E2,-6.558465E0,4.534658E0,-3.7774807E1,1.5369641E2,1.2564882E0,-7.7351524E1,-3.4063965E1,-8.4392876E1,2.4584644E0,1.4340334E0,8.374045E1,2.3975107E1,-6.633471E1,-1.3485269E2,1.7742812E2,-1.2620757E2,5.911959E0,-8.697937E0,-1.6069897E2,1.3267728E1,-5.5027225E1,5.9315934E0,-7.215648E1,1.5226329E2,-9.463508E1,-9.362416E0,7.576283E1,-1.2809686E2,-4.7472782E1,-5.3150673E1,-7.5330453E0,1.9420552E2,-4.6367535E1,-2.2811938E2,1.385671E1,-1.3750806E2,1.8560448E2,6.7454636E1,-9.3754613E-1,5.1563946E1,-7.820107E1,2.502273E0,-4.8044773E1,-8.319527E1,-8.166363E0,-2.9925514E1,6.401749E1,-1.1409467E2,2.8710066E1,-1.4234109E1,1.0126041E1,-2.4944187E1,6.5248246E0,6.5863495E1,8.600163E0,-1.5705376E1,-1.6604402E2,-1.0488763E0,3.0581656E1,-8.8730255E1,5.3360753E0,8.76653E1,3.8588596E1,-2.6424177E0,3.4095795E1,-6.794956E1,1.398787E0,-1.207751E2,-1.5072249E1],"categories":[],"categories_nodes":[],"categories_segments":[],"categories_sizes":[],"default_left":[0,0,0,0,0,0,0,0,0,0,0,0,0,0,0,0,0,0,0,0,0,0,0,0,0,0,0,0,0,0,0,0,0,0,0,0,0,0,0,0,0,0,0,0,0,0,0,0,0,0,0,0,0,0,0,0,0,0,0,0,0,0,0,0,0,0,0,0,0,0,0,0,0,0,0],"id":22,"left_children":[1,3,5,7,9,11,13,15,17,19,21,-1,-1,23,25,27,29,31,33,35,37,-1,39,41,-1,43,45,47,49,51,53,55,-1,-1,57,-1,-1,59,-1,61,63,65,67,69,71,-1,73,-1,-1,-1,-1,-1,-1,-1,-1,-1,-1,-1,-1,-1,-1,-1,-1,-1,-1,-1,-1,-1,-1,-1,-1,-1,-1,-1,-1],"loss_changes":[6.6687266E4,1.16926E5,3.4870694E5,1.8079066E5,6.31838E5,2.7822969E4,1.4197661E5,1.4993383E5,2.1498256E5,2.43055E5,3.600022E5,0E0,0E0,7.126774E5,1.13820875E5,1.9537388E5,2.955338E5,2.9953966E5,5.44349E5,9.482926E3,1.9711231E5,0E0,3.39698E5,5.010563E5,0E0,1.1860317E5,1.6593212E5,2.2381436E5,3.05896E5,2.831756E5,4.170218E5,5.9073324E4,0E0,0E0,1.9936581E5,0E0,0E0,1.15351125E5,0E0,3.1415284E5,2.6936997E5,3.0018356E5,1.10074375E4,1.13742984E5,1.564272E5,0E0,2.2465888E5,0E0,0E0,0E0,0E0,0E0,0E0,0E0,0E0,0E0,0E0,0E0,0E0,0E0,0E0,0E0,0E0,0E0,0E0,0E0,0E0,0E0,0E0,0E0,0E0,0E0,0E0,0E0,0E0],"parents":[2147483647,0,0,1,1,2,2,3,3,4,4,5,5,6,6,7,7,8,8,9,9,10,10,13,13,14,14,15,15,16,16,17,17,18,18,19,19,20,20,22,22,23,23,25,25,26,26,27,27,28,28,29,29,30,30,31,31,34,34,37,37,39,39,40,40,41,41,42,42,43,43,44,44,46,46],"right_children":[2,4,6,8,10,12,14,16,18,20,22,-1,-1,24,26,28,30,32,34,36,38,-1,40,42,-1,44,46,48,50,52,54,56,-1,-1,58,-1,-1,60,-1,62,64,66,68,70,72,-1,74,-1,-1,-1,-1,-1,-1,-1,-1,-1,-1,-1,-1,-1,-1,-1,-1,-1,-1,-1,-1,-1,-1,-1,-1,-1,-1,-1,-1],"split_conditions":[6.08E2,1.14E2,1.52E2,1.61E2,1.416E3,1.43E2,1.792E3,4.8E2,4.1E1,4.4E2,1.19E2,-7.7351524E1,-3.4063965E1,3.95E2,6.4E1,1.08E2,5.52E2,3E0,4.2E1,1E0,5.2E2,-1.2620757E2,1.569E3,3.37E2,-1.6069897E2,4.56E2,1.856E3,9.6E1,9.4E1,1.1E1,5.88E2,1.45E2,7.576283E1,-1.2809686E2,1.65E2,-5.3150673E1,-7.5330453E0,2.18E2,-4.6367535E1,1.3E2,9.6E1,1.39E2,3.43E2,4.55E2,4.71E2,5.1563946E1,1.72E2,2.502273E0,-4.8044773E1,-8.319527E1,-8.166363E0,-2.9925514E1,6.401749E1,-1.1409467E2,2.8710066E1,-1.4234109E1,1.0126041E1,-2.4944187E1,6.5248246E0,6.5863495E1,8.600163E0,-1.5705376E1,-1.6604402E2,-1.0488763E0,3.0581656E1,-8.8730255E1,5.3360753E0,8.76653E1,3.8588596E1,-2.6424177E0,3.4095795E1,-6.794956E1,1.398787E0,-1.207751E2,-1.5072249E1],"split_indices":[0,9,28,16,17,15,17,6,9,17,9,0,0,16,50,19,1,21,9,0,6,0,17,28,0,23,17,40,15,9,1,15,0,0,42,0,0,9,0,0,6,15,28,28,15,0,15,0,0,0,0,0,0,0,0,0,0,0,0,0,0,0,0,0,0,0,0,0,0,0,0,0,0,0,0],"split_type":[0,0,0,0,0,0,0,0,0,0,0,0,0,0,0,0,0,0,0,0,0,0,0,0,0,0,0,0,0,0,0,0,0,0,0,0,0,0,0,0,0,0,0,0,0,0,0,0,0,0,0,0,0,0,0,0,0,0,0,0,0,0,0,0,0,0,0,0,0,0,0,0,0,0,0],"sum_hessian":[1.153E3,9.42E2,2.11E2,7.3E2,2.12E2,1E1,2.01E2,6.1E2,1.2E2,3.1E1,1.81E2,4E0,6E0,2E1,1.81E2,5.88E2,2.2E1,3.8E1,8.2E1,2E0,2.9E1,1E0,1.8E2,1.8E1,2E0,1.53E2,2.8E1,5.55E2,3.3E1,1.6E1,6E0,3.4E1,4E0,3E0,7.9E1,1E0,1E0,2.8E1,1E0,5E0,1.75E2,1.1E1,7E0,3.1E1,1.22E2,2E0,2.6E1,5.48E2,7E0,5E0,2.8E1,3E0,1.3E1,2E0,4E0,1.8E1,1.6E1,5.2E1,2.7E1,2.4E1,4E0,4E0,1E0,1.47E2,2.8E1,5E0,6E0,1E0,6E0,1.2E1,1.9E1,2E0,1.2E2,1E0,2.5E1],"tree_param":{"num_deleted":"0","num_feature":"69","num_nodes":"75","size_leaf_vector":"1"}},{"base_weights":[-8.3716106E-1,-2.88974E-2,-5.832311E1,1.2012679E1,-4.156188E0,-1.2785294E1,-1.1504526E2,5.773072E0,2.3201715E2,1.19273735E2,-5.17618E0,-3.4317837E1,2.8092983E1,-4.9106815E1,-1.1291948E1,1.127367E1,-2.1350398E2,3.9254962E2,-4.9916046E1,6.1587086E1,4.380906E1,-1.6170591E1,5.2221723E0,-1.3432842E1,-5.448059E0,1.5548878E1,8.7127525E-1,7.3182564E0,1.1142415E2,-9.247904E1,4.6789494E0,-4.408143E1,1.5895044E2,3.727753E0,1.4564521E1,-1.0538775E1,-1.4574501E2,1.4895834E2,7.8190607E-1,-2.956635E0,5.050084E-1,3.2339292E0,-3.817274E1,-2.020283E0,-4.6787437E1,6.9514337E0,-1.1710933E2,8.02671E1,-5.5433357E1,-5.7059086E1,9.193415E-1],"categories":[],"categories_nodes":[],"categories_segments":[],"categories_sizes":[],"default_left":[0,0,0,0,0,0,0,0,0,0,0,0,0,0,0,0,0,0,0,0,0,0,0,0,0,0,0,0,0,0,0,0,0,0,0,0,0,0,0,0,0,0,0,0,0,0,0,0,0,0,0],"id":23,"left_children":[1,3,5,7,9,11,13,15,17,19,21,23,25,-1,-1,27,29,31,-1,-1,33,35,37,-1,39,-1,-1,41,-1,-1,-1,-1,-1,-1,-1,43,45,47,49,-1,-1,-1,-1,-1,-1,-1,-1,-1,-1,-1,-1],"loss_changes":[5.361754E4,5.6657184E4,3.9857156E4,3.981283E5,1.0750439E5,9.766224E3,2.0195992E4,3.44955E5,5.7696925E5,3.6444906E4,9.6459375E4,1.8695586E3,2.2410542E3,0E0,0E0,3.9329375E5,1.5677394E5,5.222348E5,0E0,0E0,1.4042383E2,2.9765712E5,2.7687397E5,0E0,1.1088315E2,0E0,0E0,1.2992771E5,0E0,0E0,0E0,0E0,0E0,0E0,0E0,2.1692934E5,7.1148956E5,5.639872E5,1.8454184E5,0E0,0E0,0E0,0E0,0E0,0E0,0E0,0E0,0E0,0E0,0E0,0E0],"parents":[2147483647,0,0,1,1,2,2,3,3,4,4,5,5,6,6,7,7,8,8,9,9,10,10,11,11,12,12,15,15,16,16,17,17,20,20,21,21,22,22,24,24,27,27,35,35,36,36,37,37,38,38],"right_children":[2,4,6,8,10,12,14,16,18,20,22,24,26,-1,-1,28,30,32,-1,-1,34,36,38,-1,40,-1,-1,42,-1,-1,-1,-1,-1,-1,-1,44,46,48,50,-1,-1,-1,-1,-1,-1,-1,-1,-1,-1,-1,-1],"split_conditions":[7E0,1.02E2,1E0,6.4E1,7E0,1E0,2E0,8E1,2.88E2,1.36E2,1.69E3,1E0,1E0,-4.9106815E1,-1.1291948E1,4.8E1,2.15E2,8.1E1,-4.9916046E1,6.1587086E1,9.9E1,1.56E3,1.856E3,-1.3432842E1,1E0,1.5548878E1,8.7127525E-1,1.08E2,1.1142415E2,-9.247904E1,4.6789494E0,-4.408143E1,1.5895044E2,3.727753E0,1.4564521E1,3.84E2,1.87E2,2.49E2,1.902E3,-2.956635E0,5.050084E-1,3.2339292E0,-3.817274E1,-2.020283E0,-4.6787437E1,6.9514337E0,-1.1710933E2,8.02671E1,-5.5433357E1,-5.7059086E1,9.193415E-1],"split_indices":[56,23,0,52,16,25,26,67,52,1,17,17,1,0,0,67,1,1,0,0,0,17,17,0,1,0,0,19,0,0,0,0,0,0,0,54,15,23,17,0,0,0,0,0,0,0,0,0,0,0,0],"split_type":[0,0,0,0,0,0,0,0,0,0,0,0,0,0,0,0,0,0,0,0,0,0,0,0,0,0,0,0,0,0,0,0,0,0,0,0,0,0,0,0,0,0,0,0,0,0,0,0,0,0,0],"sum_hessian":[1.153E3,1.138E3,1.5E1,2.9E2,8.48E2,9E0,6E0,2.83E2,7E0,6E0,8.42E2,6E0,3E0,3E0,3E0,2.77E2,6E0,5E0,2E0,2E0,4E0,4.09E2,4.33E2,4E0,2E0,1E0,2E0,2.75E2,2E0,4E0,2E0,1E0,4E0,1E0,3E0,3.93E2,1.6E1,1.2E1,4.21E2,1E0,1E0,2.69E2,6E0,3.84E2,9E0,1E1,6E0,9E0,3E0,4E0,4.17E2],"tree_param":{"num_deleted":"0","num_feature":"69","num_nodes":"51","size_leaf_vector":"1"}},{"base_weights":[-6.870566E-1,-1.8348381E1,1.9698627E0,-2.2253948E1,8.512301E1,5.9195564E1,-1.6655997E0,-8.672056E0,-1.930913E2,1.4097615E2,7.591633E-1,-3.0316591E1,2.0288785E0,-1.385801E1,1.7111487E2,4.6730545E1,-2.5157732E2,1.6055484E2,3.055044E1,-5.2233093E1,1.6553961E2,-4.490775E1,4.513408E1,3.8753323E1,-3.1133049E0,-8.368699E0,-7.687731E1,1.6933045E0,6.731708E1,3.099692E1,-9.968173E0,-8.624478E1,-2.5181767E1,1.6974046E2,-3.4736207E0,5.5197956E1,-4.280558E0,1.7572071E1,-2.2894252E2,1.12115265E2,5.267199E1,-1.1844131E1,-9.998958E1,7.299817E1,-6.428331E1,-9.973504E0,1.09760704E2,-7.687799E1,-1.1569785E0,-3.7835715E0,5.476089E1,5.812839E1,1.7677721E1,5.1779666E0,1.9661116E1,-3.0845034E0,1.158252E0,-1.5106279E1,3.4120632E1,-7.6910866E1,-2.9332287E1,2.641022E1,-2.3925062E1,-8.4786095E-2,-4.030189E1,-6.518385E1,-5.110462E0,2.5887003E1,-2.0950705E1,2.4459688E1,-1.6646683E1,4.519351E1,-1.706603E1,-8.619678E1,-4.8137826E-1,4.7582905E1,-7.4994475E-1],"categories":[],"categories_nodes":[],"categories_segments":[],"categories_sizes":[],"default_left":[0,0,0,0,0,0,0,0,0,0,0,0,0,0,0,0,0,0,0,0,0,0,0,0,0,0,0,0,0,0,0,0,0,0,0,0,0,0,0,0,0,0,0,0,0,0,0,0,0,0,0,0,0,0,0,0,0,0,0,0,0,0,0,0,0,0,0,0,0,0,0,0,0,0,0,0,0],"id":24,"left_children":[1,3,5,7,-1,9,11,13,15,17,19,21,23,25,27,29,31,33,35,37,39,41,43,45,47,49,-1,-1,-1,-1,-1,-1,-1,51,-1,53,55,57,59,-1,61,63,65,67,-1,69,71,73,75,-1,-1,-1,-1,-1,-1,-1,-1,-1,-1,-1,-1,-1,-1,-1,-1,-1,-1,-1,-1,-1,-1,-1,-1,-1,-1,-1,-1],"loss_changes":[5.4187258E4,1.8447019E5,2.0897266E5,3.4636962E5,0E0,2.8663075E5,1.00090195E5,1.3290264E5,1.6604484E5,4.914478E4,3.230018E5,1.2092543E5,1.5837177E5,1.8014866E5,3.3995492E4,1.7008176E4,3.004075E4,3.5169562E4,4.528766E3,3.4940944E5,1.9178447E5,1.6454533E5,1.4575078E5,3.5747106E5,1.06121586E5,1.1165876E5,0E0,0E0,0E0,0E0,0E0,0E0,0E0,4.1819625E4,0E0,4.5573242E1,1.862684E2,1.4289958E5,3.714125E3,0E0,3.9799793E4,8.2103555E4,3.2711025E5,3.8301062E4,0E0,2.6274953E5,2.9472697E5,3.0051566E5,1.5443666E5,0E0,0E0,0E0,0E0,0E0,0E0,0E0,0E0,0E0,0E0,0E0,0E0,0E0,0E0,0E0,0E0,0E0,0E0,0E0,0E0,0E0,0E0,0E0,0E0,0E0,0E0,0E0,0E0],"parents":[2147483647,0,0,1,1,2,2,3,3,5,5,6,6,7,7,8,8,9,9,10,10,11,11,12,12,13,13,14,14,15,15,16,16,17,17,18,18,19,19,20,20,21,21,22,22,23,23,24,24,25,25,33,33,35,35,36,36,37,37,38,38,40,40,41,41,42,42,43,43,45,45,46,46,47,47,48,48],"right_children":[2,4,6,8,-1,10,12,14,16,18,20,22,24,26,28,30,32,34,36,38,40,42,44,46,48,50,-1,-1,-1,-1,-1,-1,-1,52,-1,54,56,58,60,-1,62,64,66,68,-1,70,72,74,76,-1,-1,-1,-1,-1,-1,-1,-1,-1,-1,-1,-1,-1,-1,-1,-1,-1,-1,-1,-1,-1,-1,-1,-1,-1,-1,-1,-1],"split_conditions":[2.5E1,2.3E2,1E0,2.2E1,8.512301E1,5.4E1,7.1E1,4.4E2,1.41E2,7.4E1,1.49E2,1.34E2,1.01E2,4.29E2,5E0,1.98E2,1.21E2,1.5E1,3.1E1,1.6E1,1.51E2,3E1,1.135E3,7.1E1,1.12E2,2.96E2,-7.687731E1,1.6933045E0,6.731708E1,3.099692E1,-9.968173E0,-8.624478E1,-2.5181767E1,9.9E1,-3.4736207E0,2E0,1.4E1,9.2E1,5.7E1,1.12115265E2,9.8E1,7.01E2,4.8E1,1E0,-6.428331E1,1.2E2,1.62E2,1.63E2,2.76E2,-3.7835715E0,5.476089E1,5.812839E1,1.7677721E1,5.1779666E0,1.9661116E1,-3.0845034E0,1.158252E0,-1.5106279E1,3.4120632E1,-7.6910866E1,-2.9332287E1,2.641022E1,-2.3925062E1,-8.4786095E-2,-4.030189E1,-6.518385E1,-5.110462E0,2.5887003E1,-2.0950705E1,2.4459688E1,-1.6646683E1,4.519351E1,-1.706603E1,-8.619678E1,-4.8137826E-1,4.7582905E1,-7.4994475E-1],"split_indices":[46,9,42,6,0,46,4,17,15,57,15,5,23,17,1,1,28,25,16,0,15,9,16,15,23,17,0,0,0,0,0,0,0,0,0,1,5,5,9,0,5,1,9,67,0,4,54,4,17,0,0,0,0,0,0,0,0,0,0,0,0,0,0,0,0,0,0,0,0,0,0,0,0,0,0,0,0],"split_type":[0,0,0,0,0,0,0,0,0,0,0,0,0,0,0,0,0,0,0,0,0,0,0,0,0,0,0,0,0,0,0,0,0,0,0,0,0,0,0,0,0,0,0,0,0,0,0,0,0,0,0,0,0,0,0,0,0,0,0,0,0,0,0,0,0,0,0,0,0,0,0,0,0,0,0,0,0],"sum_hessian":[1.153E3,1.5E2,1.003E3,1.49E2,1E0,5.9E1,9.44E2,1.39E2,1E1,2.4E1,3.5E1,1.07E2,8.37E2,1.36E2,3E0,2E0,8E0,2E1,4E0,2.7E1,8E0,9E1,1.7E1,1.02E2,7.35E2,1.34E2,2E0,1E0,2E0,1E0,1E0,6E0,2E0,1.9E1,1E0,2E0,2E0,2E1,7E0,2E0,6E0,5.7E1,3.3E1,1.6E1,1E0,6.1E1,4.1E1,1.8E1,7.17E2,1.32E2,2E0,1.5E1,4E0,1E0,1E0,1E0,1E0,1.2E1,8E0,5E0,2E0,5E0,1E0,5.3E1,4E0,1.3E1,2E1,1.5E1,1E0,2E1,4.1E1,3.3E1,8E0,4E0,1.4E1,5E0,7.12E2],"tree_param":{"num_deleted":"0","num_feature":"69","num_nodes":"77","size_leaf_vector":"1"}},{"base_weights":[-4.925927E-1,-1.2860547E1,3.4099312E0,-2.0925905E1,4.954379E1,2.4607662E1,-4.648563E0,-2.324532E0,-8.548114E1,1.4182053E2,5.573201E0,5.139613E1,4.723236E0,-3.718742E0,-5.997335E1,5.359452E1,-5.169765E0,-1.00141045E2,2.4343851E1,6.1953033E1,-3.032844E1,8.342926E0,1.0456329E2,-9.493804E1,1.8348385E1,-4.0601078E1,-1.17102E0,-1.8935663E1,3.5948845E1,-6.311464E1,-1.9348836E2,2.8325808E1,-7.1510744E-1,-1.27672775E2,1.3556876E1,4.5220753E1,-1.0038822E2,6.154645E1,2.745718E2,-1.4910567E2,3.5514946E1,1.0880309E1,4.902215E1,-7.632625E1,5.2095264E1,2.3639797E1,-5.8733287E0,-3.6872633E0,-5.996208E1,5.4654663E1,1.9616114E0,-5.2044697E0,-4.824885E1,-9.646768E1,-1.7172173E1,1.6984789E1,-7.0191345E1,3.353782E1,-7.7975047E-1,7.3143005E0,9.657111E1,-6.771266E1,2.4712892E0,4.1129307E1,1.893941E0,1.3011516E2,-5.6487423E1,-6.698286E1,2.7641886E1,1.8445381E0,5.7538704E1,-1.3395042E1,-5.220789E1,2.2711761E1,1.0743991E1,2.3973184E0,5.1685284E1,-6.654127E1,-1.1067505E0],"categories":[],"categories_nodes":[],"categories_segments":[],"categories_sizes":[],"default_left":[0,0,0,0,0,0,0,0,0,0,0,0,0,0,0,0,0,0,0,0,0,0,0,0,0,0,0,0,0,0,0,0,0,0,0,0,0,0,0,0,0,0,0,0,0,0,0,0,0,0,0,0,0,0,0,0,0,0,0,0,0,0,0,0,0,0,0,0,0,0,0,0,0,0,0,0,0,0,0],"id":25,"left_children":[1,3,5,7,9,11,13,15,17,-1,19,21,23,25,-1,-1,27,29,-1,31,33,35,37,39,41,43,45,47,49,51,53,-1,-1,55,57,59,61,63,65,67,-1,69,-1,71,73,75,77,-1,-1,-1,-1,-1,-1,-1,-1,-1,-1,-1,-1,-1,-1,-1,-1,-1,-1,-1,-1,-1,-1,-1,-1,-1,-1,-1,-1,-1,-1,-1,-1],"loss_changes":[5.574309E4,1.4045455E5,1.5009592E5,2.9520203E5,5.928204E5,1.2866416E5,1.14909836E5,9.978632E4,1.4247681E5,0E0,6.2602797E4,2.3489638E5,1.9184794E5,5.9620816E4,0E0,0E0,1.0822729E5,1.6406019E5,0E0,2.5290383E4,8.289859E4,2.3710619E5,3.1950956E5,2.1408834E5,1.325525E5,1.3975152E5,6.9556375E4,1.6947139E5,2.0524448E5,1.6714811E5,2.258844E5,0E0,0E0,1.3078404E5,2.2510006E4,2.4585584E5,2.0605522E5,1.5770642E5,7.446282E5,2.710785E5,0E0,1.0069239E5,0E0,8.507242E4,1.9018477E3,2.1960258E5,2.3546722E5,0E0,0E0,0E0,0E0,0E0,0E0,0E0,0E0,0E0,0E0,0E0,0E0,0E0,0E0,0E0,0E0,0E0,0E0,0E0,0E0,0E0,0E0,0E0,0E0,0E0,0E0,0E0,0E0,0E0,0E0,0E0,0E0],"parents":[2147483647,0,0,1,1,2,2,3,3,4,4,5,5,6,6,7,7,8,8,10,10,11,11,12,12,13,13,16,16,17,17,19,19,20,20,21,21,22,22,23,23,24,24,25,25,26,26,27,27,28,28,29,29,30,30,33,33,34,34,35,35,36,36,37,37,38,38,39,39,41,41,43,43,44,44,45,45,46,46],"right_children":[2,4,6,8,10,12,14,16,18,-1,20,22,24,26,-1,-1,28,30,-1,32,34,36,38,40,42,44,46,48,50,52,54,-1,-1,56,58,60,62,64,66,68,-1,70,-1,72,74,76,78,-1,-1,-1,-1,-1,-1,-1,-1,-1,-1,-1,-1,-1,-1,-1,-1,-1,-1,-1,-1,-1,-1,-1,-1,-1,-1,-1,-1,-1,-1,-1,-1],"split_conditions":[3.9E1,3.49E2,9.4E1,2.6E1,1.43E2,1.56E2,4E2,3E0,1.4E1,1.4182053E2,3.56E2,2.8E1,1.92E2,3E1,-5.997335E1,5.359452E1,3.61E2,1.5E2,2.4343851E1,4.24E2,3.84E2,1.5E1,9.6E1,3.8E2,1.4E1,2.397E3,1.83E2,6.4E1,2.2E1,3E0,3.8E1,2.8325808E1,-7.1510744E-1,3.6E2,5.88E2,1.4E1,1.9E1,1.3E1,3.72E2,7.4E1,3.5514946E1,8.9E1,4.902215E1,1.134E3,2.57E2,1.66E2,1.85E2,-3.6872633E0,-5.996208E1,5.4654663E1,1.9616114E0,-5.2044697E0,-4.824885E1,-9.646768E1,-1.7172173E1,1.6984789E1,-7.0191345E1,3.353782E1,-7.7975047E-1,7.3143005E0,9.657111E1,-6.771266E1,2.4712892E0,4.1129307E1,1.893941E0,1.3011516E2,-5.6487423E1,-6.698286E1,2.7641886E1,1.8445381E0,5.7538704E1,-1.3395042E1,-5.220789E1,2.2711761E1,1.0743991E1,2.3973184E0,5.1685284E1,-6.654127E1,-1.1067505E0],"split_indices":[16,1,16,16,23,4,67,46,61,0,1,9,4,15,0,0,17,15,0,6,1,9,4,28,61,23,1,67,9,25,9,0,0,6,1,9,9,42,1,9,0,16,0,23,9,1,1,0,0,0,0,0,0,0,0,0,0,0,0,0,0,0,0,0,0,0,0,0,0,0,0,0,0,0,0,0,0,0,0],"split_type":[0,0,0,0,0,0,0,0,0,0,0,0,0,0,0,0,0,0,0,0,0,0,0,0,0,0,0,0,0,0,0,0,0,0,0,0,0,0,0,0,0,0,0,0,0,0,0,0,0,0,0,0,0,0,0,0,0,0,0,0,0,0,0,0,0,0,0,0,0,0,0,0,0,0,0,0,0,0,0],"sum_hessian":[1.153E3,2.76E2,8.77E2,2.45E2,3.1E1,2.41E2,6.36E2,1.91E2,5.4E1,2E0,2.9E1,1.02E2,1.39E2,6.34E2,2E0,2E0,1.89E2,5E1,4E0,1.1E1,1.8E1,5.7E1,4.5E1,1.6E1,1.23E2,4E1,5.94E2,1.42E2,4.7E1,3.7E1,1.3E1,7E0,4E0,5E0,1.3E1,4.3E1,1.4E1,3.7E1,8E0,1.3E1,3E0,1.18E2,5E0,2.9E1,1.1E1,9.4E1,5E2,1.38E2,4E0,7E0,4E1,2.6E1,1.1E1,6E0,7E0,2E0,3E0,1E0,1.2E1,4.1E1,2E0,6E0,8E0,1.5E1,2.2E1,6E0,2E0,1E1,3E0,1.16E2,2E0,2.3E1,6E0,3E0,8E0,8.6E1,8E0,4E0,4.96E2],"tree_param":{"num_deleted":"0","num_feature":"69","num_nodes":"79","size_leaf_vector":"1"}},{"base_weights":[-1.6545099E-1,1.820884E-1,-4.006963E1,1.4699836E0,-3.3067814E1,-4.1451916E-1,7.173074E1,-8.997355E1,1.150326E1,1.5270255E0,-7.9329834E1,1.08107704E2,-1.4202364E2,9.280621E0,-3.06571E2,9.940053E1,-1.56286955E1,7.7163976E-1,1.00480515E2,5.2324528E1,