{"learner":{"attributes":{"scikit_learn":"{\"_estimator_type\": \"regressor\"}"},"feature_names":[],"feature_types":[],"gradient_booster":{"model":{"gbtree_model_param":{"num_parallel_tree":"1","num_trees":"100"},"iteration_indptr":[0,1,2,3,4,5,6,7,8,9,10,11,12,13,14,15,16,17,18,19,20,21,22,23,24,25,26,27,28,29,30,31,32,33,34,35,36,37,38,39,40,41,42,43,44,45,46,47,48,49,50,51,52,53,54,55,56,57,58,59,60,61,62,63,64,65,66,67,68,69,70,71,72,73,74,75,76,77,78,79,80,81,82,83,84,85,86,87,88,89,90,91,92,93,94,95,96,97,98,99,100],"tree_info":[0,0,0,0,0,0,0,0,0,0,0,0,0,0,0,0,0,0,0,0,0,0,0,0,0,0,0,0,0,0,0,0,0,0,0,0,0,0,0,0,0,0,0,0,0,0,0,0,0,0,0,0,0,0,0,0,0,0,0,0,0,0,0,0,0,0,0,0,0,0,0,0,0,0,0,0,0,0,0,0,0,0,0,0,0,0,0,0,0,0,0,0,0,0,0,0,0,0,0,0],"trees":[{"base_weights":[6.5905265E-6,-3.595106E2,6.030769E2,-4.4433252E2,5.519675E2,-9.775987E0,7.322167E2,-2.1088965E2,-6.901701E2,8.123509E2,-2.1873438E2,7.510619E2,-1.3643419E2,3.2966803E2,8.331105E2,-3.149627E2,3.2439227E2,-7.9667725E2,2.9994693E2,-8.9400986E1,8.3996576E2,-4.6121613E1,2.5707477E2,-5.0793167E2,1.17737465E2,-2.0418015E2,4.3029807E2,8.5306036E2,3.8742908E2,-3.3888605E2,4.589983E2,5.1974945E2,-2.2606688E2,-8.027076E2,1.4281932E2,-4.3919244E2,2.697698E2,2.764245E2,2.0391988E2,-6.839394E2,4.032902E2,7.63029E2,-2.2121878E2,7.6014905E2,-2.813246E1,6.5476556E2,8.9069055E2,-3.3701367E2,7.1090753E2,-1.1723253E2,1.3496268E1,2.380322E2,-4.7224422E1,-2.0344371E2,1.9321843E2,-2.4255238E2,-5.575603E1,-1.9597258E2,1.9042575E2,-5.453062E1,-2.2505296E2,1.1219355E1,1.9042575E2,-1.1147082E2,2.6366644E2,-1.4548506E2,6.1943058E1,2.4068387E2,-1.2612174E2,3.087823E1,-2.0334163E2,-3.9297016E1,2.1339508E2,2.2475536E2,2.8197565E2,-1.1433844E2,-2.4083378E1,2.4993379E2,4.4417423E1],"categories":[],"categories_nodes":[],"categories_segments":[],"categories_sizes":[],"default_left":[0,0,0,0,0,0,0,0,0,0,0,0,0,0,0,0,0,0,0,0,0,0,0,0,0,0,0,0,0,0,0,0,0,0,0,0,0,0,0,0,0,0,0,0,0,0,0,0,0,0,0,0,0,0,0,0,0,0,0,0,0,0,0,0,0,0,0,0,0,0,0,0,0,0,0,0,0,0,0],"id":0,"left_children":[1,3,5,7,9,11,13,15,17,19,-1,21,23,25,27,29,31,33,35,-1,37,-1,-1,39,41,-1,43,45,47,49,51,53,-1,55,-1,57,-1,-1,-1,59,61,63,65,67,69,71,73,75,77,-1,-1,-1,-1,-1,-1,-1,-1,-1,-1,-1,-1,-1,-1,-1,-1,-1,-1,-1,-1,-1,-1,-1,-1,-1,-1,-1,-1,-1,-1],"loss_changes":[2.5020166E8,5.614281E7,3.411808E7,3.7845984E7,2.1273792E7,7.4263135E6,1.418416E7,1.9098748E7,3.419531E7,1.844748E6,0E0,1.185285E6,6.291795E6,7.7142855E6,2.19464E6,5.451044E6,1.2184418E7,2.6156E6,1.4569519E7,0E0,3.928E4,0E0,0E0,4.6061425E6,8.917821E6,0E0,1.0152707E7,1.438976E6,3.520368E6,5.555018E6,1.9802906E6,7.584576E6,0E0,8.87344E5,0E0,3.8628058E6,0E0,0E0,0E0,6.28675E5,3.99713E5,2.1669175E6,3.1456432E6,2.277042E6,2.539001E6,2.181642E6,8.632E5,2.6032562E4,5.64482E5,0E0,0E0,0E0,0E0,0E0,0E0,0E0,0E0,0E0,0E0,0E0,0E0,0E0,0E0,0E0,0E0,0E0,0E0,0E0,0E0,0E0,0E0,0E0,0E0,0E0,0E0,0E0,0E0,0E0,0E0],"parents":[2147483647,0,0,1,1,2,2,3,3,4,4,5,5,6,6,7,7,8,8,9,9,11,11,12,12,13,13,14,14,15,15,16,16,17,17,18,18,20,20,23,23,24,24,26,26,27,27,28,28,29,29,30,30,31,31,33,33,35,35,39,39,40,40,41,41,42,42,43,43,44,44,45,45,46,46,47,47,48,48],"right_children":[2,4,6,8,10,12,14,16,18,20,-1,22,24,26,28,30,32,34,36,-1,38,-1,-1,40,42,-1,44,46,48,50,52,54,-1,56,-1,58,-1,-1,-1,60,62,64,66,68,70,72,74,76,78,-1,-1,-1,-1,-1,-1,-1,-1,-1,-1,-1,-1,-1,-1,-1,-1,-1,-1,-1,-1,-1,-1,-1,-1,-1,-1,-1,-1,-1,-1],"split_conditions":[3.47E2,1.01E3,7.36E2,1E0,1E0,4.5E1,1E0,8.64E2,1E0,1.1E1,-2.1873438E2,3.49E2,3.4E1,1.9E1,1.28E2,1.8E1,6.7E1,4.44E2,3.3E1,-8.9400986E1,2.2E1,-4.6121613E1,2.5707477E2,8.617E3,4.2E1,-2.0418015E2,2.51E2,3.24E2,7.95E2,3.2E1,5.4E1,7.2E1,-2.2606688E2,1.6E1,1.4281932E2,4.6E1,2.697698E2,2.764245E2,2.0391988E2,5.2E1,4.83E2,2.1E1,4.8E2,1.767E3,2.96E2,1.08E3,3.04E2,1.12E3,5.28E2,-1.1723253E2,1.3496268E1,2.380322E2,-4.7224422E1,-2.0344371E2,1.9321843E2,-2.4255238E2,-5.575603E1,-1.9597258E2,1.9042575E2,-5.453062E1,-2.2505296E2,1.1219355E1,1.9042575E2,-1.1147082E2,2.6366644E2,-1.4548506E2,6.1943058E1,2.4068387E2,-1.2612174E2,3.087823E1,-2.0334163E2,-3.9297016E1,2.1339508E2,2.2475536E2,2.8197565E2,-1.1433844E2,-2.4083378E1,2.4993379E2,4.4417423E1],"split_indices":[1,53,17,29,51,16,54,17,3,0,0,1,0,9,43,61,46,9,9,0,3,0,0,1,42,0,15,4,28,67,9,6,0,59,0,0,0,0,0,15,15,9,6,1,0,17,6,0,6,0,0,0,0,0,0,0,0,0,0,0,0,0,0,0,0,0,0,0,0,0,0,0,0,0,0,0,0,0,0],"split_type":[0,0,0,0,0,0,0,0,0,0,0,0,0,0,0,0,0,0,0,0,0,0,0,0,0,0,0,0,0,0,0,0,0,0,0,0,0,0,0,0,0,0,0,0,0,0,0,0,0,0,0,0,0,0,0,0,0,0,0,0,0,0,0,0,0,0,0,0,0,0,0,0,0,0,0,0,0,0,0],"sum_hessian":[1.152E3,7.22E2,4.3E2,6.61E2,6.1E1,7.5E1,3.55E2,3.4E2,3.21E2,5.1E1,1E1,1E1,6.5E1,7.2E1,2.83E2,2.85E2,5.5E1,2.9E2,3.1E1,1E0,5E1,1E0,9E0,2.6E1,3.9E1,6E0,6.6E1,2.7E2,1.3E1,2.77E2,8E0,4.7E1,8E0,2.89E2,1E0,1.4E1,1.7E1,3E1,2E1,2.2E1,4E0,1.3E1,2.6E1,3.8E1,2.8E1,4.6E1,2.24E2,4E0,9E0,2.44E2,3.3E1,5E0,3E0,4E0,4.3E1,2.86E2,3E0,1.2E1,2E0,3E0,1.9E1,2E0,2E0,1E0,1.2E1,1.6E1,1E1,3.7E1,1E0,2.4E1,4E0,3E0,4.3E1,6.2E1,1.62E2,3E0,1E0,7E0,2E0],"tree_param":{"num_deleted":"0","num_feature":"69","num_nodes":"79","size_leaf_vector":"1"}},{"base_weights":[7.8757083E-1,-2.54056E2,4.2200995E2,-3.1427637E2,3.8915482E2,1.5623081E1,5.107566E2,-1.5233902E2,-4.827814E2,5.7616376E2,-1.5907954E2,4.9544476E2,-7.770982E1,2.1460803E2,5.8612366E2,-2.2495393E2,2.3238278E2,-5.582084E2,2.1821982E2,-7.599083E1,5.9739453E2,5.8862427E2,-9.34064E1,2.0269331E2,-2.8422217E2,-1.516767E2,2.8558994E2,5.9142035E2,-1.0714005E2,-2.5986505E2,2.0261758E2,3.809161E2,-1.6578236E2,-5.6292395E2,1.21396416E2,-3.0780447E2,1.9333504E2,1.961722E2,1.4565706E2,1.9782465E2,2.8218805E2,-3.4536453E2,3.9277374E2,-3.62795E2,3.2263217E2,5.0409174E2,-2.5639738E1,6.053078E2,2.8233817E2,1.1081005E2,-1.5902307E2,-5.02177E1,-1.6343457E2,-8.779937E1,2.8516302E2,-1.5461722E2,1.4356497E2,-1.7074068E2,-6.9148315E1,-1.4170323E2,1.523406E2,-3.920337E1,1.3901079E2,-1.5979239E2,4.329317E1,1.8485117E2,-1.4700287E2,-1.511239E2,-2.8409123E0,-8.945154E0,1.7026125E2,3.6206738E1,1.883609E2,2.19853E1,-1.5453964E2,1.4291554E2,1.9108994E2,-7.9078186E1,1.5812112E2],"categories":[],"categories_nodes":[],"categories_segments":[],"categories_sizes":[],"default_left":[0,0,0,0,0,0,0,0,0,0,0,0,0,0,0,0,0,0,0,0,0,0,0,0,0,0,0,0,0,0,0,0,0,0,0,0,0,0,0,0,0,0,0,0,0,0,0,0,0,0,0,0,0,0,0,0,0,0,0,0,0,0,0,0,0,0,0,0,0,0,0,0,0,0,0,0,0,0,0],"id":1,"left_children":[1,3,5,7,9,11,13,15,17,19,-1,21,23,25,27,29,31,33,35,-1,37,39,-1,41,43,-1,45,47,49,51,53,55,-1,57,-1,59,-1,-1,-1,-1,61,63,65,67,69,71,73,75,77,-1,-1,-1,-1,-1,-1,-1,-1,-1,-1,-1,-1,-1,-1,-1,-1,-1,-1,-1,-1,-1,-1,-1,-1,-1,-1,-1,-1,-1,-1],"loss_changes":[1.23876936E8,2.7972344E7,1.5680496E7,1.7881468E7,1.0965785E7,3.5763702E6,7.8424E6,9.46689E6,1.7147376E7,1.06705E6,0E0,1.1605738E6,3.9373592E6,3.9273428E6,1.106216E6,4.29192E6,6.506749E6,1.549064E6,7.3730035E6,0E0,4.944E3,7.423675E4,0E0,3.156727E6,1.9766578E6,0E0,4.637212E6,1.039552E6,8.0038975E5,6.838076E6,8.427745E6,4.2720905E6,0E0,4.6764E5,0E0,2.252851E6,0E0,0E0,0E0,0E0,3.597664E5,8.10504E5,4.6405705E6,1.7382885E6,4.4850588E5,1.822495E6,1.442006E6,7.94488E5,2.009433E6,0E0,0E0,0E0,0E0,0E0,0E0,0E0,0E0,0E0,0E0,0E0,0E0,0E0,0E0,0E0,0E0,0E0,0E0,0E0,0E0,0E0,0E0,0E0,0E0,0E0,0E0,0E0,0E0,0E0,0E0],"parents":[2147483647,0,0,1,1,2,2,3,3,4,4,5,5,6,6,7,7,8,8,9,9,11,11,12,12,13,13,14,14,15,15,16,16,17,17,18,18,20,20,21,21,23,23,24,24,26,26,27,27,28,28,29,29,30,30,31,31,33,33,35,35,40,40,41,41,42,42,43,43,44,44,45,45,46,46,47,47,48,48],"right_children":[2,4,6,8,10,12,14,16,18,20,-1,22,24,26,28,30,32,34,36,-1,38,40,-1,42,44,-1,46,48,50,52,54,56,-1,58,-1,60,-1,-1,-1,-1,62,64,66,68,70,72,74,76,78,-1,-1,-1,-1,-1,-1,-1,-1,-1,-1,-1,-1,-1,-1,-1,-1,-1,-1,-1,-1,-1,-1,-1,-1,-1,-1,-1,-1,-1,-1],"split_conditions":[3.37E2,1.01E3,7.36E2,1E0,1E0,4.8E1,1E0,8.65E2,1E0,1.1E1,-1.5907954E2,2.59E2,4.24E2,1.9E1,6.752E3,6E0,6.7E1,4.44E2,3.3E1,-7.599083E1,2.2E1,1.3E2,-9.34064E1,5.1E1,8.617E3,-1.516767E2,2.51E2,1.28E2,3.52E2,1E0,2E0,7.2E1,-1.6578236E2,1E0,1.21396416E2,4.6E1,1.9333504E2,1.961722E2,1.4565706E2,1.9782465E2,3.49E2,4.8E2,4.48E2,5.38E2,3.78E2,9.9E1,2.96E2,1.44E2,7.95E2,1.1081005E2,-1.5902307E2,-5.02177E1,-1.6343457E2,-8.779937E1,2.8516302E2,-1.5461722E2,1.4356497E2,-1.7074068E2,-6.9148315E1,-1.4170323E2,1.523406E2,-3.920337E1,1.3901079E2,-1.5979239E2,4.329317E1,1.8485117E2,-1.4700287E2,-1.511239E2,-2.8409123E0,-8.945154E0,1.7026125E2,3.6206738E1,1.883609E2,2.19853E1,-1.5453964E2,1.4291554E2,1.9108994E2,-7.9078186E1,1.5812112E2],"split_indices":[1,53,17,29,51,16,54,17,3,0,0,28,1,9,6,26,46,9,9,0,3,0,0,16,1,0,15,43,0,52,50,6,0,61,0,0,0,0,0,0,1,6,4,17,16,0,0,6,28,0,0,0,0,0,0,0,0,0,0,0,0,0,0,0,0,0,0,0,0,0,0,0,0,0,0,0,0,0,0],"split_type":[0,0,0,0,0,0,0,0,0,0,0,0,0,0,0,0,0,0,0,0,0,0,0,0,0,0,0,0,0,0,0,0,0,0,0,0,0,0,0,0,0,0,0,0,0,0,0,0,0,0,0,0,0,0,0,0,0,0,0,0,0,0,0,0,0,0,0,0,0,0,0,0,0,0,0,0,0,0,0],"sum_hessian":[1.152E3,7.18E2,4.34E2,6.57E2,6.1E1,7.8E1,3.56E2,3.36E2,3.21E2,5.1E1,1E1,1.2E1,6.6E1,7.3E1,2.83E2,2.83E2,5.3E1,2.9E2,3.1E1,1E0,5E1,1.1E1,1E0,2.8E1,3.8E1,6E0,6.7E1,2.81E2,2E0,2.62E2,2.1E1,4.5E1,8E0,2.89E2,1E0,1.4E1,1.7E1,3E1,2E1,8E0,3E0,7E0,2.1E1,3.4E1,4E0,3.9E1,2.8E1,2.68E2,1.3E1,1E0,1E0,1.99E2,6.3E1,1.3E1,8E0,4E0,4.1E1,2.83E2,6E0,1.2E1,2E0,1E0,2E0,5E0,2E0,1.7E1,4E0,2.4E1,1E1,2E0,2E0,1E1,2.9E1,2.4E1,4E0,5.6E1,2.12E2,4E0,9E0],"tree_param":{"num_deleted":"0","num_feature":"69","num_nodes":"79","size_leaf_vector":"1"}},{"base_weights":[9.3048614E-1,-1.7784044E2,2.9641406E2,-2.2015706E2,2.7413025E2,1.3171553E2,4.1891293E2,-3.062555E2,-3.884226E1,4.0842688E2,-3.856474E2,-1.8571017E2,2.6199146E2,4.8969754E2,2.9279462E2,-4.0094064E2,-1.0693706E2,-2.1161168E2,1.6224184E2,-6.459221E1,1.274636E2,-1.2221395E2,-2.5248507E1,6.619538E1,-4.6922772E2,3.5272272E2,1.7047571E1,4.9759943E2,-1.1263448E2,3.1309937E2,-1.2418392E2,-4.0455807E2,1.0318695E2,-1.8085469E2,1.3807732E2,1.4978818E2,-4.4608E2,3.250833E2,-2.622877E2,1.3052269E2,-6.4988846E1,-5.0944815E2,8.044252E1,4.564007E1,4.1740726E2,-1.2645929E2,9.874831E1,1.6611237E2,4.6191635E2,3.955811E2,1.7838843E2,-1.225249E2,-4.7942643E0,-6.1948166E1,2.0159818E2,-2.8001524E1,2.1365193E2,-1.6411171E2,4.354744E1,2.4359743E1,1.882203E2,-1.10281105E2,1.3845271E2,-7.033273E1,1.3626103E2,-8.9331085E1,-2.391564E2,7.400027E1,-1.1925785E2,1.360164E2,-6.776914E0,4.5945576E1,-1.434612E2,-6.205573E1,1.4320807E2,1.4007462E2,7.0754074E1,1.4281364E1,1.4138905E2],"categories":[],"categories_nodes":[],"categories_segments":[],"categories_sizes":[],"default_left":[0,0,0,0,0,0,0,0,0,0,0,0,0,0,0,0,0,0,0,0,0,0,0,0,0,0,0,0,0,0,0,0,0,0,0,0,0,0,0,0,0,0,0,0,0,0,0,0,0,0,0,0,0,0,0,0,0,0,0,0,0,0,0,0,0,0,0,0,0,0,0,0,0,0,0,0,0,0,0],"id":2,"left_children":[1,3,5,7,9,11,13,15,17,19,21,23,25,27,29,31,33,35,37,-1,-1,-1,-1,39,41,43,45,47,-1,49,-1,51,-1,53,-1,55,57,59,61,-1,63,65,-1,67,69,-1,71,-1,73,75,77,-1,-1,-1,-1,-1,-1,-1,-1,-1,-1,-1,-1,-1,-1,-1,-1,-1,-1,-1,-1,-1,-1,-1,-1,-1,-1,-1,-1],"loss_changes":[6.095863E7,1.3811858E7,8.72112E6,1.0260088E7,5.6510745E6,7.781652E6,2.079496E6,8.374256E6,7.434204E6,6.2508E5,3.7786375E4,3.9591412E6,2.949788E6,1.26696E6,1.4498255E6,9.52928E5,6.162465E6,9.811552E6,6.929235E6,0E0,0E0,0E0,0E0,1.4800129E6,9.07695E5,1.907709E6,1.3674166E6,5.8564E4,0E0,9.2944E5,0E0,4.44736E5,0E0,2.9595225E6,0E0,6.356087E6,4.257763E6,5.2576515E6,2.304018E6,0E0,2.1300012E6,1.285325E6,0E0,1.7016514E6,1.276753E6,0E0,1.077663E6,0E0,1.15224E6,5.16578E5,1.3566415E6,0E0,0E0,0E0,0E0,0E0,0E0,0E0,0E0,0E0,0E0,0E0,0E0,0E0,0E0,0E0,0E0,0E0,0E0,0E0,0E0,0E0,0E0,0E0,0E0,0E0,0E0,0E0,0E0],"parents":[2147483647,0,0,1,1,2,2,3,3,4,4,5,5,6,6,7,7,8,8,9,9,10,10,11,11,12,12,13,13,14,14,15,15,16,16,17,17,18,18,23,23,24,24,25,25,26,26,27,27,29,29,31,31,33,33,35,35,36,36,37,37,38,38,40,40,41,41,43,43,44,44,46,46,48,48,49,49,50,50],"right_children":[2,4,6,8,10,12,14,16,18,20,22,24,26,28,30,32,34,36,38,-1,-1,-1,-1,40,42,44,46,48,-1,50,-1,52,-1,54,-1,56,58,60,62,-1,64,66,-1,68,70,-1,72,-1,74,76,78,-1,-1,-1,-1,-1,-1,-1,-1,-1,-1,-1,-1,-1,-1,-1,-1,-1,-1,-1,-1,-1,-1,-1,-1,-1,-1,-1,-1],"split_conditions":[3.37E2,1.01E3,1.568E3,6E0,1E0,1.68E2,1E0,1E0,5.1E2,1.1E1,1.048E3,4.2E1,4.56E2,3.2767E4,5.44E2,4.44E2,4E1,5.8E1,9.9E1,-6.459221E1,1.274636E2,-1.2221395E2,-2.5248507E1,3.9E1,4.8E2,6.01E2,4.8E2,2.88E2,-1.1263448E2,3.6E2,-1.2418392E2,1.6E1,1.0318695E2,1E1,1.3807732E2,1.7E1,1.3E1,5E0,2.2E1,1.3052269E2,1E0,4E0,8.044252E1,2.32E2,1.513E3,-1.2645929E2,6.08E2,1.6611237E2,2.96E2,3.781E3,5E0,-1.225249E2,-4.7942643E0,-6.1948166E1,2.0159818E2,-2.8001524E1,2.1365193E2,-1.6411171E2,4.354744E1,2.4359743E1,1.882203E2,-1.10281105E2,1.3845271E2,-7.033273E1,1.3626103E2,-8.9331085E1,-2.391564E2,7.400027E1,-1.1925785E2,1.360164E2,-6.776914E0,4.5945576E1,-1.434612E2,-6.205573E1,1.4320807E2,1.4007462E2,7.0754074E1,1.4281364E1,1.4138905E2],"split_indices":[1,53,17,68,51,6,19,3,17,0,15,46,6,1,50,9,9,1,42,0,0,0,0,16,0,17,6,6,0,6,0,59,0,50,0,50,61,61,61,0,0,61,0,0,17,0,1,0,6,23,61,0,0,0,0,0,0,0,0,0,0,0,0,0,0,0,0,0,0,0,0,0,0,0,0,0,0,0,0],"split_type":[0,0,0,0,0,0,0,0,0,0,0,0,0,0,0,0,0,0,0,0,0,0,0,0,0,0,0,0,0,0,0,0,0,0,0,0,0,0,0,0,0,0,0,0,0,0,0,0,0,0,0,0,0,0,0,0,0,0,0,0,0,0,0,0,0,0,0,0,0,0,0,0,0,0,0,0,0,0,0],"sum_hessian":[1.152E3,7.18E2,4.34E2,6.57E2,6.1E1,1.86E2,2.48E2,4.45E2,2.12E2,5.1E1,1E1,5.4E1,1.32E2,1.57E2,9.1E1,3.01E2,1.44E2,1.14E2,9.8E1,1E0,5E1,9E0,1E0,2.9E1,2.5E1,9.6E1,3.6E1,1.56E2,1E0,8.9E1,2E0,3E2,1E0,1.28E2,1.6E1,4.5E1,6.9E1,7.1E1,2.7E1,7E0,2.2E1,2.4E1,1E0,1.7E1,7.9E1,5E0,3.1E1,5.5E1,1.01E2,5.4E1,3.5E1,2.97E2,3E0,1.25E2,3E0,3.2E1,1.3E1,5.9E1,1E1,4E1,3.1E1,2.4E1,3E0,1.7E1,5E0,1.5E1,9E0,1.2E1,5E0,7.3E1,6E0,2.9E1,2E0,2E0,9.9E1,3.6E1,1.8E1,2.5E1,1E1],"tree_param":{"num_deleted":"0","num_feature":"69","num_nodes":"79","size_leaf_vector":"1"}},{"base_weights":[1.2239352E0,-1.2477752E2,2.0643993E2,-1.4875491E2,2.9464487E2,7.03834E1,2.842129E2,-1.8403365E2,1.6477408E2,4.2456802E2,1.6306465E2,-1.0771458E1,1.0279589E2,3.1910345E2,1.4576602E2,-2.0379068E2,2.8564233E2,-1.6414587E2,1.03153725E2,1.870379E2,1.34304E2,-6.2397297E1,2.3646233E2,2.5270535E1,-6.2194653E2,3.4099142E2,1.3298672E2,3.239125E2,5.0671265E1,-2.5717526E2,-1.0432498E2,3.226229E2,-9.0283646E1,-2.3679427E2,1.3426212E2,-1.05605064E2,3.2354095E2,8.05619E1,-4.6327843E1,-1.3364209E2,1.04410965E2,-7.270347E1,-2.1759547E2,2.3523666E2,3.5220956E2,-3.6003964E2,4.3281653E2,1.2677903E2,-5.2942074E1,-5.999851E2,1.6400264E2,-7.911618E1,1.9597804E2,1.338561E2,-3.9522057E1,1.5415457E2,6.910016E1,1.6890295E1,-8.0216736E1,1.0678126E2,1.9374252E1,3.8067444E1,-1.2015607E2,6.1707012E1,-4.665841E1,8.719578E1,-1.392747E2,1.2159763E2,9.666501E1,-2.0250331E2,2.6980185E1,1.4106427E2,-1.9222258E1,-2.2387285E2,-6.1493923E1,-8.5431725E1,6.498561E1],"categories":[],"categories_nodes":[],"categories_segments":[],"categories_sizes":[],"default_left":[0,0,0,0,0,0,0,0,0,0,0,0,0,0,0,0,0,0,0,0,0,0,0,0,0,0,0,0,0,0,0,0,0,0,0,0,0,0,0,0,0,0,0,0,0,0,0,0,0,0,0,0,0,0,0,0,0,0,0,0,0,0,0,0,0,0,0,0,0,0,0,0,0,0,0,0,0],"id":3,"left_children":[1,3,5,7,9,11,13,15,17,19,21,23,-1,25,27,29,31,33,-1,-1,35,-1,37,39,41,43,45,47,49,51,53,55,-1,57,-1,-1,59,-1,-1,61,63,-1,-1,65,67,69,71,-1,-1,73,75,-1,-1,-1,-1,-1,-1,-1,-1,-1,-1,-1,-1,-1,-1,-1,-1,-1,-1,-1,-1,-1,-1,-1,-1,-1,-1],"loss_changes":[2.983947E7,7.234338E6,4.625284E6,7.518558E6,5.9748525E5,3.5611465E6,1.301192E6,5.709368E6,4.1205575E6,1.013158E6,6.2110906E5,2.769213E6,0E0,8.59016E5,9.6615325E5,3.07948E6,6.394004E5,1.2169254E6,0E0,0E0,9.421608E5,0E0,2.6716544E5,1.5105468E6,9.89035E4,1.5205E5,3.8514312E6,1.0621815E6,2.9742505E6,2.436732E6,3.167814E6,3.0519625E5,0E0,2.2129975E5,0E0,0E0,3.5739188E4,0E0,0E0,2.8320508E6,2.1381005E6,0E0,0E0,9.877136E5,1.51378E5,1.4779944E6,3.2744925E5,0E0,0E0,1.9367075E5,8.645211E5,0E0,0E0,0E0,0E0,0E0,0E0,0E0,0E0,0E0,0E0,0E0,0E0,0E0,0E0,0E0,0E0,0E0,0E0,0E0,0E0,0E0,0E0,0E0,0E0,0E0,0E0],"parents":[2147483647,0,0,1,1,2,2,3,3,4,4,5,5,6,6,7,7,8,8,9,9,10,10,11,11,13,13,14,14,15,15,16,16,17,17,20,20,22,22,23,23,24,24,25,25,26,26,27,27,28,28,29,29,30,30,31,31,33,33,36,36,39,39,40,40,43,43,44,44,45,45,46,46,49,49,50,50],"right_children":[2,4,6,8,10,12,14,16,18,20,22,24,-1,26,28,30,32,34,-1,-1,36,-1,38,40,42,44,46,48,50,52,54,56,-1,58,-1,-1,60,-1,-1,62,64,-1,-1,66,68,70,72,-1,-1,74,76,-1,-1,-1,-1,-1,-1,-1,-1,-1,-1,-1,-1,-1,-1,-1,-1,-1,-1,-1,-1,-1,-1,-1,-1,-1,-1],"split_conditions":[3.32E2,1.03E2,1.296E3,2E0,4.9E1,1.7E1,1.28E2,1.8E1,3.9E1,1.58E2,5.1E1,1.62E2,1.0279589E2,3.0577E4,5.52E2,1E0,1.85E2,4.6E1,1.03153725E2,1.870379E2,2.08E2,-6.2397297E1,2.88E2,6.6E1,7.28E2,1.568E3,3.6066E4,2.208E3,1.14E2,1.1E1,2E0,5.4E1,-9.0283646E1,3E1,1.3426212E2,-1.05605064E2,3.84E2,8.05619E1,-4.6327843E1,4E0,3.84E2,-7.270347E1,-2.1759547E2,2.88E2,6.4E1,5.77E2,1.242E3,1.2677903E2,-5.2942074E1,6.17E2,2.42E2,-7.911618E1,1.9597804E2,1.338561E2,-3.9522057E1,1.5415457E2,6.910016E1,1.6890295E1,-8.0216736E1,1.0678126E2,1.9374252E1,3.8067444E1,-1.2015607E2,6.1707012E1,-4.665841E1,8.719578E1,-1.392747E2,1.2159763E2,9.666501E1,-2.0250331E2,2.6980185E1,1.4106427E2,-1.9222258E1,-2.2387285E2,-6.1493923E1,-8.5431725E1,6.498561E1],"split_indices":[1,67,17,29,16,61,50,61,9,15,16,54,0,17,1,6,16,0,0,0,6,0,1,0,17,17,57,4,16,68,6,9,0,46,0,0,0,0,0,9,4,0,0,40,52,28,0,0,0,1,15,0,0,0,0,0,0,0,0,0,0,0,0,0,0,0,0,0,0,0,0,0,0,0,0,0,0],"split_type":[0,0,0,0,0,0,0,0,0,0,0,0,0,0,0,0,0,0,0,0,0,0,0,0,0,0,0,0,0,0,0,0,0,0,0,0,0,0,0,0,0,0,0,0,0,0,0,0,0,0,0,0,0,0,0,0,0,0,0,0,0,0,0,0,0,0,0,0,0,0,0,0,0,0,0,0,0],"sum_hessian":[1.152E3,7.14E2,4.38E2,6.76E2,3.8E1,1.6E2,2.78E2,6.08E2,6.8E1,1.8E1,2E1,1.24E2,3.6E1,2.21E2,5.7E1,5.84E2,2.4E1,2.4E1,4.4E1,1E1,8E0,3E0,1.7E1,1.18E2,6E0,1.97E2,2.4E1,1.9E1,3.8E1,3.79E2,2.05E2,2.3E1,1E0,2.2E1,2E0,2E0,6E0,1.6E1,1E0,3.9E1,7.9E1,2E0,4E0,2.1E1,1.76E2,9E0,1.5E1,1.6E1,3E0,5E0,3.3E1,3.77E2,2E0,9E0,1.96E2,6E0,1.7E1,2E0,2E1,5E0,1E0,2E1,1.9E1,5.7E1,2.2E1,2E1,1E0,5.9E1,1.17E2,5E0,4E0,1.4E1,1E0,3E0,2E0,3E0,3E1],"tree_param":{"num_deleted":"0","num_feature":"69","num_nodes":"77","size_leaf_vector":"1"}},{"base_weights":[1.1374681E0,-8.528706E1,1.4611148E2,-4.4970306E1,-2.1516939E2,-2.769083E1,1.7538907E2,-1.712765E2,8.90157E1,-2.2323824E2,9.332942E1,-7.09163E1,8.350463E1,3.901224E1,1.9517386E2,-2.1302795E2,1.654781E2,2.2444687E2,-4.311102E1,-2.2851846E2,9.957635E1,-1.9081357E2,4.7291985E1,9.26729E1,-2.2689981E1,1.486215E2,2.3856837E2,-2.3302208E2,4.3091876E2,4.3261026E2,-1.1514891E2,-1.17770966E2,3.0870328E2,-1.3558673E2,1.3685495E2,-4.4053564E2,-2.1231146E2,-2.2761827E2,1.2043701E2,-8.281282E1,9.521686E1,-7.196916E1,1.3164449E2,1.6441061E2,-2.165857E2,2.4425847E2,-1.5011589E2,-7.760623E1,2.1364231E1,2.2837508E2,-1.12015144E2,1.7606044E2,-2.2966602E1,2.3878244E1,-7.156503E1,1.8178203E2,7.0022446E1,2.3044467E0,-1.0346655E2,-5.139232E1,7.791609E1,-1.472877E2,-6.8866516E1,-6.3976917E1,-9.593802E0,-1.2611673E1,-9.542174E1,-3.8977356E1,5.077665E1,-4.93634E0,-1.271917E2,6.7581436E1,9.264061E0,7.656383E1,3.2833237E1,7.380669E1,-1.4135884E2],"categories":[],"categories_nodes":[],"categories_segments":[],"categories_sizes":[],"default_left":[0,0,0,0,0,0,0,0,0,0,0,0,0,0,0,0,0,0,0,0,0,0,0,0,0,0,0,0,0,0,0,0,0,0,0,0,0,0,0,0,0,0,0,0,0,0,0,0,0,0,0,0,0,0,0,0,0,0,0,0,0,0,0,0,0,0,0,0,0,0,0,0,0,0,0,0,0],"id":4,"left_children":[1,3,5,7,9,11,13,15,17,19,-1,21,-1,23,25,27,29,31,33,35,-1,37,39,-1,41,43,45,47,49,51,-1,53,55,57,59,61,63,65,-1,-1,67,69,-1,71,-1,73,75,-1,-1,-1,-1,-1,-1,-1,-1,-1,-1,-1,-1,-1,-1,-1,-1,-1,-1,-1,-1,-1,-1,-1,-1,-1,-1,-1,-1,-1,-1],"loss_changes":[1.4458756E7,3.776266E6,2.198006E6,9.37381E6,7.955775E5,8.531479E5,9.88017E5,4.0423505E6,4.8231825E6,5.71252E5,0E0,8.027036E5,0E0,8.063661E5,6.15021E5,3.3707E6,4.8616575E6,3.871283E6,2.2985755E6,4.83745E5,0E0,7.017322E5,4.756614E5,0E0,9.412845E5,2.2904978E6,4.01588E5,1.947079E6,2.40973E6,1.7728695E6,0E0,6.62602E5,2.253282E6,2.7314018E6,1.8240308E6,4.31975E3,2.0104E4,4.3986225E5,0E0,0E0,4.553887E5,7.160536E5,0E0,1.26082E6,0E0,2.12786E5,4.975011E5,0E0,0E0,0E0,0E0,0E0,0E0,0E0,0E0,0E0,0E0,0E0,0E0,0E0,0E0,0E0,0E0,0E0,0E0,0E0,0E0,0E0,0E0,0E0,0E0,0E0,0E0,0E0,0E0,0E0,0E0],"parents":[2147483647,0,0,1,1,2,2,3,3,4,4,5,5,6,6,7,7,8,8,9,9,11,11,13,13,14,14,15,15,16,16,17,17,18,18,19,19,21,21,22,22,24,24,25,25,26,26,27,27,28,28,29,29,31,31,32,32,33,33,34,34,35,35,36,36,37,37,40,40,41,41,43,43,45,45,46,46],"right_children":[2,4,6,8,10,12,14,16,18,20,-1,22,-1,24,26,28,30,32,34,36,-1,38,40,-1,42,44,46,48,50,52,-1,54,56,58,60,62,64,66,-1,-1,68,70,-1,72,-1,74,76,-1,-1,-1,-1,-1,-1,-1,-1,-1,-1,-1,-1,-1,-1,-1,-1,-1,-1,-1,-1,-1,-1,-1,-1,-1,-1,-1,-1,-1,-1],"split_conditions":[3.47E2,2.73E2,1.42E2,4.56E2,4.48E2,1.44E2,6.5E1,1E1,1.58E2,4.44E2,9.332942E1,1.68E2,8.350463E1,1.81E2,5.77E2,7E0,5.8E1,6E1,2.1E1,1E0,9.957635E1,8.617E3,2.38E2,9.26729E1,4.83E2,3.784E3,6.752E3,4E0,2E0,1E0,-1.1514891E2,2E0,3.7E1,8.1E2,5E0,9.28E2,1.048E3,8.6E1,1.2043701E2,-8.281282E1,1.2E1,2.658E3,1.3164449E2,1E0,-2.165857E2,1.28E2,3.52E2,-7.760623E1,2.1364231E1,2.2837508E2,-1.12015144E2,1.7606044E2,-2.2966602E1,2.3878244E1,-7.156503E1,1.8178203E2,7.0022446E1,2.3044467E0,-1.0346655E2,-5.139232E1,7.791609E1,-1.472877E2,-6.8866516E1,-6.3976917E1,-9.593802E0,-1.2611673E1,-9.542174E1,-3.8977356E1,5.077665E1,-4.93634E0,-1.271917E2,6.7581436E1,9.264061E0,7.656383E1,3.2833237E1,7.380669E1,-1.4135884E2],"split_indices":[1,16,23,17,6,42,46,50,15,9,0,6,0,15,28,22,1,1,54,29,0,1,28,0,15,15,6,63,43,22,0,4,16,17,61,0,15,16,0,0,9,1,0,52,0,43,0,0,0,0,0,0,0,0,0,0,0,0,0,0,0,0,0,0,0,0,0,0,0,0,0,0,0,0,0,0,0],"split_type":[0,0,0,0,0,0,0,0,0,0,0,0,0,0,0,0,0,0,0,0,0,0,0,0,0,0,0,0,0,0,0,0,0,0,0,0,0,0,0,0,0,0,0,0,0,0,0,0,0,0,0,0,0,0,0,0,0,0,0,0,0,0,0,0,0,0,0,0,0,0,0,0,0,0,0,0,0],"sum_hessian":[1.152E3,7.22E2,4.3E2,5.52E2,1.7E2,6.2E1,3.68E2,2.84E2,2.68E2,1.68E2,2E0,5.5E1,7E0,4.7E1,3.21E2,2.53E2,3.1E1,1.32E2,1.36E2,1.67E2,1E0,2.7E1,2.8E1,8E0,3.9E1,1.57E2,1.64E2,2.46E2,7E0,2.1E1,1E1,2.6E1,1.06E2,9E1,4.6E1,1E1,1.57E2,2.6E1,1E0,3E0,2.5E1,3.6E1,3E0,1.55E2,2E0,1.62E2,2E0,2.27E2,1.9E1,5E0,2E0,1.6E1,5E0,1E1,1.6E1,2E1,8.6E1,5.4E1,3.6E1,1.3E1,3.3E1,7E0,3E0,1.56E2,1E0,9E0,1.7E1,6E0,1.9E1,3.2E1,4E0,1.06E2,4.9E1,1.49E2,1.3E1,1E0,1E0],"tree_param":{"num_deleted":"0","num_feature":"69","num_nodes":"77","size_leaf_vector":"1"}},{"base_weights":[9.262437E-1,-5.627506E1,1.0874838E2,-2.5855097E1,-1.5529463E2,-4.7974064E1,1.3127437E2,-1.1723652E2,6.4673096E1,-1.631061E2,6.699834E1,8.462291E1,-1.15938705E2,1.3833712E1,1.4264374E2,-1.4096924E2,1.7612134E2,1.6804245E2,-1.5281932E1,-1.0105327E2,-1.4459718E2,-1.499682E2,1.1633316E2,1.2341943E2,-2.3959682E2,2.397038E1,1.5309267E2,-1.1830307E2,-1.2917879E2,-1.2599658E2,3.7615298E2,-6.391664E1,2.1336989E2,3.249021E1,-2.7192877E2,-1.4908366E2,8.46399E1,-6.4293686E1,-9.886568E1,1.8430202E2,-1.3773165E1,-7.8189964E1,-4.621596E2,1.18316574E2,-2.6249255E2,1.5534073E2,-7.550104E1,-4.351158E1,6.985819E1,1.6755255E2,-1.0683886E2,-1.5571597E2,6.932498E1,8.966643E1,-5.605911E-1,1.7669035E2,-9.897701E1,-5.032353E1,-4.0378048E1,4.2219006E1,-4.907726E1,8.3136055E1,7.6127434E0,-2.0696205E1,3.0373877E1,-8.071974E1,7.979992E1,-2.7917492E1,-1.662522E2,8.99873E0,1.4585434E2,-2.0995613E2,7.214755E1,5.5798317E1,3.5188854E1],"categories":[],"categories_nodes":[],"categories_segments":[],"categories_sizes":[],"default_left":[0,0,0,0,0,0,0,0,0,0,0,0,0,0,0,0,0,0,0,0,0,0,0,0,0,0,0,0,0,0,0,0,0,0,0,0,0,0,0,0,0,0,0,0,0,0,0,0,0,0,0,0,0,0,0,0,0,0,0,0,0,0,0,0,0,0,0,0,0,0,0,0,0,0,0],"id":5,"left_children":[1,3,5,7,9,11,13,15,17,19,-1,-1,21,23,25,27,29,31,33,-1,35,37,-1,39,41,43,45,47,-1,-1,49,-1,51,53,55,57,-1,59,-1,61,63,65,67,69,71,73,-1,-1,-1,-1,-1,-1,-1,-1,-1,-1,-1,-1,-1,-1,-1,-1,-1,-1,-1,-1,-1,-1,-1,-1,-1,-1,-1,-1,-1],"loss_changes":[7.117325E6,2.2671622E6,1.418429E6,4.789142E6,5.599205E5,1.1767232E6,4.653555E5,2.0299355E6,2.4076538E6,5.108255E5,0E0,0E0,7.9522556E5,9.1828675E5,3.918935E5,1.7018415E6,2.7812788E6,2.239282E6,2.0318291E6,0E0,3.4646925E5,6.096285E5,0E0,1.9464916E5,3.2309538E5,7.607779E5,3.05704E5,2.371523E6,0E0,0E0,2.4690092E6,0E0,1.5989455E6,1.281996E6,1.492425E6,2.014675E4,0E0,6.1341206E5,0E0,2.2898762E5,5.7790336E4,5.314538E5,8.427994E4,6.6770856E5,1.7082101E6,3.187155E5,0E0,0E0,0E0,0E0,0E0,0E0,0E0,0E0,0E0,0E0,0E0,0E0,0E0,0E0,0E0,0E0,0E0,0E0,0E0,0E0,0E0,0E0,0E0,0E0,0E0,0E0,0E0,0E0,0E0],"parents":[2147483647,0,0,1,1,2,2,3,3,4,4,5,5,6,6,7,7,8,8,9,9,12,12,13,13,14,14,15,15,16,16,17,17,18,18,20,20,21,21,23,23,24,24,25,25,26,26,27,27,30,30,32,32,33,33,34,34,35,35,37,37,39,39,40,40,41,41,42,42,43,43,44,44,45,45],"right_children":[2,4,6,8,10,12,14,16,18,20,-1,-1,22,24,26,28,30,32,34,-1,36,38,-1,40,42,44,46,48,-1,-1,50,-1,52,54,56,58,-1,60,-1,62,64,66,68,70,72,74,-1,-1,-1,-1,-1,-1,-1,-1,-1,-1,-1,-1,-1,-1,-1,-1,-1,-1,-1,-1,-1,-1,-1,-1,-1,-1,-1,-1,-1],"split_conditions":[3.69E2,2.73E2,6.81E2,4.56E2,5.6E2,4.5E1,1.41E2,6E0,7.8E1,1E0,6.699834E1,8.462291E1,4.83E2,7.06E2,6.5E1,1E0,6E0,2.4E1,1E0,-1.0105327E2,4.44E2,1.81E2,1.1633316E2,5.85E2,2E0,7.1E2,3.2767E4,2E0,-1.2917879E2,-1.2599658E2,1E0,-6.391664E1,1.5E1,6.7E1,2.03E2,1.04E2,8.46399E1,1E0,-9.886568E1,2.24E2,1.3E2,1.64E2,1.64E2,1.464E3,1.19E2,2.73E2,-7.550104E1,-4.351158E1,6.985819E1,1.6755255E2,-1.0683886E2,-1.5571597E2,6.932498E1,8.966643E1,-5.605911E-1,1.7669035E2,-9.897701E1,-5.032353E1,-4.0378048E1,4.2219006E1,-4.907726E1,8.3136055E1,7.6127434E0,-2.0696205E1,3.0373877E1,-8.071974E1,7.979992E1,-2.7917492E1,-1.662522E2,8.99873E0,1.4585434E2,-2.0995613E2,7.214755E1,5.5798317E1,3.5188854E1],"split_indices":[1,16,17,17,6,16,23,26,42,29,0,0,15,1,46,59,5,1,52,0,9,15,0,28,61,1,1,56,0,0,44,0,9,46,1,1,0,42,0,6,0,0,0,17,9,16,0,0,0,0,0,0,0,0,0,0,0,0,0,0,0,0,0,0,0,0,0,0,0,0,0,0,0,0,0],"split_type":[0,0,0,0,0,0,0,0,0,0,0,0,0,0,0,0,0,0,0,0,0,0,0,0,0,0,0,0,0,0,0,0,0,0,0,0,0,0,0,0,0,0,0,0,0,0,0,0,0,0,0,0,0,0,0,0,0,0,0,0,0,0,0,0,0,0,0,0,0,0,0,0,0,0,0],"sum_hessian":[1.152E3,7.53E2,3.99E2,5.77E2,1.76E2,5E1,3.49E2,2.87E2,2.9E2,1.73E2,3E0,8E0,4.2E1,3.1E1,3.18E2,2.66E2,2.1E1,1.26E2,1.64E2,1.5E1,1.58E2,4E1,2E0,2.2E1,9E0,2.6E1,2.92E2,2.48E2,1.8E1,5E0,1.6E1,1.3E1,1.13E2,1.39E2,2.5E1,1.57E2,1E0,2.8E1,1.2E1,1.5E1,7E0,6E0,3E0,2E1,6E0,2.91E2,1E0,2.31E2,1.7E1,1.3E1,3E0,2E0,1.11E2,1.5E1,1.24E2,1E0,2.4E1,6.4E1,9.3E1,9E0,1.9E1,9E0,6E0,5E0,2E0,4E0,2E0,1E0,2E0,1.7E1,3E0,3E0,3E0,1.59E2,1.32E2],"tree_param":{"num_deleted":"0","num_feature":"69","num_nodes":"75","size_leaf_vector":"1"}},{"base_weights":[5.107987E-1,-4.301762E1,7.140444E1,-5.2407536E1,1.2108464E2,2.2905981E1,1.1006958E2,-4.8453957E1,-1.7222322E2,1.7587654E2,8.009556E1,-2.1180237E1,1.2082105E2,1.8458601E2,9.58585E1,-2.5733555E1,-1.2054783E2,1.1148865E2,-1.4311798E2,2.0466005E1,-3.8555936E2,1.3677177E2,-1.2543334E2,1.212081E2,1.5423315E2,8.649575E1,2.2892598E2,-9.11768E1,5.455291E1,-1.0248817E2,-7.081954E1,-9.7224304E1,1.4362921E2,-5.9032738E1,1.0726996E1,3.359222E1,-1.13531075E2,-4.7237854E2,2.7071167E1,4.7730934E1,1.8009892E2,4.817868E1,2.5181824E1,1.01665504E2,-2.383086E2,7.882465E1,-2.6542238E1,-3.4621918E1,4.904664E1,2.8962511E1,-3.1012714E1,-3.0936098E1,-2.0980225E0,-7.918032E1,3.0568167E1,7.761215E1,2.3672634E1,-7.839257E0,2.9365398E1,-1.0075858E1,-1.6703352E2,5.541196E1,-9.764774E1,8.636612E1,4.578307E1,1.6607817E1,3.866906E1,-2.0498961E2,7.6302956E1],"categories":[],"categories_nodes":[],"categories_segments":[],"categories_sizes":[],"default_left":[0,0,0,0,0,0,0,0,0,0,0,0,0,0,0,0,0,0,0,0,0,0,0,0,0,0,0,0,0,0,0,0,0,0,0,0,0,0,0,0,0,0,0,0,0,0,0,0,0,0,0,0,0,0,0,0,0,0,0,0,0,0,0,0,0,0,0,0,0],"id":6,"left_children":[1,3,5,7,9,11,13,15,-1,-1,17,19,21,23,25,27,29,31,33,35,37,39,-1,-1,41,43,45,47,49,51,-1,53,55,-1,-1,57,-1,59,-1,61,63,-1,-1,65,67,-1,-1,-1,-1,-1,-1,-1,-1,-1,-1,-1,-1,-1,-1,-1,-1,-1,-1,-1,-1,-1,-1,-1,-1],"loss_changes":[3.561101E6,1.1080932E6,8.206915E5,1.3684702E6,6.966531E5,8.4863325E5,2.406915E5,1.099273E6,0E0,0E0,2.7522847E5,2.0716936E6,5.815636E5,1.9079075E5,2.3809538E5,2.7003822E6,3.1168475E5,2.3533322E5,5.5026164E4,6.5675094E5,6.209421E5,2.2287675E5,0E0,0E0,2.1730625E3,9.850321E5,1.6280625E5,1.7651022E6,1.5417946E6,7.790625E3,0E0,1.9286834E5,1.9557462E5,0E0,0E0,4.6332684E5,0E0,4.2570775E5,0E0,1.1336929E6,7.458375E4,0E0,0E0,2.286675E5,2.1468185E6,0E0,0E0,0E0,0E0,0E0,0E0,0E0,0E0,0E0,0E0,0E0,0E0,0E0,0E0,0E0,0E0,0E0,0E0,0E0,0E0,0E0,0E0,0E0,0E0],"parents":[2147483647,0,0,1,1,2,2,3,3,4,4,5,5,6,6,7,7,10,10,11,11,12,12,13,13,14,14,15,15,16,16,17,17,18,18,19,19,20,20,21,21,24,24,25,25,26,26,27,27,28,28,29,29,31,31,32,32,35,35,37,37,39,39,40,40,43,43,44,44],"right_children":[2,4,6,8,10,12,14,16,-1,-1,18,20,22,24,26,28,30,32,34,36,38,40,-1,-1,42,44,46,48,50,52,-1,54,56,-1,-1,58,-1,60,-1,62,64,-1,-1,66,68,-1,-1,-1,-1,-1,-1,-1,-1,-1,-1,-1,-1,-1,-1,-1,-1,-1,-1,-1,-1,-1,-1,-1,-1],"split_conditions":[3.32E2,1.03E2,1.91E2,8E1,1E0,1.568E3,9.6E1,6.546E3,-1.7222322E2,1.7587654E2,2.56E2,1.54E2,2.106E3,7.05E2,3.47E2,4.56E2,2.12E2,2E0,5.44E2,2.24E2,7.72E2,1.32E2,-1.2543334E2,1.212081E2,9.55E2,3.781E3,1.242E3,1.7E1,1.95E2,1.048E3,-7.081954E1,7.2E1,5.7E1,-5.9032738E1,1.0726996E1,1.47E2,-1.13531075E2,2E0,2.7071167E1,3.6E2,2.5E1,4.817868E1,2.5181824E1,1.6E1,5.77E2,7.882465E1,-2.6542238E1,-3.4621918E1,4.904664E1,2.8962511E1,-3.1012714E1,-3.0936098E1,-2.0980225E0,-7.918032E1,3.0568167E1,7.761215E1,2.3672634E1,-7.839257E0,2.9365398E1,-1.0075858E1,-1.6703352E2,5.541196E1,-9.764774E1,8.636612E1,4.578307E1,1.6607817E1,3.866906E1,-2.0498961E2,7.6302956E1],"split_indices":[1,67,42,67,9,17,16,4,0,0,54,9,9,17,25,17,1,4,0,54,4,16,0,0,1,23,0,50,16,15,0,6,42,0,0,15,0,4,0,6,9,0,0,61,28,0,0,0,0,0,0,0,0,0,0,0,0,0,0,0,0,0,0,0,0,0,0,0,0],"split_type":[0,0,0,0,0,0,0,0,0,0,0,0,0,0,0,0,0,0,0,0,0,0,0,0,0,0,0,0,0,0,0,0,0,0,0,0,0,0,0,0,0,0,0,0,0,0,0,0,0,0,0,0,0,0,0,0,0,0,0,0,0,0,0,0,0,0,0,0,0],"sum_hessian":[1.152E3,7.14E2,4.38E2,6.76E2,3.8E1,1.95E2,2.43E2,6.72E2,4E0,2E0,3.6E1,1.35E2,6E1,3.7E1,2.06E2,5.12E2,1.6E2,3.2E1,4E0,1.22E2,1.3E1,5.9E1,1E0,3E0,3.4E1,1.94E2,1.2E1,2.82E2,2.3E2,1.4E2,2E1,4E0,2.8E1,3E0,1E0,1.19E2,3E0,1.1E1,2E0,2E1,3.9E1,3E1,4E0,1.86E2,8E0,1.1E1,1E0,2.58E2,2.4E1,1.82E2,4.8E1,1.39E2,1E0,2E0,2E0,9E0,1.9E1,6.2E1,5.7E1,2E0,9E0,1.5E1,5E0,6E0,3.3E1,7E1,1.16E2,4E0,4E0],"tree_param":{"num_deleted":"0","num_feature":"69","num_nodes":"69","size_leaf_vector":"1"}},{"base_weights":[1.9486983E-1,-3.699372E1,4.146229E1,-4.3934414E1,1.4956262E2,5.07647E0,7.8772644E1,-3.5503902E1,-2.690646E2,3.957518E2,-1.8543959E2,1.9586748E1,-1.9375243E2,8.837361E1,-1.03100235E2,-3.0328098E1,-3.9272516E2,-1.1888931E2,3.7075043E2,6.954278E2,-6.9774796E1,-1.07565796E2,1.01402534E2,3.597305E1,-5.058539E1,-3.868214E2,1.9248318E2,1.5740538E2,6.3202377E1,-3.53262E2,7.512986E1,-3.9835033E1,4.469114E2,-3.3635452E1,-1.25038506E2,1.7411838E2,-3.8727303E1,2.2501248E2,4.6969685E1,-8.258495E1,2.2749463E2,-8.899166E-1,1.0701254E2,-2.1245024E2,-6.2332526E2,2.1656935E1,6.7848785E1,1.4210031E2,1.3249449E2,-1.9837967E2,8.353541E1,-1.5770665E1,-1.2086606E2,2.9298937E1,-1.577043E1,-1.3065969E1,1.12024635E2,-7.492725E1,2.2181459E2,2.096296E1,8.140963E1,1.1233154E1,-5.9526608E1,4.321193E1,1.730119E0,2.4545825E0,-8.299706E1,-4.9406994E1,-2.0904347E2,7.041537E1,3.23305E1,-1.558472E2,-3.0471083E1,2.2256145E1,7.493797E1],"categories":[],"categories_nodes":[],"categories_segments":[],"categories_sizes":[],"default_left":[0,0,0,0,0,0,0,0,0,0,0,0,0,0,0,0,0,0,0,0,0,0,0,0,0,0,0,0,0,0,0,0,0,0,0,0,0,0,0,0,0,0,0,0,0,0,0,0,0,0,0,0,0,0,0,0,0,0,0,0,0,0,0,0,0,0,0,0,0,0,0,0,0,0,0],"id":7,"left_children":[1,3,5,7,9,11,13,15,17,19,21,23,25,27,29,31,33,-1,35,37,39,-1,-1,41,-1,43,45,47,49,51,53,55,57,-1,-1,-1,-1,-1,-1,-1,59,61,63,65,67,-1,-1,69,-1,71,73,-1,-1,-1,-1,-1,-1,-1,-1,-1,-1,-1,-1,-1,-1,-1,-1,-1,-1,-1,-1,-1,-1,-1,-1],"loss_changes":[1.7710168E6,7.9253294E5,7.4218975E5,1.1026531E6,1.8878145E6,8.058424E5,4.8057325E5,1.0345708E6,1.8564459E6,1.8621162E6,1.0273507E6,8.079002E5,1.491289E6,4.366185E5,6.507495E5,2.554033E6,7.303125E3,0E0,4.9407906E5,1.1800375E5,4.2917356E5,0E0,0E0,6.285895E5,0E0,4.0368725E5,1.2033234E4,2.3306562E5,1.0271353E6,6.8351875E4,3.1031023E4,8.5982744E5,2.425973E6,0E0,0E0,0E0,0E0,0E0,0E0,0E0,1.7824062E3,1.2114014E6,3.065742E5,1.29758E5,5.375925E4,0E0,0E0,1.84568E5,0E0,3.8244706E5,2.5656562E5,0E0,0E0,0E0,0E0,0E0,0E0,0E0,0E0,0E0,0E0,0E0,0E0,0E0,0E0,0E0,0E0,0E0,0E0,0E0,0E0,0E0,0E0,0E0,0E0],"parents":[2147483647,0,0,1,1,2,2,3,3,4,4,5,5,6,6,7,7,8,8,9,9,10,10,11,11,12,12,13,13,14,14,15,15,16,16,18,18,19,19,20,20,23,23,25,25,26,26,27,27,28,28,29,29,30,30,31,31,32,32,40,40,41,41,42,42,43,43,44,44,47,47,49,49,50,50],"right_children":[2,4,6,8,10,12,14,16,18,20,22,24,26,28,30,32,34,-1,36,38,40,-1,-1,42,-1,44,46,48,50,52,54,56,58,-1,-1,-1,-1,-1,-1,-1,60,62,64,66,68,-1,-1,70,-1,72,74,-1,-1,-1,-1,-1,-1,-1,-1,-1,-1,-1,-1,-1,-1,-1,-1,-1,-1,-1,-1,-1,-1,-1,-1],"split_conditions":[2.66E2,6E0,1.568E3,3E0,2E0,1.54E2,5.44E2,7E0,1E0,1E1,8E0,6.14E2,7.72E2,7.1E2,1.6E1,2E0,1E0,-1.1888931E2,1E0,2E0,8E0,-1.07565796E2,1.01402534E2,1.65E2,-5.058539E1,1E0,6.72E2,3.52E2,7.19E2,1.77E2,4.8E2,1E0,1E0,-3.3635452E1,-1.25038506E2,1.7411838E2,-3.8727303E1,2.2501248E2,4.6969685E1,-8.258495E1,1E0,1.05E2,4.48E2,1.81E2,1.94E2,2.1656935E1,6.7848785E1,3.32E2,1.3249449E2,2.96E2,2.56E2,-1.5770665E1,-1.2086606E2,2.9298937E1,-1.577043E1,-1.3065969E1,1.12024635E2,-7.492725E1,2.2181459E2,2.096296E1,8.140963E1,1.1233154E1,-5.9526608E1,4.321193E1,1.730119E0,2.4545825E0,-8.299706E1,-4.9406994E1,-2.0904347E2,7.041537E1,3.23305E1,-1.558472E2,-3.0471083E1,2.2256145E1,7.493797E1],"split_indices":[1,26,17,26,54,9,50,56,33,26,28,53,4,1,61,56,5,0,0,1,5,0,0,42,0,54,0,50,1,28,0,39,40,0,0,0,0,0,0,0,1,42,50,15,0,0,0,1,0,0,50,0,0,0,0,0,0,0,0,0,0,0,0,0,0,0,0,0,0,0,0,0,0,0,0],"split_type":[0,0,0,0,0,0,0,0,0,0,0,0,0,0,0,0,0,0,0,0,0,0,0,0,0,0,0,0,0,0,0,0,0,0,0,0,0,0,0,0,0,0,0,0,0,0,0,0,0,0,0,0,0,0,0,0,0,0,0,0,0,0,0,0,0,0,0,0,0,0,0,0,0,0,0],"sum_hessian":[1.152E3,6.06E2,5.46E2,5.85E2,2.1E1,2.77E2,2.69E2,5.65E2,2E1,1.2E1,9E0,2.59E2,1.8E1,2.56E2,1.3E1,5.58E2,7E0,1.7E1,3E0,7E0,5E0,7E0,2E0,2.39E2,2E1,1.2E1,6E0,6.7E1,1.89E2,5E0,8E0,5.48E2,1E1,1E0,6E0,2E0,1E0,6E0,1E0,3E0,2E0,1.58E2,8.1E1,8E0,4E0,2E0,4E0,6.5E1,2E0,1.3E1,1.76E2,1E0,4E0,7E0,1E0,5.44E2,4E0,3E0,7E0,1E0,1E0,1.33E2,2.5E1,5.9E1,2.2E1,2E0,6E0,1E0,3E0,1.6E1,4.9E1,2E0,1.1E1,1.68E2,8E0],"tree_param":{"num_deleted":"0","num_feature":"69","num_nodes":"75","size_leaf_vector":"1"}},{"base_weights":[2.3083217E-1,-1.760639E1,5.7792595E1,-1.5106843E1,-3.7960583E2,-9.1949936E1,6.7126884E1,-1.7745409E1,4.4808047E2,-2.3385622E1,-1.2730386E2,4.3636475E2,5.696676E1,-2.2128374E1,1.8019135E2,-3.4412445E1,1.852364E2,6.6449356E1,1.6264215E2,-1.0620169E2,7.7030785E1,-7.465937E1,-4.446669E0,1.4644757E1,1.6093045E2,-2.9241476E2,6.337236E1,2.4434375E2,5.2048336E1,-2.8660917E1,4.371954E1,3.931294E1,-8.403828E0,-8.002777E1,1.00247154E2,-1.0742838E2,2.0332838E1,1.1480829E2,-1.19266E1,1.2480767E2,2.6575682E1,-3.7471405E1,1.7972454E1],"categories":[],"categories_nodes":[],"categories_segments":[],"categories_sizes":[],"default_left":[0,0,0,0,0,0,0,0,0,0,0,0,0,0,0,0,0,0,0,0,0,0,0,0,0,0,0,0,0,0,0,0,0,0,0,0,0,0,0,0,0,0,0],"id":8,"left_children":[1,3,5,7,9,-1,11,13,15,-1,-1,17,19,21,23,-1,-1,-1,-1,25,27,29,31,33,-1,35,37,39,41,-1,-1,-1,-1,-1,-1,-1,-1,-1,-1,-1,-1,-1,-1],"loss_changes":[1.1848511E6,7.914246E5,9.4888606E5,1.078555E6,4.7897875E4,0E0,9.767926E5,7.60491E5,5.474364E5,0E0,0E0,3.9010875E4,8.626468E5,7.9289525E5,1.1126671E6,0E0,0E0,0E0,0E0,9.342613E5,9.611961E5,1.0031615E6,2.0471681E6,1.3479082E6,0E0,3.55472E5,5.4210906E5,7.653714E5,2.9121056E5,0E0,0E0,0E0,0E0,0E0,0E0,0E0,0E0,0E0,0E0,0E0,0E0,0E0,0E0],"parents":[2147483647,0,0,1,1,2,2,3,3,4,4,6,6,7,7,8,8,11,11,12,12,13,13,14,14,19,19,20,20,21,21,22,22,23,23,25,25,26,26,27,27,28,28],"right_children":[2,4,6,8,10,-1,12,14,16,-1,-1,18,20,22,24,-1,-1,-1,-1,26,28,30,32,34,-1,36,38,40,42,-1,-1,-1,-1,-1,-1,-1,-1,-1,-1,-1,-1,-1,-1],"split_conditions":[9E0,1.1E1,9.4E1,8E0,1E0,-9.1949936E1,1.11E2,6E0,1E0,-2.3385622E1,-1.2730386E2,2.64E2,1.47E2,2.4E1,3E0,-3.4412445E1,1.852364E2,6.6449356E1,1.6264215E2,1.4E1,2.08E2,4E0,3.8E1,2E0,1.6093045E2,4.8E2,4.64E2,8.8E1,1.93E2,-2.8660917E1,4.371954E1,3.931294E1,-8.403828E0,-8.002777E1,1.00247154E2,-1.0742838E2,2.0332838E1,1.1480829E2,-1.19266E1,1.2480767E2,2.6575682E1,-3.7471405E1,1.7972454E1],"split_indices":[61,27,28,27,1,0,28,26,5,0,0,0,15,1,19,0,0,0,0,61,15,67,28,50,0,6,17,9,28,0,0,0,0,0,0,0,0,0,0,0,0,0,0],"split_type":[0,0,0,0,0,0,0,0,0,0,0,0,0,0,0,0,0,0,0,0,0,0,0,0,0,0,0,0,0,0,0,0,0,0,0,0,0,0,0,0,0,0,0],"sum_hessian":[1.152E3,8.8E2,2.72E2,8.75E2,5E0,6E0,2.66E2,8.71E2,4E0,1E0,4E0,6E0,2.6E2,8.53E2,1.8E1,1E0,3E0,3E0,3E0,2.8E1,2.32E2,2.14E2,6.39E2,1.3E1,5E0,1.3E1,1.5E1,2.9E1,2.03E2,1.96E2,1.8E1,9.4E1,5.45E2,7E0,6E0,1.1E1,2E0,3E0,1.2E1,1.3E1,1.6E1,8E0,1.95E2],"tree_param":{"num_deleted":"0","num_feature":"69","num_nodes":"43","size_leaf_vector":"1"}},{"base_weights":[6.0569954E-1,-3.854177E1,1.8140257E1,-4.2431316E1,2.0192032E2,4.536129E2,1.5371652E1,-5.1913822E1,1.9292091E2,-1.5183584E1,2.4199005E2,3.5946274E1,-3.67276E1,-3.363372E1,-2.2852249E2,-5.617038E1,6.5251935E2,-8.956335E1,4.3344715E1,-4.9535507E1,1.3367169E2,8.8689255E1,-6.432458E1,-3.020034E2,7.7052635E1,7.327777E1,-6.594603E1,2.1796883E2,5.345186E1,-2.0275143E2,-2.8898235E1,2.058759E2,4.0869553E1,-3.8967476E1,-1.7521422E2,4.658763E1,-2.8595198E1,-2.3411413E1,1.2775799E2,-2.0896608E1,1.19338524E2,-1.00927864E2,-8.5714035E0,-5.3596615E1,9.4049255E1,-2.9726157E0,-6.631345E1,-2.328348E1,3.41818E1,1.1315968E1,8.218669E1,-1.3077669E1,6.1991035E1],"categories":[],"categories_nodes":[],"categories_segments":[],"categories_sizes":[],"default_left":[0,0,0,0,0,0,0,0,0,0,0,0,0,0,0,0,0,0,0,0,0,0,0,0,0,0,0,0,0,0,0,0,0,0,0,0,0,0,0,0,0,0,0,0,0,0,0,0,0,0,0,0,0],"id":9,"left_children":[1,3,5,7,-1,9,11,13,15,-1,-1,17,19,21,23,25,27,29,31,33,35,37,39,41,43,-1,-1,-1,-1,45,47,-1,49,51,-1,-1,-1,-1,-1,-1,-1,-1,-1,-1,-1,-1,-1,-1,-1,-1,-1,-1,-1],"loss_changes":[7.921571E5,1.0166763E6,9.539316E5,8.04511E5,0E0,9.30834E5,8.513546E5,1.0996635E6,1.6393998E6,0E0,0E0,5.3224156E5,4.9767466E5,1.1770144E6,7.41796E5,5.4534525E5,4.61575E4,2.13871E5,8.280732E5,1.1634762E6,9.401544E4,3.574813E6,6.4357356E5,2.3510775E5,4.792339E5,0E0,0E0,0E0,0E0,3.661497E4,1.6192117E5,0E0,3.839012E5,2.4413056E5,0E0,0E0,0E0,0E0,0E0,0E0,0E0,0E0,0E0,0E0,0E0,0E0,0E0,0E0,0E0,0E0,0E0,0E0,0E0],"parents":[2147483647,0,0,1,1,2,2,3,3,5,5,6,6,7,7,8,8,11,11,12,12,13,13,14,14,15,15,16,16,17,17,18,18,19,19,20,20,21,21,22,22,23,23,24,24,29,29,30,30,32,32,33,33],"right_children":[2,4,6,8,-1,10,12,14,16,-1,-1,18,20,22,24,26,28,30,32,34,36,38,40,42,44,-1,-1,-1,-1,46,48,-1,50,52,-1,-1,-1,-1,-1,-1,-1,-1,-1,-1,-1,-1,-1,-1,-1,-1,-1,-1,-1],"split_conditions":[5.61E2,2.4E1,2E0,8E0,2.0192032E2,2E0,1E0,4E0,8E0,-1.5183584E1,2.4199005E2,5.8E1,5.77E2,9E0,1E0,1E0,6E0,1.25E2,6.2E1,3.781E3,1.242E3,1E0,6.72E2,6E0,1.2E1,7.327777E1,-6.594603E1,2.1796883E2,5.345186E1,5E0,1E0,2.058759E2,1.348E3,3.32E2,-1.7521422E2,4.658763E1,-2.8595198E1,-2.3411413E1,1.2775799E2,-2.0896608E1,1.19338524E2,-1.00927864E2,-8.5714035E0,-5.3596615E1,9.4049255E1,-2.9726157E0,-6.631345E1,-2.328348E1,3.41818E1,1.1315968E1,8.218669E1,-1.3077669E1,6.1991035E1],"split_indices":[17,43,28,66,0,1,51,7,40,0,0,1,28,16,38,42,5,5,1,23,0,67,0,26,15,0,0,0,0,1,3,0,54,1,0,0,0,0,0,0,0,0,0,0,0,0,0,0,0,0,0,0,0],"split_type":[0,0,0,0,0,0,0,0,0,0,0,0,0,0,0,0,0,0,0,0,0,0,0,0,0,0,0,0,0,0,0,0,0,0,0,0,0,0,0,0,0,0,0,0,0,0,0,0,0,0,0,0,0],"sum_hessian":[1.152E3,3.56E2,7.96E2,3.55E2,1E0,4E0,7.92E2,3.42E2,1.3E1,2E0,2E0,5.68E2,2.24E2,3.11E2,3.1E1,9E0,4E0,3.1E1,5.37E2,2.09E2,1.5E1,6.2E1,2.49E2,2.5E1,6E0,3E0,6E0,3E0,1E0,1E1,2.1E1,1E0,5.36E2,2.06E2,3E0,1.4E1,1E0,4.2E1,2E1,2.47E2,2E0,2.2E1,3E0,3E0,3E0,1E0,9E0,1.6E1,5E0,5.3E2,6E0,2.03E2,3E0],"tree_param":{"num_deleted":"0","num_feature":"69","num_nodes":"53","size_leaf_vector":"1"}},{"base_weights":[1.2686753E0,-5.310214E0,5.7946198E1,-1.25620165E1,5.8295773E1,1.1496531E2,4.9185516E1,-8.189561E0,-1.2741961E2,1.9797522E2,4.1683586E1,8.4981186E1,4.2707577E1,-1.24885845E1,1.0117066E2,-9.808311E1,-6.3582123E1,4.309375E1,2.5066905E2,-4.2290943E1,4.9091434E1,1.9177553E1,8.528256E1,2.602149E-1,-8.372814E1,8.970396E1,6.482455E1,1.2216938E1,-1.5934903E2,3.7624514E0,2.0212574E1,9.253291E1,1.5469422E1,4.3720974E1,4.4250637E1,-1.21278015E2,3.7485237E1,1.2832802E2,3.366843E1,-8.742122E-1,8.648742E1,-2.212078E1,-2.0740727E2,-5.5760723E1,3.6719414E1,1.3194928E2,-2.408618E1,-9.880549E1,-3.418596E1,1.3970551E1,-2.4305916E1,-4.7897457E1,2.7864496E1,6.582625E0,3.2457443E1,6.2131195E1,2.0556013E1,-4.907715E0,1.2040763E1],"categories":[],"categories_nodes":[],"categories_segments":[],"categories_sizes":[],"default_left":[0,0,0,0,0,0,0,0,0,0,0,0,0,0,0,0,0,0,0,0,0,0,0,0,0,0,0,0,0,0,0,0,0,0,0,0,0,0,0,0,0,0,0,0,0,0,0,0,0,0,0,0,0,0,0,0,0,0,0],"id":10,"left_children":[1,3,5,7,9,-1,11,13,15,17,19,-1,21,23,25,-1,27,29,31,-1,33,35,37,39,41,-1,43,45,47,-1,-1,-1,-1,-1,49,51,53,55,57,-1,-1,-1,-1,-1,-1,-1,-1,-1,-1,-1,-1,-1,-1,-1,-1,-1,-1,-1,-1],"loss_changes":[4.3023278E5,4.7767306E5,3.231033E5,4.655093E5,2.37708E5,0E0,1.6683603E5,4.2251094E5,4.122742E5,7.897203E4,1.3681502E5,0E0,1.1457217E5,7.838146E5,2.2510403E5,0E0,1.9794088E5,2.1224297E3,7.611959E4,0E0,3.7060156E4,1.9997377E5,8.677128E4,6.710106E5,7.443963E5,0E0,4.5574922E5,6.682102E5,5.507828E4,0E0,0E0,0E0,0E0,0E0,2.990536E4,8.880467E4,7.235793E4,8.946072E4,7.127586E3,0E0,0E0,0E0,0E0,0E0,0E0,0E0,0E0,0E0,0E0,0E0,0E0,0E0,0E0,0E0,0E0,0E0,0E0,0E0,0E0],"parents":[2147483647,0,0,1,1,2,2,3,3,4,4,6,6,7,7,8,8,9,9,10,10,12,12,13,13,14,14,16,16,17,17,18,18,20,20,21,21,22,22,23,23,24,24,26,26,27,27,28,28,34,34,35,35,36,36,37,37,38,38],"right_children":[2,4,6,8,10,-1,12,14,16,18,20,-1,22,24,26,-1,28,30,32,-1,34,36,38,40,42,-1,44,46,48,-1,-1,-1,-1,-1,50,52,54,56,58,-1,-1,-1,-1,-1,-1,-1,-1,-1,-1,-1,-1,-1,-1,-1,-1,-1,-1,-1,-1],"split_conditions":[1.03E2,1.9E1,1E0,3.84E2,5.4E1,1.1496531E2,9.5E1,2.24E2,1.65E2,4.1E1,6.41E2,8.4981186E1,1.88E2,1E0,1.117E3,-9.808311E1,5.27E2,3.84E2,1.92E3,-4.2290943E1,1.56E2,4E0,1E0,7E0,7.68E2,8.970396E1,9.1E1,5.52E2,2.96E2,3.7624514E0,2.0212574E1,9.253291E1,1.5469422E1,4.3720974E1,4.3E1,3.27E2,1.32E2,1.21E2,1.58E2,-8.742122E-1,8.648742E1,-2.212078E1,-2.0740727E2,-5.5760723E1,3.6719414E1,1.3194928E2,-2.408618E1,-9.880549E1,-3.418596E1,1.3970551E1,-2.4305916E1,-4.7897457E1,2.7864496E1,6.582625E0,3.2457443E1,6.2131195E1,2.0556013E1,-4.907715E0,1.2040763E1],"split_indices":[67,61,9,50,9,0,15,40,42,16,17,0,67,52,17,0,4,0,4,0,28,61,61,27,54,0,9,1,0,0,0,0,0,0,21,1,16,16,15,0,0,0,0,0,0,0,0,0,0,0,0,0,0,0,0,0,0,0,0],"split_type":[0,0,0,0,0,0,0,0,0,0,0,0,0,0,0,0,0,0,0,0,0,0,0,0,0,0,0,0,0,0,0,0,0,0,0,0,0,0,0,0,0,0,0,0,0,0,0,0,0,0,0,0,0,0,0,0,0,0,0],"sum_hessian":[1.152E3,1.033E3,1.19E2,9.28E2,1.05E2,2E0,1.17E2,8.95E2,3.3E1,1E1,9.5E1,2E0,1.15E2,8.62E2,3.3E1,7E0,2.6E1,3E0,7E0,3E0,9.2E1,7.5E1,4E1,7.32E2,1.3E2,4E0,2.9E1,1.5E1,1.1E1,2E0,1E0,5E0,2E0,3E0,8.9E1,8E0,6.7E1,2.1E1,1.9E1,7.25E2,7E0,1.29E2,1E0,5E0,2.4E1,2E0,1.3E1,1E0,1E1,8.8E1,1E0,7E0,1E0,5.6E1,1.1E1,8E0,1.3E1,2E0,1.7E1],"tree_param":{"num_deleted":"0","num_feature":"69","num_nodes":"59","size_leaf_vector":"1"}},{"base_weights":[1.0922245E0,-2.675437E1,1.2722138E1,-3.0211136E1,1.717634E2,1.15277626E2,9.023235E0,-1.6214321E1,-1.5132019E2,6.621225E1,-4.4570885E0,-9.235917E0,-2.4470007E2,-2.1909459E2,1.0480521E2,-6.188379E1,1.0165897E2,-8.586836E1,3.3103018E0,-1.4791469E1,1.620416E2,-7.841358E1,-1.6690767E1,-2.3670169E2,3.844457E1,3.489278E1,6.29085E1,-6.2076073E0,-1.9488586E2,1.73857E2,7.1687584E1,-1.0592307E2,1.5557938E2,1.0892697E2,-3.4490418E0,-1.0448689E1,1.6578087E1,-1.0173987E2,-3.5208973E1,1.8455664E1,1.8600037E0,-1.6115517E1,4.5958874E1,-6.1829952E1,-1.40940275E1,1.6464302E1,1.2913684E2,-3.7184227E-1,-5.709161E1,8.660765E1,2.1185984E1,-3.8601517E1,7.8270674E-1],"categories":[],"categories_nodes":[],"categories_segments":[],"categories_sizes":[],"default_left":[0,0,0,0,0,0,0,0,0,0,0,0,0,0,0,0,0,0,0,0,0,0,0,0,0,0,0,0,0,0,0,0,0,0,0,0,0,0,0,0,0,0,0,0,0,0,0,0,0,0,0,0,0],"id":11,"left_children":[1,3,5,7,-1,-1,9,11,13,15,17,19,21,23,25,27,29,31,33,35,-1,-1,-1,37,-1,39,-1,41,43,-1,45,47,-1,49,51,-1,-1,-1,-1,-1,-1,-1,-1,-1,-1,-1,-1,-1,-1,-1,-1,-1,-1],"loss_changes":[3.7374344E5,7.216535E5,1.115195E6,5.721991E5,0E0,0E0,6.2243275E5,4.840521E5,6.3051825E5,7.0554106E5,4.138432E5,9.144566E5,1.383775E4,2.0152338E5,5.1347938E4,2.5056189E5,1.6914484E6,7.4590825E5,4.2728753E5,4.1600488E5,0E0,0E0,0E0,2.9024575E5,0E0,4.2024414E3,0E0,1.9756448E5,6.9035E3,0E0,6.697884E5,4.9443694E5,0E0,2.2751834E5,4.2743147E5,0E0,0E0,0E0,0E0,0E0,0E0,0E0,0E0,0E0,0E0,0E0,0E0,0E0,0E0,0E0,0E0,0E0,0E0],"parents":[2147483647,0,0,1,1,2,2,3,3,6,6,7,7,8,8,9,9,10,10,11,11,12,12,13,13,14,14,15,15,16,16,17,17,18,18,19,19,23,23,25,25,27,27,28,28,30,30,31,31,33,33,34,34],"right_children":[2,4,6,8,-1,-1,10,12,14,16,18,20,22,24,26,28,30,32,34,36,-1,-1,-1,38,-1,40,-1,42,44,-1,46,48,-1,50,52,-1,-1,-1,-1,-1,-1,-1,-1,-1,-1,-1,-1,-1,-1,-1,-1,-1,-1],"split_conditions":[1.28E2,2.4E1,1.36E2,1.6E2,1.717634E2,1.15277626E2,7.8E1,7E0,5.04E2,4.56E2,3.08E2,1.3E1,1.4E1,1.9E1,3.21E2,1.33E2,5.2E2,1E0,2.5E1,3E0,1.620416E2,-7.841358E1,-1.6690767E1,2.4E1,3.844457E1,1.94E2,6.29085E1,1.25E2,1.3E2,1.73857E2,6.4E1,2E1,1.5557938E2,6.7E1,5.61E2,-1.0448689E1,1.6578087E1,-1.0173987E2,-3.5208973E1,1.8455664E1,1.8600037E0,-1.6115517E1,4.5958874E1,-6.1829952E1,-1.40940275E1,1.6464302E1,1.2913684E2,-3.7184227E-1,-5.709161E1,8.660765E1,2.1185984E1,-3.8601517E1,7.8270674E-1],"split_indices":[4,43,17,6,0,0,42,43,6,17,4,40,6,61,1,28,17,59,9,67,0,0,0,9,0,0,0,1,0,0,52,9,0,46,17,0,0,0,0,0,0,0,0,0,0,0,0,0,0,0,0,0,0],"split_type":[0,0,0,0,0,0,0,0,0,0,0,0,0,0,0,0,0,0,0,0,0,0,0,0,0,0,0,0,0,0,0,0,0,0,0,0,0,0,0,0,0,0,0,0,0,0,0,0,0,0,0,0,0],"sum_hessian":[1.152E3,3.39E2,8.13E2,3.38E2,1E0,7E0,8.06E2,3.04E2,3.4E1,1.53E2,6.53E2,2.96E2,8E0,2.7E1,7E0,3.3E1,1.2E2,5.6E1,5.97E2,2.94E2,2E0,7E0,1E0,2.6E1,1E0,5E0,2E0,2.4E1,9E0,6E0,1.14E2,5.5E1,1E0,3.5E1,5.62E2,2.29E2,6.5E1,1.3E1,1.3E1,2E0,3E0,1.9E1,5E0,8E0,1E0,1.1E2,4E0,2.5E1,3E1,5E0,3E1,2.5E1,5.37E2],"tree_param":{"num_deleted":"0","num_feature":"69","num_nodes":"53","size_leaf_vector":"1"}},{"base_weights":[1.4465075E0,2.7514637E0,-7.454286E1,3.7664953E-1,1.2428165E2,2.6969764E0,-1.7181671E2,-4.605612E0,4.687486E2,7.9341495E-1,3.5377182E2,-2.1389384E2,2.0336914E1,-1.9914977E2,2.3915028E2,1.8211179E2,-3.3405685E1,-1.1630044E0,2.3982318E2,1.7283778E2,-1.8187273E1,-8.068474E1,-7.201553E1,-7.5039345E1,3.8952377E1,3.3788525E2,-6.779917E1,-2.1280556E1,1.447354E0,2.3713658E2,-9.126732E0,-3.1383703E1,8.755756E0,1.2036696E2,-6.321363E0],"categories":[],"categories_nodes":[],"categories_segments":[],"categories_sizes":[],"default_left":[0,0,0,0,0,0,0,0,0,0,0,0,0,0,0,0,0,0,0,0,0,0,0,0,0,0,0,0,0,0,0,0,0,0,0],"id":12,"left_children":[1,3,-1,5,7,9,11,13,15,17,19,21,-1,23,25,-1,-1,27,29,-1,-1,-1,31,-1,-1,33,-1,-1,-1,-1,-1,-1,-1,-1,-1],"loss_changes":[3.7672097E5,3.3127928E5,0E0,4.507505E5,9.7890175E5,7.4352894E5,1.6572897E5,8.537885E5,5.489304E5,5.1842678E5,5.877832E5,8.21765E4,0E0,2.0020144E5,4.4377172E5,0E0,0E0,4.5988056E5,1.3633008E6,0E0,0E0,0E0,1.9547412E4,0E0,0E0,1.6760319E5,0E0,0E0,0E0,0E0,0E0,0E0,0E0,0E0,0E0],"parents":[2147483647,0,0,1,1,3,3,4,4,5,5,6,6,7,7,8,8,9,9,10,10,11,11,13,13,14,14,17,17,18,18,22,22,25,25],"right_children":[2,4,-1,6,8,10,12,14,16,18,20,22,-1,24,26,-1,-1,28,30,-1,-1,-1,32,-1,-1,34,-1,-1,-1,-1,-1,-1,-1,-1,-1],"split_conditions":[1.1E1,4E0,-7.454286E1,3E0,1E0,2E0,8E0,1E0,3E0,1E0,1E0,4E0,2.0336914E1,6E0,9E0,1.8211179E2,-3.3405685E1,1.4E1,2E0,1.7283778E2,-1.8187273E1,-8.068474E1,1E0,-7.5039345E1,3.8952377E1,9E0,-6.779917E1,-2.1280556E1,1.447354E0,2.3713658E2,-9.126732E0,-3.1383703E1,8.755756E0,1.2036696E2,-6.321363E0],"split_indices":[27,63,0,56,58,56,17,40,7,39,0,51,0,4,4,0,0,46,7,0,0,0,0,0,0,25,0,0,0,0,0,0,0,0,0],"split_type":[0,0,0,0,0,0,0,0,0,0,0,0,0,0,0,0,0,0,0,0,0,0,0,0,0,0,0,0,0,0,0,0,0,0,0],"sum_hessian":[1.152E3,1.147E3,5E0,1.126E3,2.1E1,1.112E3,1.4E1,1.6E1,5E0,1.107E3,5E0,1.2E1,2E0,9E0,7E0,4E0,1E0,1.099E3,8E0,3E0,2E0,8E0,4E0,8E0,1E0,6E0,1E0,8.6E1,1.013E3,2E0,6E0,3E0,1E0,5E0,1E0],"tree_param":{"num_deleted":"0","num_feature":"69","num_nodes":"35","size_leaf_vector":"1"}},{"base_weights":[1.3283916E0,5.680217E-1,8.7784256E1,1.5129851E0,-8.123354E1,9.0509117E-1,1.048151E2,-3.1818643E0,5.073675E1,-4.3219433E0,2.9916455E2,1.5556224E2,2.8502243E1,1.712655E0,-1.0129302E1,1.1267576E2,1.0485096E1,2.891833E1,6.847448E1,-4.4456264E1,1.06699705E1],"categories":[],"categories_nodes":[],"categories_segments":[],"categories_sizes":[],"default_left":[0,0,0,0,0,0,0,0,0,0,0,0,0,0,0,0,0,0,0,0,0],"id":13,"left_children":[1,3,-1,5,-1,7,-1,9,11,13,15,17,19,-1,-1,-1,-1,-1,-1,-1,-1],"loss_changes":[2.5520594E5,2.9554047E5,0E0,2.4244958E5,0E0,2.337592E5,0E0,3.6701847E5,1.9834081E5,3.1265247E5,6.763956E4,4.250825E4,9.63887E4,0E0,0E0,0E0,0E0,0E0,0E0,0E0,0E0],"parents":[2147483647,0,0,1,1,3,3,5,5,7,7,8,8,9,9,10,10,11,11,12,12],"right_children":[2,4,-1,6,-1,8,-1,10,12,14,16,18,20,-1,-1,-1,-1,-1,-1,-1,-1],"split_conditions":[1.3322E4,4.283E3,8.7784256E1,1.0291E4,-8.123354E1,5.13E2,1.048151E2,1.536E3,2.77E2,2.73E2,2.98E2,2.84E2,3.08E2,1.712655E0,-1.0129302E1,1.1267576E2,1.0485096E1,2.891833E1,6.847448E1,-4.4456264E1,1.06699705E1],"split_indices":[25,25,0,28,0,9,0,54,28,16,1,16,4,0,0,0,0,0,0,0,0],"split_type":[0,0,0,0,0,0,0,0,0,0,0,0,0,0,0,0,0,0,0,0,0],"sum_hessian":[1.152E3,1.15E3,2E0,1.147E3,3E0,1.146E3,1E0,1.06E3,8.6E1,1.057E3,3E0,1.4E1,7.2E1,7.89E2,2.68E2,2E0,1E0,9E0,5E0,2E0,7E1],"tree_param":{"num_deleted":"0","num_feature":"69","num_nodes":"21","size_leaf_vector":"1"}},{"base_weights":[1.1811498E0,2.1677456E0,-5.633531E1,9.529675E-1,1.5579877E2,2.427568E0,-1.6591963E2,3.9242963E2,-2.7921612E1,6.657595E-1,1.2516198E2,-2.304042E2,-5.5354206E1,-2.1327448E1,1.7119016E2,1.8277674E1,-2.6272982E1,2.4878633E0,-1.1062078E2,-1.1805744E2,1.9037088E2,-7.737608E1,-1.3923589E1,-2.7451454E1,-7.5216293E-1,1.221935E1,-1.136244E0,-4.678651E1,9.900922E1,-9.639003E0,-4.0796974E1,8.205999E1,-1.953837E1,5.2915835E0,-5.630057E0],"categories":[],"categories_nodes":[],"categories_segments":[],"categories_sizes":[],"default_left":[0,0,0,0,0,0,0,0,0,0,0,0,0,0,0,0,0,0,0,0,0,0,0,0,0,0,0,0,0,0,0,0,0,0,0],"id":14,"left_children":[1,3,-1,5,7,9,11,13,15,17,19,21,23,-1,-1,-1,-1,25,27,29,31,-1,-1,-1,33,-1,-1,-1,-1,-1,-1,-1,-1,-1,-1],"loss_changes":[2.1536383E5,2.141E5,0E0,2.8092303E5,4.022225E5,2.444779E5,5.8543812E4,3.7097288E5,3.7136723E4,2.265728E5,2.7623588E5,1.8405844E4,9.800666E3,0E0,0E0,0E0,0E0,2.6390306E5,4.1104875E5,1.7942148E3,2.9403725E5,0E0,0E0,0E0,1.3249336E3,0E0,0E0,0E0,0E0,0E0,0E0,0E0,0E0,0E0,0E0],"parents":[2147483647,0,0,1,1,3,3,4,4,5,5,6,6,7,7,8,8,9,9,10,10,11,11,12,12,17,17,18,18,19,19,20,20,24,24],"right_children":[2,4,-1,6,8,10,12,14,16,18,20,22,24,-1,-1,-1,-1,26,28,30,32,-1,-1,-1,34,-1,-1,-1,-1,-1,-1,-1,-1,-1,-1],"split_conditions":[1.1E1,7E0,-5.633531E1,5E0,1E0,6E0,1E0,1E0,8E0,3E0,3E0,1E0,9E0,-2.1327448E1,1.7119016E2,1.8277674E1,-2.6272982E1,3E1,1.6E1,1E0,5E0,-7.737608E1,-1.3923589E1,-2.7451454E1,1E0,1.221935E1,-1.136244E0,-4.678651E1,9.900922E1,-9.639003E0,-4.0796974E1,8.205999E1,-1.953837E1,5.2915835E0,-5.630057E0],"split_indices":[27,27,0,27,7,26,50,5,5,26,5,39,5,0,0,0,0,16,16,9,4,0,0,0,0,0,0,0,0,0,0,0,0,0,0],"split_type":[0,0,0,0,0,0,0,0,0,0,0,0,0,0,0,0,0,0,0,0,0,0,0,0,0,0,0,0,0,0,0,0,0,0,0],"sum_hessian":[1.152E3,1.147E3,5E0,1.139E3,8E0,1.13E3,9E0,3E0,5E0,1.115E3,1.5E1,5E0,4E0,1E0,2E0,2E0,3E0,1.098E3,1.7E1,3E0,1.2E1,4E0,1E0,2E0,2E0,1.54E2,9.44E2,1.6E1,1E0,1E0,2E0,9E0,3E0,1E0,1E0],"tree_param":{"num_deleted":"0","num_feature":"69","num_nodes":"35","size_leaf_vector":"1"}},{"base_weights":[8.6308044E-1,-1.0075646E1,1.5789984E1,-5.395288E0,-1.7826881E2,8.975065E1,1.0576568E1,-8.284754E0,1.8007008E2,1.2672316E2,-2.7446103E2,2.0015208E2,1.3502187E1,-2.7731796E2,1.3089787E1,9.721301E0,-4.3185104E1,1.2198002E2,-3.8716537E1,-8.714856E1,3.0365155E2,-3.575788E2,2.2728119E1,1.0050952E2,8.989505E1,-3.7171166E0,5.1100346E1,-1.24128876E2,-2.8174606E1,1.9589124E2,1.0235809E1,-3.8645911E0,1.3305676E2,-1.26681625E2,-1.8864433E1,-1.4661856E2,7.511904E1,1.152503E2,9.315487E0,-1.3516425E2,-6.1504112E1,-4.671057E0,1.2205286E1,1.4435466E2,-3.0960976E1,-3.7492195E1,9.962376E0,-1.779158E2,1.4018121E1,-8.38875E0,1.6793152E1,6.6280334E1,-1.1955599E1,-8.1737274E1,-2.612118E1,-4.8446598E1,-3.2473257E0,-1.3016757E1,-4.8473587E1,4.6922718E1,1.0804249E1,1.0430201E1,8.050684E-1,-1.231202E2,-1.5858867E1,5.892505E1,3.0688643E0],"categories":[],"categories_nodes":[],"categories_segments":[],"categories_sizes":[],"default_left":[0,0,0,0,0,0,0,0,0,0,0,0,0,0,0,0,0,0,0,0,0,0,0,0,0,0,0,0,0,0,0,0,0,0,0,0,0,0,0,0,0,0,0,0,0,0,0,0,0,0,0,0,0,0,0,0,0,0,0,0,0,0,0,0,0,0,0],"id":15,"left_children":[1,3,5,7,9,11,13,15,17,19,21,23,25,27,29,31,33,-1,35,-1,37,39,41,43,-1,45,-1,-1,-1,-1,47,49,51,53,55,57,-1,-1,-1,-1,-1,-1,-1,59,-1,-1,61,63,65,-1,-1,-1,-1,-1,-1,-1,-1,-1,-1,-1,-1,-1,-1,-1,-1,-1,-1],"loss_changes":[1.8842244E5,5.2331622E5,1.8721756E5,3.4928834E5,5.6286194E5,2.6667156E5,3.3428878E5,4.0260712E5,5.113593E5,4.5729812E5,3.5395088E5,9.876744E4,5.4644008E4,6.123875E4,8.2241375E5,7.0930244E5,4.4030097E5,0E0,2.238883E5,0E0,7.586572E4,6.3653125E4,3.3842256E3,8.635241E4,0E0,3.2760955E4,0E0,0E0,0E0,0E0,3.248706E5,5.524327E5,6.469872E5,2.5921944E5,1.9319111E5,7.108125E2,0E0,0E0,0E0,0E0,0E0,0E0,0E0,3.5089219E3,0E0,0E0,3.1566118E3,2.3996122E5,3.0549947E5,0E0,0E0,0E0,0E0,0E0,0E0,0E0,0E0,0E0,0E0,0E0,0E0,0E0,0E0,0E0,0E0,0E0,0E0],"parents":[2147483647,0,0,1,1,2,2,3,3,4,4,5,5,6,6,7,7,8,8,9,9,10,10,11,11,12,12,13,13,14,14,15,15,16,16,18,18,20,20,21,21,22,22,23,23,25,25,30,30,31,31,32,32,33,33,34,34,35,35,43,43,46,46,47,47,48,48],"right_children":[2,4,6,8,10,12,14,16,18,20,22,24,26,28,30,32,34,-1,36,-1,38,40,42,44,-1,46,-1,-1,-1,-1,48,50,52,54,56,58,-1,-1,-1,-1,-1,-1,-1,60,-1,-1,62,64,66,-1,-1,-1,-1,-1,-1,-1,-1,-1,-1,-1,-1,-1,-1,-1,-1,-1,-1],"split_conditions":[3.21E2,2.98E2,4.8E1,2.88E2,6.09E2,3.2E1,5.1E1,1.51E2,5.3E1,3.4E1,1.32E2,2.41E2,1.784E3,4.24E2,5.2E1,2.32E2,1.5E1,1.2198002E2,8.64E2,-8.714856E1,2.32E2,2E2,7.9E1,1E0,8.989505E1,3.4E1,5.1100346E1,-1.24128876E2,-2.8174606E1,1.9589124E2,5.1E1,6.01E2,1.34E2,3.9E1,5.2E2,1.68E2,7.511904E1,1.152503E2,9.315487E0,-1.3516425E2,-6.1504112E1,-4.671057E0,1.2205286E1,2.658E3,-3.0960976E1,-3.7492195E1,2.56E2,3.53E2,5.4E1,-8.38875E0,1.6793152E1,6.6280334E1,-1.1955599E1,-8.1737274E1,-2.612118E1,-4.8446598E1,-3.2473257E0,-1.3016757E1,-4.8473587E1,4.6922718E1,1.0804249E1,1.0430201E1,8.050684E-1,-1.231202E2,-1.5858867E1,5.892505E1,3.0688643E0],"split_indices":[1,1,16,1,17,67,23,15,9,0,9,17,6,1,23,0,54,0,4,0,0,6,0,0,0,0,0,0,0,0,16,17,16,16,17,28,0,0,0,0,0,0,0,1,0,0,0,1,16,0,0,0,0,0,0,0,0,0,0,0,0,0,0,0,0,0,0],"split_type":[0,0,0,0,0,0,0,0,0,0,0,0,0,0,0,0,0,0,0,0,0,0,0,0,0,0,0,0,0,0,0,0,0,0,0,0,0,0,0,0,0,0,0,0,0,0,0,0,0,0,0,0,0,0,0,0,0,0,0,0,0,0,0,0,0,0,0],"sum_hessian":[1.152E3,6.65E2,4.87E2,6.48E2,1.7E1,3.1E1,4.56E2,6.39E2,9E0,4E0,1.3E1,1.2E1,1.9E1,3E0,4.53E2,4.22E2,2.17E2,4E0,5E0,1E0,3E0,1E1,3E0,7E0,5E0,1.8E1,1E0,1E0,2E0,1E0,4.52E2,3.81E2,4.1E1,4.8E1,1.69E2,4E0,1E0,2E0,1E0,5E0,5E0,1E0,2E0,6E0,1E0,1E0,1.7E1,8E0,4.44E2,2.72E2,1.09E2,2.7E1,1.4E1,9E0,3.9E1,8E0,1.61E2,1E0,3E0,5E0,1E0,3E0,1.4E1,2E0,6E0,8E0,4.36E2],"tree_param":{"num_deleted":"0","num_feature":"69","num_nodes":"67","size_leaf_vector":"1"}},{"base_weights":[5.9997904E-1,8.659391E-2,8.880295E1,2.0559595E1,-6.888611E0,-2.8588567E0,2.1857552E2,-1.3466104E2,1.1648246E0,-6.162896E0,1.2941992E2,-5.243334E1,2.7270926E2,-2.4282996E2,-7.343454E1,2.9508902E2,-1.0273616E0,9.206789E0,-7.666692E1,-2.1321354E1,-1.0105106E1,2.1215486E2,1.9987242E2,-1.7115514E2,-2.9548755E2,3.3813458E2,-1.2417137E2,3.9913E2,-3.3767395E1,-1.3620438E2,4.1998777E0,5.2180238E-2,7.3211784E1,-5.4657887E1,9.616069E0,3.6875612E-1,-4.9160542E0,3.2852764E1,9.170242E1,-5.8703297E1,-1.461302E1,-5.6381382E1,-1.1488203E2,-1.5357205E0,2.0518434E2,-4.6757915E1,3.8606964E1,1.6650755E2,6.641998E1,-7.665509E1,-4.7508154E0,8.4436E1,2.8360364E-1],"categories":[],"categories_nodes":[],"categories_segments":[],"categories_sizes":[],"default_left":[0,0,0,0,0,0,0,0,0,0,0,0,0,0,0,0,0,0,0,0,0,0,0,0,0,0,0,0,0,0,0,0,0,0,0,0,0,0,0,0,0,0,0,0,0,0,0,0,0,0,0,0,0],"id":16,"left_children":[1,3,-1,5,7,9,11,13,15,17,-1,19,21,23,25,27,29,31,33,-1,35,37,-1,39,41,43,45,47,-1,49,51,-1,-1,-1,-1,-1,-1,-1,-1,-1,-1,-1,-1,-1,-1,-1,-1,-1,-1,-1,-1,-1,-1],"loss_changes":[1.7483723E5,1.6465111E5,0E0,1.3593321E6,8.8510294E5,3.8001303E5,4.690915E5,3.1993088E5,5.2221578E5,2.846155E5,0E0,4.0152598E3,4.7823638E5,1.7361875E4,7.5196494E5,2.9939728E5,5.693871E5,4.5813847E5,5.4506344E5,0E0,2.3373978E2,1.9691175E5,0E0,2.0495094E4,1.26804375E4,4.7830772E5,2.6845297E5,1.56536875E4,0E0,4.2679738E5,6.9994225E5,0E0,0E0,0E0,0E0,0E0,0E0,0E0,0E0,0E0,0E0,0E0,0E0,0E0,0E0,0E0,0E0,0E0,0E0,0E0,0E0,0E0,0E0],"parents":[2147483647,0,0,1,1,3,3,4,4,5,5,6,6,7,7,8,8,9,9,11,11,12,12,13,13,14,14,15,15,16,16,17,17,18,18,20,20,21,21,23,23,24,24,25,25,26,26,27,27,29,29,30,30],"right_children":[2,4,-1,6,8,10,12,14,16,18,-1,20,22,24,26,28,30,32,34,-1,36,38,-1,40,42,44,46,48,-1,50,52,-1,-1,-1,-1,-1,-1,-1,-1,-1,-1,-1,-1,-1,-1,-1,-1,-1,-1,-1,-1,-1,-1],"split_conditions":[1.0291E4,3.9E1,8.880295E1,1.2E1,3.6E2,1.6E1,5E0,2E1,4E0,2E0,1.2941992E2,2E0,3E0,1.74E2,7.1E1,5.92E2,8.5E1,1E0,2E0,-2.1321354E1,1E0,1.3E1,1.9987242E2,5.9E1,2.21E2,1E0,2.38E2,3.4E1,-3.3767395E1,3.7E1,9.5E1,5.2180238E-2,7.3211784E1,-5.4657887E1,9.616069E0,3.6875612E-1,-4.9160542E0,3.2852764E1,9.170242E1,-5.8703297E1,-1.461302E1,-5.6381382E1,-1.1488203E2,-1.5357205E0,2.0518434E2,-4.6757915E1,3.8606964E1,1.6650755E2,6.641998E1,-7.665509E1,-4.7508154E0,8.4436E1,2.8360364E-1],"split_indices":[28,28,0,6,17,59,28,42,9,6,0,1,7,17,4,1,23,39,51,0,0,16,0,9,28,0,28,0,0,9,23,0,0,0,0,0,0,0,0,0,0,0,0,0,0,0,0,0,0,0,0,0,0],"split_type":[0,0,0,0,0,0,0,0,0,0,0,0,0,0,0,0,0,0,0,0,0,0,0,0,0,0,0,0,0,0,0,0,0,0,0,0,0,0,0,0,0,0,0,0,0,0,0,0,0,0,0,0,0],"sum_hessian":[1.152E3,1.151E3,1E0,2.92E2,8.59E2,2.62E2,3E1,5E1,8.09E2,2.61E2,1E0,5E0,2.5E1,1.7E1,3.3E1,5E0,8.04E2,2.15E2,4.6E1,3E0,2E0,2.3E1,2E0,9E0,8E0,3E0,3E1,4E0,1E0,2.9E1,7.75E2,2.08E2,7E0,2.3E1,2.3E1,1E0,1E0,1.2E1,1.1E1,7E0,2E0,5E0,3E0,2E0,1E0,2.7E1,3E0,1E0,3E0,1.4E1,1.5E1,8E0,7.67E2],"tree_param":{"num_deleted":"0","num_feature":"69","num_nodes":"53","size_leaf_vector":"1"}},{"base_weights":[1.0257198E0,4.2080835E-1,6.9830444E1,1.158291E0,-6.3402576E1,6.6624894E0,-1.9915167E1,3.2615955E0,9.428962E1,-2.7062948E1,8.095174E1,1.2056279E0,1.5153345E2,1.8941168E2,4.0991573E1,-1.9008022E1,-1.3899547E2,9.6538506E1,-2.292747E1,1.4796913E0,-2.1096777E1,1.5619505E2,-2.9431854E1,-3.430725E1,1.8301659E1,-6.60776E0,4.4838604E1,5.006741E1,2.186316E1],"categories":[],"categories_nodes":[],"categories_segments":[],"categories_sizes":[],"default_left":[0,0,0,0,0,0,0,0,0,0,0,0,0,0,0,0,0,0,0,0,0,0,0,0,0,0,0,0,0],"id":17,"left_children":[1,3,-1,5,-1,7,9,11,13,15,17,19,21,-1,23,25,-1,27,-1,-1,-1,-1,-1,-1,-1,-1,-1,-1,-1],"loss_changes":[1.6153377E5,1.7999803E5,0E0,1.3329206E5,0E0,2.711801E5,1.7378278E5,2.6746872E5,9.473845E5,7.748162E5,4.662585E4,2.314565E5,1.156833E6,0E0,1.064692E5,1.151436E5,0E0,1.2807031E4,0E0,0E0,0E0,0E0,0E0,0E0,0E0,0E0,0E0,0E0,0E0],"parents":[2147483647,0,0,1,1,3,3,5,5,6,6,7,7,8,8,9,9,10,10,11,11,12,12,14,14,15,15,17,17],"right_children":[2,4,-1,6,-1,8,10,12,14,16,18,20,22,-1,24,26,-1,28,-1,-1,-1,-1,-1,-1,-1,-1,-1,-1,-1],"split_conditions":[1.3322E4,4.283E3,6.9830444E1,8E0,-6.3402576E1,5.44E2,5.77E2,5E0,6E0,3.781E3,1.242E3,2E0,1E0,1.8941168E2,3.222E3,3.32E2,-1.3899547E2,7.19E2,-2.292747E1,1.4796913E0,-2.1096777E1,1.5619505E2,-2.9431854E1,-3.430725E1,1.8301659E1,-6.60776E0,4.4838604E1,5.006741E1,2.186316E1],"split_indices":[25,25,0,51,0,5,28,51,0,23,0,7,42,0,17,1,0,1,0,0,0,0,0,0,0,0,0,0,0],"split_type":[0,0,0,0,0,0,0,0,0,0,0,0,0,0,0,0,0,0,0,0,0,0,0,0,0,0,0,0,0],"sum_hessian":[1.152E3,1.15E3,2E0,1.147E3,3E0,9.1E2,2.37E2,8.77E2,3.3E1,2.22E2,1.5E1,8.66E2,1.1E1,2E0,3.1E1,2.19E2,3E0,1.4E1,1E0,8.24E2,4.2E1,4E0,7E0,3E0,2.8E1,2.16E2,3E0,2E0,1.2E1],"tree_param":{"num_deleted":"0","num_feature":"69","num_nodes":"29","size_leaf_vector":"1"}},{"base_weights":[9.2199266E-1,-1.3520035E0,5.3299446E1,-2.2364292E1,5.832018E0,1.3343912E2,-7.6042114E1,-2.5959463E1,9.6191925E1,1.3857466E2,-1.4652561E0,2.4602748E2,-1.2806697E1,-9.911954E1,2.4023207E1,-3.5041568E-1,-6.380336E1,1.8154167E2,-1.08333115E2,-5.563443E-1,-1.0683515E2,3.7324475E2,-4.9411606E1,-9.071471E1,2.04642E2,-3.3661312E1,-1.5356448E2,-1.0435234E1,1.7897418E2,-1.612016E2,-2.6656994E1,4.982488E1,2.2209976E2,-8.878874E1,1.0637952E2,-8.123173E0,2.800721E1,4.832845E2,-3.539078E1,-6.912755E1,9.870144E1,-5.240455E1,-1.7778948E1,8.912861E0,7.5914894E1,6.452851E0,-5.2497185E1,-5.5195736E1,-2.0862427E1,-5.7743216E0,4.186729E1,1.23352905E2,-6.422179E1,-6.415389E1,-2.4600342E1,1.4130946E2,-1.1541197E1,3.6516552E1,-2.6535307E1,8.688785E1,2.1476892E1,1.3771277E1,4.3170795E1,-2.8378365E0,8.0823975E1,4.9348076E1,6.534926E0,1.2644721E1,1.7648991E2,5.952151E1,-2.0042954E-1,7.1305423E0,-1.6464489E1,-1.0141293E0,-1.8035973E1],"categories":[],"categories_nodes":[],"categories_segments":[],"categories_sizes":[],"default_left":[0,0,0,0,0,0,0,0,0,0,0,0,0,0,0,0,0,0,0,0,0,0,0,0,0,0,0,0,0,0,0,0,0,0,0,0,0,0,0,0,0,0,0,0,0,0,0,0,0,0,0,0,0,0,0,0,0,0,0,0,0,0,0,0,0,0,0,0,0,0,0,0,0,0,0],"id":18,"left_children":[1,3,5,7,9,11,13,15,-1,17,19,21,23,25,-1,27,29,31,33,35,-1,37,39,41,43,45,47,49,51,53,55,57,59,-1,61,63,65,67,-1,-1,69,-1,71,-1,-1,-1,73,-1,-1,-1,-1,-1,-1,-1,-1,-1,-1,-1,-1,-1,-1,-1,-1,-1,-1,-1,-1,-1,-1,-1,-1,-1,-1,-1,-1],"loss_changes":[1.3740144E5,1.6708414E5,5.076857E5,3.560742E5,7.9934706E5,4.9711812E5,7.639112E4,2.7133856E5,0E0,4.7584925E5,2.5219983E5,6.5738675E5,2.5573797E5,5.541658E4,0E0,3.0568825E5,4.045358E5,1.865945E5,3.134891E5,1.6924548E5,0E0,7.056494E5,1.8360608E5,6.426061E4,2.6354281E4,1.0481904E4,1.02101875E4,2.1417619E5,9.094183E5,1.11718375E5,5.0612128E5,1.1018258E5,2.6384125E5,0E0,2.4711406E3,2.3211514E5,1.3573617E5,4.3846325E5,0E0,0E0,3.9762547E4,0E0,1.2095098E4,0E0,0E0,0E0,2.4175938E3,0E0,0E0,0E0,0E0,0E0,0E0,0E0,0E0,0E0,0E0,0E0,0E0,0E0,0E0,0E0,0E0,0E0,0E0,0E0,0E0,0E0,0E0,0E0,0E0,0E0,0E0,0E0,0E0],"parents":[2147483647,0,0,1,1,2,2,3,3,4,4,5,5,6,6,7,7,9,9,10,10,11,11,12,12,13,13,15,15,16,16,17,17,18,18,19,19,21,21,22,22,23,23,24,24,25,25,26,26,27,27,28,28,29,29,30,30,31,31,32,32,34,34,35,35,36,36,37,37,40,40,42,42,46,46],"right_children":[2,4,6,8,10,12,14,16,-1,18,20,22,24,26,-1,28,30,32,34,36,-1,38,40,42,44,46,48,50,52,54,56,58,60,-1,62,64,66,68,-1,-1,70,-1,72,-1,-1,-1,74,-1,-1,-1,-1,-1,-1,-1,-1,-1,-1,-1,-1,-1,-1,-1,-1,-1,-1,-1,-1,-1,-1,-1,-1,-1,-1,-1,-1],"split_conditions":[1E0,3.2E1,3E0,1.1E1,3.4E1,1.8E1,9E0,1E0,9.6191925E1,4.8E1,6.752E3,2E0,2E0,1E0,2.4023207E1,1E0,5.1E1,2.4E1,2.72E2,3.54E2,-1.0683515E2,1E0,3E0,2E0,2E0,1E0,4E0,4.28E2,1E0,3E0,5.2E1,6.6E1,3.72E2,-8.878874E1,1.94E2,1.28E3,2.26E2,3E0,-3.539078E1,-6.912755E1,1E0,-5.240455E1,6E0,8.912861E0,7.5914894E1,6.452851E0,4E0,-5.5195736E1,-2.0862427E1,-5.7743216E0,4.186729E1,1.23352905E2,-6.422179E1,-6.415389E1,-2.4600342E1,1.4130946E2,-1.1541197E1,3.6516552E1,-2.6535307E1,8.688785E1,2.1476892E1,1.3771277E1,4.3170795E1,-2.8378365E0,8.0823975E1,4.9348076E1,6.534926E0,1.2644721E1,1.7648991E2,5.952151E1,-2.0042954E-1,7.1305423E0,-1.6464489E1,-1.0141293E0,-1.8035973E1],"split_indices":[56,42,43,37,42,46,68,68,0,67,6,1,37,22,0,22,15,16,6,9,0,61,7,4,4,42,68,5,42,7,15,0,1,0,0,54,23,16,0,0,0,0,27,0,0,0,15,0,0,0,0,0,0,0,0,0,0,0,0,0,0,0,0,0,0,0,0,0,0,0,0,0,0,0,0],"split_type":[0,0,0,0,0,0,0,0,0,0,0,0,0,0,0,0,0,0,0,0,0,0,0,0,0,0,0,0,0,0,0,0,0,0,0,0,0,0,0,0,0,0,0,0,0,0,0,0,0,0,0,0,0,0,0,0,0,0,0,0,0,0,0,0,0,0,0,0,0,0,0,0,0,0,0],"sum_hessian":[1.152E3,1.105E3,4.7E1,2.81E2,8.24E2,2.9E1,1.8E1,2.79E2,2E0,4.2E1,7.82E2,1.6E1,1.3E1,1.6E1,2E0,1.67E2,1.12E2,3.6E1,6E0,7.81E2,1E0,1.1E1,5E0,1E1,3E0,8E0,8E0,1.59E2,8E0,3E1,8.2E1,9E0,2.7E1,3E0,3E0,6.18E2,1.63E2,9E0,2E0,2E0,3E0,4E0,6E0,1E0,2E0,2E0,6E0,5E0,3E0,1.51E2,8E0,5E0,3E0,1.7E1,1.3E1,1E0,8.1E1,6E0,3E0,1.8E1,9E0,2E0,1E0,6.16E2,2E0,6E0,1.57E2,2E0,7E0,1E0,2E0,3E0,3E0,1E0,5E0],"tree_param":{"num_deleted":"0","num_feature":"69","num_nodes":"75","size_leaf_vector":"1"}},{"base_weights":[1.0342687E0,5.896126E-1,7.6991714E1,6.74525E0,-1.4763961E1,-5.8458195E0,2.625417E1,-1.6894054E2,-7.3987317E0,-8.226313E0,2.9198694E2,-5.8455887E1,3.8777462E1,5.191737E1,-3.2194772E2,-1.08509315E2,-1.6444693E0,-1.4575335E-1,-7.904717E1,1.4315588E2,-3.9541656E1,6.0572195E0,-1.2972316E2,2.7481503E2,3.3524742E1,-9.441799E0,8.283864E1,-1.9000575E2,-6.0686623E1,-1.27509445E2,2.9323921E1,7.552013E1,-9.865531E0,4.7171497E0,-1.5448789E1,-3.4998203E1,3.283344E1,-4.0961156E0,3.0929281E1,-4.6443626E1,-1.3614102E1,4.284663E0,1.5917613E2,2.0099943E1,1.4207553E0,-7.098463E1,6.546665E0,-2.2945694E1,-7.8437836E1,-7.6844025E1,3.287249E1,-2.3003972E0,-9.0809875E1],"categories":[],"categories_nodes":[],"categories_segments":[],"categories_sizes":[],"default_left":[0,0,0,0,0,0,0,0,0,0,0,0,0,0,0,0,0,0,0,0,0,0,0,0,0,0,0,0,0,0,0,0,0,0,0,0,0,0,0,0,0,0,0,0,0,0,0,0,0,0,0,0,0],"id":19,"left_children":[1,3,-1,5,7,9,11,13,15,17,19,21,23,25,27,29,31,33,35,-1,-1,37,39,41,43,-1,-1,-1,45,47,-1,49,51,-1,-1,-1,-1,-1,-1,-1,-1,-1,-1,-1,-1,-1,-1,-1,-1,-1,-1,-1,-1],"loss_changes":[1.308943E5,1.089763E5,0E0,2.0231369E5,3.734802E5,3.576053E5,3.4492094E5,5.2360744E5,1.8367567E5,2.8498003E5,3.768401E5,1.9388803E5,3.4042138E5,1.3956948E5,6.937856E5,7.9084625E4,1.9105752E5,3.658878E5,3.7434988E5,0E0,0E0,4.5401074E4,3.529597E4,3.9224422E5,2.666304E5,0E0,0E0,0E0,9.225755E4,8.935633E4,0E0,3.556182E5,1.7271495E5,0E0,0E0,0E0,0E0,0E0,0E0,0E0,0E0,0E0,0E0,0E0,0E0,0E0,0E0,0E0,0E0,0E0,0E0,0E0,0E0],"parents":[2147483647,0,0,1,1,3,3,4,4,5,5,6,6,7,7,8,8,9,9,10,10,11,11,12,12,13,13,14,14,15,15,16,16,17,17,18,18,21,21,22,22,23,23,24,24,28,28,29,29,31,31,32,32],"right_children":[2,4,-1,6,8,10,12,14,16,18,20,22,24,26,28,30,32,34,36,-1,-1,38,40,42,44,-1,-1,-1,46,48,-1,50,52,-1,-1,-1,-1,-1,-1,-1,-1,-1,-1,-1,-1,-1,-1,-1,-1,-1,-1,-1,-1],"split_conditions":[1.0291E4,2.73E2,7.6991714E1,5.3E1,2.91E2,5.44E2,4.48E2,1.28E2,8.06E2,6.5E1,6E0,1.33E2,5.6E1,9E0,7E0,4.83E2,1.921E3,8.1E2,1.1E1,1.4315588E2,-3.9541656E1,9.3E1,2.32E2,1E0,1.02E2,-9.441799E0,8.283864E1,-1.9000575E2,8.96E2,2.79E2,2.9323921E1,9.1E1,6.752E3,4.7171497E0,-1.5448789E1,-3.4998203E1,3.283344E1,-4.0961156E0,3.0929281E1,-4.6443626E1,-1.3614102E1,4.284663E0,1.5917613E2,2.0099943E1,1.4207553E0,-7.098463E1,6.546665E0,-2.2945694E1,-7.8437836E1,-7.6844025E1,3.287249E1,-2.3003972E0,-9.0809875E1],"split_indices":[28,16,0,9,16,5,17,6,17,54,0,16,9,0,61,15,17,17,61,0,0,15,6,5,42,0,0,0,17,15,0,9,6,0,0,0,0,0,0,0,0,0,0,0,0,0,0,0,0,0,0,0,0],"split_type":[0,0,0,0,0,0,0,0,0,0,0,0,0,0,0,0,0,0,0,0,0,0,0,0,0,0,0,0,0,0,0,0,0,0,0,0,0,0,0,0,0,0,0,0,0,0,0,0,0,0,0,0,0],"sum_hessian":[1.152E3,1.151E3,1E0,8.22E2,3.29E2,5E2,3.22E2,1.4E1,3.15E2,4.97E2,3E0,4.1E1,2.81E2,6E0,8E0,1.6E1,2.99E2,4.47E2,5E1,2E0,1E0,2.2E1,1.9E1,5E0,2.76E2,5E0,1E0,3E0,5E0,1.5E1,1E0,2.8E1,2.71E2,3.42E2,1.05E2,4.2E1,8E0,1.9E1,3E0,1.4E1,5E0,3E0,2E0,1.27E2,1.49E2,1E0,4E0,1.2E1,3E0,2E0,2.6E1,2.7E2,1E0],"tree_param":{"num_deleted":"0","num_feature":"69","num_nodes":"53","size_leaf_vector":"1"}},{"base_weights":[6.626441E-1,-7.2073145E0,1.1401844E1,-3.7696688E0,-1.3075313E2,2.2483442E1,-5.364268E0,-1.6730273E0,-1.3757777E2,1.0230477E2,-2.0464857E2,1.2626767E1,8.132286E1,-3.121414E1,2.6421534E1,-4.2607136E0,4.1083423E2,-4.736026E1,-1.4243031E2,-1.0226272E2,8.18312E1,-2.7209818E2,-2.8819633E1,1.5302106E1,-9.9233795E1,9.924147E1,-5.5409893E1,-2.0617718E1,-3.9521637E2,4.6127396E1,-4.2884766E1,-2.4911833E0,-1.899411E2,1.5338646E2,1.6420872E1,-1.04919426E2,3.081936E1,-5.3884453E1,7.8662295E0,-1.0111059E2,-4.1926216E1,-1.9431679E1,5.021863E0,2.4442668E2,1.2491403E1,1.341712E2,3.20805E1,-1.0365786E1,-8.383516E1,-1.7489496E2,-2.9524207E0,8.492404E1,2.0693981E1,-1.0499044E2,5.5759075E1,-1.8797876E0,3.5887432E1,-2.9658287E1,-9.680128E1,-1.032107E1,-4.476163E1,-1.565614E1,1.2564815E2,-8.980418E0,7.467727E0,4.998908E1,2.2428198E1,1.5728861E1,-3.7920895E1,-3.2836906E1,4.4490633E0,-1.1140711E1,3.4305862E1,7.4610806E0,6.460612E-1,2.0526041E1,-2.012352E1],"categories":[],"categories_nodes":[],"categories_segments":[],"categories_sizes":[],"default_left":[0,0,0,0,0,0,0,0,0,0,0,0,0,0,0,0,0,0,0,0,0,0,0,0,0,0,0,0,0,0,0,0,0,0,0,0,0,0,0,0,0,0,0,0,0,0,0,0,0,0,0,0,0,0,0,0,0,0,0,0,0,0,0,0,0,0,0,0,0,0,0,0,0,0,0,0,0],"id":20,"left_children":[1,3,5,7,9,11,13,15,17,19,21,23,25,27,29,31,33,35,-1,37,-1,39,41,43,-1,45,-1,47,49,51,53,55,57,-1,-1,59,-1,-1,-1,-1,-1,-1,-1,61,63,65,67,69,-1,-1,-1,71,73,-1,75,-1,-1,-1,-1,-1,-1,-1,-1,-1,-1,-1,-1,-1,-1,-1,-1,-1,-1,-1,-1,-1,-1],"loss_changes":[9.753034E4,2.8236175E5,9.0788734E4,1.8184525E5,3.3093106E5,1.6948169E5,1.610482E5,6.849116E5,2.817192E5,2.0225316E5,1.5819256E5,2.3749969E5,2.1853356E5,4.084207E5,1.2216331E5,2.08824E5,1.1509975E5,8.853075E4,0E0,3.4525047E4,0E0,3.8838375E4,9.274119E3,1.5923508E5,0E0,8.953228E4,0E0,2.7837816E5,2.113444E5,6.632703E4,6.253515E5,2.920764E5,4.063475E4,0E0,0E0,1.672686E4,0E0,0E0,0E0,0E0,0E0,0E0,0E0,1.7704617E5,1.3227697E5,3.768128E4,5.5002035E4,2.5878186E5,0E0,0E0,0E0,1.0123266E5,3.2759414E3,0E0,2.947355E4,0E0,0E0,0E0,0E0,0E0,0E0,0E0,0E0,0E0,0E0,0E0,0E0,0E0,0E0,0E0,0E0,0E0,0E0,0E0,0E0,0E0,0E0],"parents":[2147483647,0,0,1,1,2,2,3,3,4,4,5,5,6,6,7,7,8,8,9,9,10,10,11,11,12,12,13,13,14,14,15,15,16,16,17,17,19,19,21,21,22,22,23,23,25,25,27,27,28,28,29,29,30,30,31,31,32,32,35,35,43,43,44,44,45,45,46,46,47,47,51,51,52,52,54,54],"right_children":[2,4,6,8,10,12,14,16,18,20,22,24,26,28,30,32,34,36,-1,38,-1,40,42,44,-1,46,-1,48,50,52,54,56,58,-1,-1,60,-1,-1,-1,-1,-1,-1,-1,62,64,66,68,70,-1,-1,-1,72,74,-1,76,-1,-1,-1,-1,-1,-1,-1,-1,-1,-1,-1,-1,-1,-1,-1,-1,-1,-1,-1,-1,-1,-1],"split_conditions":[3.21E2,2.98E2,2.46E2,2.88E2,6.09E2,1.95E2,5.12E2,2.56E2,6.08E2,2E0,1.08E2,4.8E2,2.208E3,4.96E2,3.781E3,2.24E2,2.03E2,3.84E2,-1.4243031E2,3.4E1,8.18312E1,1.42E2,4.2E1,3.27E2,-9.9233795E1,4.67E2,-5.5409893E1,1E0,1.189E3,1.9E1,5.77E2,2.81E2,2.74E2,1.5338646E2,1.6420872E1,3.52E2,3.081936E1,-5.3884453E1,7.8662295E0,-1.0111059E2,-4.1926216E1,-1.9431679E1,5.021863E0,6.6E1,1.47E2,6E0,1.37E2,2.4E2,-8.383516E1,-1.7489496E2,-2.9524207E0,2.46E2,3.776E3,-1.0499044E2,1.242E3,-1.8797876E0,3.5887432E1,-2.9658287E1,-9.680128E1,-1.032107E1,-4.476163E1,-1.565614E1,1.2564815E2,-8.980418E0,7.467727E0,4.998908E1,2.2428198E1,1.5728861E1,-3.7920895E1,-3.2836906E1,4.4490633E0,-1.1140711E1,3.4305862E1,7.4610806E0,6.460612E-1,2.0526041E1,-2.012352E1],"split_indices":[1,1,16,52,17,16,42,52,0,61,9,52,4,42,23,52,1,0,0,0,0,54,54,1,0,1,0,43,0,61,28,1,1,0,0,0,0,0,0,0,0,0,0,0,23,61,9,6,0,0,0,28,4,0,0,0,0,0,0,0,0,0,0,0,0,0,0,0,0,0,0,0,0,0,0,0,0],"split_type":[0,0,0,0,0,0,0,0,0,0,0,0,0,0,0,0,0,0,0,0,0,0,0,0,0,0,0,0,0,0,0,0,0,0,0,0,0,0,0,0,0,0,0,0,0,0,0,0,0,0,0,0,0,0,0,0,0,0,0,0,0,0,0,0,0,0,0,0,0,0,0,0,0,0,0,0,0],"sum_hessian":[1.152E3,6.65E2,4.87E2,6.48E2,1.7E1,2.93E2,1.94E2,6.39E2,9E0,4E0,1.3E1,2.52E2,4.1E1,1.07E2,8.7E1,6.36E2,3E0,8E0,1E0,2E0,2E0,9E0,4E0,2.51E2,1E0,3.9E1,2E0,1.05E2,2E0,6.8E1,1.9E1,6.31E2,5E0,2E0,1E0,6E0,2E0,1E0,1E0,5E0,4E0,2E0,2E0,2E0,2.49E2,2.5E1,1.4E1,1.02E2,3E0,1E0,1E0,2.6E1,4.2E1,4E0,1.5E1,6.13E2,1.8E1,4E0,1E0,3E0,3E0,1E0,1E0,5.6E1,1.93E2,1.5E1,1E1,1.3E1,1E0,2E1,8.2E1,5E0,2.1E1,3.4E1,8E0,1.4E1,1E0],"tree_param":{"num_deleted":"0","num_feature":"69","num_nodes":"77","size_leaf_vector":"1"}},{"base_weights":[-3.0778673E-2,-4.3803048E-1,7.03685E1,-9.1988707E-1,5.5325905E1,-3.1150272E-1,-1.16866585E2,-1.9276595E0,3.6664574E1,7.992243E0,-4.5268867E1,-4.083235E-1,-6.712122E1,9.623215E1,-5.9319202E1,-4.0020573E-1,9.915291E1,-3.1850756E1,7.638606E1,4.077186E1,-3.87958E1,-2.318075E1,1.8651087E1],"categories":[],"categories_nodes":[],"categories_segments":[],"categories_sizes":[],"default_left":[0,0,0,0,0,0,0,0,0,0,0,0,0,0,0,0,0,0,0,0,0,0,0],"id":21,"left_children":[1,3,-1,5,-1,7,9,11,13,-1,-1,15,17,19,21,-1,-1,-1,-1,-1,-1,-1,-1],"loss_changes":[1.10258266E5,1.0278394E5,0E0,8.1084766E4,0E0,6.849488E4,3.332103E4,1.0873051E5,2.801494E5,0E0,0E0,3.2943866E5,3.4111647E5,2.8603147E5,4.6237734E4,0E0,0E0,0E0,0E0,0E0,0E0,0E0,0E0],"parents":[2147483647,0,0,1,1,3,3,5,5,6,6,7,7,8,8,11,11,12,12,13,13,14,14],"right_children":[2,4,-1,6,-1,8,10,12,14,-1,-1,16,18,20,22,-1,-1,-1,-1,-1,-1,-1,-1],"split_conditions":[1.0291E4,1.3322E4,7.03685E1,2.667E3,5.5325905E1,1E0,3.278E3,2E0,3E0,7.992243E0,-4.5268867E1,1E0,1.1E1,1E0,9E0,-4.0020573E-1,9.915291E1,-3.1850756E1,7.638606E1,4.077186E1,-3.87958E1,-2.318075E1,1.8651087E1],"split_indices":[28,25,0,25,0,56,1,7,43,0,0,7,37,60,68,0,0,0,0,0,0,0,0],"split_type":[0,0,0,0,0,0,0,0,0,0,0,0,0,0,0,0,0,0,0,0,0,0,0],"sum_hessian":[1.152E3,1.151E3,1E0,1.149E3,2E0,1.144E3,5E0,1.097E3,4.7E1,1E0,4E0,1.073E3,2.4E1,2.9E1,1.8E1,1.071E3,2E0,2.2E1,2E0,2.5E1,4E0,1.6E1,2E0],"tree_param":{"num_deleted":"0","num_feature":"69","num_nodes":"23","size_leaf_vector":"1"}},{"base_weights":[1.7717399E-1,-1.688135E-1,5.9813217E1,-5.539829E-1,4.426072E1,1.1441264E0,-3.254501E1,-8.4484637E-1,4.097808E1,-1.7287558E2,-9.894233E0,7.7966326E-1,-6.9783615E1,1.2368568E2,1.3073657E1,-1.9246222E1,-5.9527122E1,2.7601328E1,-6.0574806E1,2.1798394E0,-3.7106445E0,-5.4759593E0,-5.76964E1,-1.05398855E1,1.1544663E2,-5.894898E1,7.045688E0,1.0627549E2,-2.514804E0,-1.5214401E2,2.8319156E0],"categories":[],"categories_nodes":[],"categories_segments":[],"categories_sizes":[],"default_left":[0,0,0,0,0,0,0,0,0,0,0,0,0,0,0,0,0,0,0,0,0,0,0,0,0,0,0,0,0,0,0],"id":22,"left_children":[1,3,-1,5,-1,7,9,11,13,15,17,19,21,23,25,-1,-1,27,29,-1,-1,-1,-1,-1,-1,-1,-1,-1,-1,-1,-1],"loss_changes":[7.949931E4,6.562048E4,0E0,6.2510137E4,0E0,8.663153E4,1.8264811E5,1.1674975E5,1.18394164E5,9.491391E3,9.858707E4,8.6997516E4,1.480356E5,5.526731E5,9.189641E4,0E0,0E0,3.555952E5,6.9265075E5,0E0,0E0,0E0,0E0,0E0,0E0,0E0,0E0,0E0,0E0,0E0,0E0],"parents":[2147483647,0,0,1,1,3,3,5,5,6,6,7,7,8,8,9,9,10,10,11,11,12,12,13,13,14,14,17,17,18,18],"right_children":[2,4,-1,6,-1,8,10,12,14,16,18,20,22,24,26,-1,-1,28,30,-1,-1,-1,-1,-1,-1,-1,-1,-1,-1,-1,-1],"split_conditions":[1.0291E4,1.3322E4,5.9813217E1,3.84E2,4.426072E1,2.56E2,1.65E2,1.6E2,1.296E3,6.6E1,5.52E2,2.01E2,2E1,9.1E1,9.9E1,-1.9246222E1,-5.9527122E1,2.32E2,5.92E2,2.1798394E0,-3.7106445E0,-5.4759593E0,-5.76964E1,-1.05398855E1,1.1544663E2,-5.894898E1,7.045688E0,1.0627549E2,-2.514804E0,-1.5214401E2,2.8319156E0],"split_indices":[28,25,0,50,0,40,42,50,17,0,1,16,9,9,0,0,0,0,1,0,0,0,0,0,0,0,0,0,0,0,0],"split_type":[0,0,0,0,0,0,0,0,0,0,0,0,0,0,0,0,0,0,0,0,0,0,0,0,0,0,0,0,0,0,0],"sum_hessian":[1.152E3,1.151E3,1E0,1.149E3,2E0,1.092E3,5.7E1,1.041E3,5.1E1,7E0,5E1,1.018E3,2.3E1,1.2E1,3.9E1,2E0,5E0,2.9E1,2.1E1,6.82E2,3.36E2,1.7E1,6E0,8E0,4E0,1E0,3.8E1,2E0,2.7E1,2E0,1.9E1],"tree_param":{"num_deleted":"0","num_feature":"69","num_nodes":"31","size_leaf_vector":"1"}},{"base_weights":[9.6325815E-2,-1.6469638E0,3.4275536E1,-8.6532754E-1,-1.4376056E2,7.624697E1,1.0661908E1,3.7413306E0,-1.6576487E1,2.487942E1,-1.4804407E2,-1.6029808E1,8.588446E1,-5.55661E0,2.1972563E1,2.5844386E0,1.24602715E2,-7.2723335E1,2.9368906E0,-5.1300076E1,1.16599396E2,1.304187E2,6.0663757E1,-8.309671E0,4.1323953E0,3.4122616E1,3.9802368E0,4.8106995E-1,6.1317112E1,1.0234223E2,-4.433418E0,-3.6166424E1,-3.2410092E2,1.2235323E2,-3.7169807E0,5.7822027E0,6.1286335E1,1.6097905E2,-3.3574646E0,-1.2047608E0,6.594803E1,-6.1136174E-1,6.4155817E0,4.842832E0,1.2096005E1,2.331817E0,-1.0955018E0,7.9289293E-1,-4.3105835E1,2.4569185E1,-7.723913E1,1.3549048E1,-1.2156825E1,-2.2857359E1,6.61268E0,-3.5344555E1,-1.272928E2,-3.2913193E1,2.9884343E0,5.9602077E1,2.0887453E1,2.0503574E1,5.5772095E0,3.9823792E0,2.3209229E-1],"categories":[],"categories_nodes":[],"categories_segments":[],"categories_sizes":[],"default_left":[0,0,0,0,0,0,0,0,0,0,0,0,0,0,0,0,0,0,0,0,0,0,0,0,0,0,0,0,0,0,0,0,0,0,0,0,0,0,0,0,0,0,0,0,0,0,0,0,0,0,0,0,0,0,0,0,0,0,0,0,0,0,0,0,0],"id":23,"left_children":[1,3,5,7,9,11,13,15,17,19,-1,-1,21,23,25,27,29,31,33,-1,35,37,39,-1,41,43,45,47,49,-1,51,53,55,-1,57,-1,-1,59,-1,-1,61,-1,63,-1,-1,-1,-1,-1,-1,-1,-1,-1,-1,-1,-1,-1,-1,-1,-1,-1,-1,-1,-1,-1,-1],"loss_changes":[6.875711E4,1.2184271E5,5.4688547E4,7.916892E4,3.661378E5,2.9584766E4,6.909449E3,1.1796872E5,2.71926E5,1.09768914E5,0E0,0E0,1.3428828E4,3.5470515E3,4.6735527E3,1.0361759E5,2.2504228E5,5.7641206E5,4.99943E5,0E0,3.0199777E4,2.7767555E4,5.0498203E3,0E0,1.8212856E2,7.976904E2,3.1782248E2,2.5314895E5,2.1134189E5,0E0,1.2569664E4,1.3447742E5,1.1538244E5,0E0,2.664112E5,0E0,0E0,3.385164E3,0E0,0E0,2.0525E2,0E0,3.380137E2,0E0,0E0,0E0,0E0,0E0,0E0,0E0,0E0,0E0,0E0,0E0,0E0,0E0,0E0,0E0,0E0,0E0,0E0,0E0,0E0,0E0,0E0],"parents":[2147483647,0,0,1,1,2,2,3,3,4,4,5,5,6,6,7,7,8,8,9,9,12,12,13,13,14,14,15,15,16,16,17,17,18,18,20,20,21,21,22,22,24,24,25,25,26,26,27,27,28,28,30,30,31,31,32,32,34,34,37,37,40,40,42,42],"right_children":[2,4,6,8,10,12,14,16,18,20,-1,-1,22,24,26,28,30,32,34,-1,36,38,40,-1,42,44,46,48,50,-1,52,54,56,-1,58,-1,-1,60,-1,-1,62,-1,64,-1,-1,-1,-1,-1,-1,-1,-1,-1,-1,-1,-1,-1,-1,-1,-1,-1,-1,-1,-1,-1,-1],"split_conditions":[1.058E3,9.95E2,1.1E1,1E0,9.9E1,5.5E1,1E0,7E0,2E2,3.4E1,-1.4804407E2,-1.6029808E1,1.3E2,7.77E2,4.032E3,5.04E2,1E1,1.91E2,9.5E1,-5.1300076E1,1.35E2,1E0,1.35E2,-8.309671E0,1.88E2,4.8E2,6.4E3,4.56E2,8.91E2,1.0234223E2,1E0,2E0,6.4E1,1.2235323E2,2.17E2,5.7822027E0,6.1286335E1,9.9E1,-3.3574646E0,-1.2047608E0,3.136E3,-6.1136174E-1,1.36E3,4.842832E0,1.2096005E1,2.331817E0,-1.0955018E0,7.9289293E-1,-4.3105835E1,2.4569185E1,-7.723913E1,1.3549048E1,-1.2156825E1,-2.2857359E1,6.61268E0,-3.5344555E1,-1.272928E2,-3.2913193E1,2.9884343E0,5.9602077E1,2.0887453E1,2.0503574E1,5.5772095E0,3.9823792E0,2.3209229E-1],"split_indices":[28,28,61,52,0,15,5,27,6,0,0,0,0,23,0,6,15,28,15,0,4,5,4,0,67,0,0,6,1,0,9,27,16,0,28,0,0,0,0,0,0,0,6,0,0,0,0,0,0,0,0,0,0,0,0,0,0,0,0,0,0,0,0,0,0],"split_type":[0,0,0,0,0,0,0,0,0,0,0,0,0,0,0,0,0,0,0,0,0,0,0,0,0,0,0,0,0,0,0,0,0,0,0,0,0,0,0,0,0,0,0,0,0,0,0,0,0,0,0,0,0,0,0,0,0,0,0,0,0,0,0,0,0],"sum_hessian":[1.152E3,1.097E3,5.5E1,1.092E3,5E0,1.9E1,3.6E1,8.45E2,2.47E2,4E0,1E0,1E0,1.8E1,1.5E1,2.1E1,8.38E2,7E0,6.3E1,1.84E2,1E0,3E0,5E0,1.3E1,4E0,1.1E1,1.2E1,9E0,8.1E2,2.8E1,2E0,5E0,5.6E1,7E0,2E0,1.82E2,2E0,1E0,4E0,1E0,1E0,1.2E1,3E0,8E0,4E0,8E0,6E0,3E0,7.99E2,1.1E1,2.7E1,1E0,2E0,3E0,3.3E1,2.3E1,3E0,4E0,2E1,1.62E2,2E0,2E0,1.1E1,1E0,3E0,5E0],"tree_param":{"num_deleted":"0","num_feature":"69","num_nodes":"65","size_leaf_vector":"1"}},{"base_weights":[-2.8422078E-2,7.759579E-1,-1.8331734E1,-1.0782198E1,5.4638214E0,-6.69449E0,-1.5537907E2,9.3709175E1,5.223206E-1,1.2960136E1,-2.655296E1,-6.829781E1,6.506799E1,1.21445656E2,-6.628495E1,1.7509387E2,-3.8996205E-1,3.987085E0,3.6639886E2,-5.6321575E1,9.696234E0,-9.62121E1,1.2549269E2,5.574484E1,1.745041E2,-5.365023E1,6.283542E1,-1.3380128E1,7.8957634E1,-5.507718E1,2.8585742E0,-1.4941492E0,2.916641E1,-1.7277681E1,1.5807802E2,-1.6309736E0,-2.9583742E1,-1.2076327E1,1.48991785E1,3.7074436E1,-3.0157587E1,8.716771E1,1.594069E1,6.062378E0,2.8607685E1,-6.9209394E0,-4.7518364E1,4.1203873E1,3.4922835E-1],"categories":[],"categories_nodes":[],"categories_segments":[],"categories_sizes":[],"default_left":[0,0,0,0,0,0,0,0,0,0,0,0,0,0,0,0,0,0,0,0,0,0,0,0,0,0,0,0,0,0,0,0,0,0,0,0,0,0,0,0,0,0,0,0,0,0,0,0,0],"id":24,"left_children":[1,3,-1,5,7,9,11,13,15,17,19,-1,21,23,25,27,29,31,33,35,37,-1,-1,39,41,-1,43,-1,-1,45,47,-1,-1,-1,-1,-1,-1,-1,-1,-1,-1,-1,-1,-1,-1,-1,-1,-1,-1],"loss_changes":[5.6693617E4,6.1773414E4,0E0,1.9342177E5,3.5359934E5,1.2563389E5,1.5821917E5,1.9886997E5,1.2253815E5,5.1230984E5,1.7320025E5,0E0,5.429691E5,1.1925369E5,1.1296382E5,8.9157195E4,1.3623995E5,1.334219E5,3.0259638E5,1.8883744E5,1.477373E5,0E0,0E0,2.032381E5,2.6626912E5,0E0,3.618579E3,0E0,0E0,1.3854334E5,1.6483003E5,0E0,0E0,0E0,0E0,0E0,0E0,0E0,0E0,0E0,0E0,0E0,0E0,0E0,0E0,0E0,0E0,0E0,0E0],"parents":[2147483647,0,0,1,1,3,3,4,4,5,5,6,6,7,7,8,8,9,9,10,10,12,12,13,13,14,14,15,15,16,16,17,17,18,18,19,19,20,20,23,23,24,24,26,26,29,29,30,30],"right_children":[2,4,-1,6,8,10,12,14,16,18,20,-1,22,24,26,28,30,32,34,36,38,-1,-1,40,42,-1,44,-1,-1,46,48,-1,-1,-1,-1,-1,-1,-1,-1,-1,-1,-1,-1,-1,-1,-1,-1,-1,-1],"split_conditions":[4.5E1,3.2E1,-1.8331734E1,5E1,3.4E1,3.8E1,1.96E2,4.8E1,4.1E1,9.6E1,3.4E1,-6.829781E1,2.41E2,4.56E2,2.72E2,1.9E1,3.45E2,9E1,2.06E2,1E1,1.41E2,-9.62121E1,1.2549269E2,6.6E1,1.7E2,-5.365023E1,1.94E2,-1.3380128E1,7.8957634E1,6E0,3.84E2,-1.4941492E0,2.916641E1,-1.7277681E1,1.5807802E2,-1.6309736E0,-2.9583742E1,-1.2076327E1,1.48991785E1,3.7074436E1,-3.0157587E1,8.716771E1,1.594069E1,6.062378E0,2.8607685E1,-6.9209394E0,-4.7518364E1,4.1203873E1,3.4922835E-1],"split_indices":[66,42,0,54,42,16,28,67,46,6,9,0,1,17,6,4,17,1,1,9,23,0,0,0,15,0,0,0,0,61,17,0,0,0,0,0,0,0,0,0,0,0,0,0,0,0,0,0,0],"split_type":[0,0,0,0,0,0,0,0,0,0,0,0,0,0,0,0,0,0,0,0,0,0,0,0,0,0,0,0,0,0,0,0,0,0,0,0,0,0,0,0,0,0,0,0,0,0,0,0,0],"sum_hessian":[1.152E3,1.138E3,1.4E1,3.28E2,8.1E2,3.2E2,8E0,4.2E1,7.68E2,1.61E2,1.59E2,6E0,2E0,3.6E1,6E0,3E0,7.65E2,1.58E2,3E0,8.7E1,7.2E1,1E0,1E0,1.7E1,1.9E1,3E0,3E0,1E0,2E0,4.2E1,7.23E2,1.45E2,1.3E1,1E0,2E0,4E1,4.7E1,3.2E1,4E1,1.2E1,5E0,9E0,1E1,2E0,1E0,3.3E1,9E0,8E0,7.15E2],"tree_param":{"num_deleted":"0","num_feature":"69","num_nodes":"49","size_leaf_vector":"1"}},{"base_weights":[1.7651391E-1,-3.248952E1,6.4840084E-1,7.4654903E0,-6.0522704E0,6.162012E0,1.12371666E2,-4.018178E1,1.8421551E0,-4.106916E0,3.7070034E1,-5.8188835E1,1.255346E2,-4.2279648E1,6.8209887E0,-6.256121E0,1.4809654E2,6.1359173E1,-5.1880074E1,-3.1007227E1,-2.3562045E2,8.1643715E0,1.5900279E2,-1.7822071E1,-1.2096078E2,6.637653E1,-5.666833E-2,-3.3045572E-1,-2.8756046E1,5.140282E1,4.7798405E0,3.2544846E1,6.89565E0,-4.557514E1,1.54198475E1,-3.7530823E0,-4.060058E1,-3.0237925E1,-1.1283607E2,5.5281063E1,1.6640114E1,-1.3070052E1,1.09712555E2,3.741095E1,7.144763E-1,-3.11626E1,1.8811163E0],"categories":[],"categories_nodes":[],"categories_segments":[],"categories_sizes":[],"default_left":[0,0,0,0,0,0,0,0,0,0,0,0,0,0,0,0,0,0,0,0,0,0,0,0,0,0,0,0,0,0,0,0,0,0,0,0,0,0,0,0,0,0,0,0,0,0,0],"id":25,"left_children":[1,-1,3,5,7,9,-1,11,13,15,17,19,21,23,25,27,29,31,33,35,37,-1,39,41,-1,43,45,-1,-1,-1,-1,-1,-1,-1,-1,-1,-1,-1,-1,-1,-1,-1,-1,-1,-1,-1,-1],"loss_changes":[5.908986E4,0E0,5.253044E4,2.7044572E5,1.563451E5,1.8074845E5,0E0,3.325677E5,1.0397505E5,1.4093236E5,3.0997738E5,4.7015888E5,3.1869344E4,4.165245E5,1.7408489E5,1.9525222E5,1.5703844E4,2.0003688E5,3.2809375E5,1.6619522E5,2.0835144E5,0E0,1.0707719E4,4.7013238E5,0E0,1.6393781E5,2.5157433E5,0E0,0E0,0E0,0E0,0E0,0E0,0E0,0E0,0E0,0E0,0E0,0E0,0E0,0E0,0E0,0E0,0E0,0E0,0E0,0E0],"parents":[2147483647,0,0,2,2,3,3,4,4,5,5,7,7,8,8,9,9,10,10,11,11,12,12,13,13,14,14,15,15,16,16,17,17,18,18,19,19,20,20,22,22,23,23,25,25,26,26],"right_children":[2,-1,4,6,8,10,-1,12,14,16,18,20,22,24,26,28,30,32,34,36,38,-1,40,42,-1,44,46,-1,-1,-1,-1,-1,-1,-1,-1,-1,-1,-1,-1,-1,-1,-1,-1,-1,-1,-1,-1],"split_conditions":[1E0,-3.248952E1,2.26E2,1.6E1,3.24E2,1.64E2,1.12371666E2,8.6E2,3.3E1,2.08E2,2.56E2,1E0,2.88E2,7.1E2,8.1E2,4.8E1,6.37E2,4E0,4E0,2.84E2,2.83E2,8.1643715E0,2.55E2,5.92E2,-1.2096078E2,5.2E1,8.96E2,-3.3045572E-1,-2.8756046E1,5.140282E1,4.7798405E0,3.2544846E1,6.89565E0,-4.557514E1,1.54198475E1,-3.7530823E0,-4.060058E1,-3.0237925E1,-1.1283607E2,5.5281063E1,1.6640114E1,-1.3070052E1,1.09712555E2,3.741095E1,7.144763E-1,-3.11626E1,1.8811163E0],"split_indices":[15,0,23,59,4,0,0,28,9,67,54,52,6,1,17,67,1,61,61,16,15,0,4,1,0,9,17,0,0,0,0,0,0,0,0,0,0,0,0,0,0,0,0,0,0,0,0],"split_type":[0,0,0,0,0,0,0,0,0,0,0,0,0,0,0,0,0,0,0,0,0,0,0,0,0,0,0,0,0,0,0,0,0,0,0,0,0,0,0,0,0,0,0,0,0,0,0],"sum_hessian":[1.152E3,4E0,1.148E3,5.69E2,5.79E2,5.68E2,1E0,1.08E2,4.71E2,4.27E2,1.41E2,9.8E1,1E1,4.7E1,4.24E2,4.22E2,5E0,1.11E2,3E1,8.6E1,1.2E1,3E0,7E0,4.5E1,2E0,4.3E1,3.81E2,4E2,2.2E1,4E0,1E0,4.9E1,6.2E1,1.5E1,1.5E1,7.4E1,1.2E1,7E0,5E0,5E0,2E0,4.3E1,2E0,2.2E1,2.1E1,2.1E1,3.6E2],"tree_param":{"num_deleted":"0","num_feature":"69","num_nodes":"47","size_leaf_vector":"1"}},{"base_weights":[1.1787981E-1,5.2061284E-1,-3.4709206E1,1.729871E-1,4.0011562E1,-3.7418887E-1,7.819234E1,-1.3582567E0,4.187942E1,6.1045044E1,2.5147095E0,-4.009766E0,1.5744196E1,-5.426322E0,5.634246E1,7.6820364E0,-1.6941853E1,-1.4891403E0,4.4886642E1,4.800965E1,3.5132668E0,-1.765721E1,3.9865234E0,2.158128E1,1.1112908E1],"categories":[],"categories_nodes":[],"categories_segments":[],"categories_sizes":[],"default_left":[0,0,0,0,0,0,0,0,0,0,0,0,0,0,0,0,0,0,0,0,0,0,0,0,0],"id":26,"left_children":[1,3,-1,5,-1,7,9,11,13,-1,15,17,19,21,23,-1,-1,-1,-1,-1,-1,-1,-1,-1,-1],"loss_changes":[5.383917E4,5.3086824E4,0E0,4.903774E4,0E0,4.750015E4,7.53422E4,5.0670734E4,1.8094535E4,0E0,9.618959E3,1.4247608E5,8.541953E4,7.7817544E3,3.3547578E3,0E0,0E0,0E0,0E0,0E0,0E0,0E0,0E0,0E0,0E0],"parents":[2147483647,0,0,1,1,3,3,5,5,6,6,7,7,8,8,10,10,11,11,12,12,13,13,14,14],"right_children":[2,4,-1,6,-1,8,10,12,14,-1,16,18,20,22,24,-1,-1,-1,-1,-1,-1,-1,-1,-1,-1],"split_conditions":[8.96E2,1.3322E4,-3.4709206E1,1.536E3,4.0011562E1,1.099E3,2.98E2,1.9E1,5.024E3,6.1045044E1,1E0,1E1,9.9E1,3.51E2,1.175E4,7.6820364E0,-1.6941853E1,-1.4891403E0,4.4886642E1,4.800965E1,3.5132668E0,-1.765721E1,3.9865234E0,2.158128E1,1.1112908E1],"split_indices":[40,25,0,54,0,46,1,61,4,0,0,22,0,5,4,0,0,0,0,0,0,0,0,0,0],"split_type":[0,0,0,0,0,0,0,0,0,0,0,0,0,0,0,0,0,0,0,0,0,0,0,0,0],"sum_hessian":[1.152E3,1.149E3,3E0,1.147E3,2E0,1.14E3,7E0,1.115E3,2.5E1,2E0,5E0,9.66E2,1.49E2,6E0,1.9E1,4E0,1E0,9.61E2,5E0,3E0,1.46E2,1E0,5E0,9E0,1E1],"tree_param":{"num_deleted":"0","num_feature":"69","num_nodes":"25","size_leaf_vector":"1"}},{"base_weights":[2.3084502E-1,1.6432598E0,-2.6462904E1,4.3755928E-1,4.936386E1,-1.19956566E2,-1.1278351E1,1.5553321E0,-4.8343513E1,-3.3196404E1,8.587326E1,-5.687962E0,-4.5138645E1,2.303506E1,-7.5465996E1,5.842173E0,-8.335003E0,-2.5250776E1,-8.692147E1,4.73236E1,-1.5495816E2,1.2580464E2,2.1973267E1,-1.984926E1,1.4183684E2,-2.7430484E2,7.6004616E1,7.101619E0,-1.4752444E2,-4.9344574E1,2.7283573E-1,-9.6444084E1,5.5494576E0,-1.536853E2,4.553279E1,-1.001004E1,2.4683302E1,1.865109E1,-1.1947091E2,9.964985E1,-1.5558229E2,1.3622928E2,-5.847133E1,-2.080993E0,5.804611E0,2.4643946E1,-1.2137326E2,-9.904895E0,-6.1807167E1,5.3553855E-1,-5.9392185E1,-1.2771616E1,-4.6224834E1,9.353456E0,-1.0655111E1,7.720778E0,-3.7747974E1,8.72647E1,-3.354796E0,8.806787E1,-7.23119E1,-8.4174995E1,1.3096757E0],"categories":[],"categories_nodes":[],"categories_segments":[],"categories_sizes":[],"default_left":[0,0,0,0,0,0,0,0,0,0,0,0,0,0,0,0,0,0,0,0,0,0,0,0,0,0,0,0,0,0,0,0,0,0,0,0,0,0,0,0,0,0,0,0,0,0,0,0,0,0,0,0,0,0,0,0,0,0,0,0,0,0,0],"id":27,"left_children":[1,3,5,7,9,11,13,15,17,19,21,-1,-1,23,25,27,29,31,-1,-1,33,-1,35,37,-1,39,41,43,45,47,49,51,53,-1,-1,55,-1,57,-1,59,-1,-1,61,-1,-1,-1,-1,-1,-1,-1,-1,-1,-1,-1,-1,-1,-1,-1,-1,-1,-1,-1,-1],"loss_changes":[4.3514633E4,6.303868E4,8.098733E4,5.8418176E4,8.423479E4,2.179496E4,1.1406572E5,4.4439707E4,1.2647103E5,2.3368853E5,3.9565812E5,0E0,0E0,6.6515656E5,5.629768E5,1.4224536E5,1.11915664E5,5.0968938E4,0E0,0E0,7.353772E5,0E0,3.3612086E4,4.7360472E5,0E0,7.8254456E5,5.858401E5,1.2495379E5,3.8746034E5,1.3390433E5,7.9202695E4,1.5176176E4,1.8999549E4,0E0,0E0,5.2917953E4,0E0,2.4690314E5,0E0,3.3501153E5,0E0,0E0,1.2683639E5,0E0,0E0,0E0,0E0,0E0,0E0,0E0,0E0,0E0,0E0,0E0,0E0,0E0,0E0,0E0,0E0,0E0,0E0,0E0,0E0],"parents":[2147483647,0,0,1,1,2,2,3,3,4,4,5,5,6,6,7,7,8,8,9,9,10,10,13,13,14,14,15,15,16,16,17,17,20,20,22,22,23,23,25,25,26,26,27,27,28,28,29,29,30,30,31,31,32,32,35,35,37,37,39,39,42,42],"right_children":[2,4,6,8,10,12,14,16,18,20,22,-1,-1,24,26,28,30,32,-1,-1,34,-1,36,38,-1,40,42,44,46,48,50,52,54,-1,-1,56,-1,58,-1,60,-1,-1,62,-1,-1,-1,-1,-1,-1,-1,-1,-1,-1,-1,-1,-1,-1,-1,-1,-1,-1,-1,-1],"split_conditions":[3.84E2,2.88E2,1.65E2,1.6E2,9.1E1,6.6E1,6.08E2,2.46E2,1.308E3,2.5E1,1.94E2,-5.687962E0,-4.5138645E1,5.92E2,1.19E2,4.8E2,1.95E2,1.94E2,-8.692147E1,4.73236E1,1.94E2,1.2580464E2,7.15E2,5.52E2,1.4183684E2,3E1,5.27E2,5.61E2,6.08E2,1.42E2,6.752E3,2E1,3.53E2,-1.536853E2,4.553279E1,6.05E2,2.4683302E1,2.32E2,-1.1947091E2,7.1E2,-1.5558229E2,1.3622928E2,2.96E2,-2.080993E0,5.804611E0,2.4643946E1,-1.2137326E2,-9.904895E0,-6.1807167E1,5.3553855E-1,-5.9392185E1,-1.2771616E1,-4.6224834E1,9.353456E0,-1.0655111E1,7.720778E0,-3.7747974E1,8.72647E1,-3.354796E0,8.806787E1,-7.23119E1,-8.4174995E1,1.3096757E0],"split_indices":[50,50,42,50,9,0,1,16,1,9,0,0,0,1,9,52,9,0,0,0,0,0,1,1,0,9,4,17,0,54,6,9,1,0,0,1,0,0,0,1,0,0,0,0,0,0,0,0,0,0,0,0,0,0,0,0,0,0,0,0,0,0,0],"split_type":[0,0,0,0,0,0,0,0,0,0,0,0,0,0,0,0,0,0,0,0,0,0,0,0,0,0,0,0,0,0,0,0,0,0,0,0,0,0,0,0,0,0,0,0,0,0,0,0,0,0,0,0,0,0,0,0,0,0,0,0,0,0,0],"sum_hessian":[1.152E3,1.095E3,5.7E1,1.069E3,2.6E1,7E0,5E1,1.046E3,2.3E1,8E0,1.8E1,2E0,5E0,3.3E1,1.7E1,7.3E2,3.16E2,2.2E1,1E0,3E0,5E0,2E0,1.6E1,3.1E1,2E0,7E0,1E1,7.25E2,5E0,5.4E1,2.62E2,6E0,1.6E1,2E0,3E0,1.1E1,5E0,2.9E1,2E0,3E0,4E0,2E0,8E0,3.38E2,3.87E2,3E0,2E0,5E1,4E0,2.61E2,1E0,4E0,2E0,1E1,6E0,9E0,2E0,2E0,2.7E1,2E0,1E0,1E0,7E0],"tree_param":{"num_deleted":"0","num_feature":"69","num_nodes":"63","size_leaf_vector":"1"}},{"base_weights":[-1.3517115E-1,1.6912617E1,-3.0397282E0,-4.44188E1,3.8365974E1,-2.3727314E1,1.4535575E0,-7.731369E1,6.1294376E1,1.9292583E1,1.6709767E2,-2.6361609E1,6.559115E1,9.850251E1,-2.5087726E-1,-1.09315216E2,6.1737232E1,1.6532039E2,-2.1766253E1,3.4771465E1,-6.175344E1,2.893615E2,8.663641E0,-4.860264E1,-1.1233279E0,3.3314243E1,9.792643E1,7.5151663E0,-1.1518018E1,-1.8078343E2,-5.2436756E1,9.295994E1,-3.1262045E1,6.4219955E1,-4.4496098E0,-6.2113583E1,5.273471E1,2.2192678E1,2.5171956E2,-9.845321E1,5.3356613E1,3.2071143E2,5.784357E0,-3.924225E1,5.1600735E1,5.5644903E0,-8.4491E1,-7.91579E1,3.7914017E1,3.458663E1,-6.787508E1,-8.720943E0,2.107906E1,-7.419241E1,-3.966231E0,-5.8706585E1,-2.5239763E0,-2.05702E1,1.37085085E1,-2.9012144E1,7.691187E0,-2.0966291E1,-4.652608E0,3.5460258E0,2.0184595E1,1.1345849E0,2.565618E1,9.508751E1,3.0772278E1,-4.052517E1,-1.2757452E1,3.8560402E1,7.2852975E-1,1.0498867E2,1.7393354E1,-1.701598E1,8.903895E-1,-6.500552E0,1.5197781E2,-3.9678013E1,-4.5864344E0,-7.301569E0,-2.7900702E1,4.9722645E1,-6.6167197E0,-2.7131008E1,-4.5503697E0,-1.1136673E1,4.8248863E0,1.5380152E1,9.510723E-1,-1.11618095E2,-1.6346592E1,-8.469936E-1,-5.0483356E1],"categories":[],"categories_nodes":[],"categories_segments":[],"categories_sizes":[],"default_left":[0,0,0,0,0,0,0,0,0,0,0,0,0,0,0,0,0,0,0,0,0,0,0,0,0,0,0,0,0,0,0,0,0,0,0,0,0,0,0,0,0,0,0,0,0,0,0,0,0,0,0,0,0,0,0,0,0,0,0,0,0,0,0,0,0,0,0,0,0,0,0,0,0,0,0,0,0,0,0,0,0,0,0,0,0,0,0,0,0,0,0,0,0,0,0],"id":28,"left_children":[1,3,5,7,9,11,13,15,17,19,21,23,-1,25,27,29,31,33,35,37,39,41,43,45,47,49,-1,51,53,55,57,-1,59,-1,-1,61,63,65,67,69,71,73,-1,75,-1,77,79,81,83,-1,85,87,89,91,93,-1,-1,-1,-1,-1,-1,-1,-1,-1,-1,-1,-1,-1,-1,-1,-1,-1,-1,-1,-1,-1,-1,-1,-1,-1,-1,-1,-1,-1,-1,-1,-1,-1,-1,-1,-1,-1,-1,-1,-1],"loss_changes":[5.7143676E4,2.2275269E5,9.168835E4,1.5774553E5,3.03695E5,1.1813251E5,1.3417514E5,1.5804342E5,9.864354E4,1.4014244E5,3.0742512E5,9.8177336E4,0E0,1.9713248E5,6.9912445E4,1.0434044E5,1.7121792E5,4.7083688E4,2.4316945E4,2.4820544E5,8.129435E4,7.001925E4,6.934889E4,1.8125931E5,2.5584098E5,1.0736459E5,0E0,1.04350195E5,1.5400273E5,2.9184094E4,3.0042855E4,0E0,2.4822004E4,0E0,0E0,7.2767773E2,9.903096E2,1.0344284E5,1.61385E4,2.2937297E4,1.883127E4,4.1191312E4,0E0,5.332499E3,0E0,5.2946806E5,1.8310025E5,1.8986844E4,4.329415E5,0E0,5.7632188E3,1.5276103E5,1.3932089E5,1.8514617E5,5.4361004E4,0E0,0E0,0E0,0E0,0E0,0E0,0E0,0E0,0E0,0E0,0E0,0E0,0E0,0E0,0E0,0E0,0E0,0E0,0E0,0E0,0E0,0E0,0E0,0E0,0E0,0E0,0E0,0E0,0E0,0E0,0E0,0E0,0E0,0E0,0E0,0E0,0E0,0E0,0E0,0E0],"parents":[2147483647,0,0,1,1,2,2,3,3,4,4,5,5,6,6,7,7,8,8,9,9,10,10,11,11,13,13,14,14,15,15,16,16,17,17,18,18,19,19,20,20,21,21,22,22,23,23,24,24,25,25,27,27,28,28,29,29,30,30,32,32,35,35,36,36,37,37,38,38,39,39,40,40,41,41,43,43,45,45,46,46,47,47,48,48,50,50,51,51,52,52,53,53,54,54],"right_children":[2,4,6,8,10,12,14,16,18,20,22,24,-1,26,28,30,32,34,36,38,40,42,44,46,48,50,-1,52,54,56,58,-1,60,-1,-1,62,64,66,68,70,72,74,-1,76,-1,78,80,82,84,-1,86,88,90,92,94,-1,-1,-1,-1,-1,-1,-1,-1,-1,-1,-1,-1,-1,-1,-1,-1,-1,-1,-1,-1,-1,-1,-1,-1,-1,-1,-1,-1,-1,-1,-1,-1,-1,-1,-1,-1,-1,-1,-1,-1],"split_conditions":[6E0,1E0,1.2E2,3E0,2E0,8E0,5.7E1,1E0,1E0,1E0,1E0,3.5E1,6.559115E1,1.2E1,3.39E2,3E0,1E0,1.1E1,5E0,1E0,6E0,9E0,1.4E1,1.37E2,4.41E2,1.35E2,9.792643E1,2.88E2,5.3E1,1.3E1,5E0,9.295994E1,1E0,6.4219955E1,-4.4496098E0,5E0,2E0,3.8E1,2E0,1.1E1,1E0,1.3E1,5.784357E0,8E0,5.1600735E1,1.36E2,7.1E1,1.74E2,7.2E1,3.458663E1,1.19E2,6.3E1,9.8E1,5.7E1,6.752E3,-5.8706585E1,-2.5239763E0,-2.05702E1,1.37085085E1,-2.9012144E1,7.691187E0,-2.0966291E1,-4.652608E0,3.5460258E0,2.0184595E1,1.1345849E0,2.565618E1,9.508751E1,3.0772278E1,-4.052517E1,-1.2757452E1,3.8560402E1,7.2852975E-1,1.0498867E2,1.7393354E1,-1.701598E1,8.903895E-1,-6.500552E0,1.5197781E2,-3.9678013E1,-4.5864344E0,-7.301569E0,-2.7900702E1,4.9722645E1,-6.6167197E0,-2.7131008E1,-4.5503697E0,-1.1136673E1,4.8248863E0,1.5380152E1,9.510723E-1,-1.11618095E2,-1.6346592E1,-8.469936E-1,-5.0483356E1],"split_indices":[28,25,4,57,40,37,46,39,42,68,1,9,0,25,15,68,7,15,51,3,26,27,15,17,17,4,0,1,9,15,1,0,0,0,0,1,4,1,0,15,7,5,0,5,0,6,16,17,9,0,1,9,16,16,6,0,0,0,0,0,0,0,0,0,0,0,0,0,0,0,0,0,0,0,0,0,0,0,0,0,0,0,0,0,0,0,0,0,0,0,0,0,0,0,0],"split_type":[0,0,0,0,0,0,0,0,0,0,0,0,0,0,0,0,0,0,0,0,0,0,0,0,0,0,0,0,0,0,0,0,0,0,0,0,0,0,0,0,0,0,0,0,0,0,0,0,0,0,0,0,0,0,0,0,0,0,0,0,0,0,0,0,0,0,0,0,0,0,0,0,0,0,0,0,0,0,0,0,0,0,0,0,0,0,0,0,0,0,0,0,0,0,0],"sum_hessian":[1.152E3,1.67E2,9.85E2,4.3E1,1.24E2,1.75E2,8.1E2,3.3E1,1E1,1.09E2,1.5E1,1.74E2,1E0,1.3E1,7.97E2,2.7E1,6E0,4E0,6E0,9.2E1,1.7E1,8E0,7E0,9.2E1,8.2E1,1.1E1,2E0,4.72E2,3.25E2,1.1E1,1.6E1,1E0,5E0,3E0,1E0,4E0,2E0,8.8E1,4E0,1.3E1,4E0,7E0,1E0,6E0,1E0,3.7E1,5.5E1,2.7E1,5.5E1,6E0,5E0,2.15E2,2.57E2,3.4E1,2.91E2,1E1,1E0,1.4E1,2E0,2E0,3E0,3E0,1E0,1E0,1E0,6.9E1,1.9E1,2E0,2E0,7E0,6E0,1E0,3E0,6E0,1E0,4E0,2E0,3.6E1,1E0,3.2E1,2.3E1,6E0,2.1E1,1.7E1,3.8E1,3E0,2E0,1E2,1.15E2,9.5E1,1.62E2,1E0,3.3E1,2.9E2,1E0],"tree_param":{"num_deleted":"0","num_feature":"69","num_nodes":"95","size_leaf_vector":"1"}},{"base_weights":[3.130199E-1,1.2758013E1,-3.0939019E0,4.276055E0,1.27761314E2,-7.515537E1,-1.2154996E0,7.011698E0,-6.206457E1,-3.3753002E1,3.633179E2,-5.2362694E1,-8.6489136E1,7.296297E1,-2.6669033E0,3.241394E0,1.4722946E2,-5.8852768E1,7.465434E0,-2.7888323E1,4.548579E2,-1.0494203E2,-1.4821498E1,2.369768E1,1.2918114E2,-2.1366795E1,4.0680604E0,8.808386E0,-1.7138896E2,1.2188435E2,1.4162887E1,-4.3864594E0,-2.1347878E1,1.4881602E2,3.7332092E1,-1.2813107E2,-1.5853587E1,-2.771179E1,5.8014092E0,7.2074425E1,-3.368837E1,-7.2961876E1,-1.8914557E0,1.6869557E2,2.2411087E0,-4.1584894E-1,2.440629E1,-7.416486E1,-2.748445E1,-1.7128584E1,4.4879333E1,-1.0152359E1,-4.1461758E1,-6.1506734E0,-9.834412E-1,1.6862318E1,-1.6191858E1,-8.947345E0,3.8398388E1,-3.270542E1,2.0668755E1,-4.1308914E1,-9.689137E0,-1.7518243E0,9.861265E1,-7.9041553E0,9.646933E1,4.04089E1,2.9161325E-1],"categories":[],"categories_nodes":[],"categories_segments":[],"categories_sizes":[],"default_left":[0,0,0,0,0,0,0,0,0,0,0,0,0,0,0,0,0,0,0,0,0,0,0,0,0,0,0,0,0,0,0,0,0,0,0,0,0,0,0,0,0,0,0,0,0,0,0,0,0,0,0,0,0,0,0,0,0,0,0,0,0,0,0,0,0,0,0,0,0],"id":29,"left_children":[1,3,5,7,9,11,13,15,-1,17,19,21,-1,23,25,27,29,31,-1,-1,33,35,37,39,-1,41,43,45,47,-1,49,-1,-1,-1,-1,51,53,-1,55,57,59,61,63,65,67,-1,-1,-1,-1,-1,-1,-1,-1,-1,-1,-1,-1,-1,-1,-1,-1,-1,-1,-1,-1,-1,-1,-1,-1],"loss_changes":[4.8925652E4,2.4136606E5,1.225452E5,1.3546603E5,6.590411E5,9.663961E4,9.536858E4,1.2111538E5,0E0,1.765428E4,3.346585E5,4.1870207E4,0E0,2.8932338E5,1.09405516E5,2.2024694E5,2.010726E5,3.3143066E3,0E0,0E0,1.9941125E4,1.6561547E4,2.292651E4,4.6846477E4,0E0,2.3097327E5,1.9181175E5,1.6207922E5,1.9694703E4,0E0,5.679554E4,0E0,0E0,0E0,0E0,1.9726016E3,1.08167725E2,0E0,3.9189703E4,5.510124E4,6.933199E4,1.6139484E5,2.2119242E5,2.1718405E5,1.0627269E5,0E0,0E0,0E0,0E0,0E0,0E0,0E0,0E0,0E0,0E0,0E0,0E0,0E0,0E0,0E0,0E0,0E0,0E0,0E0,0E0,0E0,0E0,0E0,0E0],"parents":[2147483647,0,0,1,1,2,2,3,3,4,4,5,5,6,6,7,7,9,9,10,10,11,11,13,13,14,14,15,15,16,16,17,17,20,20,21,21,22,22,23,23,25,25,26,26,27,27,28,28,30,30,35,35,36,36,38,38,39,39,40,40,41,41,42,42,43,43,44,44],"right_children":[2,4,6,8,10,12,14,16,-1,18,20,22,-1,24,26,28,30,32,-1,-1,34,36,38,40,-1,42,44,46,48,-1,50,-1,-1,-1,-1,52,54,-1,56,58,60,62,64,66,68,-1,-1,-1,-1,-1,-1,-1,-1,-1,-1,-1,-1,-1,-1,-1,-1,-1,-1,-1,-1,-1,-1,-1,-1],"split_conditions":[7E1,6.17E2,8.5E1,1.3E2,1.8E1,1.84E2,1.37E2,3.46E2,-6.206457E1,6.08E2,1E0,1E1,-8.6489136E1,6E0,8.5E1,1.96E2,5.32E2,6.96E2,7.465434E0,-2.7888323E1,3.2E1,1.85E2,1E0,2.658E3,1.2918114E2,3.3E1,9.5E1,1.2E1,3.4E1,1.2188435E2,8.617E3,-4.3864594E0,-2.1347878E1,1.4881602E2,3.7332092E1,1.7E1,1.8E1,-2.771179E1,1.16E2,6.17E2,4.83E2,1.17E2,1E0,9.3E1,2E0,-4.1584894E-1,2.440629E1,-7.416486E1,-2.748445E1,-1.7128584E1,4.4879333E1,-1.0152359E1,-4.1461758E1,-6.1506734E0,-9.834412E-1,1.6862318E1,-1.6191858E1,-8.947345E0,3.8398388E1,-3.270542E1,2.0668755E1,-4.1308914E1,-9.689137E0,-1.7518243E0,9.861265E1,-7.9041553E0,9.646933E1,4.04089E1,2.9161325E-1],"split_indices":[23,17,23,25,25,6,17,28,0,1,0,54,0,9,0,28,1,17,0,0,0,16,0,1,0,9,23,6,0,0,1,0,0,0,0,16,0,0,54,1,15,15,19,15,4,0,0,0,0,0,0,0,0,0,0,0,0,0,0,0,0,0,0,0,0,0,0,0,0],"split_type":[0,0,0,0,0,0,0,0,0,0,0,0,0,0,0,0,0,0,0,0,0,0,0,0,0,0,0,0,0,0,0,0,0,0,0,0,0,0,0,0,0,0,0,0,0,0,0,0,0,0,0,0,0,0,0,0,0,0,0,0,0,0,0,0,0,0,0,0,0],"sum_hessian":[1.152E3,2.47E2,9.05E2,2.31E2,1.6E1,2.2E1,8.83E2,2.29E2,2E0,1E1,6E0,2.1E1,1E0,1.6E1,8.67E2,2.24E2,5E0,7E0,3E0,1E0,5E0,8E0,1.3E1,1.5E1,1E0,2.29E2,6.38E2,2.18E2,6E0,1E0,4E0,2E0,5E0,4E0,1E0,6E0,2E0,2E0,1.1E1,8E0,7E0,6.2E1,1.67E2,6E0,6.32E2,1.92E2,2.6E1,2E0,4E0,3E0,1E0,1E0,5E0,1E0,1E0,6E0,5E0,3E0,5E0,4E0,3E0,2.3E1,3.9E1,1.66E2,1E0,3E0,3E0,5E0,6.27E2],"tree_param":{"num_deleted":"0","num_feature":"69","num_nodes":"69","size_leaf_vector":"1"}},{"base_weights":[4.7873455E-1,3.7408478E0,-9.331922E0,1.1025898E1,-7.2396493E0,-4.5190117E1,9.0921855E-1,9.664506E0,7.286146E1,-7.987797E1,-4.3907337E0,-2.2139044E1,-2.6432733E2,7.177799E1,-2.301371E0,1.475213E1,-2.6735826E1,-4.2740414E1,-5.682691E1,5.0268402E1,-6.9391594E0,2.4161436E1,-4.3055386E1,-7.219947E1,-1.02702415E2,-1.462209E2,1.6702739E0,1.8741207E1,-4.0541393E1,-1.1374238E2,9.782878E0,1.3844293E1,-3.4023277E1,6.486173E1,8.108364E0,-2.8478619E1,4.4790273E0,-3.0825935E1,8.868362E1,-8.41841E1,-1.861146E1,-5.5129395E0,-2.6976822E1,-5.286516E1,-9.194995E1,1.5281714E2,-3.3283033E0,1.143918E0,1.1916084E1,-3.2876144E1,4.623948E0,-5.667012E1,-2.7733626E0,2.2317038E1,-6.2422447E0,1.7105259E1,-9.837004E0,-3.6550872E0,2.394286E1,5.7857227E1,-9.673204E0,1.3045106E1,-9.116095E-1,-1.7268526E1,1.7897047E1,5.0695984E1,-2.8068252E0,-3.943454E1,-1.422212E1,-4.9514613E-1,-2.7872894E1,-1.7829632E1,-3.989608E0,1.190887E2,-7.270018E0,1.04421355E-1,-3.8882553E1],"categories":[],"categories_nodes":[],"categories_segments":[],"categories_sizes":[],"default_left":[0,0,0,0,0,0,0,0,0,0,0,0,0,0,0,0,0,0,0,0,0,0,0,0,0,0,0,0,0,0,0,0,0,0,0,0,0,0,0,0,0,0,0,0,0,0,0,0,0,0,0,0,0,0,0,0,0,0,0,0,0,0,0,0,0,0,0,0,0,0,0,0,0,0,0,0,0],"id":30,"left_children":[1,3,5,7,9,11,13,15,-1,17,19,21,23,-1,25,27,29,31,-1,33,35,37,39,41,-1,43,45,47,49,51,53,55,-1,-1,57,59,61,63,65,67,69,-1,-1,71,-1,73,75,-1,-1,-1,-1,-1,-1,-1,-1,-1,-1,-1,-1,-1,-1,-1,-1,-1,-1,-1,-1,-1,-1,-1,-1,-1,-1,-1,-1,-1,-1],"loss_changes":[3.693491E4,6.935417E4,1.05802984E5,1.6209748E5,7.125067E4,3.174343E5,1.7273108E5,9.650866E4,0E0,4.479104E4,4.6873273E4,5.817805E4,6.5215156E4,0E0,1.2771042E5,1.0133978E5,2.044642E5,4.5557664E4,0E0,1.031858E5,7.882886E4,7.0143945E4,3.9652438E4,1.2092969E3,0E0,7.3574586E4,1.6521183E5,1.3326264E5,1.21455234E5,1.4747686E5,9.246037E4,1.5963081E4,0E0,0E0,1.988684E4,9.872785E4,6.1709656E4,3.0044383E4,7.243698E4,1.9842062E4,3.387123E4,0E0,0E0,5.087832E2,0E0,3.12202E5,9.846681E4,0E0,0E0,0E0,0E0,0E0,0E0,0E0,0E0,0E0,0E0,0E0,0E0,0E0,0E0,0E0,0E0,0E0,0E0,0E0,0E0,0E0,0E0,0E0,0E0,0E0,0E0,0E0,0E0,0E0,0E0],"parents":[2147483647,0,0,1,1,2,2,3,3,4,4,5,5,6,6,7,7,9,9,10,10,11,11,12,12,14,14,15,15,16,16,17,17,19,19,20,20,21,21,22,22,23,23,25,25,26,26,27,27,28,28,29,29,30,30,31,31,34,34,35,35,36,36,37,37,38,38,39,39,40,40,43,43,45,45,46,46],"right_children":[2,4,6,8,10,12,14,16,-1,18,20,22,24,-1,26,28,30,32,-1,34,36,38,40,42,-1,44,46,48,50,52,54,56,-1,-1,58,60,62,64,66,68,70,-1,-1,72,-1,74,76,-1,-1,-1,-1,-1,-1,-1,-1,-1,-1,-1,-1,-1,-1,-1,-1,-1,-1,-1,-1,-1,-1,-1,-1,-1,-1,-1,-1,-1,-1],"split_conditions":[1E0,4.68E2,2E2,4E2,6E1,2.29E2,9.5E1,4.8E1,7.286146E1,3.8E1,3E1,1E0,6.4E1,7.177799E1,1.66E2,7.06E2,1.03E2,4.2E1,-5.682691E1,1.3E2,4.6E1,1E0,5E0,6.6E1,-1.02702415E2,3.52E2,1.51E2,5.61E2,3.14E2,3.21E2,2E2,1E0,-3.4023277E1,6.486173E1,5.98E2,7E1,2.13E2,8E0,1E0,8E0,3.52E2,-5.5129395E0,-2.6976822E1,2.27E2,-9.194995E1,4.16E2,5.44E2,1.143918E0,1.1916084E1,-3.2876144E1,4.623948E0,-5.667012E1,-2.7733626E0,2.2317038E1,-6.2422447E0,1.7105259E1,-9.837004E0,-3.6550872E0,2.394286E1,5.7857227E1,-9.673204E0,1.3045106E1,-9.116095E-1,-1.7268526E1,1.7897047E1,5.0695984E1,-2.8068252E0,-3.943454E1,-1.422212E1,-4.9514613E-1,-2.7872894E1,