{"learner":{"attributes":{"scikit_learn":"{\"_estimator_type\": \"regressor\"}"},"feature_names":[],"feature_types":[],"gradient_booster":{"model":{"gbtree_model_param":{"num_parallel_tree":"1","num_trees":"100"},"iteration_indptr":[0,1,2,3,4,5,6,7,8,9,10,11,12,13,14,15,16,17,18,19,20,21,22,23,24,25,26,27,28,29,30,31,32,33,34,35,36,37,38,39,40,41,42,43,44,45,46,47,48,49,50,51,52,53,54,55,56,57,58,59,60,61,62,63,64,65,66,67,68,69,70,71,72,73,74,75,76,77,78,79,80,81,82,83,84,85,86,87,88,89,90,91,92,93,94,95,96,97,98,99,100],"tree_info":[0,0,0,0,0,0,0,0,0,0,0,0,0,0,0,0,0,0,0,0,0,0,0,0,0,0,0,0,0,0,0,0,0,0,0,0,0,0,0,0,0,0,0,0,0,0,0,0,0,0,0,0,0,0,0,0,0,0,0,0,0,0,0,0,0,0,0,0,0,0,0,0,0,0,0,0,0,0,0,0,0,0,0,0,0,0,0,0,0,0,0,0,0,0,0,0,0,0,0,0],"trees":[{"base_weights":[-1.1460635E-5,-1.6283583E2,7.628417E2,-3.0997244E2,2.3997617E2,-1.8124788E2,8.39132E2,-3.8695255E2,3.148926E2,9.89192E1,8.1633136E2,-3.7451782E2,2.3432834E2,9.891651E2,5.720882E2,-4.3520212E2,1.493787E2,8.587161E2,1.0901217E2,-7.969355E1,4.790022E2,4.8848956E2,9.562425E2,1.7574625E2,-4.9345316E2,1.016782E3,-1.2528449E2,3.233337E2,7.302261E2,-4.4655792E2,2.81194E2,9.4445215E2,-1.1275466E2,1.0152435E3,-1.2565889E2,-1.9893706E2,5.7289087E2,1.0306862E2,-4.04236E2,7.4455066E2,-4.982975E1,2.0384286E2,2.929104E2,3.1207397E2,2.6096964E2,-1.6489241E2,-3.6883602E1,1.0442474E3,-2.0177673E1,3.450373E2,-4.265506E1,2.9254633E2,3.8241003E2,-1.3802425E2,1.3244308E2,-9.152694E1,3.2220145E2,-6.994121E1,1.19375496E2,3.3196515E2,-9.424204E1,-9.531695E1,1.7319725E2,-7.647142E0,2.878156E2,-1.3647553E1,2.5764236E2,-1.638728E2,6.9784706E1,8.261048E1,2.7356668E2,-8.698544E1,2.0365213E2,1.110735E2,-1.2563357E2,-1.0384351E2,2.3432834E2,3.1760437E2,-8.801367E1,-1.2523524E2,1.7574625E2,1.20003395E2,7.525071E1,3.0162487E1,2.929104E2],"categories":[],"categories_nodes":[],"categories_segments":[],"categories_sizes":[],"default_left":[0,0,0,0,0,0,0,0,0,0,0,0,0,0,0,0,0,0,0,0,0,0,0,0,0,0,0,0,0,0,0,0,0,0,0,0,0,0,0,0,0,0,0,0,0,0,0,0,0,0,0,0,0,0,0,0,0,0,0,0,0,0,0,0,0,0,0,0,0,0,0,0,0,0,0,0,0,0,0,0,0,0,0,0,0],"id":0,"left_children":[1,3,5,7,9,11,13,15,17,19,21,23,-1,25,27,29,31,33,35,37,39,41,43,-1,45,47,-1,49,51,53,-1,55,57,59,-1,61,63,65,67,69,71,73,-1,-1,75,-1,-1,77,79,81,-1,-1,83,-1,-1,-1,-1,-1,-1,-1,-1,-1,-1,-1,-1,-1,-1,-1,-1,-1,-1,-1,-1,-1,-1,-1,-1,-1,-1,-1,-1,-1,-1,-1,-1],"loss_changes":[1.433475E8,5.6438624E7,1.477316E7,3.3649064E7,2.0650472E7,3.2684028E6,6.966408E6,1.6135104E7,8.527511E6,1.4023034E7,1.82632E6,1.8881298E6,0E0,5.047872E6,2.517518E6,9.302584E6,1.0944086E7,4.624746E6,8.256482E6,8.404949E6,9.305514E6,2.161815E6,1.714324E6,0E0,2.030605E5,3.353304E6,0E0,3.4205725E5,3.205072E6,7.00008E6,0E0,2.432128E6,2.5518175E6,2.653868E6,0E0,3.4107452E6,5.3436895E6,1.0255908E7,4.739361E6,3.20343E6,4.22113E6,1.398317E6,0E0,0E0,1.8492488E6,0E0,0E0,2.511576E6,1.2075389E6,4.466475E4,0E0,0E0,3.0827758E6,0E0,0E0,0E0,0E0,0E0,0E0,0E0,0E0,0E0,0E0,0E0,0E0,0E0,0E0,0E0,0E0,0E0,0E0,0E0,0E0,0E0,0E0,0E0,0E0,0E0,0E0,0E0,0E0,0E0,0E0,0E0,0E0],"parents":[2147483647,0,0,1,1,2,2,3,3,4,4,5,5,6,6,7,7,8,8,9,9,10,10,11,11,13,13,14,14,15,15,16,16,17,17,18,18,19,19,20,20,21,21,22,22,24,24,25,25,27,27,28,28,29,29,31,31,32,32,33,33,35,35,36,36,37,37,38,38,39,39,40,40,41,41,44,44,47,47,48,48,49,49,52,52],"right_children":[2,4,6,8,10,12,14,16,18,20,22,24,-1,26,28,30,32,34,36,38,40,42,44,-1,46,48,-1,50,52,54,-1,56,58,60,-1,62,64,66,68,70,72,74,-1,-1,76,-1,-1,78,80,82,-1,-1,84,-1,-1,-1,-1,-1,-1,-1,-1,-1,-1,-1,-1,-1,-1,-1,-1,-1,-1,-1,-1,-1,-1,-1,-1,-1,-1,-1,-1,-1,-1,-1,-1],"split_conditions":[1.009E3,3.86E2,2.8E1,1E0,3.66E2,3.6E2,3.1E1,1.03E2,1E0,4.8E2,3.53E2,3.3E1,2.3432834E2,6.752E3,1.01E2,2.6E1,1.11E2,8E0,1E0,3.6E2,9.38E2,4.83E2,9.18E2,1.7574625E2,1.98E2,4.8E2,-1.2528449E2,6.08E2,4.21E2,2E0,2.81194E2,7.1E1,4.24E2,2E0,-1.2565889E2,9E0,5E0,1E0,1.03E2,1.94E2,2.5E1,2.658E3,2.929104E2,3.1207397E2,1.667E3,-1.6489241E2,-3.6883602E1,3.84E2,1.048E3,1.313E3,-4.265506E1,2.9254633E2,9.92E2,-1.3802425E2,1.3244308E2,-9.152694E1,3.2220145E2,-6.994121E1,1.19375496E2,3.3196515E2,-9.424204E1,-9.531695E1,1.7319725E2,-7.647142E0,2.878156E2,-1.3647553E1,2.5764236E2,-1.638728E2,6.9784706E1,8.261048E1,2.7356668E2,-8.698544E1,2.0365213E2,1.110735E2,-1.2563357E2,-1.0384351E2,2.3432834E2,3.1760437E2,-8.801367E1,-1.2523524E2,1.7574625E2,1.20003395E2,7.525071E1,3.0162487E1,2.929104E2],"split_indices":[23,1,0,26,15,5,61,67,68,0,28,1,0,6,61,21,28,26,63,6,0,15,9,0,5,25,0,0,9,22,0,1,6,2,0,26,68,19,9,28,61,1,0,0,0,0,0,40,15,1,0,0,0,0,0,0,0,0,0,0,0,0,0,0,0,0,0,0,0,0,0,0,0,0,0,0,0,0,0,0,0,0,0,0,0],"split_type":[0,0,0,0,0,0,0,0,0,0,0,0,0,0,0,0,0,0,0,0,0,0,0,0,0,0,0,0,0,0,0,0,0,0,0,0,0,0,0,0,0,0,0,0,0,0,0,0,0,0,0,0,0,0,0,0,0,0,0,0,0,0,0,0,0,0,0,0,0,0,0,0,0,0,0,0,0,0,0,0,0,0,0,0,0],"sum_hessian":[1.152E3,9.5E2,2.02E2,6.96E2,2.54E2,1.5E1,1.87E2,6.2E2,7.6E1,2.05E2,4.9E1,1.3E1,2E0,1.18E2,6.9E1,5.69E2,5.1E1,2E1,5.6E1,1.4E2,6.5E1,1.6E1,3.3E1,1E0,1.2E1,1.16E2,2E0,2.8E1,4.1E1,5.65E2,4E0,1.2E1,3.9E1,1.8E1,2E0,3.4E1,2.2E1,9E1,5E1,4.3E1,2.2E1,1.1E1,5E0,2.9E1,4E0,1E1,2E0,1.13E2,3E0,2.7E1,1E0,2.3E1,1.8E1,5.57E2,8E0,1E0,1.1E1,3.2E1,7E0,1.7E1,1E0,3E1,4E0,9E0,1.3E1,7.6E1,1.4E1,4.1E1,9E0,1.2E1,3.1E1,1.7E1,5E0,9E0,2E0,2E0,2E0,1.12E2,1E0,2E0,1E0,1.5E1,1.2E1,1.3E1,5E0],"tree_param":{"num_deleted":"0","num_feature":"69","num_nodes":"85","size_leaf_vector":"1"}},{"base_weights":[3.036283E0,-1.21794815E2,4.991192E2,1.640275E1,-3.6286676E2,-1.1385486E2,5.420154E2,-7.668415E1,3.347346E2,-3.916208E2,8.7092094E1,-2.6402173E2,1.8746268E2,4.4678165E2,7.5784216E2,-1.5797897E2,3.2445117E2,5.9452686E2,-2.2085373E1,-4.5107172E2,-2.506804E2,2.606195E2,-3.6577997E2,1.4938431E2,-3.6093845E2,1.0206677E2,5.231813E2,2.5038823E2,5.6982434E2,-2.4335332E2,2.0942767E2,4.1579916E2,-2.6143665E2,9.388298E1,7.4567444E2,5.0642413E2,-2.2289648E2,-4.5907507E2,1.9644989E2,-3.2127173E2,4.6739923E2,-1.2976689E2,-6.139566E1,-1.1992176E2,-2.950688E1,2.4127087E2,-1.5790697E2,2.4274944E2,3.889682E2,-3.9203342E1,2.40198E2,-8.147944E1,9.794043E1,-7.553963E1,8.379419E1,1.5075966E2,-7.0814276E0,1.180232E2,-1.6685422E2,-4.7788555E1,2.0069547E2,2.7296906E2,1.4578085E2,-7.37215E1,2.3328694E2,2.595049E1,-1.3102419E2,-1.3820178E2,-1.6382269E1,3.2113804E1,-1.13267E2,3.1431982E2,-6.192424E1,-1.235263E2,4.001178E1,1.253008E2,-9.3299095E1,1.921584E2,-2.1274014E2],"categories":[],"categories_nodes":[],"categories_segments":[],"categories_sizes":[],"default_left":[0,0,0,0,0,0,0,0,0,0,0,0,0,0,0,0,0,0,0,0,0,0,0,0,0,0,0,0,0,0,0,0,0,0,0,0,0,0,0,0,0,0,0,0,0,0,0,0,0,0,0,0,0,0,0,0,0,0,0,0,0,0,0,0,0,0,0,0,0,0,0,0,0,0,0,0,0,0,0],"id":1,"left_children":[1,3,5,7,9,11,13,15,17,19,21,23,-1,25,27,29,31,33,35,37,39,-1,41,-1,43,45,47,-1,49,51,53,55,57,59,61,63,65,67,-1,69,71,-1,-1,-1,-1,-1,73,-1,75,77,-1,-1,-1,-1,-1,-1,-1,-1,-1,-1,-1,-1,-1,-1,-1,-1,-1,-1,-1,-1,-1,-1,-1,-1,-1,-1,-1,-1,-1],"loss_changes":[7.146213E7,3.0722892E7,6.161972E6,1.7419962E7,4.381316E6,1.9399061E6,4.121624E6,1.4888907E7,1.2342105E7,2.534704E6,7.7514025E6,1.2135942E6,0E0,3.97602E6,4.62816E5,1.1939097E7,4.22972E6,5.75667E6,6.1623235E6,2.256676E6,5.01642E6,0E0,6.210975E4,0E0,9.313225E4,5.4208175E6,4.4831E6,0E0,3.1242645E6,5.04577E6,2.391136E6,2.565286E6,2.3419432E6,2.873028E6,2.074484E6,3.4548625E6,2.8167105E6,1.16996E5,0E0,2.161904E6,3.7355948E6,0E0,0E0,0E0,0E0,0E0,1.6816085E6,0E0,1.877704E6,3.6418292E6,0E0,0E0,0E0,0E0,0E0,0E0,0E0,0E0,0E0,0E0,0E0,0E0,0E0,0E0,0E0,0E0,0E0,0E0,0E0,0E0,0E0,0E0,0E0,0E0,0E0,0E0,0E0,0E0,0E0],"parents":[2147483647,0,0,1,1,2,2,3,3,4,4,5,5,6,6,7,7,8,8,9,9,10,10,11,11,13,13,14,14,15,15,16,16,17,17,18,18,19,19,20,20,22,22,24,24,25,25,26,26,28,28,29,29,30,30,31,31,32,32,33,33,34,34,35,35,36,36,37,37,39,39,40,40,46,46,48,48,49,49],"right_children":[2,4,6,8,10,12,14,16,18,20,22,24,-1,26,28,30,32,34,36,38,40,-1,42,-1,44,46,48,-1,50,52,54,56,58,60,62,64,66,68,-1,70,72,-1,-1,-1,-1,-1,74,-1,76,78,-1,-1,-1,-1,-1,-1,-1,-1,-1,-1,-1,-1,-1,-1,-1,-1,-1,-1,-1,-1,-1,-1,-1,-1,-1,-1,-1,-1,-1],"split_conditions":[7.19E2,2E1,2.8E1,1.568E3,8.2E1,3.6E2,2.117E3,1E0,3.6E2,1E0,2.06E2,3.3E1,1.8746268E2,3.29E2,1.2777E4,4.16E2,6E0,1E0,1E0,3.85E2,6.6E1,2.606195E2,3.64E2,1.4938431E2,1.98E2,8.2E1,1.017E3,2.5038823E2,5.77E2,6.1E1,1.16E2,7E0,3E0,2.16E2,3.52E2,2.49E2,1E0,4E0,1.9644989E2,1E0,9.6E1,-1.2976689E2,-6.139566E1,-1.1992176E2,-2.950688E1,2.4127087E2,1.5E1,2.4274944E2,1.698E3,3.781E3,2.40198E2,-8.147944E1,9.794043E1,-7.553963E1,8.379419E1,1.5075966E2,-7.0814276E0,1.180232E2,-1.6685422E2,-4.7788555E1,2.0069547E2,2.7296906E2,1.4578085E2,-7.37215E1,2.3328694E2,2.595049E1,-1.3102419E2,-1.3820178E2,-1.6382269E1,3.2113804E1,-1.13267E2,3.1431982E2,-6.192424E1,-1.235263E2,4.001178E1,1.253008E2,-9.3299095E1,1.921584E2,-2.1274014E2],"split_indices":[23,5,0,17,19,5,23,3,6,3,5,1,0,28,4,0,25,54,19,9,9,0,25,0,5,42,15,0,28,25,15,0,7,9,54,15,61,61,0,0,4,0,0,0,0,0,3,0,15,23,0,0,0,0,0,0,0,0,0,0,0,0,0,0,0,0,0,0,0,0,0,0,0,0,0,0,0,0,0],"split_type":[0,0,0,0,0,0,0,0,0,0,0,0,0,0,0,0,0,0,0,0,0,0,0,0,0,0,0,0,0,0,0,0,0,0,0,0,0,0,0,0,0,0,0,0,0,0,0,0,0,0,0,0,0,0,0,0,0,0,0,0,0,0,0,0,0,0,0,0,0,0,0,0,0,0,0,0,0,0,0],"sum_hessian":[1.152E3,9.21E2,2.31E2,5.86E2,3.35E2,1.5E1,2.16E2,4.54E2,1.32E2,3.15E2,2E1,1.3E1,2E0,1.52E2,6.4E1,3.78E2,7.6E1,7.6E1,5.6E1,2.2E2,9.5E1,7E0,1.3E1,1E0,1.2E1,2.8E1,1.24E2,4.3E1,2.1E1,3.07E2,7.1E1,6.6E1,1E1,1.8E1,5.8E1,1.5E1,4.1E1,2.19E2,1E0,8.7E1,8E0,8E0,5E0,1E1,2E0,7E0,2.1E1,3.8E1,8.6E1,6E0,1.5E1,2.93E2,1.4E1,9E0,6.2E1,5.5E1,1.1E1,3E0,7E0,1.3E1,5E0,3.4E1,2.4E1,4E0,1.1E1,1.7E1,2.4E1,2.18E2,1E0,1E1,7.7E1,4E0,4E0,1.1E1,1E1,8.3E1,3E0,3E0,3E0],"tree_param":{"num_deleted":"0","num_feature":"69","num_nodes":"79","size_leaf_vector":"1"}},{"base_weights":[3.9625204E0,-8.4141106E1,3.5408142E2,1.2752296E1,-2.5316577E2,-6.798475E1,3.835698E2,-8.243555E1,1.8530464E2,-2.7346014E2,6.427195E1,-1.8481839E2,1.4997015E2,3.15574E2,5.3772034E2,2.2617084E2,-1.644558E2,-8.25265E1,3.26665E2,-2.7797012E2,1.7207626E2,1.922069E2,-2.6970044E2,1.2697667E2,-2.6415143E2,2.504338E2,5.5405927E2,1.7697893E2,4.0885965E2,3.2381717E2,-3.0199237E2,-2.0087053E2,2.8283765E2,-1.26608086E2,1.0308888E2,4.921602E2,5.508473E1,-2.8240063E2,1.6698242E2,-9.516238E1,-4.604674E1,-8.721583E1,-2.36055E1,4.1166086E2,3.97838E1,1.873633E2,-9.54722E1,-4.4108162E1,1.7444382E2,1.9217195E2,2.5822102E1,-1.4965862E2,1.5615817E2,-6.4708466E1,1.955036E2,1.9330157E2,-1.906496E2,5.833311E1,-1.133972E2,1.799899E2,8.235502E1,2.1994759E2,-3.5897118E1,-9.642657E1,-5.4041996E1,9.148327E1,2.0293335E2,-8.101399E1,5.3203568E1,-1.25248344E2,1.305892E2,-9.218616E1,1.22767876E2],"categories":[],"categories_nodes":[],"categories_segments":[],"categories_sizes":[],"default_left":[0,0,0,0,0,0,0,0,0,0,0,0,0,0,0,0,0,0,0,0,0,0,0,0,0,0,0,0,0,0,0,0,0,0,0,0,0,0,0,0,0,0,0,0,0,0,0,0,0,0,0,0,0,0,0,0,0,0,0,0,0,0,0,0,0,0,0,0,0,0,0,0,0],"id":2,"left_children":[1,3,5,7,9,11,13,15,17,19,21,23,-1,25,27,29,31,33,35,37,-1,-1,39,-1,41,43,45,-1,47,49,51,53,55,-1,57,59,61,63,-1,-1,-1,-1,-1,65,67,-1,69,71,-1,-1,-1,-1,-1,-1,-1,-1,-1,-1,-1,-1,-1,-1,-1,-1,-1,-1,-1,-1,-1,-1,-1,-1,-1],"loss_changes":[3.559609E7,1.5103166E7,2.91356E6,9.656684E6,2.182156E6,1.1539602E6,2.10481E6,9.630434E6,7.939845E6,1.366608E6,4.215454E6,7.8716844E5,0E0,2.238098E6,1.96106E5,4.2236465E6,4.9432335E6,4.6437105E6,6.130387E6,1.321938E6,0E0,0E0,2.860475E4,0E0,4.1181938E4,4.127046E6,1.52466E6,0E0,1.7458532E6,5.0657165E6,2.3647505E6,3.654067E6,8.045003E6,0E0,2.1830468E6,1.82968E6,6.3675825E6,1.195064E6,0E0,0E0,0E0,0E0,0E0,1.743442E6,2.34941E6,0E0,8.654126E5,9.609067E5,0E0,0E0,0E0,0E0,0E0,0E0,0E0,0E0,0E0,0E0,0E0,0E0,0E0,0E0,0E0,0E0,0E0,0E0,0E0,0E0,0E0,0E0,0E0,0E0,0E0],"parents":[2147483647,0,0,1,1,2,2,3,3,4,4,5,5,6,6,7,7,8,8,9,9,10,10,11,11,13,13,14,14,15,15,16,16,17,17,18,18,19,19,22,22,24,24,25,25,26,26,28,28,29,29,30,30,31,31,32,32,34,34,35,35,36,36,37,37,43,43,44,44,46,46,47,47],"right_children":[2,4,6,8,10,12,14,16,18,20,22,24,-1,26,28,30,32,34,36,38,-1,-1,40,-1,42,44,46,-1,48,50,52,54,56,-1,58,60,62,64,-1,-1,-1,-1,-1,66,68,-1,70,72,-1,-1,-1,-1,-1,-1,-1,-1,-1,-1,-1,-1,-1,-1,-1,-1,-1,-1,-1,-1,-1,-1,-1,-1,-1],"split_conditions":[7.19E2,2E1,2.8E1,1.08E3,8.2E1,3.6E2,2.117E3,1E0,1E0,1E0,2.06E2,3.3E1,1.4997015E2,1.312E3,1.2777E4,3.9E1,2.6E1,4.1E1,3.6E2,3.85E2,1.7207626E2,1.922069E2,3.64E2,1.2697667E2,1.98E2,4.8E2,2.2528E4,1.7697893E2,3.6066E4,2E0,4.83E2,1E0,4.75E2,-1.26608086E2,1.12E3,3.52E2,6.4E1,2E0,1.6698242E2,-9.516238E1,-4.604674E1,-8.721583E1,-2.36055E1,6.08E2,1.032E3,1.873633E2,1.048E3,5.77E2,1.7444382E2,1.9217195E2,2.5822102E1,-1.4965862E2,1.5615817E2,-6.4708466E1,1.955036E2,1.9330157E2,-1.906496E2,5.833311E1,-1.133972E2,1.799899E2,8.235502E1,2.1994759E2,-3.5897118E1,-9.642657E1,-5.4041996E1,9.148327E1,2.0293335E2,-8.101399E1,5.3203568E1,-1.25248344E2,1.305892E2,-9.218616E1,1.22767876E2],"split_indices":[23,5,0,17,19,5,23,9,54,39,5,1,0,54,4,16,61,9,6,9,0,0,25,0,5,42,4,0,57,7,15,38,1,0,0,54,28,3,0,0,0,0,0,0,15,0,15,28,0,0,0,0,0,0,0,0,0,0,0,0,0,0,0,0,0,0,0,0,0,0,0,0,0],"split_type":[0,0,0,0,0,0,0,0,0,0,0,0,0,0,0,0,0,0,0,0,0,0,0,0,0,0,0,0,0,0,0,0,0,0,0,0,0,0,0,0,0,0,0,0,0,0,0,0,0,0,0,0,0,0,0,0,0,0,0,0,0,0,0,0,0,0,0,0,0,0,0,0,0],"sum_hessian":[1.152E3,9.21E2,2.31E2,5.86E2,3.35E2,1.5E1,2.16E2,3.78E2,2.08E2,3.15E2,2E1,1.3E1,2E0,1.52E2,6.4E1,7.9E1,2.99E2,7.2E1,1.36E2,3.14E2,1E0,7E0,1.3E1,1E0,1.2E1,1.21E2,3.1E1,4.3E1,2.1E1,6.7E1,1.2E1,2.77E2,2.2E1,2.5E1,4.7E1,8.4E1,5.2E1,3.13E2,1E0,8E0,5E0,1E1,2E0,6.8E1,5.3E1,2.8E1,3E0,6E0,1.5E1,2.8E1,3.9E1,1E1,2E0,2.73E2,4E0,1.6E1,6E0,4E1,7E0,5.5E1,2.9E1,1E1,4.2E1,2.25E2,8.8E1,5E1,1.8E1,1.6E1,3.7E1,2E0,1E0,4E0,2E0],"tree_param":{"num_deleted":"0","num_feature":"69","num_nodes":"73","size_leaf_vector":"1"}},{"base_weights":[4.3953576E0,-5.313346E1,2.738806E2,-1.1250944E2,1.0936925E2,-6.3577713E1,2.9921393E2,-1.32752E2,3.2666144E2,-1.7420328E2,1.8286665E2,1.17965614E2,-6.3163517E1,3.0775443E2,-9.986443E1,-6.383665E1,-1.9099094E2,4.835005E2,-2.8014398E2,-3.3123148E2,8.085069E1,3.9794623E2,1.13693985E2,3.7504932E2,2.0226006E2,-9.126104E1,4.7610883E2,-2.2701237E2,-9.601486E1,2.3250839E2,1.0309337E2,-1.3341261E2,1.0608665E2,-4.9168324E1,-3.7984387E2,4.8949115E2,-1.00541954E2,2.6704407E0,4.868165E2,5.1888763E1,4.8497607E2,3.8765958E2,-6.549532E1,5.998948E1,3.1261578E2,-6.2665337E1,7.6168494E0,2.2203557E2,-5.9980278E1,-6.945746E1,1.4193504E2,-4.963867E1,6.3724174E1,1.7325252E2,-6.1890804E1,-9.758923E1,1.9972159E2,-1.1833206E2,2.13842E0,2.4074017E2,5.880286E1,-1.139497E2,2.0141481E2,1.9912004E2,6.252453E1,-5.3390152E1,3.772356E1,1.6551694E2,8.976103E1,1.27553635E2,8.4875916E1,-1.0019867E2,1.1100081E2,3.3296163E0,1.0240084E2,1.4170221E2,2.8321344E1],"categories":[],"categories_nodes":[],"categories_segments":[],"categories_sizes":[],"default_left":[0,0,0,0,0,0,0,0,0,0,0,0,0,0,0,0,0,0,0,0,0,0,0,0,0,0,0,0,0,0,0,0,0,0,0,0,0,0,0,0,0,0,0,0,0,0,0,0,0,0,0,0,0,0,0,0,0,0,0,0,0,0,0,0,0,0,0,0,0,0,0,0,0,0,0,0,0],"id":3,"left_children":[1,3,5,7,9,11,13,15,17,19,21,-1,-1,23,-1,25,27,29,31,33,35,37,39,41,43,45,47,49,51,-1,53,-1,-1,55,57,59,-1,61,63,65,67,69,71,73,75,-1,-1,-1,-1,-1,-1,-1,-1,-1,-1,-1,-1,-1,-1,-1,-1,-1,-1,-1,-1,-1,-1,-1,-1,-1,-1,-1,-1,-1,-1,-1,-1],"loss_changes":[1.7889704E7,9.188272E6,1.754457E6,6.239655E6,5.346528E6,1.0898024E6,1.122744E6,2.66485E6,3.0857442E6,2.1494655E6,2.974914E6,0E0,0E0,1.251698E6,0E0,4.589406E6,1.213247E6,2.692578E6,8.8732756E5,4.3381225E5,3.73385E6,1.7199845E6,3.531647E6,6.53149E5,1.158774E6,4.025508E6,2.825204E6,9.34121E5,2.1985228E6,0E0,1.880527E6,0E0,0E0,1.4010026E6,1.609655E5,8.53089E5,0E0,2.8128558E6,1.831825E6,2.297208E6,1.07717E5,3.11982E5,5.913045E5,4.638902E5,1.419268E6,0E0,0E0,0E0,0E0,0E0,0E0,0E0,0E0,0E0,0E0,0E0,0E0,0E0,0E0,0E0,0E0,0E0,0E0,0E0,0E0,0E0,0E0,0E0,0E0,0E0,0E0,0E0,0E0,0E0,0E0,0E0,0E0],"parents":[2147483647,0,0,1,1,2,2,3,3,4,4,5,5,6,6,7,7,8,8,9,9,10,10,13,13,15,15,16,16,17,17,18,18,19,19,20,20,21,21,22,22,23,23,24,24,25,25,26,26,27,27,28,28,30,30,33,33,34,34,35,35,37,37,38,38,39,39,40,40,41,41,42,42,43,43,44,44],"right_children":[2,4,6,8,10,12,14,16,18,20,22,-1,-1,24,-1,26,28,30,32,34,36,38,40,42,44,46,48,50,52,-1,54,-1,-1,56,58,60,-1,62,64,66,68,70,72,74,76,-1,-1,-1,-1,-1,-1,-1,-1,-1,-1,-1,-1,-1,-1,-1,-1,-1,-1,-1,-1,-1,-1,-1,-1,-1,-1,-1,-1,-1,-1,-1,-1],"split_conditions":[1.009E3,3.86E2,6.6E1,2E0,1.42E2,5E0,6.752E3,3E0,6E0,1.08E3,2.22E2,1.17965614E2,-6.3163517E1,2.3E1,-9.986443E1,2E0,2E0,1.8E1,2E0,5.2E1,5.92E2,5.38E2,4.94E2,4.8E2,1.01E2,1E0,6E0,3.85E2,6.6E1,2.3250839E2,6E0,-1.3341261E2,1.0608665E2,5.1E1,8.617E3,1E0,-1.00541954E2,2E0,9.6E1,3.2E1,1E0,1.185E3,1.048E3,3.456E3,4.21E2,-6.2665337E1,7.6168494E0,2.2203557E2,-5.9980278E1,-6.945746E1,1.4193504E2,-4.963867E1,6.3724174E1,1.7325252E2,-6.1890804E1,-9.758923E1,1.9972159E2,-1.1833206E2,2.13842E0,2.4074017E2,5.880286E1,-1.139497E2,2.0141481E2,1.9912004E2,6.252453E1,-5.3390152E1,3.772356E1,1.6551694E2,8.976103E1,1.27553635E2,8.4875916E1,-1.0019867E2,1.1100081E2,3.3296163E0,1.0240084E2,1.4170221E2,2.8321344E1],"split_indices":[23,1,9,56,15,3,6,25,27,17,23,0,0,61,0,43,3,46,4,15,1,17,15,25,61,54,5,9,9,0,5,0,0,15,1,19,0,5,40,9,40,9,15,0,9,0,0,0,0,0,0,0,0,0,0,0,0,0,0,0,0,0,0,0,0,0,0,0,0,0,0,0,0,0,0,0,0],"split_type":[0,0,0,0,0,0,0,0,0,0,0,0,0,0,0,0,0,0,0,0,0,0,0,0,0,0,0,0,0,0,0,0,0,0,0,0,0,0,0,0,0,0,0,0,0,0,0,0,0,0,0,0,0,0,0,0,0,0,0,0,0,0,0,0,0,0,0,0,0,0,0,0,0,0,0,0,0],"sum_hessian":[1.152E3,9.5E2,2.02E2,6.96E2,2.54E2,1.4E1,1.88E2,6.66E2,3E1,5.2E1,2.02E2,3E0,1.1E1,1.86E2,2E0,3.06E2,3.6E2,2.4E1,6E0,3.2E1,2E1,4.8E1,1.54E2,1.12E2,7.4E1,2.92E2,1.4E1,2.6E2,1E2,1.3E1,1.1E1,5E0,1E0,5E0,2.7E1,1E1,1E1,9E0,3.9E1,1.33E2,2.1E1,1.09E2,3E0,3.3E1,4.1E1,1.45E2,1.47E2,1E1,4E0,2.59E2,1E0,8.2E1,1.8E1,4E0,7E0,4E0,1E0,2.6E1,1E0,4E0,6E0,6E0,3E0,2.3E1,1.6E1,3.2E1,1.01E2,1.4E1,7E0,7.8E1,3.1E1,2E0,1E0,2.9E1,4E0,2.3E1,1.8E1],"tree_param":{"num_deleted":"0","num_feature":"69","num_nodes":"77","size_leaf_vector":"1"}},{"base_weights":[4.583868E0,-5.071259E1,1.5120998E2,-9.11319E1,5.7176018E1,-1.07821236E2,1.6057484E2,-1.8513109E2,-1.887491E1,1.3538072E2,-1.2239441E2,-7.768031E1,1.6967645E2,2.280413E1,-2.2550955E2,9.271659E1,-1.0781904E2,4.7569572E1,3.1176233E2,-5.7796883E1,-8.8350426E1,1.5290163E2,1.20321785E2,-2.1436119E2,3.4614594E2,-2.3847154E2,-3.0736156E1,1.3423201E2,-2.0932626E2,-1.3356345E2,2.9162274E2,2.0154619E2,-2.089665E2,1.3335067E1,4.292116E2,-4.2957973E1,-4.404842E1,2.948526E2,1.3193295E2,-7.7931366E1,1.3813339E2,1.9676178E2,-4.851366E1,-7.363596E1,-8.799611E-1,-4.2419174E1,2.2777788E2,2.069746E0,9.160615E1,-1.01596275E2,1.7799232E2,-4.34347E1,1.7522733E2,-9.9085075E1,1.3470972E2,2.0027191E1,1.3376329E2,1.1138856E2,-6.982663E1,-1.5670565E1,9.446541E1,2.2431447E2,9.580608E1,-9.048622E0,-2.041259E1,1.2850645E2,2.3817749E1,-1.8108114E1,5.0277714E1],"categories":[],"categories_nodes":[],"categories_segments":[],"categories_sizes":[],"default_left":[0,0,0,0,0,0,0,0,0,0,0,0,0,0,0,0,0,0,0,0,0,0,0,0,0,0,0,0,0,0,0,0,0,0,0,0,0,0,0,0,0,0,0,0,0,0,0,0,0,0,0,0,0,0,0,0,0,0,0,0,0,0,0,0,0,0,0,0,0],"id":4,"left_children":[1,3,5,7,9,-1,11,13,15,17,19,-1,21,23,25,27,29,31,33,-1,35,37,-1,39,41,43,45,47,49,51,53,55,57,59,61,63,-1,65,67,-1,-1,-1,-1,-1,-1,-1,-1,-1,-1,-1,-1,-1,-1,-1,-1,-1,-1,-1,-1,-1,-1,-1,-1,-1,-1,-1,-1,-1,-1],"loss_changes":[9.356081E6,3.6595465E6,1.568771E6,4.139687E6,3.2324748E6,0E0,1.231398E6,2.23011E6,3.444188E6,2.4632935E6,1.5041825E5,0E0,1.122572E6,3.4483608E6,5.53142E5,1.9591715E6,2.0236448E6,4.3081765E6,1.85193E6,0E0,1.23760375E5,8.12385E5,0E0,9.16327E5,3.0947088E6,3.41326E5,1.4186841E6,2.9612558E6,2.1731838E6,1.5499002E6,1.3230365E6,2.2096892E6,6.523766E5,3.3281116E5,1.0908395E6,7.25591E3,0E0,1.0015105E6,1.731241E6,0E0,0E0,0E0,0E0,0E0,0E0,0E0,0E0,0E0,0E0,0E0,0E0,0E0,0E0,0E0,0E0,0E0,0E0,0E0,0E0,0E0,0E0,0E0,0E0,0E0,0E0,0E0,0E0,0E0,0E0],"parents":[2147483647,0,0,1,1,2,2,3,3,4,4,6,6,7,7,8,8,9,9,10,10,12,12,13,13,14,14,15,15,16,16,17,17,18,18,20,20,21,21,23,23,24,24,25,25,26,26,27,27,28,28,29,29,30,30,31,31,32,32,33,33,34,34,35,35,37,37,38,38],"right_children":[2,4,6,8,10,-1,12,14,16,18,20,-1,22,24,26,28,30,32,34,-1,36,38,-1,40,42,44,46,48,50,52,54,56,58,60,62,64,-1,66,68,-1,-1,-1,-1,-1,-1,-1,-1,-1,-1,-1,-1,-1,-1,-1,-1,-1,-1,-1,-1,-1,-1,-1,-1,-1,-1,-1,-1,-1,-1],"split_conditions":[4.16E2,1E0,6.8E1,6.01E2,2.2E1,-1.07821236E2,7.3E1,1E0,3.52E2,1.25E2,2.8E1,-7.768031E1,1.76E2,6.6E1,9.6E1,1.61E2,2.24E2,6E0,1.6E1,-5.7796883E1,6.546E3,2.08E2,1.20321785E2,1E0,3.9E1,5.06E2,5.38E2,4.6E1,2.56E2,6.08E2,2.41E2,2E0,8E0,8.521E3,2.954E3,3.6E1,-4.404842E1,4.8E2,2.25E2,-7.7931366E1,1.3813339E2,1.9676178E2,-4.851366E1,-7.363596E1,-8.799611E-1,-4.2419174E1,2.2777788E2,2.069746E0,9.160615E1,-1.01596275E2,1.7799232E2,-4.34347E1,1.7522733E2,-9.9085075E1,1.3470972E2,2.0027191E1,1.3376329E2,1.1138856E2,-6.982663E1,-1.5670565E1,9.446541E1,2.2431447E2,9.580608E1,-9.048622E0,-2.041259E1,1.2850645E2,2.3817749E1,-1.8108114E1,5.0277714E1],"split_indices":[0,3,28,17,3,0,15,28,4,5,0,0,67,15,9,9,54,25,0,0,4,15,0,22,16,1,17,9,4,52,1,52,46,57,57,0,0,52,28,0,0,0,0,0,0,0,0,0,0,0,0,0,0,0,0,0,0,0,0,0,0,0,0,0,0,0,0,0,0],"split_type":[0,0,0,0,0,0,0,0,0,0,0,0,0,0,0,0,0,0,0,0,0,0,0,0,0,0,0,0,0,0,0,0,0,0,0,0,0,0,0,0,0,0,0,0,0,0,0,0,0,0,0,0,0,0,0,0,0,0,0,0,0,0,0,0,0,0,0,0,0],"sum_hessian":[1.152E3,8.37E2,3.15E2,6.09E2,2.28E2,5E0,3.1E2,2.64E2,3.45E2,1.59E2,6.9E1,6E0,3.04E2,4.3E1,2.21E2,1.53E2,1.92E2,1.07E2,5.2E1,2.1E1,4.8E1,2.85E2,1.9E1,2.5E1,1.8E1,2.07E2,1.4E1,1.35E2,1.8E1,1.81E2,1.1E1,6.7E1,4E1,1.5E1,3.7E1,2.8E1,2E1,3.5E1,2.5E2,2.4E1,1E0,1.1E1,7E0,2.01E2,6E0,1.3E1,1E0,7.8E1,5.7E1,1.6E1,2E0,1.79E2,2E0,2E0,9E0,4.4E1,2.3E1,1E0,3.9E1,1.3E1,2E0,8E0,2.9E1,2E1,8E0,2.1E1,1.4E1,3.9E1,2.11E2],"tree_param":{"num_deleted":"0","num_feature":"69","num_nodes":"69","size_leaf_vector":"1"}},{"base_weights":[4.283343E0,-2.4965393E1,1.4128465E2,-2.8925288E0,-1.4966457E2,8.976729E1,2.1174678E2,-3.678906E1,1.4505917E2,-1.3045717E2,-1.5126009E2,6.6929146E1,1.1948412E2,2.2343773E2,-8.0854485E1,-5.231452E1,2.7941434E2,-1.4885945E2,1.6921605E2,8.083857E1,-1.383779E2,2.9627651E1,9.185109E1,7.628777E1,1.5827919E2,-9.021448E1,8.680902E1,-6.045573E1,3.3810394E2,3.7132474E2,-4.338121E2,1.6015617E2,-2.2667819E2,1.907264E2,-1.6507065E2,-1.1732315E2,-2.8763995E2,1.0723816E2,-9.573732E1,-5.491647E0,8.750587E1,-3.4552345E1,-1.2310542E0,1.4856284E2,-4.1755722E1,1.3429202E2,-1.2415492E2,-1.4854384E2,-3.7471516E1,1.2149323E2,-4.942295E1,-7.87308E1,-1.6729414E1,1.12572655E2,3.6864517E1,-9.562279E0,-5.3320774E1,-4.0709442E1,-1.876541E1,-8.929732E1,-2.0606026E1,2.7734377E0,8.416005E1,-1.6981521E0,-1.7256107E2,6.137275E1,-1.745413E2],"categories":[],"categories_nodes":[],"categories_segments":[],"categories_sizes":[],"default_left":[0,0,0,0,0,0,0,0,0,0,0,0,0,0,0,0,0,0,0,0,0,0,0,0,0,0,0,0,0,0,0,0,0,0,0,0,0,0,0,0,0,0,0,0,0,0,0,0,0,0,0,0,0,0,0,0,0,0,0,0,0,0,0,0,0,0,0],"id":5,"left_children":[1,3,5,7,9,11,13,15,17,19,-1,21,-1,23,25,27,29,31,33,-1,35,37,-1,-1,39,-1,-1,41,43,45,47,49,51,53,55,57,59,61,63,65,-1,-1,-1,-1,-1,-1,-1,-1,-1,-1,-1,-1,-1,-1,-1,-1,-1,-1,-1,-1,-1,-1,-1,-1,-1,-1,-1],"loss_changes":[4.623731E6,2.6171645E6,7.1788675E5,4.0625112E6,9.0801225E5,8.118016E5,3.0883275E5,3.249783E6,1.0973135E6,4.7125625E5,0E0,9.904226E5,0E0,1.24608E5,4.1260097E5,2.0197029E6,2.1932262E6,3.248704E5,1.03816975E6,0E0,3.9051425E5,9.637713E5,0E0,0E0,6.3519906E5,0E0,0E0,1.902061E6,1.04372875E6,1.8630398E6,1.393975E4,3.0534403E5,4.6480188E4,1.6063205E6,9.5175E3,1.12283625E5,1.4649625E4,1.0332957E6,1.6379181E6,1.8139266E6,0E0,0E0,0E0,0E0,0E0,0E0,0E0,0E0,0E0,0E0,0E0,0E0,0E0,0E0,0E0,0E0,0E0,0E0,0E0,0E0,0E0,0E0,0E0,0E0,0E0,0E0,0E0],"parents":[2147483647,0,0,1,1,2,2,3,3,4,4,5,5,6,6,7,7,8,8,9,9,11,11,13,13,14,14,15,15,16,16,17,17,18,18,20,20,21,21,24,24,27,27,28,28,29,29,30,30,31,31,32,32,33,33,34,34,35,35,36,36,37,37,38,38,39,39],"right_children":[2,4,6,8,10,12,14,16,18,20,-1,22,-1,24,26,28,30,32,34,-1,36,38,-1,-1,40,-1,-1,42,44,46,48,50,52,54,56,58,60,62,64,66,-1,-1,-1,-1,-1,-1,-1,-1,-1,-1,-1,-1,-1,-1,-1,-1,-1,-1,-1,-1,-1,-1,-1,-1,-1,-1,-1],"split_conditions":[1.009E3,7E0,3.6E2,1.568E3,1E0,1.312E3,4.8E2,2E0,1.43E2,5E0,-1.5126009E2,2.781E3,1.1948412E2,3.781E3,1.048E3,1E0,1.2E1,2E0,1.05E2,8.083857E1,8.96E2,4.21E2,9.185109E1,7.628777E1,5.77E2,-9.021448E1,8.680902E1,5.85E2,7E0,2E0,8E0,2.66E2,2E0,2.28E2,1.669E3,3.64E2,1.767E3,1.01E2,1.18E2,1.72E2,8.750587E1,-3.4552345E1,-1.2310542E0,1.4856284E2,-4.1755722E1,1.3429202E2,-1.2415492E2,-1.4854384E2,-3.7471516E1,1.2149323E2,-4.942295E1,-7.87308E1,-1.6729414E1,1.12572655E2,3.6864517E1,-9.562279E0,-5.3320774E1,-4.0709442E1,-1.876541E1,-8.929732E1,-2.0606026E1,2.7734377E0,8.416005E1,-1.6981521E0,-1.7256107E2,6.137275E1,-1.745413E2],"split_indices":[23,43,5,17,22,54,25,22,23,0,0,28,0,23,15,38,63,4,46,0,0,9,0,0,28,0,0,17,27,59,0,1,32,15,17,25,1,61,61,0,0,0,0,0,0,0,0,0,0,0,0,0,0,0,0,0,0,0,0,0,0,0,0,0,0,0,0],"split_type":[0,0,0,0,0,0,0,0,0,0,0,0,0,0,0,0,0,0,0,0,0,0,0,0,0,0,0,0,0,0,0,0,0,0,0,0,0,0,0,0,0,0,0,0,0,0,0,0,0,0,0,0,0,0,0,0,0,0,0,0,0,0,0,0,0,0,0],"sum_hessian":[1.152E3,9.5E2,2.02E2,8.08E2,1.42E2,1.18E2,8.4E1,6.58E2,1.5E2,1.36E2,6E0,1.11E2,7E0,8.1E1,3E0,6.28E2,3E1,1.1E1,1.39E2,2E0,1.34E2,9.7E1,1.4E1,5.3E1,2.8E1,2E0,1E0,6.16E2,1.2E1,2.7E1,3E0,2E0,9E0,1.31E2,8E0,1.19E2,1.5E1,6E1,3.7E1,1.3E1,1.5E1,3.12E2,3.04E2,9E0,3E0,2.5E1,2E0,2E0,1E0,1E0,1E0,7E0,2E0,3.4E1,9.7E1,1E0,7E0,8.8E1,3.1E1,1.4E1,1E0,3.9E1,2.1E1,3.2E1,5E0,1E1,3E0],"tree_param":{"num_deleted":"0","num_feature":"69","num_nodes":"67","size_leaf_vector":"1"}},{"base_weights":[2.9027154E0,-2.6935411E1,8.2021225E1,4.227123E1,-5.4943905E1,-7.3893906E1,8.809191E1,1.5316828E0,2.8317276E2,-1.5260303E2,-2.9280037E1,1.57109E2,4.900188E1,-1.1938099E1,1.6523773E2,3.499555E2,-3.395185E1,-7.1582336E0,-1.7885342E2,2.4314257E1,-9.340801E1,1.0176726E2,4.6038535E2,-1.0398616E2,1.04868225E2,-4.8966576E1,1.8862018E2,4.6105725E2,1.5413997E2,-7.9321594E1,1.08436356E2,4.0819954E1,-2.3477793E1,-1.900911E2,-1.8835302E1,-1.1683064E1,2.0047578E2,-2.5129338E2,-5.8290382E1,1.892809E2,-1.411264E2,2.2882054E2,2.4899994E1,-1.9280927E2,1.6356625E2,1.13091805E2,-9.8268326E1,-2.7821825E1,2.328111E1,1.2957861E2,-3.4777416E1,-2.327038E1,1.4919118E2,-2.1542828E1,5.436269E1,-6.041593E1,-2.4734228E1,1.7507819E2,-5.6480156E1,-3.6088287E1,1.3037376E1,6.603011E0,1.1846706E2,-8.2712265E1,1.0146678E2,7.592763E1,-2.1187208E1,1.537102E2,3.6452682E1,-1.1613256E2,4.038999E1,-1.181038E2,6.90119E1,-1.1837525E2,-3.7118797E1,7.8558685E1,-8.524198E1,-5.1921745E1,3.6731224E1],"categories":[],"categories_nodes":[],"categories_segments":[],"categories_sizes":[],"default_left":[0,0,0,0,0,0,0,0,0,0,0,0,0,0,0,0,0,0,0,0,0,0,0,0,0,0,0,0,0,0,0,0,0,0,0,0,0,0,0,0,0,0,0,0,0,0,0,0,0,0,0,0,0,0,0,0,0,0,0,0,0,0,0,0,0,0,0,0,0,0,0,0,0,0,0,0,0,0,0],"id":6,"left_children":[1,3,5,7,9,-1,11,13,15,17,19,21,23,25,-1,27,29,31,33,35,37,39,41,43,45,47,49,51,53,-1,-1,-1,-1,55,57,59,61,63,65,67,69,-1,71,73,75,77,-1,-1,-1,-1,-1,-1,-1,-1,-1,-1,-1,-1,-1,-1,-1,-1,-1,-1,-1,-1,-1,-1,-1,-1,-1,-1,-1,-1,-1,-1,-1,-1,-1],"loss_changes":[2.7241518E6,1.6266798E6,6.51554E5,2.3746075E6,1.4917995E6,0E0,8.3134225E5,1.5454472E6,7.5312725E5,4.7214975E5,1.6313585E6,1.832938E6,1.7202811E6,1.524215E6,0E0,5.598405E5,7.3342975E5,2.1431714E5,1.85234E5,1.6447502E6,1.1829769E6,2.0673372E6,2.2193788E6,1.3148384E6,5.597939E5,9.6567575E5,2.4212188E6,3.899955E5,8.640716E4,0E0,0E0,0E0,0E0,1.025515E5,9.264374E5,1.2988365E6,1.5179459E6,6.5455975E5,7.0147994E5,1.4923732E6,1.8157485E6,0E0,7.774996E5,5.2266088E5,6.905139E5,4.0897525E5,0E0,0E0,0E0,0E0,0E0,0E0,0E0,0E0,0E0,0E0,0E0,0E0,0E0,0E0,0E0,0E0,0E0,0E0,0E0,0E0,0E0,0E0,0E0,0E0,0E0,0E0,0E0,0E0,0E0,0E0,0E0,0E0,0E0],"parents":[2147483647,0,0,1,1,2,2,3,3,4,4,6,6,7,7,8,8,9,9,10,10,11,11,12,12,13,13,15,15,16,16,17,17,18,18,19,19,20,20,21,21,22,22,23,23,24,24,25,25,26,26,27,27,28,28,33,33,34,34,35,35,36,36,37,37,38,38,39,39,40,40,42,42,43,43,44,44,45,45],"right_children":[2,4,6,8,10,-1,12,14,16,18,20,22,24,26,-1,28,30,32,34,36,38,40,42,44,46,48,50,52,54,-1,-1,-1,-1,56,58,60,62,64,66,68,70,-1,72,74,76,78,-1,-1,-1,-1,-1,-1,-1,-1,-1,-1,-1,-1,-1,-1,-1,-1,-1,-1,-1,-1,-1,-1,-1,-1,-1,-1,-1,-1,-1,-1,-1,-1,-1],"split_conditions":[4.16E2,1.9E1,6.8E1,2.73E2,5.1E2,-7.3893906E1,1.54E2,1.2E1,3.278E3,3.1E1,2.28E2,4.32E2,3.1E2,2E0,1.6523773E2,5.77E2,4.83E2,2E0,3.9E2,1.79E2,2.81E2,9.6E1,4.75E2,2.24E2,6.72E2,2E0,1E0,1.7E1,2.4E1,-7.9321594E1,1.08436356E2,4.0819954E1,-2.3477793E1,4.5E1,5.2E1,4.2E1,5E1,3.84E2,3.5E1,6.4E2,3.86E2,2.2882054E2,5.06E2,1.793E3,2.208E3,2.46E2,-9.8268326E1,-2.7821825E1,2.328111E1,1.2957861E2,-3.4777416E1,-2.327038E1,1.4919118E2,-2.1542828E1,5.436269E1,-6.041593E1,-2.4734228E1,1.7507819E2,-5.6480156E1,-3.6088287E1,1.3037376E1,6.603011E0,1.1846706E2,-8.2712265E1,1.0146678E2,7.592763E1,-2.1187208E1,1.537102E2,3.6452682E1,-1.1613256E2,4.038999E1,-1.181038E2,6.90119E1,-1.1837525E2,-3.7118797E1,7.8558685E1,-8.524198E1,-5.1921745E1,3.6731224E1],"split_indices":[0,28,28,23,17,0,9,40,1,28,15,6,9,52,0,23,15,5,28,15,15,50,1,40,40,54,42,1,0,0,0,0,0,5,15,9,9,40,4,4,1,0,1,17,4,28,0,0,0,0,0,0,0,0,0,0,0,0,0,0,0,0,0,0,0,0,0,0,0,0,0,0,0,0,0,0,0,0,0],"split_type":[0,0,0,0,0,0,0,0,0,0,0,0,0,0,0,0,0,0,0,0,0,0,0,0,0,0,0,0,0,0,0,0,0,0,0,0,0,0,0,0,0,0,0,0,0,0,0,0,0,0,0,0,0,0,0,0,0,0,0,0,0,0,0,0,0,0,0,0,0,0,0,0,0,0,0,0,0,0,0],"sum_hessian":[1.152E3,8.37E2,3.15E2,2.41E2,5.96E2,5E0,3.1E2,2.07E2,3.4E1,1.23E2,4.73E2,1.11E2,1.99E2,2.03E2,4E0,2.8E1,6E0,1.9E1,1.04E2,2.58E2,2.15E2,9.5E1,1.6E1,5.3E1,1.46E2,1.72E2,3.1E1,1.7E1,1.1E1,4E0,2E0,6E0,1.3E1,9.7E1,7E0,2.15E2,4.3E1,3.8E1,1.77E2,7E1,2.5E1,9E0,7E0,4E1,1.3E1,1.44E2,2E0,1.28E2,4.4E1,1.7E1,1.4E1,1E0,1.6E1,1E0,1E1,8.7E1,1E1,1E0,6E0,7.2E1,1.43E2,2.3E1,2E1,3.7E1,1E0,6E0,1.71E2,1.1E1,5.9E1,1.3E1,1.2E1,2E0,5E0,9E0,3.1E1,1.1E1,2E0,4E0,1.4E2],"tree_param":{"num_deleted":"0","num_feature":"69","num_nodes":"79","size_leaf_vector":"1"}},{"base_weights":[2.5646672E0,-2.228054E1,5.2572735E1,-1.2074102E1,-1.4302559E2,1.5108751E2,2.564961E1,-1.9573942E1,2.0373691E2,-2.0684212E2,2.4158386E2,-5.96803E0,3.6216116E2,-2.2313686E2,4.5994034E1,-1.0933936E1,-3.0803546E2,3.544178E2,-9.2212616E1,7.043978E1,-2.2010567E2,1.7144044E2,-1.366172E2,-9.2168304E1,2.0995894E2,4.3315024E2,-8.888753E1,1.0949912E2,-3.296068E2,1.6656903E2,2.637247E1,-1.902951E1,1.6866237E2,-9.467224E1,-2.4720047E1,7.306635E1,5.523946E2,-2.3892293E2,-1.1906261E2,-9.898854E1,1.0226646E2,1.4734593E2,-1.4680386E2,6.471228E1,3.928358E2,5.4288214E2,9.240408E1,-3.9968472E2,1.5028107E2,3.7250748E2,8.2710686E1,-1.9362585E2,5.148066E1,-5.285359E1,-2.8209593E0,1.2048274E2,7.4764457E0,-6.183955E1,5.4685402E1,1.9115448E2,-4.4321316E1,-7.363632E1,-3.465306E1,-2.7065584E1,-5.6798786E1,1.3118054E2,-8.516064E1,6.6395805E1,-4.4474174E1,-5.9113297E1,1.1773161E1,-3.5287365E1,5.264544E1,4.3536068E1,1.7765338E2,1.7663046E2,4.9877903E1,-6.2419323E1,1.1231753E2,-1.5765956E2,-3.266125E1,1.7417E2,2.0169435E0,-2.6054321E1,3.9215797E1,-7.4453964E1,8.674908E1,-4.725936E1,2.0982605E1],"categories":[],"categories_nodes":[],"categories_segments":[],"categories_sizes":[],"default_left":[0,0,0,0,0,0,0,0,0,0,0,0,0,0,0,0,0,0,0,0,0,0,0,0,0,0,0,0,0,0,0,0,0,0,0,0,0,0,0,0,0,0,0,0,0,0,0,0,0,0,0,0,0,0,0,0,0,0,0,0,0,0,0,0,0,0,0,0,0,0,0,0,0,0,0,0,0,0,0,0,0,0,0,0,0,0,0,0,0],"id":7,"left_children":[1,3,5,7,9,11,13,15,17,19,21,23,25,27,29,31,33,35,-1,-1,37,-1,39,41,43,45,-1,-1,47,49,51,53,55,-1,-1,57,59,61,63,-1,65,67,69,71,73,75,77,79,-1,81,83,85,87,-1,-1,-1,-1,-1,-1,-1,-1,-1,-1,-1,-1,-1,-1,-1,-1,-1,-1,-1,-1,-1,-1,-1,-1,-1,-1,-1,-1,-1,-1,-1,-1,-1,-1,-1,-1],"loss_changes":[1.4337288E6,9.484356E5,1.0119651E6,1.1563942E6,1.522636E6,2.720485E6,1.538811E6,1.713833E6,1.9572955E6,3.562825E5,1.2009358E6,9.127739E5,1.764342E6,1.560533E6,6.580508E5,9.7734625E5,8.0165E3,1.01795875E6,0E0,0E0,6.852225E4,0E0,2.646783E5,4.7964075E5,3.4645025E5,1.1463385E6,0E0,0E0,1.3642725E6,6.4270625E5,1.3467178E6,9.695396E5,9.610265E5,0E0,0E0,3.1201666E5,7.47119E5,5.5025E3,3.1867031E3,0E0,5.121951E5,1.8587222E5,2.787993E5,2.0242248E5,2.1034388E5,3.168735E5,8.4045325E5,6.381485E5,0E0,8.332495E5,2.4742036E5,7.3021725E5,8.522022E5,0E0,0E0,0E0,0E0,0E0,0E0,0E0,0E0,0E0,0E0,0E0,0E0,0E0,0E0,0E0,0E0,0E0,0E0,0E0,0E0,0E0,0E0,0E0,0E0,0E0,0E0,0E0,0E0,0E0,0E0,0E0,0E0,0E0,0E0,0E0,0E0],"parents":[2147483647,0,0,1,1,2,2,3,3,4,4,5,5,6,6,7,7,8,8,9,9,10,10,11,11,12,12,13,13,14,14,15,15,16,16,17,17,20,20,22,22,23,23,24,24,25,25,28,28,29,29,30,30,31,31,32,32,35,35,36,36,37,37,38,38,40,40,41,41,42,42,43,43,44,44,45,45,46,46,47,47,49,49,50,50,51,51,52,52],"right_children":[2,4,6,8,10,12,14,16,18,20,22,24,26,28,30,32,34,36,-1,-1,38,-1,40,42,44,46,-1,-1,48,50,52,54,56,-1,-1,58,60,62,64,-1,66,68,70,72,74,76,78,80,-1,82,84,86,88,-1,-1,-1,-1,-1,-1,-1,-1,-1,-1,-1,-1,-1,-1,-1,-1,-1,-1,-1,-1,-1,-1,-1,-1,-1,-1,-1,-1,-1,-1,-1,-1,-1,-1,-1,-1],"split_conditions":[3.86E2,1.1E1,4.75E2,4.48E2,1.08E3,2.01E2,5.26E2,1.8E1,1.45E2,1E0,5.7E1,1E0,2.208E3,6.2E1,9.6E1,2E0,1.568E3,9.9E1,-9.2212616E1,7.043978E1,6.6E1,1.7144044E2,3.84E2,3.98E2,6.5E1,4.72E2,-8.888753E1,1.0949912E2,5.45E2,4E0,1.217E3,9E0,8E0,-9.467224E1,-2.4720047E1,4.8E2,1.88E2,1.4E2,4.35E2,-9.898854E1,5.76E2,3.52E2,1.08E2,7.05E2,3.98E2,2.74E2,3.6E2,4.56E2,1.5028107E2,2.146E3,3.24E2,4.83E2,3.1E1,-5.285359E1,-2.8209593E0,1.2048274E2,7.4764457E0,-6.183955E1,5.4685402E1,1.9115448E2,-4.4321316E1,-7.363632E1,-3.465306E1,-2.7065584E1,-5.6798786E1,1.3118054E2,-8.516064E1,6.6395805E1,-4.4474174E1,-5.9113297E1,1.1773161E1,-3.5287365E1,5.264544E1,4.3536068E1,1.7765338E2,1.7663046E2,4.9877903E1,-6.2419323E1,1.1231753E2,-1.5765956E2,-3.266125E1,1.7417E2,2.0169435E0,-2.6054321E1,3.9215797E1,-7.4453964E1,8.674908E1,-4.725936E1,2.0982605E1],"split_indices":[1,52,1,6,17,16,1,68,19,6,16,67,4,16,16,56,0,0,0,0,19,0,0,1,54,1,0,0,28,9,17,46,16,0,0,6,67,9,0,0,0,6,9,17,1,15,6,6,0,1,4,15,9,0,0,0,0,0,0,0,0,0,0,0,0,0,0,0,0,0,0,0,0,0,0,0,0,0,0,0,0,0,0,0,0,0,0,0,0],"split_type":[0,0,0,0,0,0,0,0,0,0,0,0,0,0,0,0,0,0,0,0,0,0,0,0,0,0,0,0,0,0,0,0,0,0,0,0,0,0,0,0,0,0,0,0,0,0,0,0,0,0,0,0,0,0,0,0,0,0,0,0,0,0,0,0,0,0,0,0,0,0,0,0,0,0,0,0,0,0,0,0,0,0,0,0,0,0,0,0,0],"sum_hessian":[1.152E3,7.7E2,3.82E2,7.11E2,5.9E1,8.1E1,3.01E2,6.88E2,2.3E1,5.1E1,8E0,4.7E1,3.4E1,2.2E1,2.79E2,6.69E2,1.9E1,1.8E1,5E0,1E0,5E1,4E0,4E0,3.4E1,1.3E1,3.1E1,3E0,3E0,1.9E1,3.8E1,2.41E2,6.41E2,2.8E1,1.8E1,1E0,8E0,1E1,4.1E1,9E0,2E0,2E0,6E0,2.8E1,8E0,5E0,2.3E1,8E0,1.8E1,1E0,1E1,2.8E1,2.4E1,2.17E2,3.6E1,6.05E2,1E1,1.8E1,2E0,6E0,9E0,1E0,3.8E1,3E0,8E0,1E0,1E0,1E0,5E0,1E0,2.2E1,6E0,3E0,5E0,3E0,2E0,2E1,3E0,4E0,4E0,1.2E1,6E0,6E0,4E0,6E0,2.2E1,2.2E1,2E0,1.7E1,2E2],"tree_param":{"num_deleted":"0","num_feature":"69","num_nodes":"89","size_leaf_vector":"1"}},{"base_weights":[2.352585E0,-1.7855833E1,3.5749134E1,-2.9145538E1,7.947372E1,5.579943E2,2.9607662E1,-3.229319E1,1.1406376E2,1.191425E2,-3.5572567E1,-2.6335203E1,7.413849E2,2.2478756E1,1.6111874E2,2.17457E1,-5.9426838E1,-1.1893129E2,1.3486237E2,-2.9422709E1,1.6881747E0,-2.0044962E1,3.0991727E2,6.314528E1,-8.377882E0,2.1496426E2,-7.5467285E1,-5.530828E0,1.9013531E2,-6.686569E1,1.2391412E2,-8.612885E0,-4.1830593E1,1.4958469E2,-8.2882225E1,9.225668E0,1.3146342E2,-1.7253178E2,2.039094E1,3.4280362E2,1.3569E2,-7.942577E0,9.01109E1,9.734217E1,-2.1420486E1,-1.7222513E1,-5.82534E1,1.4058768E2,-5.459712E0,-1.4450276E1,4.7648357E1,-7.8953636E1,6.870112E1,-3.3521095E1,2.9623745E1,2.1504534E1,6.900061E1,5.8149056E0,-8.6045105E1,1.2630015E1,-3.79537E1,1.925442E1,1.13563126E2,2.4263727E1,4.7146187E1],"categories":[],"categories_nodes":[],"categories_segments":[],"categories_sizes":[],"default_left":[0,0,0,0,0,0,0,0,0,0,0,0,0,0,0,0,0,0,0,0,0,0,0,0,0,0,0,0,0,0,0,0,0,0,0,0,0,0,0,0,0,0,0,0,0,0,0,0,0,0,0,0,0,0,0,0,0,0,0,0,0,0,0,0,0],"id":8,"left_children":[1,3,5,7,9,11,13,15,-1,17,19,-1,21,23,25,27,29,31,33,-1,-1,-1,-1,35,37,39,-1,41,43,45,47,-1,-1,49,51,53,55,57,59,61,63,-1,-1,-1,-1,-1,-1,-1,-1,-1,-1,-1,-1,-1,-1,-1,-1,-1,-1,-1,-1,-1,-1,-1,-1],"loss_changes":[7.787882E5,7.923693E5,1.3786785E6,8.433715E5,3.4651916E5,6.5723E5,4.0045378E5,9.411728E5,0E0,2.2561862E5,5.2054242E4,0E0,1.0119465E6,5.150102E5,5.429329E5,9.8856475E5,5.9064825E5,3.3964922E3,1.8230025E5,0E0,0E0,0E0,0E0,6.507999E5,1.1085864E6,1.5617231E5,0E0,1.1996378E6,1.0772025E6,4.8371012E5,8.41325E5,0E0,0E0,9.904325E4,2.8519678E5,1.093893E6,4.4299538E5,7.7321544E5,6.4315394E5,4.54105E4,3.7599531E3,0E0,0E0,0E0,0E0,0E0,0E0,0E0,0E0,0E0,0E0,0E0,0E0,0E0,0E0,0E0,0E0,0E0,0E0,0E0,0E0,0E0,0E0,0E0,0E0],"parents":[2147483647,0,0,1,1,2,2,3,3,4,4,5,5,6,6,7,7,9,9,10,10,12,12,13,13,14,14,15,15,16,16,17,17,18,18,23,23,24,24,25,25,27,27,28,28,29,29,30,30,33,33,34,34,35,35,36,36,37,37,38,38,39,39,40,40],"right_children":[2,4,6,8,10,12,14,16,-1,18,20,-1,22,24,26,28,30,32,34,-1,-1,-1,-1,36,38,40,-1,42,44,46,48,-1,-1,50,52,54,56,58,60,62,64,-1,-1,-1,-1,-1,-1,-1,-1,-1,-1,-1,-1,-1,-1,-1,-1,-1,-1,-1,-1,-1,-1,-1,-1],"split_conditions":[3.37E2,1.009E3,3.47E2,2.7E1,2.2E1,6.6E1,1.36E3,1.9E1,1.1406376E2,1.25E2,2.8E1,-2.6335203E1,2.1E1,4E0,6.752E3,1.2E1,1.76E2,1.1E1,2.2528E4,-2.9422709E1,1.6881747E0,-2.0044962E1,3.0991727E2,4.2E1,7E0,2.88E2,-7.5467285E1,1E1,3.9E1,6.08E2,1.09E2,-8.612885E0,-4.1830593E1,1.4E1,1.048E3,1E0,3.9E2,2.32E2,2.88E2,1E0,1E0,-7.942577E0,9.01109E1,9.734217E1,-2.1420486E1,-1.7222513E1,-5.82534E1,1.4058768E2,-5.459712E0,-1.4450276E1,4.7648357E1,-7.8953636E1,6.870112E1,-3.3521095E1,2.9623745E1,2.1504534E1,6.900061E1,5.8149056E0,-8.6045105E1,1.2630015E1,-3.79537E1,1.925442E1,1.13563126E2,2.4263727E1,4.7146187E1],"split_indices":[1,23,1,61,3,0,6,28,0,5,0,0,9,61,6,54,67,0,4,0,0,0,0,54,61,54,0,19,16,0,28,0,0,0,15,5,28,0,52,5,5,0,0,0,0,0,0,0,0,0,0,0,0,0,0,0,0,0,0,0,0,0,0,0,0],"split_type":[0,0,0,0,0,0,0,0,0,0,0,0,0,0,0,0,0,0,0,0,0,0,0,0,0,0,0,0,0,0,0,0,0,0,0,0,0,0,0,0,0,0,0,0,0,0,0,0,0,0,0,0,0,0,0,0,0,0,0,0,0,0,0,0,0],"sum_hessian":[1.152E3,7.18E2,4.34E2,6.44E2,7.4E1,4E0,4.3E2,6.4E2,4E0,5.5E1,1.9E1,1E0,3E0,4.09E2,2.1E1,2.14E2,4.26E2,3E0,5.2E1,7E0,1.2E1,1E0,2E0,1.76E2,2.33E2,1.9E1,2E0,1.85E2,2.9E1,4.1E2,1.6E1,1E0,2E0,4.9E1,3E0,9.9E1,7.7E1,3.4E1,1.99E2,6E0,1.3E1,1.74E2,1.1E1,1.9E1,1E1,3.83E2,2.7E1,4E0,1.2E1,2E0,4.7E1,2E0,1E0,4.2E1,5.7E1,4.9E1,2.8E1,1.3E1,2.1E1,1.74E2,2.5E1,1E0,5E0,5E0,8E0],"tree_param":{"num_deleted":"0","num_feature":"69","num_nodes":"65","size_leaf_vector":"1"}},{"base_weights":[2.210496E0,3.6084423E0,-1.20075516E2,1.4929833E0,4.0670712E2,-2.3570778E1,2.0145473E1,-2.5466898E1,1.5660132E2,-3.1702848E1,2.5460329E2,-8.813465E1,3.3831406E1,-3.5247543E1,3.0925684E2,3.5739755E2,-1.9058945E0,-1.1616175E1,-1.01098526E2,1.0100233E2,1.1821326E1,-1.1517548E1,1.02669395E2,1.2009083E1,1.09966774E2,1.2034203E2,3.6485462E1,1.8390003E1,-1.934295E1,-5.1271736E1,-2.7386488E1,-3.5695942E1,4.3140526E1,-5.059039E1,5.17864E0],"categories":[],"categories_nodes":[],"categories_segments":[],"categories_sizes":[],"default_left":[0,0,0,0,0,0,0,0,0,0,0,0,0,0,0,0,0,0,0,0,0,0,0,0,0,0,0,0,0,0,0,0,0,0,0],"id":9,"left_children":[1,3,-1,5,7,9,11,-1,-1,13,15,17,19,21,23,25,27,-1,29,31,33,-1,-1,-1,-1,-1,-1,-1,-1,-1,-1,-1,-1,-1,-1],"loss_changes":[6.501458E5,9.800424E5,0E0,5.357642E5,3.8439144E5,1.1142539E6,9.765994E5,0E0,0E0,5.861931E5,3.6982862E5,4.3489625E4,8.622134E5,5.733555E5,6.2458875E4,5.435E4,2.3726568E4,0E0,2.4118188E4,1.372927E6,4.3589622E5,0E0,0E0,0E0,0E0,0E0,0E0,0E0,0E0,0E0,0E0,0E0,0E0,0E0,0E0],"parents":[2147483647,0,0,1,1,3,3,4,4,5,5,6,6,9,9,10,10,11,11,12,12,13,13,14,14,15,15,16,16,18,18,19,19,20,20],"right_children":[2,4,-1,6,8,10,12,-1,-1,14,16,18,20,22,24,26,28,-1,30,32,34,-1,-1,-1,-1,-1,-1,-1,-1,-1,-1,-1,-1,-1,-1],"split_conditions":[1.2E1,9E0,-1.20075516E2,4.8E1,1E0,1E0,3.6E1,-2.5466898E1,1.5660132E2,4.83E2,4E0,5.1E2,8.2E1,5.44E2,3E1,4E0,8E0,-1.1616175E1,9E1,4.56E2,3.08E2,-1.1517548E1,1.02669395E2,1.2009083E1,1.09966774E2,1.2034203E2,3.6485462E1,1.8390003E1,-1.934295E1,-5.1271736E1,-2.7386488E1,-3.5695942E1,4.3140526E1,-5.059039E1,5.17864E0],"split_indices":[27,27,0,9,1,38,1,0,0,15,40,17,42,5,16,43,5,0,9,17,4,0,0,0,0,0,0,0,0,0,0,0,0,0,0],"split_type":[0,0,0,0,0,0,0,0,0,0,0,0,0,0,0,0,0,0,0,0,0,0,0,0,0,0,0,0,0,0,0,0,0,0,0],"sum_hessian":[1.152E3,1.149E3,3E0,1.144E3,5E0,4.88E2,6.56E2,1E0,4E0,4.75E2,1.3E1,7.3E1,5.83E2,4.71E2,4E0,9E0,4E0,1.6E1,5.7E1,1.43E2,4.4E2,4.68E2,3E0,1E0,3E0,7E0,2E0,2E0,2E0,5E0,5.2E1,2.3E1,1.2E2,1.2E1,4.28E2],"tree_param":{"num_deleted":"0","num_feature":"69","num_nodes":"35","size_leaf_vector":"1"}},{"base_weights":[1.7657624E0,4.314285E0,-1.5056786E2,-9.3963754E-1,1.4452724E2,-2.5758746E2,2.006045E2,-4.1414444E1,1.2032938E1,-1.990624E1,4.0269867E2,-1.3269528E2,-1.2099066E2,-1.2638438E1,8.154591E1,-5.3695312E1,3.1523874E2,5.9922034E2,8.463967E0,-1.1812947E2,3.2719278E2,4.6012927E2,-6.881405E1,-1.9778076E2,3.7233948E1,1.0249069E2,-7.089334E1,1.2760163E2,-8.483418E1,2.6544214E2,-8.1468994E1,-2.6798542E1,2.4984106E1,-2.5316661E2,1.329517E2,2.0927254E1,1.094185E2,1.6217381E2,5.7333973E1,-7.633335E1,-2.3251778E1,1.4930974E2,-4.5919504E0,-1.3691826E2,-1.7080082E1,-6.424022E0,-1.1144369E2,1.1089891E2,5.233748E0,-3.315503E1,-1.1400851E2,9.221161E1,-3.5493484E1],"categories":[],"categories_nodes":[],"categories_segments":[],"categories_sizes":[],"default_left":[0,0,0,0,0,0,0,0,0,0,0,0,0,0,0,0,0,0,0,0,0,0,0,0,0,0,0,0,0,0,0,0,0,0,0,0,0,0,0,0,0,0,0,0,0,0,0,0,0,0,0,0,0],"id":10,"left_children":[1,3,5,7,9,11,13,15,17,19,21,-1,23,-1,-1,25,27,29,31,33,35,37,-1,39,-1,41,43,-1,-1,-1,-1,45,47,49,51,-1,-1,-1,-1,-1,-1,-1,-1,-1,-1,-1,-1,-1,-1,-1,-1,-1,-1],"loss_changes":[4.4827375E5,8.36254E5,7.657374E5,5.754417E5,1.7485492E6,3.249868E5,9.788253E4,1.1820099E6,1.7343219E6,9.2507394E5,6.8635525E5,0E0,2.1276266E5,0E0,0E0,7.002774E5,7.128549E5,1.4837025E6,4.8184884E5,7.456699E5,3.2535312E4,2.213235E5,0E0,3.480078E4,0E0,1.2180336E6,1.2279029E6,0E0,0E0,0E0,0E0,4.8206906E5,1.4563862E6,2.1135588E5,3.8696912E5,0E0,0E0,0E0,0E0,0E0,0E0,0E0,0E0,0E0,0E0,0E0,0E0,0E0,0E0,0E0,0E0,0E0,0E0],"parents":[2147483647,0,0,1,1,2,2,3,3,4,4,5,5,6,6,7,7,8,8,9,9,10,10,12,12,15,15,16,16,17,17,18,18,19,19,20,20,21,21,23,23,25,25,26,26,31,31,32,32,33,33,34,34],"right_children":[2,4,6,8,10,12,14,16,18,20,22,-1,24,-1,-1,26,28,30,32,34,36,38,-1,40,-1,42,44,-1,-1,-1,-1,46,48,50,52,-1,-1,-1,-1,-1,-1,-1,-1,-1,-1,-1,-1,-1,-1,-1,-1,-1,-1],"split_conditions":[1.1E1,2E0,1.7E1,2.8E1,2E0,3E0,1E0,3E0,1E1,1E0,6E0,-1.3269528E2,4E0,-1.2638438E1,8.154591E1,1E0,6E0,3E0,4.8E1,1E0,1E0,3E0,-6.881405E1,1E0,3.7233948E1,1E0,1E0,1.2760163E2,-8.483418E1,2.6544214E2,-8.1468994E1,2.2E1,5.1E1,5E0,1.2E1,2.0927254E1,1.094185E2,1.6217381E2,5.7333973E1,-7.633335E1,-2.3251778E1,1.4930974E2,-4.5919504E0,-1.3691826E2,-1.7080082E1,-6.424022E0,-1.1144369E2,1.1089891E2,5.233748E0,-3.315503E1,-1.1400851E2,9.221161E1,-3.5493484E1],"split_indices":[7,27,15,0,4,52,1,52,46,33,43,0,19,0,0,5,22,25,9,67,7,56,0,9,0,68,1,0,0,0,0,61,46,27,16,0,0,0,0,0,0,0,0,0,0,0,0,0,0,0,0,0,0],"split_type":[0,0,0,0,0,0,0,0,0,0,0,0,0,0,0,0,0,0,0,0,0,0,0,0,0,0,0,0,0,0,0,0,0,0,0,0,0,0,0,0,0,0,0,0,0,0,0,0,0,0,0,0,0],"sum_hessian":[1.152E3,1.134E3,1.8E1,1.094E3,4E1,1.4E1,4E0,2.65E2,8.29E2,2.5E1,1.5E1,5E0,9E0,1E0,3E0,2.57E2,8E0,4E0,8.25E2,2E1,5E0,1.4E1,1E0,7E0,2E0,2.5E1,2.32E2,7E0,1E0,3E0,1E0,2.63E2,5.62E2,1.3E1,7E0,1E0,4E0,1E1,4E0,4E0,3E0,5E0,2E1,7E0,2.25E2,2.6E2,3E0,1.1E1,5.51E2,7E0,6E0,4E0,3E0],"tree_param":{"num_deleted":"0","num_feature":"69","num_nodes":"53","size_leaf_vector":"1"}},{"base_weights":[1.4790306E0,2.3465414E0,-9.955469E1,-7.285409E-1,9.760891E1,-1.9971195E1,1.932455E1,1.4709985E2,-1.0052808E2,-1.6274298E1,-1.7711714E2,-1.6035364E1,4.371127E1,2.2690646E2,-1.3065912E2,1.3896528E1,-3.624995E1,1.5530815E2,-2.5167703E2,-1.9582341E0,-1.5952419E2,3.5946393E2,2.7220156E1,-1.2725708E1,2.5871613E2,-5.3374E1,3.0018055E1,-2.6212387E0,5.155145E1,-1.4233201E1,1.5064068E1,1.46626835E1,5.5225986E1,-1.0254898E2,-2.2538269E1,-3.694892E0,7.639465E1,-6.916813E1,2.9908981E1,5.7317463E1,2.4507498E2,2.876137E1,8.4557915E-1,-7.27418E1,4.340425E1,8.779946E1,7.2880306E0],"categories":[],"categories_nodes":[],"categories_segments":[],"categories_sizes":[],"default_left":[0,0,0,0,0,0,0,0,0,0,0,0,0,0,0,0,0,0,0,0,0,0,0,0,0,0,0,0,0,0,0,0,0,0,0,0,0,0,0,0,0,0,0,0,0,0,0],"id":11,"left_children":[1,3,-1,5,7,9,11,13,-1,15,17,19,21,23,25,27,29,31,33,35,37,39,41,43,45,-1,-1,-1,-1,-1,-1,-1,-1,-1,-1,-1,-1,-1,-1,-1,-1,-1,-1,-1,-1,-1,-1],"loss_changes":[3.3418662E5,3.3724462E5,0E0,4.3102212E5,8.20227E5,3.282604E5,4.723857E5,7.611584E5,0E0,3.368003E5,3.6130016E5,4.5214766E5,1.6773198E6,2.0148038E5,1.0502172E5,7.986928E5,3.275889E5,1.9154688E2,1.4940012E5,5.4801694E5,3.9126744E5,1.0765236E6,5.173645E5,1.7973581E5,1.7593225E5,0E0,0E0,0E0,0E0,0E0,0E0,0E0,0E0,0E0,0E0,0E0,0E0,0E0,0E0,0E0,0E0,0E0,0E0,0E0,0E0,0E0,0E0],"parents":[2147483647,0,0,1,1,3,3,4,4,5,5,6,6,7,7,9,9,10,10,11,11,12,12,13,13,14,14,15,15,16,16,17,17,18,18,19,19,20,20,21,21,22,22,23,23,24,24],"right_children":[2,4,-1,6,8,10,12,14,-1,16,18,20,22,24,26,28,30,32,34,36,38,40,42,44,46,-1,-1,-1,-1,-1,-1,-1,-1,-1,-1,-1,-1,-1,-1,-1,-1,-1,-1,-1,-1,-1,-1],"split_conditions":[1.3E1,1E0,-9.955469E1,2.66E2,1E0,1.1E1,3.6E1,5E0,-1.0052808E2,3.8E1,1.1E1,7.18E2,2.98E2,7E0,7E0,1E0,3.85E2,1E0,4E0,2.56E2,3.78E2,2.81E2,3E0,1E0,6E0,-5.3374E1,3.0018055E1,-2.6212387E0,5.155145E1,-1.4233201E1,1.5064068E1,1.46626835E1,5.5225986E1,-1.0254898E2,-2.2538269E1,-3.694892E0,7.639465E1,-6.916813E1,2.9908981E1,5.7317463E1,2.4507498E2,2.876137E1,8.4557915E-1,-7.27418E1,4.340425E1,8.779946E1,7.2880306E0],"split_indices":[63,63,0,1,61,7,54,50,0,28,46,28,1,15,4,51,9,0,40,67,16,1,61,5,0,0,0,0,0,0,0,0,0,0,0,0,0,0,0,0,0,0,0,0,0,0,0],"split_type":[0,0,0,0,0,0,0,0,0,0,0,0,0,0,0,0,0,0,0,0,0,0,0,0,0,0,0,0,0,0,0,0,0,0,0,0,0,0,0,0,0,0,0,0,0,0,0],"sum_hessian":[1.152E3,1.15E3,2E0,1.115E3,3.5E1,5.69E2,5.46E2,3.2E1,3E0,5.57E2,1.2E1,2.23E2,3.23E2,2.5E1,7E0,2.22E2,3.35E2,2E0,1E1,2.04E2,1.9E1,1.5E1,3.08E2,3E0,2.2E1,6E0,1E0,1.95E2,2.7E1,2.97E2,3.8E1,1E0,1E0,6E0,4E0,1.97E2,7E0,1.5E1,4E0,1.2E1,3E0,8E1,2.28E2,1E0,2E0,1.9E1,3E0],"tree_param":{"num_deleted":"0","num_feature":"69","num_nodes":"47","size_leaf_vector":"1"}},{"base_weights":[1.2107887E0,-6.586027E-1,4.0228676E1,7.7792797E0,-3.755133E1,4.297578E0,1.2826834E2,-2.8864886E2,-2.4997013E1,-1.0154292E2,8.307278E0,2.4724135E2,-8.681261E1,-1.1255083E2,-6.50757E1,-1.7169775E1,-2.7912967E2,-3.831521E1,-2.4313513E2,3.0635287E2,6.2303057E0,7.723361E1,1.2596521E1,-2.1142033E2,1.5295407E2,1.2463276E1,-3.433913E1,-9.681628E0,-6.603184E1,-1.5362991E2,3.736206E1,-2.2982365E1,4.1712365E0,-3.160533E1,-1.079547E2,9.983719E1,2.6124628E1,-4.560555E1,2.5339942E0,-7.334937E1,-2.574529E1,5.6222084E1,7.439319E0,5.2297146E1,-4.966354E0],"categories":[],"categories_nodes":[],"categories_segments":[],"categories_sizes":[],"default_left":[0,0,0,0,0,0,0,0,0,0,0,0,0,0,0,0,0,0,0,0,0,0,0,0,0,0,0,0,0,0,0,0,0,0,0,0,0,0,0,0,0,0,0,0,0],"id":12,"left_children":[1,3,-1,5,7,9,11,13,15,17,19,21,23,-1,25,27,29,31,33,35,37,-1,-1,39,41,-1,-1,43,-1,-1,-1,-1,-1,-1,-1,-1,-1,-1,-1,-1,-1,-1,-1,-1,-1],"loss_changes":[2.865093E5,3.5454753E5,0E0,3.8833172E5,6.610846E5,3.8364212E5,6.8677325E5,1.6902231E5,3.990062E5,2.861184E5,5.3664956E5,2.4795062E4,3.3110544E5,0E0,2.5818318E4,2.9875322E5,6.2803475E5,4.9055996E4,1.2290256E5,5.802E3,3.0466838E5,0E0,0E0,8.1001562E3,1.3014148E4,0E0,0E0,2.4569823E5,0E0,0E0,0E0,0E0,0E0,0E0,0E0,0E0,0E0,0E0,0E0,0E0,0E0,0E0,0E0,0E0,0E0],"parents":[2147483647,0,0,1,1,3,3,4,4,5,5,6,6,7,7,8,8,9,9,10,10,11,11,12,12,14,14,15,15,16,16,17,17,18,18,19,19,20,20,23,23,24,24,27,27],"right_children":[2,4,-1,6,8,10,12,14,16,18,20,22,24,-1,26,28,30,32,34,36,38,-1,-1,40,42,-1,-1,44,-1,-1,-1,-1,-1,-1,-1,-1,-1,-1,-1,-1,-1,-1,-1,-1,-1],"split_conditions":[3.6066E4,5E0,4.0228676E1,2E0,2E0,3E0,7E0,5E0,3.781E3,1E0,4E0,1E0,5E0,-1.1255083E2,1E0,1.6E2,5.77E2,1.1E1,1E0,8E0,6E0,7.723361E1,1.2596521E1,1.3E1,2E0,1.2463276E1,-3.433913E1,1E0,-6.603184E1,-1.5362991E2,3.736206E1,-2.2982365E1,4.1712365E0,-3.160533E1,-1.079547E2,9.983719E1,2.6124628E1,-4.560555E1,2.5339942E0,-7.334937E1,-2.574529E1,5.6222084E1,7.439319E0,5.2297146E1,-4.966354E0],"split_indices":[57,43,0,22,17,16,7,52,23,68,16,31,1,0,0,50,28,15,3,6,16,0,0,15,4,0,0,54,0,0,0,0,0,0,0,0,0,0,0,0,0,0,0,0,0],"split_type":[0,0,0,0,0,0,0,0,0,0,0,0,0,0,0,0,0,0,0,0,0,0,0,0,0,0,0,0,0,0,0,0,0,0,0,0,0,0,0,0,0,0,0,0,0],"sum_hessian":[1.152E3,1.137E3,1.5E1,9.26E2,2.11E2,9.01E2,2.5E1,9E0,2.02E2,3.2E1,8.69E2,1.6E1,9E0,6E0,3E0,1.97E2,5E0,2.3E1,9E0,5E0,8.64E2,1.5E1,1E0,6E0,3E0,1E0,2E0,1.91E2,6E0,3E0,2E0,1.3E1,1E1,5E0,4E0,4E0,1E0,1.1E1,8.53E2,4E0,2E0,2E0,1E0,6E0,1.85E2],"tree_param":{"num_deleted":"0","num_feature":"69","num_nodes":"45","size_leaf_vector":"1"}},{"base_weights":[6.305195E-1,1.2945843E0,-7.630776E1,-1.1747876E0,1.409963E2,-3.6807976E0,6.55993E1,2.2829268E2,8.727696E1,3.4694758E-1,-7.962841E1,1.7923933E2,-6.268471E1,1.429748E1,7.513661E1,1.8173468E1,3.6965714E1,-1.7816107E0,1.3213902E2,-4.0992695E1,-9.044675E1,3.297224E1,5.6378955E2,-2.7494568E2,7.275933E1,2.3343705E-1,-3.2860855E1,-2.192445E1,7.487621E1,-8.045142E0,7.01976E1,2.1865497E2,8.9714096E1,-1.6959553E1,-1.4376797E2,1.8954985E2,-2.5898926E1],"categories":[],"categories_nodes":[],"categories_segments":[],"categories_sizes":[],"default_left":[0,0,0,0,0,0,0,0,0,0,0,0,0,0,0,0,0,0,0,0,0,0,0,0,0,0,0,0,0,0,0,0,0,0,0,0,0],"id":13,"left_children":[1,3,-1,5,7,9,11,13,15,17,19,21,23,-1,-1,-1,-1,25,-1,27,-1,29,31,33,35,-1,-1,-1,-1,-1,-1,-1,-1,-1,-1,-1,-1],"loss_changes":[1.9556644E5,3.9723247E5,0E0,1.896664E5,7.3865375E4,3.340678E5,6.0894175E5,1.6087156E4,5.970125E3,9.7319725E5,4.5908728E5,1.2188455E6,5.9499456E5,0E0,0E0,0E0,0E0,2.8528625E5,0E0,4.658098E5,0E0,2.1059538E5,4.423075E4,3.2985062E5,1.2107984E6,0E0,0E0,0E0,0E0,0E0,0E0,0E0,0E0,0E0,0E0,0E0,0E0],"parents":[2147483647,0,0,1,1,3,3,4,4,5,5,6,6,7,7,8,8,9,9,10,10,11,11,12,12,17,17,19,19,21,21,22,22,23,23,24,24],"right_children":[2,4,-1,6,8,10,12,14,16,18,20,22,24,-1,-1,-1,-1,26,-1,28,-1,30,32,34,36,-1,-1,-1,-1,-1,-1,-1,-1,-1,-1,-1,-1],"split_conditions":[6.752E3,1.36E3,-7.630776E1,3.84E2,2.88E2,5.2E2,6.08E2,1E0,6.72E2,5.04E2,1.45E2,2.67E2,1.19E2,1.429748E1,7.513661E1,1.8173468E1,3.6965714E1,4.56E2,1.3213902E2,2.24E2,-9.044675E1,1.93E2,2.32E2,1E0,5.27E2,2.3343705E-1,-3.2860855E1,-2.192445E1,7.487621E1,-8.045142E0,7.01976E1,2.1865497E2,8.9714096E1,-1.6959553E1,-1.4376797E2,1.8954985E2,-2.5898926E1],"split_indices":[6,6,0,40,54,6,1,5,50,6,19,16,9,0,0,0,0,6,0,54,0,9,0,5,4,0,0,0,0,0,0,0,0,0,0,0,0],"split_type":[0,0,0,0,0,0,0,0,0,0,0,0,0,0,0,0,0,0,0,0,0,0,0,0,0,0,0,0,0,0,0,0,0,0,0,0,0],"sum_hessian":[1.152E3,1.15E3,2E0,1.131E3,1.9E1,1.091E3,4E1,6E0,1.3E1,1.037E3,5.4E1,2.1E1,1.9E1,1E0,5E0,9E0,4E0,1.033E3,4E0,4.7E1,7E0,1.6E1,5E0,7E0,1.2E1,1.01E3,2.3E1,4.3E1,4E0,1.3E1,3E0,2E0,3E0,4E0,3E0,2E0,1E1],"tree_param":{"num_deleted":"0","num_feature":"69","num_nodes":"37","size_leaf_vector":"1"}},{"base_weights":[8.78255E-1,-1.9535442E1,8.845918E0,-2.7912731E1,1.2442919E2,4.561319E2,6.1276655E0,-3.9273975E1,9.1362175E1,1.3353749E2,5.652191E1,2.0568477E2,-6.927058E1,-3.5885338E1,1.5125861E1,-2.7456804E1,-1.4101434E2,1.8514003E2,-8.657418E1,-6.029731E1,1.3140881E2,-4.510102E1,9.0763985E1,3.0015936E2,7.8165445E0,-3.55205E1,1.7204301E2,-2.0739452E2,-4.3362244E1,2.3635791E2,-5.3212044E1,2.296127E1,-1.3691931E2,7.023049E1,9.145543E1,-5.2445637E1,3.1512973E2,5.7989484E2,9.485865E1,8.7379E1,5.227913E0,-1.2848026E1,4.8003735E1,8.07664E1,-1.2308943E1,-4.563121E1,-9.290125E1,-2.2435507E1,5.005666E1,9.811708E1,2.5793844E1,3.3979433E0,-2.3550116E1,-5.2082844E1,-5.369767E0,3.1052437E1,1.3345862E1,-1.2478373E1,-6.20919E1,2.4154818E1,1.1765357E2,-2.1886522E1,2.1025871E2,4.8396893E1,-1.8535397E1,-3.4278187E1,2.9164886E0],"categories":[],"categories_nodes":[],"categories_segments":[],"categories_sizes":[],"default_left":[0,0,0,0,0,0,0,0,0,0,0,0,0,0,0,0,0,0,0,0,0,0,0,0,0,0,0,0,0,0,0,0,0,0,0,0,0,0,0,0,0,0,0,0,0,0,0,0,0,0,0,0,0,0,0,0,0,0,0,0,0,0,0,0,0,0,0],"id":14,"left_children":[1,3,5,7,9,11,13,15,17,-1,19,-1,-1,21,23,25,27,29,31,-1,33,35,-1,37,39,41,43,45,47,49,51,-1,53,-1,55,57,59,61,63,-1,65,-1,-1,-1,-1,-1,-1,-1,-1,-1,-1,-1,-1,-1,-1,-1,-1,-1,-1,-1,-1,-1,-1,-1,-1,-1,-1],"loss_changes":[1.8770762E5,3.94228E5,1.0063487E6,4.1960738E5,3.668371E5,9.46626E5,3.1280488E5,3.3396978E5,4.6656353E5,0E0,3.3496156E5,0E0,0E0,4.6900175E5,1.4164491E6,4.1311353E5,1.7898969E5,2.3231906E5,9.259829E4,0E0,3.1928172E4,3.9487053E5,0E0,9.213001E5,4.8641397E5,3.5543447E5,2.1810672E5,4.903125E4,9.835143E4,1.764675E5,7.417419E3,0E0,3.1827453E4,0E0,1.6224766E3,2.278179E5,2.2653438E4,6.0394675E5,1.24490375E5,0E0,3.5549612E5,0E0,0E0,0E0,0E0,0E0,0E0,0E0,0E0,0E0,0E0,0E0,0E0,0E0,0E0,0E0,0E0,0E0,0E0,0E0,0E0,0E0,0E0,0E0,0E0,0E0,0E0],"parents":[2147483647,0,0,1,1,2,2,3,3,4,4,5,5,6,6,7,7,8,8,10,10,13,13,14,14,15,15,16,16,17,17,18,18,20,20,21,21,23,23,24,24,25,25,26,26,27,27,28,28,29,29,30,30,32,32,34,34,35,35,36,36,37,37,38,38,40,40],"right_children":[2,4,6,8,10,12,14,16,18,-1,20,-1,-1,22,24,26,28,30,32,-1,34,36,-1,38,40,42,44,46,48,50,52,-1,54,-1,56,58,60,62,64,-1,66,-1,-1,-1,-1,-1,-1,-1,-1,-1,-1,-1,-1,-1,-1,-1,-1,-1,-1,-1,-1,-1,-1,-1,-1,-1,-1],"split_conditions":[2.8E1,9.6E1,1E1,3E0,2.8E1,3E0,5.38E2,9E0,3E0,1.3353749E2,2.41E2,2.0568477E2,-6.927058E1,8E1,6E1,7E0,2E0,3E0,3E0,-6.029731E1,9.8E1,1.792E3,9.0763985E1,1.1E1,7E0,1E1,2E0,1.27E2,6.81E2,7E0,2E0,2.296127E1,1.6E1,7.023049E1,2.88E2,3.84E2,2.88E2,1E0,6.4E1,8.7379E1,6.41E2,-1.2848026E1,4.8003735E1,8.07664E1,-1.2308943E1,-4.563121E1,-9.290125E1,-2.2435507E1,5.005666E1,9.811708E1,2.5793844E1,3.3979433E0,-2.3550116E1,-5.2082844E1,-5.369767E0,3.1052437E1,1.3345862E1,-1.2478373E1,-6.20919E1,2.4154818E1,1.1765357E2,-2.1886522E1,2.1025871E2,4.8396893E1,-1.8535397E1,-3.4278187E1,2.9164886E0],"split_indices":[0,67,46,52,16,25,17,68,42,0,1,0,0,67,46,68,4,27,7,0,16,4,0,54,9,6,43,9,1,52,0,0,7,0,1,0,0,5,0,0,17,0,0,0,0,0,0,0,0,0,0,0,0,0,0,0,0,0,0,0,0,0,0,0,0,0,0],"split_type":[0,0,0,0,0,0,0,0,0,0,0,0,0,0,0,0,0,0,0,0,0,0,0,0,0,0,0,0,0,0,0,0,0,0,0,0,0,0,0,0,0,0,0,0,0,0,0,0,0,0,0,0,0,0,0,0,0,0,0,0,0,0,0,0,0,0,0],"sum_hessian":[1.152E3,3.23E2,8.29E2,3.06E2,1.7E1,4E0,8.25E2,2.8E2,2.6E1,2E0,1.5E1,3E0,1E0,1.45E2,6.8E2,2.52E2,2.8E1,1.7E1,9E0,3E0,1.2E1,1.42E2,3E0,1.6E1,6.64E2,2.43E2,9E0,1.6E1,1.2E1,1.4E1,3E0,2E0,7E0,2E0,1E1,1.4E2,2E0,6E0,1E1,5E0,6.59E2,2.35E2,8E0,6E0,3E0,1.2E1,4E0,1.1E1,1E0,8E0,6E0,1E0,2E0,5E0,2E0,7E0,3E0,1.32E2,8E0,1E0,1E0,1E0,5E0,7E0,3E0,2.3E1,6.36E2],"tree_param":{"num_deleted":"0","num_feature":"69","num_nodes":"67","size_leaf_vector":"1"}},{"base_weights":[1.3246654E0,-1.459992E0,5.03492E1,1.0840197E-1,-1.9020212E2,-2.9390842E2,7.915849E1,-3.4918401E0,6.161073E1,9.599486E1,-1.4958752E2,5.679247E1,-1.6399196E2,2.9418964E1,2.8900748E2,-5.724784E-1,-2.9974982E2,1.6250788E1,4.0272876E2,-5.1648678E1,7.720529E1,-9.192197E1,6.797767E1,3.3536327E1,9.4790634E1,-3.2903829E0,1.9418686E2,-1.7931715E2,-1.4798177E0,-1.4411713E2,5.597343E1,1.359936E2,1.4884424E1,-1.9857521E2,2.9132288E1,2.8224005E1,1.3127127E2,5.147356E-1,-2.3403849E1,3.0237745E1,6.643961E1,6.743306E1,-5.124071E1,-7.172489E1,5.2975354E0,2.2833248E1,-7.3382355E1,-9.405992E1,2.9259668E1,1.8495344E1,-6.789491E1,8.2848465E1,2.523283E1],"categories":[],"categories_nodes":[],"categories_segments":[],"categories_sizes":[],"default_left":[0,0,0,0,0,0,0,0,0,0,0,0,0,0,0,0,0,0,0,0,0,0,0,0,0,0,0,0,0,0,0,0,0,0,0,0,0,0,0,0,0,0,0,0,0,0,0,0,0,0,0,0,0],"id":15,"left_children":[1,3,5,7,9,11,13,15,17,-1,-1,19,-1,21,23,25,27,29,31,-1,-1,33,35,-1,-1,37,39,-1,41,43,45,-1,-1,47,-1,49,51,-1,-1,-1,-1,-1,-1,-1,-1,-1,-1,-1,-1,-1,-1,-1,-1],"loss_changes":[1.5747708E5,3.232767E5,6.381701E5,2.4023797E5,1.5757264E6,4.7421075E5,5.968895E5,8.8633475E5,9.2184094E5,0E0,0E0,1.8206256E5,0E0,2.3082862E5,1.7237375E4,5.384456E5,8.878824E5,3.520596E5,1.02540625E5,0E0,0E0,2.6121056E5,8.939264E4,0E0,0E0,3.753292E5,1.33451875E4,0E0,2.6825456E5,1.7321645E5,2.8494588E5,0E0,0E0,3.028986E5,0E0,2.1815802E5,7.243828E4,0E0,0E0,0E0,0E0,0E0,0E0,0E0,0E0,0E0,0E0,0E0,0E0,0E0,0E0,0E0,0E0],"parents":[2147483647,0,0,1,1,2,2,3,3,4,4,5,5,6,6,7,7,8,8,11,11,13,13,14,14,15,15,16,16,17,17,18,18,21,21,22,22,25,25,26,26,28,28,29,29,30,30,33,33,35,35,36,36],"right_children":[2,4,6,8,10,12,14,16,18,-1,-1,20,-1,22,24,26,28,30,32,-1,-1,34,36,-1,-1,38,40,-1,42,44,46,-1,-1,48,-1,50,52,-1,-1,-1,-1,-1,-1,-1,-1,-1,-1,-1,-1,-1,-1,-1,-1],"split_conditions":[1.312E3,1.18E2,3.23E2,1.572E3,4.21E2,2.98E2,1.01E3,1.544E3,3.52E2,9.599486E1,-1.4958752E2,2.41E2,-1.6399196E2,3.47E2,4.21E2,1.01E2,1.558E3,3.13E2,1.189E3,-5.1648678E1,7.720529E1,3.6066E4,1.048E3,3.3536327E1,9.4790634E1,7.18E2,1.309E3,-1.7931715E2,4.21E2,3.78E2,3.84E2,1.359936E2,1.4884424E1,5.77E2,2.9132288E1,2.2528E4,7.19E2,5.147356E-1,-2.3403849E1,3.0237745E1,6.643961E1,6.743306E1,-5.124071E1,-7.172489E1,5.2975354E0,2.2833248E1,-7.3382355E1,-9.405992E1,2.9259668E1,1.8495344E1,-6.789491E1,8.2848465E1,2.523283E1],"split_indices":[54,61,15,1,9,1,1,1,54,0,0,1,0,25,9,61,1,15,0,0,0,57,15,0,0,28,1,0,9,16,40,0,0,28,0,4,1,0,0,0,0,0,0,0,0,0,0,0,0,0,0,0,0],"split_type":[0,0,0,0,0,0,0,0,0,0,0,0,0,0,0,0,0,0,0,0,0,0,0,0,0,0,0,0,0,0,0,0,0,0,0,0,0,0,0,0,0,0,0,0,0,0,0,0,0,0,0,0,0],"sum_hessian":[1.152E3,1.091E3,6.1E1,1.083E3,8E0,4E0,5.7E1,1.024E3,5.9E1,3E0,5E0,2E0,2E0,4.7E1,1E1,1.015E3,9E0,5.3E1,6E0,1E0,1E0,1.1E1,3.6E1,2E0,8E0,1.002E3,1.3E1,4E0,5E0,1E1,4.3E1,5E0,1E0,7E0,4E0,2.3E1,1.3E1,9.4E2,6.2E1,4E0,9E0,2E0,3E0,6E0,4E0,4.1E1,2E0,5E0,2E0,2.1E1,2E0,2E0,1.1E1],"tree_param":{"num_deleted":"0","num_feature":"69","num_nodes":"53","size_leaf_vector":"1"}},{"base_weights":[8.4389156E-1,-1.4012076E0,6.176954E1,6.7064266E0,-2.233056E1,1.4676993E2,-3.4819378E1,-2.8238585E0,4.3018314E1,-1.3995508E2,-1.384589E0,-2.3129414E1,3.529621E2,8.822166E1,-1.10157425E2,1.8352516E0,-1.4664917E2,3.0283136E2,1.7265282E1,-1.6892105E2,6.409783E1,7.998849E1,-1.4940696E1,2.9152266E1,-6.213573E1,-4.7838966E1,4.2761636E2,-6.5841354E1,-1.2288219E2,-8.5643387E-1,3.3200717E2,-1.6001764E2,-1.595127E1,-5.9238205E1,4.398783E2,3.58087E1,-2.0360394E2,-4.7437504E1,-2.4365375E2,1.4424121E2,-1.1434326E2,-3.802853E2,-5.043797E0,-1.843825E1,2.698456E1,1.7217813E2,7.764196E1,-1.4338014E2,2.0262004E2,-1.5972593E0,5.337336E1,2.1614227E1,1.1369558E2,-6.089332E1,-2.5894598E1,7.337482E1,-5.8901737E1,-1.2874479E1,1.4773474E2,5.5179855E1,5.4511943E0,6.578357E0,-1.1034919E2,-3.8353977E0,-4.965789E1,-4.47816E1,-1.04757484E2,5.5840706E1,-4.923995E1,7.76969E0,-5.344408E1,-1.8226537E2,-3.4429367E1,1.0229714E2,-2.9154818E0,-3.0905526E0,-7.755854E0,-6.2825886E1,-9.429245E0,-1.0485844E2,1.5095364E2],"categories":[],"categories_nodes":[],"categories_segments":[],"categories_sizes":[],"default_left":[0,0,0,0,0,0,0,0,0,0,0,0,0,0,0,0,0,0,0,0,0,0,0,0,0,0,0,0,0,0,0,0,0,0,0,0,0,0,0,0,0,0,0,0,0,0,0,0,0,0,0,0,0,0,0,0,0,0,0,0,0,0,0,0,0,0,0,0,0,0,0,0,0,0,0,0,0,0,0,0,0],"id":16,"left_children":[1,3,5,7,9,11,13,15,17,19,21,23,25,-1,27,29,31,33,35,37,-1,39,41,43,-1,-1,45,47,-1,49,51,53,-1,55,57,59,61,63,65,67,69,71,73,75,-1,-1,-1,77,79,-1,-1,-1,-1,-1,-1,-1,-1,-1,-1,-1,-1,-1,-1,-1,-1,-1,-1,-1,-1,-1,-1,-1,-1,-1,-1,-1,-1,-1,-1,-1,-1],"loss_changes":[1.5779864E5,1.89012E5,3.4172438E5,2.780098E5,7.660355E5,7.788659E5,5.2795525E5,4.2712156E5,1.112164E6,5.1750262E5,2.9351716E5,1.3108877E5,4.507365E5,0E0,1.9862838E5,5.4951275E5,1.6484906E4,7.703654E5,6.339284E5,3.8790862E5,0E0,4.9097403E5,8.224795E5,3.348508E4,0E0,0E0,7.3752125E4,3.6211044E5,0E0,4.9134384E5,3.3757125E4,3.6306312E4,0E0,2.5629173E5,3.0032275E5,3.6765012E5,4.525258E5,7.154183E4,2.168185E5,4.0520725E5,9.40935E4,2.9233756E5,3.640227E5,1.5596533E2,0E0,0E0,0E0,8.952775E4,8.39687E5,0E0,0E0,0E0,0E0,0E0,0E0,0E0,0E0,0E0,0E0,0E0,0E0,0E0,0E0,0E0,0E0,0E0,0E0,0E0,0E0,0E0,0E0,0E0,0E0,0E0,0E0,0E0,0E0,0E0,0E0,0E0,0E0],"parents":[2147483647,0,0,1,1,2,2,3,3,4,4,5,5,6,6,7,7,8,8,9,9,10,10,11,11,12,12,14,14,15,15,16,16,17,17,18,18,19,19,21,21,22,22,23,23,26,26,27,27,29,29,30,30,31,31,33,33,34,34,35,35,36,36,37,37,38,38,39,39,40,40,41,41,42,42,43,43,47,47,48,48],"right_children":[2,4,6,8,10,12,14,16,18,20,22,24,26,-1,28,30,32,34,36,38,-1,40,42,44,-1,-1,46,48,-1,50,52,54,-1,56,58,60,62,64,66,68,70,72,74,76,-1,-1,-1,78,80,-1,-1,-1,-1,-1,-1,-1,-1,-1,-1,-1,-1,-1,-1,-1,-1,-1,-1,-1,-1,-1,-1,-1,-1,-1,-1,-1,-1,-1,-1,-1,-1],"split_conditions":[3.84E2,2.73E2,6.08E2,4.52E2,3.78E2,2.43E2,3.52E2,5.2E2,4.72E2,2.59E2,2.98E2,2.208E3,3.86E2,8.822166E1,5.44E2,5.04E2,3.13E2,1.3E2,6.72E2,1.85E2,6.409783E1,9.35E2,1.568E3,3.52E2,-6.213573E1,-4.7838966E1,5.44E2,1.152E3,-1.2288219E2,1.76E2,8.6E1,2.68E2,-1.595127E1,1.76E2,3.4E1,4E0,4.75E2,5.52E2,6.08E2,1.1399E4,1E0,2.88E2,1.669E3,2.32E2,2.698456E1,1.7217813E2,7.764196E1,6.81E2,1.19E2,-1.5972593E0,5.337336E1,2.1614227E1,1.1369558E2,-6.089332E1,-2.5894598E1,7.337482E1,-5.8901737E1,-1.2874479E1,1.4773474E2,5.5179855E1,5.4511943E0,6.578357E0,-1.1034919E2,-3.8353977E0,-4.965789E1,-4.47816E1,-1.04757484E2,5.5840706E1,-4.923995E1,7.76969E0,-5.344408E1,-1.8226537E2,-3.4429367E1,1.0229714E2,-2.9154818E0,-3.0905526E0,-7.755854E0,-6.2825886E1,-9.429245E0,-1.0485844E2,1.5095364E2],"split_indices":[40,16,1,1,16,16,6,6,1,9,42,4,1,0,50,6,15,15,50,15,0,16,4,0,0,0,0,6,0,67,1,28,0,6,0,9,1,1,4,17,5,6,17,0,0,0,0,28,9,0,0,0,0,0,0,0,0,0,0,0,0,0,0,0,0,0,0,0,0,0,0,0,0,0,0,0,0,0,0,0,0],"split_type":[0,0,0,0,0,0,0,0,0,0,0,0,0,0,0,0,0,0,0,0,0,0,0,0,0,0,0,0,0,0,0,0,0,0,0,0,0,0,0,0,0,0,0,0,0,0,0,0,0,0,0,0,0,0,0,0,0,0,0,0,0,0,0,0,0,0,0,0,0,0,0,0,0,0,0,0,0,0,0,0,0],"sum_hessian":[1.152E3,1.112E3,4E1,8.02E2,3.1E2,2.1E1,1.9E1,6.36E2,1.66E2,4.6E1,2.64E2,1.2E1,9E0,3E0,1.6E1,6.17E2,1.9E1,1.4E1,1.52E2,4.3E1,3E0,3.7E1,2.27E2,1E1,2E0,1E0,8E0,1.5E1,1E0,6.13E2,4E0,1.6E1,3E0,4E0,1E1,1.41E2,1.1E1,1.7E1,2.6E1,2.8E1,9E0,5E0,2.22E2,6E0,4E0,3E0,5E0,1.2E1,3E0,5.99E2,1.4E1,1E0,3E0,9E0,7E0,1E0,3E0,1E0,9E0,1.4E1,1.27E2,5E0,6E0,1.4E1,3E0,1.5E1,1.1E1,2.5E1,3E0,3E0,6E0,2E0,3E0,2E0,2.2E2,4E0,2E0,7E0,5E0,1E0,2E0],"tree_param":{"num_deleted":"0","num_feature":"69","num_nodes":"81","size_leaf_vector":"1"}},{"base_weights":[5.8239025E-1,-5.310596E1,3.0134006E0,-7.361802E1,1.4622612E2,3.615915E0,-6.579443E1,-2.1202945E2,-3.4219845E1,6.2625477E1,3.495862E1,3.7316616E1,-9.691605E-1,-6.847128E0,-8.695712E1,-6.2130882E1,1.2034232E2,3.050629E0,1.268075E1,1.49342E1,2.2490167E2,-3.1275784E1,5.5479746E0,-3.151915E1,-1.0426138E2,6.728637E1,1.2297577E1,2.8665949E1,-1.5608339E2,-7.551291E1,4.0018896E2,-3.5363865E1,1.0016791E2,9.31158E1,-7.896564E-1,-5.013176E0,-4.7767807E1,-4.079309E0,1.349751E1,1.4447991E1,-2.0478268E1,-6.667526E1,-5.3433943E0,-7.012793E1,1.861514E1,1.4974318E2,-5.871761E1,-5.570015E0,-3.0030691E1,6.6333346E0,7.3906425E1,2.9250088E1,-1.4686136E0],"categories":[],"categories_nodes":[],"categories_segments":[],"categories_sizes":[],"default_left":[0,0,0,0,0,0,0,0,0,0,0,0,0,0,0,0,0,0,0,0,0,0,0,0,0,0,0,0,0,0,0,0,0,0,0,0,0,0,0,0,0,0,0,0,0,0,0,0,0,0,0,0,0],"id":17,"left_children":[1,3,5,7,9,11,-1,13,15,-1,17,19,21,-1,-1,23,25,-1,-1,27,29,31,33,35,-1,-1,37,39,41,43,45,47,-1,49,51,-1,-1,-1,-1,-1,-1,-1,-1,-1,-1,-1,-1,-1,-1,-1,-1,-1,-1],"loss_changes":[1.5064605E5,2.152004E5,1.4868039E5,2.4358958E5,2.7487602E4,1.7031748E5,0E0,1.4063866E5,1.6709461E5,0E0,1.1385693E2,5.508573E5,1.9195802E5,0E0,0E0,2.6862362E5,6.4626445E4,0E0,0E0,2.8393034E5,7.674435E5,2.6857616E5,4.440516E5,5.407389E4,0E0,0E0,3.9982766E3,2.130213E5,7.838345E4,1.4511875E5,6.284134E5,1.8409044E5,0E0,5.821098E5,3.0193003E5,0E0,0E0,0E0,0E0,0E0,0E0,0E0,0E0,0E0,0E0,0E0,0E0,0E0,0E0,0E0,0E0,0E0,0E0],"parents":[2147483647,0,0,1,1,2,2,3,3,4,4,5,5,7,7,8,8,10,10,11,11,12,12,15,15,16,16,19,19,20,20,21,21,22,22,23,23,26,26,27,27,28,28,29,29,30,30,31,31,33,33,34,34],"right_children":[2,4,6,8,10,12,-1,14,16,-1,18,20,22,-1,-1,24,26,-1,-1,28,30,32,34,36,-1,-1,38,40,42,44,46,48,-1,50,52,-1,-1,-1,-1,-1,-1,-1,-1,-1,-1,-1,-1,-1,-1,-1,-1,-1,-1],"split_conditions":[7E0,1E0,1.3E1,1E0,1E0,5E0,-6.579443E1,1E0,1E0,6.2625477E1,2E0,1.8E1,5.38E2,-6.847128E0,-8.695712E1,1E0,2E0,3.050629E0,1.268075E1,7E0,2.6E1,8.61E2,6.96E2,3.3E1,-1.0426138E2,6.728637E1,2E0,4E1,9E0,2E1,3E0,7E0,1.0016791E2,6.41E2,1.4E1,-5.013176E0,-4.7767807E1,-4.079309E0,1.349751E1,1.4447991E1,-2.0478268E1,-6.667526E1,-5.3433943E0,-7.012793E1,1.861514E1,1.4974318E2,-5.871761E1,-5.570015E0,-3.0030691E1,6.6333346E0,7.3906425E1,2.9250088E1,-1.4686136E0],"split_indices":[23,19,63,1,0,9,0,3,51,0,0,54,17,0,0,7,1,0,0,43,0,0,17,1,0,0,0,16,7,5,25,61,0,17,4,0,0,0,0,0,0,0,0,0,0,0,0,0,0,0,0,0,0],"split_type":[0,0,0,0,0,0,0,0,0,0,0,0,0,0,0,0,0,0,0,0,0,0,0,0,0,0,0,0,0,0,0,0,0,0,0,0,0,0,0,0,0,0,0,0,0,0,0,0,0,0,0,0,0],"sum_hessian":[1.152E3,4.9E1,1.103E3,4.5E1,4E0,1.101E3,2E0,9E0,3.6E1,2E0,2E0,1.31E2,9.7E2,3E0,6E0,3.1E1,5E0,1E0,1E0,1.18E2,1.3E1,1.71E2,7.99E2,2.9E1,2E0,2E0,3E0,1.1E2,8E0,5E0,8E0,1.7E2,1E0,5.3E1,7.46E2,2.7E1,2E0,2E0,1E0,9.2E1,1.8E1,5E0,3E0,2E0,3E0,7E0,1E0,1.36E2,3.4E1,3.7E1,1.6E1,2.9E1,7.17E2],"tree_param":{"num_deleted":"0","num_feature":"69","num_nodes":"53","size_leaf_vector":"1"}},{"base_weights":[3.8406372E-1,-5.4428287E0,1.727288E1,-6.371622E0,7.841614E1,6.241014E1,-2.2601048E-2,-2.8715518E0,-6.938685E1,-1.383553E2,8.299299E1,-1.24901115E2,5.841089E0,-6.653742E0,1.4723586E2,-1.4023132E2,-1.6963453E1,-5.9675365E1,-7.487902E1,2.621257E2,3.384104E1,-6.1798218E1,1.0880967E1,-5.3122783E0,-2.1700598E2,-1.1792288E1,4.4425848E2,-6.3075397E1,-2.7522367E1,5.068155E1,-3.8704002E1,-2.4022633E1,6.348752E0,1.8726524E2,1.3054935E2,1.01979774E2,-3.7697014E1,2.1112215E2,3.9224982E0,-3.7519865E0,8.526094E0,5.229126E0,-8.3991806E1,4.8611546E1,-4.8726055E1,1.677978E2,-3.6921993E1,-2.16777E0,1.8461134E1,-4.0235953E0,-2.6211615E1,-1.0368122E2,7.456238E1,-1.9933109E-1,7.324609E1,3.123567E1,-5.593626E1,-2.0177513E1,1.3101665E2,-2.4920067E1,3.5428946E0],"categories":[],"categories_nodes":[],"categories_segments":[],"categories_sizes":[],"default_left":[0,0,0,0,0,0,0,0,0,0,0,0,0,0,0,0,0,0,0,0,0,0,0,0,0,0,0,0,0,0,0,0,0,0,0,0,0,0,0,0,0,0,0,0,0,0,0,0,0,0,0,0,0,0,0,0,0,0,0,0,0],"id":18,"left_children":[1,3,5,7,-1,9,11,13,15,17,19,-1,21,23,25,27,29,31,-1,33,35,-1,37,39,41,43,45,-1,-1,47,49,-1,-1,-1,51,53,55,57,59,-1,-1,-1,-1,-1,-1,-1,-1,-1,-1,-1,-1,-1,-1,-1,-1,-1,-1,-1,-1,-1,-1],"loss_changes":[1.1355995E5,2.1430348E5,2.3107994E5,1.8859814E5,0E0,3.5033306E5,5.272767E5,4.619803E5,1.6474706E5,5.5124953E4,6.5148356E5,0E0,2.296452E5,2.2261586E5,9.49938E5,4.5221562E4,4.166885E4,1.1589189E4,0E0,6.8079225E5,2.9631506E5,0E0,2.9038662E5,1.91833E5,7.86885E4,3.92891E5,5.258084E5,0E0,0E0,4.8449863E3,2.467734E4,0E0,0E0,0E0,8.16266E5,4.5255528E5,6.5229744E5,4.689917E5,1.4025895E5,0E0,0E0,0E0,0E0,0E0,0E0,0E0,0E0,0E0,0E0,0E0,0E0,0E0,0E0,0E0,0E0,0E0,0E0,0E0,0E0,0E0,0E0],"parents":[2147483647,0,0,1,1,2,2,3,3,5,5,6,6,7,7,8,8,9,9,10,10,12,12,13,13,14,14,15,15,16,16,17,17,19,19,20,20,22,22,23,23,24,24,25,25,26,26,29,29,30,30,34,34,35,35,36,36,37,37,38,38],"right_children":[2,4,6,8,-1,10,12,14,16,18,20,-1,22,24,26,28,30,32,-1,34,36,-1,38,40,42,44,46,-1,-1,48,50,-1,-1,-1,52,54,56,58,60,-1,-1,-1,-1,-1,-1,-1,-1,-1,-1,-1,-1,-1,-1,-1,-1,-1,-1,-1,-1,-1,-1],"split_conditions":[4.48E2,6.08E2,1.279E3,1.4E1,7.841614E1,1.16E2,1.408E3,1.1E1,1.3E2,2.16E2,3.04E2,-1.24901115E2,1E2,5.44E2,1.7E2,3.9E2,1E0,5.76E2,-7.487902E1,5E2,4.72E2,-6.1798218E1,1.296E3,6.4E1,3.76E2,1.47E2,3.36E2,-6.3075397E1,-2.7522367E1,2.64E2,2.88E2,-2.4022633E1,6.348752E0,1.8726524E2,4.8E2,3.86E2,1E0,4.48E2,2.448E3,-3.7519865E0,8.526094E0,5.229126E0,-8.3991806E1,4.8611546E1,-4.8726055E1,1.677978E2,-3.6921993E1,-2.16777E0,1.8461134E1,-4.0235953E0,-2.6211615E1,-1.0368122E2,7.456238E1,-1.9933109E-1,7.324609E1,3.123567E1,-5.593626E1,-2.0177513E1,1.3101665E2,-2.4920067E1,3.5428946E0],"split_indices":[0,52,4,61,0,15,4,61,0,6,6,0,28,50,15,28,5,0,0,4,1,0,17,19,6,28,6,0,0,0,1,0,0,0,0,1,5,42,17,0,0,0,0,0,0,0,0,0,0,0,0,0,0,0,0,0,0,0,0,0,0],"split_type":[0,0,0,0,0,0,0,0,0,0,0,0,0,0,0,0,0,0,0,0,0,0,0,0,0,0,0,0,0,0,0,0,0,0,0,0,0,0,0,0,0,0,0,0,0,0,0,0,0,0,0,0,0,0,0,0,0,0,0,0,0],"sum_hessian":[1.152E3,8.57E2,2.95E2,8.55E2,2E0,8.1E1,2.14E2,8.11E2,4.4E1,7E0,7.4E1,2E0,2.12E2,7.92E2,1.9E1,1.8E1,2.6E1,5E0,2E0,1.5E1,5.9E1,4E0,2.08E2,7.88E2,4E0,1.3E1,6E0,6E0,1.2E1,6E0,2E1,4E0,1E0,3E0,1.2E1,3E1,2.9E1,6E0,2.02E2,6.5E2,1.38E2,1E0,3E0,6E0,7E0,5E0,1E0,1E0,5E0,1.4E1,6E0,2E0,1E1,1.8E1,1.2E1,1.5E1,1.4E1,3E0,3E0,1.6E1,1.86E2],"tree_param":{"num_deleted":"0","num_feature":"69","num_nodes":"61","size_leaf_vector":"1"}},{"base_weights":[3.0991286E-1,7.612346E-1,-5.1885147E1,-1.2975515E0,3.6943745E1,3.428989E0,-4.06339E1,-2.2890034E2,5.9224377E1,1.496313E0,1.3584846E2,-2.5249225E2,-2.4856623E1,-1.3279044E2,6.1134197E1,2.2200449E1,2.153993E2,3.4268053E0,-1.1273757E2,5.1820393E1,7.428593E1,-1.3607913E2,6.2011856E1,-1.1819474E1,-2.4886394E2,6.664717E1,-3.913678E1,-6.533073E1,4.9988926E1,4.6690628E1,9.686736E1,2.4397027E-1,2.7706472E1,-1.8148904E2,-1.1877485E1,6.5004888E0,2.7299795E1,7.52459E1,-7.5661736E1,-9.264458E0,5.1707443E1,3.6301758E1,-1.04111725E2,-4.3362854E1,2.2342443E1,5.551416E0,3.0117367E1],"categories":[],"categories_nodes":[],"categories_segments":[],"categories_sizes":[],"default_left":[0,0,0,0,0,0,0,0,0,0,0,0,0,0,0,0,0,0,0,0,0,0,0,0,0,0,0,0,0,0,0,0,0,0,0,0,0,0,0,0,0,0,0,0,0,0,0],"id":19,"left_children":[1,3,-1,5,7,9,11,13,15,17,19,21,23,-1,25,27,29,31,33,-1,35,-1,37,39,41,-1,-1,43,45,-1,-1,-1,-1,-1,-1,-1,-1,-1,-1,-1,-1,-1,-1,-1,-1,-1,-1],"loss_changes":[9.029185E4,8.578828E4,0E0,2.0279742E5,3.807933E5,2.4906666E5,3.8480206E5,3.3701197E5,3.305862E5,2.1231339E5,1.8959531E4,5.3411475E5,3.1830434E5,0E0,1.21532984E5,1.20019E5,2.0412156E4,2.1979412E5,5.5211775E5,0E0,4.184133E3,0E0,3.0056512E5,3.73957E5,2.5986584E5,0E0,0E0,1.436563E5,5.6856703E4,0E0,0E0,0E0,0E0,0E0,0E0,0E0,0E0,0E0,0E0,0E0,0E0,0E0,0E0,0E0,0E0,0E0,0E0],"parents":[2147483647,0,0,1,1,3,3,4,4,5,5,6,6,7,7,8,8,9,9,10,10,11,11,12,12,14,14,15,15,16,16,17,17,18,18,20,20,22,22,23,23,24,24,27,27,28,28],"right_children":[2,4,-1,6,8,10,12,14,16,18,20,22,24,-1,26,28,30,32,34,-1,36,-1,38,40,42,-1,-1,44,46,-1,-1,-1,-1,-1,-1,-1,-1,-1,-1,-1,-1,-1,-1,-1,-1,-1,-1],"split_conditions":[1.3E1,1.312E3,-5.1885147E1,1.135E3,3.23E2,1.01E2,1.151E3,1.652E3,1.01E3,1.086E3,6.08E2,1.18E2,1.18E2,-1.3279044E2,2.98E2,3.47E2,9.98E2,6.72E2,1.309E3,5.1820393E1,1.309E3,-1.3607913E2,1.551E3,1.12E3,4.21E2,6.664717E1,-3.913678E1,3.6066E4,1.048E3,4.6690628E1,9.686736E1,2.4397027E-1,2.7706472E1,-1.8148904E2,-1.1877485E1,6.5004888E0,2.7299795E1,7.52459E1,-7.5661736E1,-9.264458E0,5.1707443E1,3.6301758E1,-1.04111725E2,-4.3362854E1,2.2342443E1,5.551416E0,3.0117367E1],"split_indices":[63,54,0,16,15,61,16,54,1,54,0,61,61,0,1,25,0,54,1,0,1,0,1,54,9,0,0,57,15,0,0,0,0,0,0,0,0,0,0,0,0,0,0,0,0,0,0],"split_type":[0,0,0,0,0,0,0,0,0,0,0,0,0,0,0,0,0,0,0,0,0,0,0,0,0,0,0,0,0,0,0,0,0,0,0,0,0,0,0,0,0,0,0,0,0,0,0],"sum_hessian":[1.152E3,1.15E3,2E0,1.089E3,6.1E1,9.73E2,1.16E2,4E0,5.7E1,9.6E2,1.3E1,7E0,1.09E2,2E0,2E0,4.7E1,1E1,9.45E2,1.5E1,7E0,6E0,4E0,3E0,1.04E2,5E0,1E0,1E0,1.1E1,3.6E1,8E0,2E0,9.19E2,2.6E1,1E0,1.4E1,2E0,4E0,2E0,1E0,9.5E1,9E0,1E0,4E0,7E0,4E0,2.3E1,1.3E1],"tree_param":{"num_deleted":"0","num_feature":"69","num_nodes":"47","size_leaf_vector":"1"}},{"base_weights":[8.242636E-3,-3.345355E-1,5.9233303E1,-4.443858E1,1.623284E0,-9.094168E1,-9.231555E0,4.5371796E1,-1.292035E0,3.0162988E0,-1.6166153E2,2.8746158E-1,-4.13646E1,8.589391E1,-1.7609882E2,-6.0652287E1,1.4646387E0,-8.435847E1,1.5516806E2,-2.4198952E2,-4.1001957E1,2.6191236E1,-9.763978E0,1.208976E2,-6.1278667E1,-2.2589436E2,-3.248302E1,-9.1659584E1,6.0139954E1,2.100103E1,-5.296887E0,1.730858E0,-6.193569E1,5.4530678E1,1.1304822E1,-8.4991356E1,-2.7740414E1,9.6836E0,-3.751264E1,1.146884E0,-8.591743E0,4.8484493E1,-1.4996985E1,-4.6121483E1,2.967373E1,-7.623282E1,-2.8249851E1,8.179779E0,-1.8446394E1,4.8081803E0,-4.3197113E1,4.957094E1,-2.5519829E0,1.0790871E1,-2.1317017E1,-6.8265142E0,3.4850214E0],"categories":[],"categories_nodes":[],"categories_segments":[],"categories_sizes":[],"default_left":[0,0,0,0,0,0,0,0,0,0,0,0,0,0,0,0,0,0,0,0,0,0,0,0,0,0,0,0,0,0,0,0,0,0,0,0,0,0,0,0,0,0,0,0,0,0,0,0,0,0,0,0,0,0,0,0,0],"id":20,"left_children":[1,3,-1,5,7,9,11,13,15,17,19,21,-1,23,25,27,29,31,33,35,37,-1,39,41,43,45,47,49,51,53,55,-1,-1,-1,-1,-1,-1,-1,-1,-1,-1,-1,-1,-1,-1,-1,-1,-1,-1,-1,-1,-1,-1,-1,-1,-1,-1],"loss_changes":[7.8097375E4,9.954475E4,0E0,7.938503E4,1.4086373E5,1.4002619E5,3.555378E4,6.343634E5,1.6961661E5,1.4603198E5,1.0638606E5,2.5342428E4,0E0,3.113518E5,7.132797E4,1.7780267E5,1.3101819E5,7.821964E4,5.651289E3,1.7045719E4,4.098729E4,0E0,6.777328E3,3.4206762E5,1.929411E5,5.8052188E3,8.608592E3,2.1081522E5,7.3550734E4,3.5393816E5,2.1788627E5,0E0,0E0,0E0,0E0,0E0,0E0,0E0,0E0,0E0,0E0,0E0,0E0,0E0,0E0,0E0,0E0,0E0,0E0,0E0,0E0,0E0,0E0,0E0,0E0,0E0,0E0],"parents":[2147483647,0,0,1,1,3,3,4,4,5,5,6,6,7,7,8,8,9,9,10,10,11,11,13,13,14,14,15,15,16,16,17,17,18,18,19,19,20,20,22,22,23,23,24,24,25,25,26,26,27,27,28,28,29,29,30,30],"right_children":[2,4,-1,6,8,10,12,14,16,18,20,22,-1,24,26,28,30,32,34,36,38,-1,40,42,44,46,48,50,52,54,56,-1,-1,-1,-1,-1,-1,-1,-1,-1,-1,-1,-1,-1,-1,-1,-1,-1,-1,-1,-1,-1,-1,-1,-1,-1,-1],"split_conditions":[3E0,7E0,5.9233303E1,3E0,5E0,4E0,1E0,4E0,1E1,1E0,3E0,1E0,-4.13646E1,3.9E1,8E0,1.2E2,1.63E2,1E0,2E0,5E0,1.1E1,2.6191236E1,2E0,5E0,8.617E3,4E0,1E0,1.5E1,1.36E2,2.01E2,2.64E2,1.730858E0,-6.193569E1,5.4530678E1,1.1304822E1,-8.4991356E1,-2.7740414E1,9.6836E0,-3.751264E1,1.146884E0,-8.591743E0,4.8484493E1,-1.4996985E1,-4.6121483E1,2.967373E1,-7.623282E1,-2.8249851E1,8.179779E0,-1.8446394E1,4.8081803E0,-4.3197113E1,4.957094E1,-2.5519829E0,1.0790871E1,-2.1317017E1,-6.8265142E0,3.4850214E0],"split_indices":[12,23,0,17,17,16,20,43,16,51,28,9,0,16,7,4,4,3,0,0,1,0,42,50,1,50,1,46,1,16,0,0,0,0,0,0,0,0,0,0,0,0,0,0,0,0,0,0,0,0,0,0,0,0,0,0,0],"split_type":[0,0,0,0,0,0,0,0,0,0,0,0,0,0,0,0,0,0,0,0,0,0,0,0,0,0,0,0,0,0,0,0,0,0,0,0,0,0,0,0,0,0,0,0,0,0,0,0,0,0,0,0,0,0,0,0,0],"sum_hessian":[1.152E3,1.151E3,1E0,4.8E1,1.103E3,2E1,2.8E1,6.8E1,1.035E3,9E0,1.1E1,2.7E1,1E0,5.8E1,1E1,4.5E1,9.9E2,6E0,3E0,6E0,5E0,2E0,2.5E1,4.7E1,1.1E1,7E0,3E0,3.6E1,9E0,2.54E2,7.36E2,4E0,2E0,2E0,1E0,4E0,2E0,3E0,2E0,1.5E1,1E1,3.8E1,9E0,7E0,4E0,5E0,2E0,1E0,2E0,1.2E1,2.4E1,3E0,6E0,2.19E2,3.5E1,3.62E2,3.74E2],"tree_param":{"num_deleted":"0","num_feature":"69","num_nodes":"57","size_leaf_vector":"1"}},{"base_weights":[-1.6877909E-1,-4.1203373E1,1.2286074E0,-6.1262318E1,7.598806E1,1.1346242E2,3.1585205E-1,-3.5002052E1,-1.7359982E2,3.579186E1,7.350733E0,1.4670857E2,-1.9327393E0,-4.965668E-1,9.957639E1,-9.761866E1,-9.481345E0,-5.652387E1,-1.4930171E1,5.565943E1,2.1362568E1,-1.2979431E0,4.2821047E-1,-3.263953E1,2.1246145E0,-8.443307E1,2.056533E2,-1.2037934E2,-1.9557743E1,4.6316895E0,-2.1185898E1,-1.5667329E1,-1.8979552E2,7.041094E1,-2.0123035E-2,-3.7416313E0,-3.1278805E1,6.678163E1,1.8133905E1,-3.2717078E0,-4.2027878E1,-8.419495E0,-3.814901E-1,1.14423895E1,-3.3571699E0,7.1035414E0,-2.407535E1,-8.2265305E1,-1.1045677E1,6.906816E0,2.2380865E2,-6.2673206E0,1.5316914E0],"categories":[],"categories_nodes":[],"categories_segments":[],"categories_sizes":[],"default_left":[0,0,0,0,0,0,0,0,0,0,0,0,0,0,0,0,0,0,0,0,0,0,0,0,0,0,0,0,0,0,0,0,0,0,0,0,0,0,0,0,0,0,0,0,0,0,0,0,0,0,0,0,0],"id":21,"left_children":[1,3,5,7,9,11,13,15,17,-1,-1,19,21,23,25,27,29,-1,-1,-1,-1,-1,-1,31,33,35,37,39,41,43,-1,45,47,49,51,-1,-1,-1,-1,-1,-1,-1,-1,-1,-1,-1,-1,-1,-1,-1,-1,-1,-1],"loss_changes":[6.616501E4,9.398319E4,1.1428944E5,9.127406E4,1.0458273E4,3.4811555E4,8.939982E4,4.3819004E4,1.6292656E3,0E0,0E0,7.3064688E3,3.0305122E1,9.274715E4,1.9303634E5,1.1859414E4,1.8446879E4,0E0,0E0,0E0,0E0,0E0,0E0,2.1841089E5,1.4909389E5,4.407457E3,1.3137031E3,1.1420898E4,4.310044E2,9.970378E3,0E0,1.9502398E5,9.322053E4,9.753306E5,1.058024E5,0E0,0E0,0E0,0E0,0E0,0E0,0E0,0E0,0E0,0E0,0E0,0E0,0E0,0E0,0E0,0E0,0E0,0E0],"parents":[2147483647,0,0,1,1,2,2,3,3,4,4,5,5,6,6,7,7,8,8,11,11,12,12,13,13,14,14,15,15,16,16,23,23,24,24,25,25,26,26,27,27,28,28,29,29,31,31,32,32,33,33,34,34],"right_children":[2,4,6,8,10,12,14,16,18,-1,-1,20,22,24,26,28,30,-1,-1,-1,-1,-1,-1,32,34,36,38,40,42,44,-1,46,48,50,52,-1,-1,-1,-1,-1,-1,-1,-1,-1,-1,-1,-1,-1,-1,-1,-1,-1,-1],"split_conditions":[3E0,1E0,4E0,2E0,1E0,8E0,9E0,5E0,2E0,3.579186E1,7.350733E0,3E0,3E0,1.5E1,2E0,3E0,1.03E2,-5.652387E1,-1.4930171E1,5.565943E1,2.1362568E1,-1.2979431E0,4.2821047E-1,9E0,2.1E1,7E0,8E0,1E0,1E0,3E0,-2.1185898E1,6E0,2E0,9E0,2.8E1,-3.7416313E0,-3.1278805E1,6.678163E1,1.8133905E1,-3.2717078E0,-4.2027878E1,-8.419495E0,-3.814901E-1,1.14423895E1,-3.3571699E0,7.1035414E0,-2.407535E1,-8.2265305E1,-1.1045677E1,6.906816E0,2.2380865E2,-6.2673206E0,1.5316914E0],"split_indices":[16,32,16,6,0,6,26,46,2,0,0,4,1,16,68,5,5,0,0,0,0,0,0,37,16,7,4,16,0,0,0,42,51,25,0,0,0,0,0,0,0,0,0,0,0,0,0,0,0,0,0,0,0],"split_type":[0,0,0,0,0,0,0,0,0,0,0,0,0,0,0,0,0,0,0,0,0,0,0,0,0,0,0,0,0,0,0,0,0,0,0,0,0,0,0,0,0,0,0,0,0,0,0,0,0,0,0,0,0],"sum_hessian":[1.152E3,3.7E1,1.115E3,3.2E1,5E0,8E0,1.107E3,2.7E1,5E0,2E0,3E0,6E0,2E0,1.099E3,8E0,7E0,2E1,4E0,1E0,3E0,3E0,1E0,1E0,8.2E1,1.017E3,3E0,5E0,5E0,2E0,1.7E1,3E0,7.5E1,7E0,3E1,9.87E2,1E0,2E0,4E0,1E0,1E0,4E0,1E0,1E0,5E0,1.2E1,4.7E1,2.8E1,4E0,3E0,2.9E1,1E0,1.94E2,7.93E2],"tree_param":{"num_deleted":"0","num_feature":"69","num_nodes":"53","size_leaf_vector":"1"}},{"base_weights":[8.671743E-3,5.95367E0,-1.0150876E1,-3.7764034E0,2.6904419E1,-1.1844878E2,-7.5576353E-1,5.6662315E-1,-1.6584828E2,-1.0598812E1,6.1085857E1,-1.7379279E2,3.1756151E1,1.6655803E2,-5.5591474E0,-1.6696666E0,2.1603163E2,-3.2815968E1,-2.448915E2,-7.818093E1,3.1671185E1,1.4724548E2,4.600098E1,-7.361856E1,-3.1669226E2,7.631231E1,-5.5695194E1,3.8521252E2,-1.3417762E1,-5.8834366E1,1.8874238E0,1.2755444E0,-1.0802194E2,-3.2447666E1,9.72357E1,-2.060189E0,-1.0989673E1,-7.796393E1,-2.0996052E1,-2.6684988E0,-1.5013968E2,5.648833E1,-1.2039882E2,-9.0779045E1,6.528655E1,-2.1542719E1,-1.374957E2,-3.4899277E1,-1.0567238E2,-1.3557303E1,-2.8333128E1,-2.6620556E1,2.1922684E2,-6.710232E1,1.1541976E2,-6.889334E1,6.0581764E1,1.6811566E2,-3.7101238E0,-1.6004389E1,1.6972601E0,-2.782339E0,-6.650448E1,3.7838085E1,-8.892865E0,-2.921575E1,-9.300769E1,-2.3475658E1,2.9759235E1,-8.762262E1,3.2907852E1,-3.401534E1,1.1231234E1,1.0229987E2,1.611625E1,1.2424964E1,-1.2737882E1,-3.3463566E0,-4.700804E1,-6.199773E0,-1.9841026E0,-7.668723E-1,5.8476757E1,-1.5676165E1,-5.133423E1,-1.9163074E1,1.3778465E2,-2.443299E1,8.147246E-1],"categories":[],"categories_nodes":[],"categories_segments":[],"categories_sizes":[],"default_left":[0,0,0,0,0,0,0,0,0,0,0,0,0,0,0,0,0,0,0,0,0,0,0,0,0,0,0,0,0,0,0,0,0,0,0,0,0,0,0,0,0,0,0,0,0,0,0,0,0,0,0,0,0,0,0,0,0,0,0,0,0,0,0,0,0,0,0,0,0,0,0,0,0,0,0,0,0,0,0,0,0,0,0,0,0,0,0,0,0],"id":22,"left_children":[1,3,5,7,9,11,13,15,17,19,21,23,25,27,29,31,33,35,37,39,41,-1,43,45,47,-1,49,51,53,55,57,59,61,-1,-1,-1,-1,-1,-1,63,65,67,69,71,73,75,77,-1,-1,79,-1,-1,-1,-1,81,83,-1,85,87,-1,-1,-1,-1,-1,-1,-1,-1,-1,-1,-1,-1,-1,-1,-1,-1,-1,-1,-1,-1,-1,-1,-1,-1,-1,-1,-1,-1,-1,-1],"loss_changes":[6.96999E4,1.485061E5,4.333531E5,3.5062744E5,2.9676962E5,2.881591E5,3.167692E5,2.3453603E5,1.2866256E5,3.195693E5,7.6179956E5,3.345568E5,2.0885005E5,4.3804638E5,1.5205392E5,1.511146E5,2.1026081E5,3.4259863E2,2.7839688E3,2.332519E5,2.6720328E5,0E0,3.171966E5,5.0261258E4,3.0249812E4,0E0,1.1781859E4,8.836916E5,2.1543903E5,1.3719866E5,3.1419225E5,1.12800836E5,1.4385086E5,0E0,0E0,0E0,0E0,0E0,0E0,8.017068E4,1.5536906E5,3.5304134E5,4.2705206E5,4.772065E4,3.1331866E5,1.49276455E4,1.52304375E4,0E0,0E0,1.10119995E2,0E0,0E0,0E0,0E0,4.7395344E4,6.929992E4,0E0,7.723706E5,1.6355881E5,0E0,0E0,0E0,0E0,0E0,0E0,0E0,0E0,0E0,0E0,0E0,0E0,0E0,0E0,0E0,0E0,0E0,0E0,0E0,0E0,0E0,0E0,0E0,0E0,0E0,0E0,0E0,0E0,0E0,0E0],"parents":[2147483647,0,0,1,1,2,2,3,3,4,4,5,5,6,6,7,7,8,8,9,9,10,10,11,11,12,12,13,13,14,14,15,15,16,16,17,17,18,18,19,19,20,20,22,22,23,23,24,24,26,26,27,27,28,28,29,29,30,30,31,31,32,32,39,39,40,40,41,41,42,42,43,43,44,44,45,45,46,46,49,49,54,54,55,55,57,57,58,58],"right_children":[2,4,6,8,10,12,14,16,18,20,22,24,26,28,30,32,34,36,38,40,42,-1,44,46,48,-1,50,52,54,56,58,60,62,-1,-1,-1,-1,-1,-1,64,66,68,70,72,74,76,78,-1,-1,80,-1,-1,-1,-1,82,84,-1,86,88,-1,-1,-1,-1,-1,-1,-1,-1,-1,-1,-1,-1,-1,-1,-1,-1,-1,-1,-1,-1,-1,-1,-1,-1,-1,-1,-1,-1,-1,-1],"split_conditions":[4E0,2.46E2,5E0,2.12E2,1E0,3.92E2,6E0,1.03E2,3.61E2,1E0,8.8E1,7.28E2,1.15E2,3.47E2,6.41E2,1.3E1,7.2E1,1E0,4.74E2,6.5E1,1.75E2,1.4724548E2,5.38E2,4.56E2,4.8E1,7.631231E1,9.9E1,3E1,3.72E2,9.28E2,6.96E2,7E0,2.8E1,-3.2447666E1,9.72357E1,-2.060189E0,-1.0989673E1,-7.796393E1,-2.0996052E1,1.41E2,1.793E3,1.3E2,9.9E1,3.12E2,8E2,3E0,5.8E1,-3.4899277E1,-1.0567238E2,9.27E2,-2.8333128E1,-2.6620556E1,2.1922684E2,-6.710232E1,1.66E2,1.12E3,6.0581764E1,1.5E2,4.2E1,-1.6004389E1,1.6972601E0,-2.782339E0,-6.650448E1,3.7838085E1,-8.892865E0,-2.921575E1,-9.300769E1,-2.3475658E1,2.9759235E1,-8.762262E1,3.2907852E1,-3.401534E1,1.1231234E1,1.0229987E2,1.611625E1,1.2424964E1,-1.2737882E1,-3.3463566E0,-4.700804E1,-6.199773E0,-1.9841026E0,-7.668723E-1,5.8476757E1,-1.5676165E1,-5.133423E1,-1.9163074E1,1.3778465E2,-2.443299E1,8.147246E-1],"split_indices":[61,1,61,1,54,6,61,67,17,5,23,17,1,1,17,3,6,0,4,46,9,0,17,17,9,0,0,9,1,0,17,46,0,0,0,0,0,0,0,15,17,15,0,6,17,1,1,0,0,1,0,0,0,0,16,4,0,15,42,0,0,0,0,0,0,0,0,0,0,0,0,0,0,0,0,0,0,0,0,0,0,0,0,0,0,0,0,0,0],"split_type":[0,0,0,0,0,0,0,0,0,0,0,0,0,0,0,0,0,0,0,0,0,0,0,0,0,0,0,0,0,0,0,0,0,0,0,0,0,0,0,0,0,0,0,0,0,0,0,0,0,0,0,0,0,0,0,0,0,0,0,0,0,0,0,0,0,0,0,0,0,0,0,0,0,0,0,0,0,0,0,0,0,0,0,0,0,0,0,0,0],"sum_hessian":[1.152E3,7.27E2,4.25E2,4.97E2,2.3E2,3.3E1,3.92E2,4.85E2,1.2E1,1.1E2,1.2E2,2.4E1,9E0,1E1,3.82E2,4.81E2,4E0,5E0,7E0,4.2E1,6.8E1,3E0,1.17E2,1.5E1,9E0,2E0,7E0,4E0,6E0,4.6E1,3.36E2,4.69E2,1.2E1,1E0,3E0,1E0,4E0,6E0,1E0,2.1E1,2.1E1,5.9E1,9E0,1.4E1,1.03E2,9E0,6E0,2E0,7E0,4E0,3E0,2E0,2E0,2E0,4E0,4.5E1,1E0,1E1,3.26E2,3.4E1,4.35E2,7E0,5E0,3E0,1.8E1,1.7E1,4E0,1.4E1,4.5E1,5E0,4E0,1.2E1,2E0,3E0,1E2,2E0,7E0,1E0,5E0,1E0,3E0,2E0,2E0,4E1,5E0,6E0,4E0,2.4E1,3.02E2],"tree_param":{"num_deleted":"0","num_feature":"69","num_nodes":"89","size_leaf_vector":"1"}},{"base_weights":[8.4737405E-2,2.8737104E0,-2.2469278E1,-8.9839154E-1,4.5786514E1,-1.12977806E2,-1.0256029E1,5.675971E0,-2.7756548E1,9.463189E1,6.359593E0,-2.0670819E2,6.2069122E1,-3.1285742E1,5.788623E1,3.5251706E0,2.3653705E2,-1.1826441E2,-7.462275E0,4.692487E0,1.7959065E2,-8.743655E1,3.744832E1,-7.07937E0,-1.0158425E2,1.6819223E2,-1.00118065E2,-9.6943886E1,1.5171736E0,1.22691246E2,-4.7529358E1,-2.0778823E0,5.5040764E1,1.3047176E2,-2.0965994E1,-3.133838E1,-2.2628148E2,8.535777E0,-1.031114E2,7.22966E1,-3.7996164E2,2.454035E2,5.842256E1,2.2510254E1,-1.27434105E2,8.6578575E1,2.4736311E1,-2.8356226E1,2.4816542E1,5.9030445E1,1.2369672E1,-6.518719E1,2.0134058E1,-4.8959385E1,2.6308014E1,-3.1405313E1,5.083769E1,5.8237137E1,1.2121941E2,-1.9036594E2,3.0968636E1,3.7295878E-1,-2.2256018E1,9.902963E1,1.4025285E1,-9.365594E0,1.4687946E0,-1.8430925E1,8.107864E1,-9.630994E1,-3.0973398E1,-1.3259742E0,7.215565E1,-2.0359598E1,-6.281249E1,4.7655937E1,-1.2534819E0,-3.3719624E1,-1.3726312E2,3.7976562E1,8.1282936E1,8.337403E-2,2.3327337E1,-1.3382621E1,-6.0401325E1,-1.7276185E0,3.0878376E1,-2.9940832E0,1.0149391E1,1.3827239E1,-1.2542898E1,6.279067E-1,-8.997458E1,3.754067E1,1.0279463E1,3.918266E1,-2.162658E1,2.9981783E1,-8.052445E1],"categories":[],"categories_nodes":[],"categories_segments":[],"categories_sizes":[],"default_left":[0,0,0,0,0,0,0,0,0,0,0,0,0,0,0,0,0,0,0,0,0,0,0,0,0,0,0,0,0,0,0,0,0,0,0,0,0,0,0,0,0,0,0,0,0,0,0,0,0,0,0,0,0,0,0,0,0,0,0,0,0,0,0,0,0,0,0,0,0,0,0,0,0,0,0,0,0,0,0,0,0,0,0,0,0,0,0,0,0,0,0,0,0,0,0,0,0,0,0],"id":23,"left_children":[1,3,5,7,9,11,13,15,17,19,21,23,25,27,29,31,33,35,37,39,41,43,45,47,-1,49,51,53,55,57,59,61,63,-1,65,67,69,71,73,75,77,79,81,-1,83,85,87,-1,-1,-1,-1,-1,-1,-1,89,91,93,95,-1,97,-1,-1,-1,-1,-1,-1,-1,-1,-1,-1,-1,-1,-1,-1,-1,-1,-1,-1,-1,-1,-1,-1,-1,-1,-1,-1,-1,-1,-1,-1,-1,-1,-1,-1,-1,-1,-1,-1,-1],"loss_changes":[7.25912E4,1.6628314E5,1.3922752E5,1.6702116E5,1.5924142E5,2.5893844E5,1.6374139E5,3.765336E5,3.4076066E5,2.8187953E5,1.4032645E5,2.6092512E5,1.2010994E5,1.8752583E5,1.9028081E5,2.177524E5,3.666822E5,3.1215156E5,2.3500067E5,5.2154978E5,1.3717681E5,8.754312E4,2.034195E4,4.708062E4,0E0,6.3988047E3,7.3368E4,2.411056E5,9.739807E4,2.847749E5,2.5652278E5,1.6317748E5,1.5330092E5,0E0,1.2134612E3,1.981556E5,1.4172412E5,3.9778912E5,6.818889E4,1.1319351E5,1.0846906E4,2.1155625E3,8.972309E3,0E0,5.222953E4,1.11603125E4,9.810057E3,0E0,0E0,0E0,0E0,0E0,0E0,0E0,1.6750166E4,3.2443462E5,2.5264047E4,1.5089388E5,0E0,1.6277317E5,0E0,0E0,0E0,0E0,0E0,0E0,0E0,0E0,0E0,0E0,0E0,0E0,0E0,0E0,0E0,0E0,0E0,0E0,0E0,0E0,0E0,0E0,0E0,0E0,0E0,0E0,0E0,0E0,0E0,0E0,0E0,0E0,0E0,0E0,0E0,0E0,0E0,0E0,0E0],"parents":[2147483647,0,0,1,1,2,2,3,3,4,4,5,5,6,6,7,7,8,8,9,9,10,10,11,11,12,12,13,13,14,14,15,15,16,16,17,17,18,18,19,19,20,20,21,21,22,22,23,23,25,25,26,26,27,27,28,28,29,29,30,30,31,31,32,32,34,34,35,35,36,36,37,37,38,38,39,39,40,40,41,41,42,42,44,44,45,45,46,46,54,54,55,55,56,56,57,57,59,59],"right_children":[2,4,6,8,10,12,14,16,18,20,22,24,26,28,30,32,34,36,38,40,42,44,46,48,-1,50,52,54,56,58,60,62,64,-1,66,68,70,72,74,76,78,80,82,-1,84,86,88,-1,-1,-1,-1,-1,-1,-1,90,92,94,96,-1,98,-1,-1,-1,-1,-1,-1,-1,-1,-1,-1,-1,-1,-1,-1,-1,-1,-1,-1,-1,-1,-1,-1,-1,-1,-1,-1,-1,-1,-1,-1,-1,-1,-1,-1,-1,-1,-1,-1,-1],"split_conditions":[1.017E3,3.1E2,1.032E3,1.54E2,5.008E3,1.18E2,1.01E2,1.37E2,1.902E3,3.23E2,5.07E2,6.4E2,1.551E3,4.864E3,1.18E2,2.11E3,1.41E2,1.48E2,1.056E3,2.84E2,5.22E2,1E0,3.52E2,1.01E2,-1.0158425E2,9.92E2,9.92E2,1.76E2,5.77E2,1.579E3,9.92E2,1.793E3,1.4E1,1.3047176E2,1.3E2,2.57E2,1.344E3,1.6E2,9.6E1,4.07E2,1E0,2.881E3,1E0,2.2510254E1,9.28E2,1E0,1.27E2,-2.8356226E1,2.4816542E1,5.9030445E1,1.2369672E1,-6.518719E1,2.0134058E1,-4.8959385E1,1.36E3,3.781E3,1.698E3,4.21E2,1.2121941E2,4.21E2,3.0968636E1,3.7295878E-1,-2.2256018E1,9.902963E1,1.4025285E1,-9.365594E0,1.4687946E0,-1.8430925E1,8.107864E1,-9.630994E1,-3.0973398E1,-1.3259742E0,7.215565E1,-2.0359598E1,-6.281249E1,4.7655937E1,-1.2534819E0,-3.3719624E1,-1.3726312E2,3.7976562E1,8.1282936E1,8.337403E-2,2.3327337E1,-1.3382621E1,-6.0401325E1,-1.7276185E0,3.0878376E1,-2.9940832E0,1.0149391E1,1.3827239E1,-1.2542898E1,6.279067E-1,-8.997458E1,3.754067E1,1.0279463E1,3.918266E1,-2.162658E1,2.9981783E1,-8.052445E1],"split_indices":[15,9,15,9,17,61,61,9,17,23,23,0,1,4,61,17,15,54,0,15,9,19,5,61,0,0,0,67,28,1,0,17,9,0,0,9,4,52,52,16,0,17,0,0,6,5,0,0,0,0,0,0,0,0,6,23,15,9,0,9,0,0,0,0,0,0,0,0,0,0,0,0,0,0,0,0,0,0,0,0,0,0,0,0,0,0,0,0,0,0,0,0,0,0,0,0,0,0,0],"split_type":[0,0,0,0,0,0,0,0,0,0,0,0,0,0,0,0,0,0,0,0,0,0,0,0,0,0,0,0,0,0,0,0,0,0,0,0,0,0,0,0,0,0,0,0,0,0,0,0,0,0,0,0,0,0,0,0,0,0,0,0,0,0,0,0,0,0,0,0,0,0,0,0,0,0,0,0,0,0,0,0,0,0,0,0,0,0,0,0,0,0,0,0,0,0,0,0,0,0,0],"sum_hessian":[1.152E3,1.026E3,1.26E2,9.44E2,8.2E1,1.4E1,1.12E2,7.59E2,1.85E2,3.6E1,4.6E1,9E0,5E0,8.6E1,2.6E1,7.53E2,6E0,3.3E1,1.52E2,1.8E1,1.8E1,1.1E1,3.5E1,4E0,5E0,3E0,2E0,2.8E1,5.8E1,1.6E1,1E1,6.8E2,7.3E1,3E0,3E0,1.9E1,1.4E1,1.31E2,2.1E1,1.6E1,2E0,1.1E1,7E0,2E0,9E0,6E0,2.9E1,2E0,2E0,2E0,1E0,1E0,1E0,1.8E1,1E1,3.5E1,2.3E1,1.4E1,2E0,5E0,5E0,6.51E2,2.9E1,1E0,7.2E1,2E0,1E0,1.8E1,1E0,7E0,7E0,1.25E2,6E0,1.7E1,4E0,7E0,9E0,1E0,1E0,3E0,8E0,2E0,5E0,5E0,4E0,1E0,5E0,6E0,2.3E1,8E0,2E0,3.2E1,3E0,3E0,2E1,9E0,5E0,1E0,4E0],"tree_param":{"num_deleted":"0","num_feature":"69","num_nodes":"99","size_leaf_vector":"1"}},{"base_weights":[1.3834246E-1,1.0013348E0,-5.142137E1,2.4966414E-3,8.097955E1,-8.1225555E1,4.8275455E1,-4.3205953E-1,1.6223596E2,1.5640004E2,-4.4001503E1,-1.25843956E2,-2.6453962E1,-7.6541643E0,2.1930378E1,-8.3372736E-1,4.482006E1,4.5361633E0,6.8470024E1,1.9257767E2,-4.2661843E0,-4.024722E1,-1.014748E1,-1.8058508E1,-5.1744394E0,-2.4197206E1,1.8431987E0,6.0960545E1,1.6137672E1,-3.4909196E0,1.5711366E0,5.5767517E0,-4.0934987E0,-1.2244574E1,2.4353357E1,2.7624716E1,-1.9498555E-1],"categories":[],"categories_nodes":[],"categories_segments":[],"categories_sizes":[],"default_left":[0,0,0,0,0,0,0,0,0,0,0,0,0,0,0,0,0,0,0,0,0,0,0,0,0,0,0,0,0,0,0,0,0,0,0,0,0],"id":24,"left_children":[1,3,5,7,9,11,13,15,17,19,-1,21,23,-1,-1,25,-1,-1,-1,27,29,-1,-1,-1,31,33,35,-1,-1,-1,-1,-1,-1,-1,-1,-1,-1],"loss_changes":[5.1354957E4,9.06696E4,6.0377477E4,7.917059E4,2.6331338E5,3.3328242E4,1.1024494E4,6.75293E4,2.567671E4,6.4759312E4,0E0,1.5820938E3,5.4324736E3,0E0,0E0,6.996689E4,0E0,0E0,0E0,2.339625E3,2.7106543E2,0E0,0E0,0E0,1.4613953E3,2.0469286E5,2.2593964E5,0E0,0E0,0E0,0E0,0E0,0E0,0E0,0E0,0E0,0E0],"parents":[2147483647,0,0,1,1,2,2,3,3,4,4,5,5,6,6,7,7,8,8,9,9,11,11,12,12,15,15,19,19,20,20,24,24,25,25,26,26],"right_children":[2,4,6,8,10,12,14,16,18,20,-1,22,24,-1,-1,26,-1,-1,-1,28,30,-1,-1,-1,32,34,36,-1,-1,-1,-1,-1,-1,-1,-1,-1,-1],"split_conditions":[1.1E1,6E0,1.9E1,9E0,2E0,4E0,2E0,8E0,1E0,3E0,-4.4001503E1,1.6E1,2E0,-7.6541643E0,2.1930378E1,2.3E1,4.482006E1,4.5361633E0,6.8470024E1,1.2E1,1E0,-4.024722E1,-1.014748E1,-1.8058508E1,1E0,2E0,2E0,6.0960545E1,1.6137672E1,-3.4909196E0,1.5711366E0,5.5767517E0,-4.0934987E0,-1.2244574E1,2.4353357E1,2.7624716E1,-1.9498555E-1],"split_indices":[7,26,7,7,9,54,1,56,0,25,0,16,6,0,0,23,0,0,0,15,0,0,0,0,5,52,28,0,0,0,0,0,0,0,0,0,0],"split_type":[0,0,0,0,0,0,0,0,0,0,0,0,0,0,0,0,0,0,0,0,0,0,0,0,0,0,0,0,0,0,0,0,0,0,0,0,0],"sum_hessian":[1.152E3,1.134E3,1.8E1,1.121E3,1.3E1,1.4E1,4E0,1.119E3,2E0,1E1,3E0,7E0,7E0,1E0,3E0,1.117E3,2E0,1E0,1E0,8E0,2E0,6E0,1E0,2E0,5E0,1.14E2,1.003E3,7E0,1E0,1E0,1E0,1E0,4E0,9.9E1,1.5E1,2.6E1,9.77E2],"tree_param":{"num_deleted":"0","num_feature":"69","num_nodes":"37","size_leaf_vector":"1"}},{"base_weights":[2.1465193E-1,8.057785E-1,-8.4491066E1,3.7331626E-1,4.9634842E1,-4.407051E1,2.054817E1,7.1746385E-1,-3.9226994E1,3.1285396E-1,4.626902E1,6.50866E0,-6.8556643E0,-1.524391E0,9.230366E0,-2.0709078E1,-1.522851E-1],"categories":[],"categories_nodes":[],"categories_segments":[],"categories_sizes":[],"default_left":[0,0,0,0,0,0,0,0,0,0,0,0,0,0,0,0,0],"id":25,"left_children":[1,3,5,7,-1,-1,-1,9,-1,11,-1,13,15,-1,-1,-1,-1],"loss_changes":[5.7800867E4,8.153593E4,8.6444984E4,5.172031E4,0E0,0E0,0E0,7.088446E4,0E0,5.0677434E4,0E0,1.722284E5,2.0875453E5,0E0,0E0,0E0,0E0],"parents":[2147483647,0,0,1,1,2,2,3,3,7,7,9,9,11,11,12,12],"right_children":[2,4,6,8,-1,-1,-1,10,-1,12,-1,14,16,-1,-1,-1,-1],"split_conditions":[2.667E3,1.998E3,5.98E2,1.218E3,4.9634842E1,-4.407051E1,2.054817E1,8.08E2,-3.9226994E1,5.27E2,4.626902E1,5.2E1,1.23E2,-1.524391E0,9.230366E0,-2.0709078E1,-1.522851E-1],"split_indices":[25,25,15,25,0,0,0,25,0,4,0,9,42,0,0,0,0],"split_type":[0,0,0,0,0,0,0,0,0,0,0,0,0,0,0,0,0],"sum_hessian":[1.152E3,1.145E3,7E0,1.143E3,2E0,5E0,2E0,1.141E3,2E0,1.139E3,2E0,6.11E2,5.28E2,4.14E2,1.97E2,4.8E1,4.8E2],"tree_param":{"num_deleted":"0","num_feature":"69","num_nodes":"17","size_leaf_vector":"1"}},{"base_weights":[1.676138E-1,5.0558686E-1,-3.8867176E1,-2.144529E0,1.876251E1,3.15174E0,-4.8109783E1,2.766683E2,1.8066081E0,-7.776875E-1,3.9099285E1,-1.7302553E2,-2.8363297E1,2.7972082E1,1.4100926E2,-6.592131E0,1.3911014E2,5.0842774E-1,-7.8499405E1,7.1201E1,-7.5211655E1,-1.9643452E1,-6.2848995E1,-7.3931313E0,-1.0744007E2,-4.317486E1,5.7160896E1,8.8841484E1,-1.3521484E1,2.2340875E2,-7.585714E1,-2.1644995E-1,4.261595E1,1.1691292E1,9.4833694E1,-1.2177078E2,2.1066587E0,-4.6367784E0,4.0666225E1,-4.933238E1,2.5515448E1,-6.878293E0,4.4564198E1,-2.8592836E1,9.8550236E-1,1.4422925E1,7.465798E1,1.9387062E1,-5.3522774E1],"categories":[],"categories_nodes":[],"categories_segments":[],"categories_sizes":[],"default_left":[0,0,0,0,0,0,0,0,0,0,0,0,0,0,0,0,0,0,0,0,0,0,0,0,0,0,0,0,0,0,0,0,0,0,0,0,0,0,0,0,0,0,0,0,0,0,0,0,0],"id":26,"left_children":[1,3,-1,5,7,9,11,13,15,17,19,21,23,25,-1,27,29,31,-1,33,35,-1,-1,37,39,-1,-1,41,43,45,47,-1,-1,-1,-1,-1,-1,-1,-1,-1,-1,-1,-1,-1,-1,-1,-1,-1,-1],"loss_changes":[5.061706E4,5.572903E4,0E0,2.4505666E5,6.37962E5,1.2758211E5,2.516237E5,4.1964894E5,1.600554E5,2.7359056E5,3.3194744E5,4.119575E4,1.5010672E5,1.6713567E5,0E0,8.783068E4,1.619187E5,1.4146339E5,0E0,5.402256E5,5.467301E5,0E0,0E0,8.623156E4,2.2245866E5,0E0,0E0,6.3465266E4,1.6938505E5,1.48101875E4,5.4749203E4,0E0,0E0,0E0,0E0,0E0,0E0,0E0,0E0,0E0,0E0,0E0,0E0,0E0,0E0,0E0,0E0,0E0,0E0],"parents":[2147483647,0,0,1,1,3,3,4,4,5,5,6,6,7,7,8,8,9,9,10,10,11,11,12,12,13,13,15,15,16,16,17,17,19,19,20,20,23,23,24,24,27,27,28,28,29,29,30,30],"right_children":[2,4,-1,6,8,10,12,14,16,18,20,22,24,26,-1,28,30,32,-1,34,36,-1,-1,38,40,-1,-1,42,44,46,48,-1,-1,-1,-1,-1,-1,-1,-1,-1,-1,-1,-1,-1,-1,-1,-1,-1,-1],"split_conditions":[6.752E3,4.24E2,-3.8867176E1,3.52E2,1.5E1,2.64E2,1.5E1,9.9E1,1.01E2,2.56E2,2.56E2,6.6E1,4.21E2,4.8E2,1.4100926E2,6.4E1,4.56E2,1.28E2,-7.8499405E1,1.42E2,1.568E3,-1.9643452E1,-6.2848995E1,1.88E2,1.312E3,-4.317486E1,5.7160896E1,9.9E1,3.86E2,6.08E2,6.08E2,-2.1644995E-1,4.261595E1,1.1691292E1,9.4833694E1,-1.2177078E2,2.1066587E0,-4.6367784E0,4.0666225E1,-4.933238E1,2.5515448E1,-6.878293E0,4.4564198E1,-2.8592836E1,9.8550236E-1,1.4422925E1,7.465798E1,1.9387062E1,-5.3522774E1],"split_indices":[6,6,0,6,9,6,9,0,61,6,54,0,9,6,0,28,6,50,0,54,4,0,0,67,54,0,0,0,1,0,0,0,0,0,0,0,0,0,0,0,0,0,0,0,0,0,0,0,0],"split_type":[0,0,0,0,0,0,0,0,0,0,0,0,0,0,0,0,0,0,0,0,0,0,0,0,0,0,0,0,0,0,0,0,0,0,0,0,0,0,0,0,0,0,0,0,0,0,0,0,0],"sum_hessian":[1.152E3,1.15E3,2E0,1.005E3,1.45E2,9.02E2,1.03E2,8E0,1.37E2,8.14E2,8.8E1,1.3E1,9E1,4E0,4E0,1.3E2,7E0,8.11E2,3E0,6.9E1,1.9E1,4E0,9E0,7.2E1,1.8E1,2E0,2E0,8E0,1.22E2,5E0,2E0,8.05E2,6E0,6.2E1,7E0,3E0,1.6E1,6.9E1,3E0,1.4E1,4E0,3E0,5E0,2E1,1.02E2,1E0,4E0,1E0,1E0],"tree_param":{"num_deleted":"0","num_feature":"69","num_nodes":"49","size_leaf_vector":"1"}},{"base_weights":[1.7077945E-1,-4.1226715E-1,6.685423E1,1.090903E1,-3.9561913E0,-3.8718636E1,1.1763098E2,-1.6896565E0,8.8866425E1,-3.0069044E1,1.7751974E0,4.6782475E0,-3.0248552E1,4.6801037E1,4.339966E0,2.7655077E0,-1.1436607E2,1.7935272E2,4.3983246E1,-1.2174403E1,-9.958954E1,8.4465546E1,9.901226E-1,1.3973788E1,-3.543894E1,-1.901791E2,2.7944977E1,9.629937E0,1.8695236E2,-3.2038498E1,7.358294E1,-1.356097E2,-2.825514E1,-3.3568913E1,4.4976707E0,1.9332284E0,3.810537E1,-1.6243479E1,-2.9956952E-2,-6.91755E1,-2.1873463E1,1.7499098E1,-4.8807377E-1,1.3031494E2,-4.691633E0,-1.8608452E1,8.399815E0,1.07425766E2,-3.6658338E-1,-2.8754704E1,-8.418912E1,3.1005976E1,-3.2093548E1,-4.226169E0,-5.1915062E1,3.8500244E1,2.3028667E-1],"categories":[],"categories_nodes":[],"categories_segments":[],"categories_sizes":[],"default_left":[0,0,0,0,0,0,0,0,0,0,0,0,0,0,0,0,0,0,0,0,0,0,0,0,0,0,0,0,0,0,0,0,0,0,0,0,0,0,0,0,0,0,0,0,0,0,0,0,0,0,0,0,0,0,0,0,0],"id":27,"left_children":[1,3,5,7,9,11,13,15,17,19,21,-1,-1,-1,-1,23,25,-1,27,29,31,-1,33,35,37,39,41,43,-1,45,47,49,51,53,55,-1,-1,-1,-1,-1,-1,-1,-1,-1,-1,-1,-1,-1,-1,-1,-1,-1,-1,-1,-1,-1,-1],"loss_changes":[4.485569E4,4.5942516E4,5.8160977E4,2.6828006E5,1.3055942E5,1.5065777E4,2.545389E4,1.18786375E5,8.417944E5,1.9410252E5,1.5698745E5,0E0,0E0,0E0,0E0,9.812623E4,1.0241584E5,0E0,7.1029575E5,2.1699748E5,7.839156E4,0E0,8.682147E4,1.4984169E5,3.436932E4,1.1617484E4,3.6891064E3,3.8244706E5,0E0,1.871899E5,5.112106E5,9.419041E4,1.3538442E5,1.7690597E5,3.0014688E5,0E0,0E0,0E0,0E0,0E0,0E0,0E0,0E0,0E0,0E0,0E0,0E0,0E0,0E0,0E0,0E0,0E0,0E0,0E0,0E0,0E0,0E0],"parents":[2147483647,0,0,1,1,2,2,3,3,4,4,5,5,6,6,7,7,8,8,9,9,10,10,15,15,16,16,18,18,19,19,20,20,22,22,23,23,24,24,25,25,26,26,27,27,29,29,30,30,31,31,32,32,33,33,34,34],"right_children":[2,4,6,8,10,12,14,16,18,20,22,-1,-1,-1,-1,24,26,-1,28,30,32,-1,34,36,38,40,42,44,-1,46,48,50,52,54,56,-1,-1,-1,-1,-1,-1,-1,-1,-1,-1,-1,-1,-1,-1,-1,-1,-1,-1,-1,-1,-1,-1],"split_conditions":[1.192E3,6E1,3.6E2,5.12E2,4.8E1,3.51E2,3.2E2,9E0,2.1E1,1.85E2,1.4E1,4.6782475E0,-3.0248552E1,4.6801037E1,4.339966E0,1.36E2,2E0,1.7935272E2,5.7E1,1.7E2,1.86E2,8.4465546E1,1.27E2,9.7E1,1.7E1,1.1E1,1E0,5.61E2,1.8695236E2,6.4E1,1.97E2,1.71E2,2.43E2,3.2E1,5.8E1,1.9332284E0,3.810537E1,-1.6243479E1,-2.9956952E-2,-6.91755E1,-2.1873463E1,1.7499098E1,-4.8807377E-1,1.3031494E2,-4.691633E0,-1.8608452E1,8.399815E0,1.07425766E2,-3.6658338E-1,-2.8754704E1,-8.418912E1,3.1005976E1,-3.2093548E1,-4.226169E0,-5.1915062E1,3.8500244E1,2.3028667E-1],"split_indices":[46,46,5,17,42,5,0,37,16,16,4,0,0,0,0,17,66,0,46,15,15,0,23,17,25,37,1,17,0,9,15,15,16,67,42,0,0,0,0,0,0,0,0,0,0,0,0,0,0,0,0,0,0,0,0,0,0],"split_type":[0,0,0,0,0,0,0,0,0,0,0,0,0,0,0,0,0,0,0,0,0,0,0,0,0,0,0,0,0,0,0,0,0,0,0,0,0,0,0,0,0,0,0,0,0,0,0,0,0,0,0,0,0,0,0,0,0],"sum_hessian":[1.152E3,1.143E3,9E0,2.72E2,8.71E2,3E0,6E0,2.35E2,3.7E1,1.56E2,7.15E2,2E0,1E0,4E0,2E0,2.27E2,8E0,2E0,3.5E1,1.25E2,3.1E1,1E0,7.14E2,1.76E2,5.1E1,5E0,3E0,3.4E1,1E0,1.02E2,2.3E1,2E1,1.1E1,6.5E1,6.49E2,1.66E2,1E1,3.3E1,1.8E1,3E0,2E0,1E0,2E0,1E0,3.3E1,6.8E1,3.4E1,4E0,1.9E1,1.7E1,3E0,4E0,7E0,5.8E1,7E0,1.8E1,6.31E2],"tree_param":{"num_deleted":"0","num_feature":"69","num_nodes":"57","size_leaf_vector":"1"}},{"base_weights":[5.6801647E-1,1.0704749E0,-7.148015E1,-5.936117E-1,2.8754646E1,-1.9476198E2,5.9673073E1,2.8552861E0,-1.991644E1,-4.9582134E1,4.389919E1,-7.775159E1,-1.169721E2,5.8877987E-1,2.9806458E2,-1.6207312E1,-9.367564E1,-1.9586477E1,-5.2430805E1,1.0036817E2,1.756053E-1,-3.2262775E1,-6.613019E0,1.593365E0,-9.139995E1,-8.686022E0,1.3039874E2,-8.7373985E1,-1.5352252E-1,-3.3971348E1,7.590601E0,2.2559435E2,3.55342E1,-5.0043964E1,1.0943412E1,-2.1557122E-1,2.409472E1,-1.6408096E1,-7.195109E1,1.3176678E1,-4.6735535E0,3.309182E-1,-1.1741867E1,2.6102468E1,8.740332E1,1.2056445E1,-5.839355E0,-5.414989E0,1.5742964E1],"categories":[],"categories_nodes":[],"categories_segments":[],"categories_sizes":[],"default_left":[0,0,0,0,0,0,0,0,0,0,0,0,0,0,0,0,0,0,0,0,0,0,0,0,0,0,0,0,0,0,0,0,0,0,0,0,0,0,0,0,0,0,0,0,0,0,0,0,0],"id":28,"left_children":[1,3,5,7,9,11,-1,13,15,17,19,21,-1,23,25,27,-1,29,-1,31,33,-1,-1,35,-1,-1,-1,37,39,41,-1,43,45,-1,47,-1,-1,-1,-1,-1,-1,-1,-1,-1,-1,-1,-1,-1,-1],"loss_changes":[4.1816504E4,5.281198E4,3.0541394E5,7.2164E4,7.929099E4,1.0668806E5,0E0,6.147216E5,1.7276611E5,3.788268E4,1.3577881E5,5.92741E3,0E0,2.804613E5,3.2527462E5,1.8621323E5,0E0,7.3166934E3,0E0,1.8683752E5,5.936481E4,0E0,0E0,1.6586066E5,0E0,0E0,0E0,1.3635867E5,9.178661E4,1.4933486E3,0E0,4.7547E4,5.133584E3,0E0,3.8276957E4,0E0,0E0,0E0,0E0,0E0,0E0,0E0,0E0,0E0,0E0,0E0,0E0,0E0,0E0],"parents":[2147483647,0,0,1,1,2,2,3,3,4,4,5,5,7,7,8,8,9,9,10,10,11,11,13,13,14,14,15,15,17,17,19,19,20,20,23,23,27,27,28,28,29,29,31,31,32,32,34,34],"right_children":[2,4,6,8,10,12,-1,14,16,18,20,22,-1,24,26,28,-1,30,-1,32,34,-1,-1,36,-1,-1,-1,38,40,42,-1,44,46,-1,48,-1,-1,-1,-1,-1,-1,-1,-1,-1,-1,-1,-1,-1,-1],"split_conditions":[1.28E3,8.83E2,1.815E3,7.06E2,1.196E3,3.072E3,5.9673073E1,6.81E2,5.44E2,1.95E2,9.98E2,2.176E3,-1.169721E2,6.61E2,3.4E1,3.43E2,-9.367564E1,2.38E2,-5.2430805E1,1.464E3,1.258E3,-3.2262775E1,-6.613019E0,5.52E2,-9.139995E1,-8.686022E0,1.3039874E2,2.84E2,7.2E3,6.37E2,7.590601E0,2.05E2,2.075E3,-5.0043964E1,2.24E2,-2.1557122E-1,2.409472E1,-1.6408096E1,-7.195109E1,1.3176678E1,-4.6735535E0,3.309182E-1,-1.1741867E1,2.6102468E1,8.740332E1,1.2056445E1,-5.839355E0,-5.414989E0,1.5742964E1],"split_indices":[52,28,1,1,1,0,0,28,50,16,0,0,0,28,0,23,0,15,0,1,1,0,0,1,0,0,0,15,17,1,0,16,16,0,54,0,0,0,0,0,0,0,0,0,0,0,0,0,0],"split_type":[0,0,0,0,0,0,0,0,0,0,0,0,0,0,0,0,0,0,0,0,0,0,0,0,0,0,0,0,0,0,0,0,0,0,0,0,0,0,0,0,0,0,0,0,0,0,0,0,0],"sum_hessian":[1.152E3,1.145E3,7E0,1.081E3,6.4E1,5E0,2E0,9.18E2,1.63E2,1E1,5.4E1,4E0,1E0,9.12E2,6E0,1.62E2,1E0,9E0,1E0,2.3E1,3.1E1,2E0,2E0,9.1E2,2E0,2E0,4E0,2.9E1,1.33E2,7E0,2E0,7E0,1.6E1,1E0,3E1,8.85E2,2.5E1,2.5E1,4E0,3.4E1,9.9E1,1E0,6E0,3E0,4E0,1.5E1,1E0,1.8E1,1.2E1],"tree_param":{"num_deleted":"0","num_feature":"69","num_nodes":"49","size_leaf_vector":"1"}},{"base_weights":[2.313044E-1,-1.2983602E0,1.853312E1,-9.280981E-2,-5.5911003E1,1.1971353E2,-3.594173E0,-2.7528334E0,1.8943708E1,-1.00862724E2,4.0981323E1,5.705362E1,1.5894183E2,-1.2958919E2,1.584497E1,-2.992857E-1,-5.1370884E1,2.108764E2,4.3908916E0,-5.87712E1,-6.386059E1,2.5356447E1,-2.0470703E0,1.203004E2,-1.3324868E1,-6.0270744E1,-6.554975E1,7.226037E1,-4.0510855E0,-1.6748464E0,5.845212E1,-4.2325623E1,-9.197525E0,2.2365911E1,1.0716349E2,-5.8558135E0,1.0645877E2,2.7945435E1,-2.8259085E1,-1.6228639E-1,-6.865082E-1,-2.9716914E0,4.209491E1,4.6435227E0,-2.0865541E1,-2.8697038E0,-7.863963E1,6.893522E1,3.593827E1,-2.2354572E1,4.8355076E1,-7.0878285E-1,3.4673946E1,3.822765E1,-1.2002116E1,1.0254882E1,-3.5711033E1,-3.4542828E1,4.572578E1,-1.4717368E1,1.6506548E0,5.011795E1,-1.2407413E1,-3.960187E0,1.3818298E1,3.8448355E0,-1.4069859E0,-2.6730452E1,-5.5188265E0,2.2061484E0,3.381211E1,-1.0794856E1,2.1618896E1,5.2389225E1,6.9838624E0],"categories":[],"categories_nodes":[],"categories_segments":[],"categories_sizes":[],"default_left":[0,0,0,0,0,0,0,0,0,0,0,0,0,0,0,0,0,0,0,0,0,0,0,0,0,0,0,0,0,0,0,0,0,0,0,0,0,0,0,0,0,0,0,0,0,0,0,0,0,0,0,0,0,0,0,0,0,0,0,0,0,0,0,0,0,0,0,0,0,0,0,0,0,0,0],"id":29,"left_children":[1,3,5,7,9,11,13,15,17,19,21,23,-1,25,27,29,31,33,35,-1,37,-1,39,41,43,45,-1,47,49,51,53,-1,55,57,-1,59,61,63,-1,-1,-1,-1,-1,65,-1,-1,67,-1,69,71,73,-1,-1,-1,-1,-1,-1,-1,-1,-1,-1,-1,-1,-1,-1,-1,-1,-1,-1,-1,-1,-1,-1,-1,-1],"loss_changes":[3.2303035E4,7.011259E4,1.996878E5,5.286715E4,1.0430947E5,3.809145E5,1.8329672E5,1.0925124E5,3.5659872E5,4.3757125E4,1.5160728E4,6.837117E4,0E0,4.8461906E4,7.3251586E4,7.065038E4,1.6517911E5,2.4028216E5,1.2612654E5,0E0,3.8838152E4,0E0,5.791569E-1,2.2239523E4,8.405427E3,